svm_type c_svc
kernel_type rbf
gamma 0.00012207
nr_class 44
total_sv 100
rho -0.0105502 -0.128382 -0.103034 -0.079331 -0.0311761 -0.0974184 -0.0102894 -0.0652036 -0.15674 -0.0117872 -0.0905136 -0.0364221 -0.085222 -0.0464819 -0.152851 -0.090607 -0.043426 -0.0569049 -0.0686055 -0.0533917 -0.134329 -0.0378982 -0.0636549 -0.0494401 -0.0827366 -0.0992433 -0.0275407 -0.196317 -0.108165 -0.0178734 -0.0924214 -0.059247 -0.148135 -0.0616696 -0.0675338 -0.146416 -0.03452 -0.14153 -0.195396 -0.0806342 -0.161628 -0.0810997 -0.0942265 -0.0637414 -0.0611414 -0.0382716 -0.0143723 -0.047547 0.00374833 -0.0386497 -0.067597 -0.0093985 -0.0414892 -0.0195871 -0.0353167 -0.0210115 -0.0714996 -0.0537926 0.00075262 -0.0362437 -0.0344209 -0.0432704 -0.0673253 -0.0368858 -0.00624182 -0.0250579 -0.0370695 -0.0588505 -0.00898057 -0.0690622 -0.0646508 -0.0056175 -0.0391178 -0.0301428 -0.0603529 -0.0377265 -0.0481623 -0.0728051 -0.0221264 -0.0683949 -0.0751786 -0.0613608 -0.0687995 -0.073733 -0.0690923 0.0412579 0.0345629 0.0720805 0.0344513 0.0753237 0.0330896 0 0.0900965 0.0392154 0.0604511 0.0768769 0.0843935 0 0 0.0542903 0.0488117 0.0540749 0.0328529 0 0.0438331 0.170807 0.0523335 0.0838414 0 0.0416433 0 0 0.10544 0.0631418 0.0314189 0.00998005 0.0221342 0.0343929 0 0.0917493 0 0 0 0 0 0 0.00873518 0.0520941 0.0167594 0.060849 0.0138138 -0.023317 0.0929906 0.019876 0.0447698 0.0291414 0.07536 -0.019847 -0.0193414 0.0489656 0.0267131 0.043057 0.0184407 -0.0242141 0.0332687 0.14548 0.0471276 0.0531939 -0.0207461 0.0264736 -0.0264767 -0.0181905 0.0832077 0.029134 0.0161803 -0.0179276 0.00724266 0.0186122 -0.0243108 0.0566183 -0.0185083 -0.0174286 -0.0182286 -0.0228768 -0.0214707 -0.022496 0.0485176 0.00431165 0.0603925 0.0170971 -0.024718 0.065259 0.0145205 0.0531121 0.0221205 0.0582421 -0.022994 -0.0271091 0.0386561 0.0312348 0.0273501 0.0113758 -0.031218 0.0182805 0.0609399 0.0503724 0.0137247 -0.0290759 0.0353619 -0.0292572 -0.0338281 0.161621 0.0155826 0.0179005 -0.0208733 0.00762144 0.0103368 -0.0294071 0.0511442 -0.0302828 -0.0237699 -0.0213252 -0.024211 -0.0272087 -0.0290643 -0.0168367 0.00987799 -0.0829093 -0.0658836 0.019894 -0.0467734 -0.0463609 -0.0417367 -0.00512461 -0.0526877 -0.12973 0.000902791 -0.0509475 -0.0376232 -0.0379704 -0.0586633 -0.0121098 0.00239936 -0.0314744 -0.0312971 -0.107585 0.00300771 -0.0712904 -0.0687633 -0.0065969 -0.0297702 -0.0579867 -0.0520847 -0.0271036 -0.0584879 -0.063669 0.00176647 -0.0913443 -0.0445599 -0.50201 -0.0561073 -0.0859182 -0.0921009 0.0400368 -0.0059514 -0.0359966 0.0554812 -0.00092334 0.026048 0.00855011 0.0338482 -0.0312024 -0.0327849 0.0154296 0.0170704 0.0042998 0.0031991 -0.0365348 0.0277825 0.0594918 0.0258717 0.0152955 -0.0305817 0.0241668 -0.0406867 -0.0500976 0.057259 0.00756064 -0.000594761 -0.021143 -0.00384015 -0.00187298 -0.0401614 0.0539229 -0.0356597 -0.0335259 -0.0294164 -0.0319477 -0.0368062 -0.0366914 -0.0404889 -0.130482 0.00428285 -0.0536562 -0.0252367 -0.0403176 -0.0179766 -0.171507 -0.0733058 -0.0481323 -0.0208746 -0.017769 -0.0549561 -0.0793717 -0.0271002 0.0220705 -0.0121264 -0.038694 -0.0768814 -0.0237304 -0.0969342 -0.0620757 0.00114055 -0.021752 -0.0400217 -0.0729032 -0.0573991 -0.0241833 -0.0811952 0.0221574 -0.0676909 -0.183964 -0.0597933 -0.11317 -0.0612246 -0.0582215 -0.0311004 0.0615389 0.0117585 0.0160653 0.00822745 0.0414041 -0.0254254 -0.0515401 0.0283274 0.0202401 0.0224823 0.00677245 -0.03083 0.0181355 0.0610959 0.040606 0.0142351 -0.0238701 0.0376603 -0.0353767 -0.029003 0.0931338 0.00871872 0.0220118 -0.021305 0.00657948 0.00205982 -0.034048 0.0382863 -0.03079 -0.0220189 -0.0437702 -0.0280022 -0.0337903 -0.0292531 0.0844172 0.0381859 0.0555379 0.0526135 0.0647173 0 0 0.0809656 0.0305963 0.0385459 0.0340805 0 0.0464783 0.122095 0.0503517 0.0723339 0 0.0468575 0 0 0.0687681 0.0540456 0.032969 0.0132504 0.0183585 0.0264197 0 0.0735027 0 0 0 0 0 0 -0.0538525 -0.0298128 -0.0553644 -0.0152513 -0.0737449 -0.0798056 -0.0067176 -0.0671982 -0.069239 -0.065744 -0.101816 -0.0362029 -0.0104756 -0.0385568 -0.047593 -0.0883131 -0.00632024 -0.0941252 -0.100586 -0.00762768 -0.0522878 -0.0392439 -0.0831634 -0.0452987 -0.0853761 -0.110985 -0.0206373 -0.0928163 -0.0761453 -0.0897405 -0.078777 -0.155899 -0.122494 0.0397562 0.0118376 0.0364227 -0.0334721 -0.0447634 0.0334104 0.0114874 0.0137212 -0.000379078 -0.0350251 0.0147756 0.0713426 0.0326052 0.0112043 -0.0496457 0.0217793 -0.0551283 -0.0257884 0.0486762 0.00218142 -0.00749825 -0.0282524 -0.00284847 -0.00252078 -0.0349225 0.0311035 -0.0460118 -0.0273052 -0.0317211 -0.0346874 -0.0333569 -0.0295422 -0.037907 0.0099521 -0.0455056 -0.12888 0.00645085 -0.0427304 -0.0315426 -0.0371574 -0.0551417 -0.0115944 0.00596952 -0.0521266 -0.0233991 -0.10789 0.0274474 -0.0549581 -0.0719929 -0.0022083 -0.022276 -0.0349966 -0.0473204 -0.02286 -0.0644675 -0.0557208 0.0501852 -0.0621529 -0.0423975 -0.160089 -0.0507505 -0.0927596 -0.098117 0.0330938 -0.0364344 -0.0436279 0.0222573 0.00552017 0.00510765 -0.00773543 -0.0570475 0.0100301 0.0681543 -0.0029801 0.00328145 -0.046212 0.0218097 -0.070809 -0.0413346 0.0715686 -0.0101885 -0.0097076 -0.0557757 -0.00531012 -0.008118 -0.0596082 0.0337923 -0.0566642 -0.035904 -0.0492395 -0.0488914 -0.0423488 -0.041465 -0.0542736 -0.0801365 0.014873 -0.0291372 -0.0230278 -0.0425738 -0.0859669 -0.0113971 0.0268299 -0.0143719 -0.0250829 -0.101482 0.00508462 -0.0750208 -0.072133 0.0411236 -0.0271013 -0.02854 -0.0801741 -0.0239807 -0.0493348 -0.0809513 0.00902457 -0.0530311 -0.0697673 -0.0751867 -0.058125 -0.084946 -0.0936162 0 0.109952 0.0249887 0.0262273 0.033692 0 0.0443734 0.0885266 0.0430224 0.0606707 0 0.0402433 0 0 0.0559413 0.0462829 0.0265828 0.0135394 0.021166 0.0226843 0 0.0669395 0 0 0 0 0 0 0.0600624 0.0475631 0.0492335 0.0368668 0 0.0399046 0.0900218 0.0924059 0.0397771 0 0.0598624 0 0 0.15631 0.0363116 0.057785 0.00914807 0.0247976 0.0386433 0 0.0712804 0 0 0 0 0 0 -0.0237072 -0.0154364 -0.0847542 -0.0574893 -0.0302048 0.0179052 -0.0121508 -0.0330856 -0.0648139 -0.0244018 -0.0687488 -0.0620499 0.00643841 -0.0157488 -0.0330132 -0.0550742 -0.0604893 -0.0357967 -0.0605689 0.0187435 -0.0570266 -0.168316 -0.0588404 -0.0811691 -0.0649536 -0.0628027 0.0159308 -0.0142872 -0.0499381 0.00781402 0.0310806 0.0210208 0.00284812 -0.0492878 0.0228119 -0.0439369 -0.102355 0.0830026 0.00384654 -0.0157269 -0.0378652 -0.0101208 -0.0496371 -0.0395484 0.0546931 -0.0413695 -0.0381135 -0.0515969 -0.0243589 -0.0741993 -0.109729 -0.0158283 -0.0548361 0.0123624 0.019951 0.0313451 -0.00734476 -0.0488505 0.0168934 -0.0507542 -0.0833751 0.0876994 -0.00409129 -0.0179 -0.0475362 -0.0134523 -0.0671068 -0.0668604 0.0275297 -0.0561963 -0.038174 -0.0450513 -0.0377805 -0.0571705 -0.171778 -0.0354177 0.0186151 0.0499385 0.0284645 0.0111466 -0.0298858 0.0224309 -0.0305187 -0.0300677 0.0522753 0.00348525 0.00960532 -0.0234555 -0.0041639 0.00513604 -0.0320014 0.0458233 -0.0247049 -0.0386807 -0.0261607 -0.0335158 -0.0352943 -0.0279054 0.0487667 0.115858 0.0605145 0.0546142 0 0.0420499 0 0 0.109589 0.0715898 0.0260665 0.0198568 0.0215435 0.0320419 0 0.11338 0 0 0 0 0 0 0.028083 -0.00808473 -0.0122138 -0.0391693 0.0105821 -0.0452656 -0.0517102 0.0314888 -0.0162681 -0.0122598 -0.0409802 -0.018283 -0.0291603 -0.0538359 0.0152869 -0.0470032 -0.0570109 -0.0494246 -0.0469758 -0.0639434 -0.0613526 -0.012794 -0.092062 -0.0929741 -0.00407753 -0.136307 -0.0838058 0.0234973 -0.0841555 -0.0521712 -0.0920489 -0.0395901 -0.0536594 -0.269467 -0.0123922 -0.117517 -0.0780938 -0.0835934 -0.116943 -0.0943361 -0.0888447 -0.0132457 -0.0866554 0.00726068 -0.0617708 -0.0841952 0.048082 -0.00886855 -0.036488 -0.0519146 -0.0186396 -0.0664163 -0.0693107 0.0137309 -0.0668757 -0.04903 -0.0982332 -0.0420777 -0.0790946 -0.1083 -0.0447051 0.0152112 -0.0631411 -0.0449699 0.0469434 -0.0282149 -0.00296802 -0.0442652 -0.0100311 -0.00236668 -0.0537544 0.0308266 -0.0512668 -0.0471981 -0.031458 -0.0789241 -0.0338505 -0.0352308 0.0535294 0 0 0.130175 0.0371537 0.0532583 0.0110982 0.0221577 0.0367514 0 0.0756558 0 0 0 0 0 0 -0.0425526 -0.0500748 0.01414 -0.0207113 -0.0290584 -0.0334158 -0.0321121 -0.0279112 -0.0448858 -0.00268031 -0.0440492 -0.0421348 -0.0667771 -0.040988 -0.0532908 -0.0522024 0 0.0946979 0.0566547 0.0336124 0.0176671 0.0186908 0.0355262 0 0.0750917 0 0 0 0 0 0 0.139278 0.0590297 0.0230076 0.00843133 0.0236228 0.0498356 0 0.12108 0 0 0 0 0 0 -0.0579994 -0.0550461 -0.101067 -0.0339315 -0.102095 -0.0983284 -0.0278306 -0.100229 -0.0796015 -0.113689 -0.0675753 -0.130914 -0.160573 -0.00530172 -0.0459145 -0.00487214 -0.00764248 -0.0541225 0.0439164 -0.0500555 -0.0377527 -0.0378473 -0.0491275 -0.0385696 -0.0400286 -0.0150485 -0.00288603 -0.00326936 -0.032238 0.0379368 -0.0528937 -0.0221827 -0.0539313 -0.031152 -0.0410797 -0.0299069 0.0128638 0.0257731 -0.0130501 0.0872221 -0.0183313 -0.0143208 -0.00842616 -0.0129068 -0.00887432 -0.00391978 7.47672e-05 -0.0182125 0.0252985 -0.0144001 -0.023545 -0.021805 -0.0191158 -0.0204596 -0.0208522 -0.0336523 0.0636944 -0.0371058 -0.0265505 -0.0392428 -0.0259199 -0.0460724 -0.0822516 0.0865241 0 0 0 0 0 0 -0.0731173 -0.0813905 -0.0716115 -0.0719924 -0.0719355 -0.126553 0 0 0 0 0 0 0 0 0 0 0 0 0 0 0
label 38 59 10 9 58 16 14 57 8 39 37 62 28 3 21 40 61 50 13 11 47 26 33 6 36 55 35 23 41 31 32 17 56 52 49 29 7 24 42 44 30 43 5 15
nr_sv 2 3 1 2 3 4 3 3 4 1 4 2 3 2 2 1 1 3 4 4 2 1 5 5 3 2 1 3 1 1 3 2 3 2 2 2 1 3 1 1 1 1 1 1
SV
2.373781197710603 5.490364480968683 5.901185364129518 3.237446628947599 2.188469798981266 3.540822195323605 4.531180691378318 3.039799069670037 5.810406519893898 3.559644769863862 4.224636702588119 2.213527205910741 4.331156876633239 3.368135241556705 6.619823398761255 2.412038571980098 4.530157334474253 2.877528184571693 3.541275871550967 4.768325060917779 4.657285628942102 2.680043908408138 4.623746070737081 2.659316449232239 8.421977247693146 2.944719717755687 2.005722871858313 4.884327904613561 3.003081072386514 2.774493912468591 5.487084947181338 2.754733407155628 5.917669454188913 2.259944833973677 3.035465020303222 5.010794996569776 3.918489619710452 3.493057782659896 5.651493031345558 2.007901515735832 6.659858739540812 2.828836797792406 3.07990250036363 2300110:-1 2300111:-1 2300112:-1 2300113:-1 2300114:-1 2400098:-1 2400099:-1 2400100:-1 2400101:-1 2400102:-1 2400103:-1 2400104:-1 2400105:-1 2400106:-1 2400107:-1 2400108:-1 2400109:-1 2400110:-1 2400111:-1 2400112:-1 2400113:-1 2400114:-1 2400115:-1 2400119:-1 2400120:-1 2400121:-1 2400122:-1 2500088:-1 2500089:-1 2500090:-1 2500091:-1 2500092:-1 2500093:-1 2500094:-1 2500095:-1 2500096:-1 2500097:-1 2500098:-1 2500099:1 2500100:1 2500101:1 2500102:1 2500103:1 2500104:1 2500105:1 2500106:1 2500107:1 2500108:1 2500109:1 2500110:1 2500111:1 2500112:1 2500113:1 2500114:1 2500115:1 2500116:-1 2500117:-1 2500118:-1 2500119:-1 2500120:-1 2500121:-1 2500122:-1 2500123:-1 2500124:-1 2500125:-1 2500126:-1 2500127:-1 2600088:-1 2600089:-1 2600090:-1 2600091:-1 2600092:-1 2600093:-1 2600094:-1 2600095:-1 2600096:-1 2600097:-1 2600098:1 2600099:1 2600100:1 2600101:1 2600102:1 2600103:1 2600104:1 2600105:1 2600106:1 2600107:1 2600108:1 2600109:1 2600110:1 2600111:1 2600112:1 2600113:1 2600114:1 2600115:1 2600116:1 2600117:1 2600118:1 2600119:-1 2600120:-1 2600121:-1 2600122:-1 2600123:-1 2600124:-1 2600125:-1 2600126:-1 2600127:-1 2700088:-1 2700089:-1 2700090:-1 2700091:-1 2700092:-1 2700093:-1 2700094:-1 2700095:-1 2700096:-1 2700097:-1 2700098:1 2700099:1 2700100:1 2700101:1 2700102:1 2700103:1 2700104:1 2700105:1 2700106:1 2700107:1 2700108:1 2700109:1 2700110:1 2700111:1 2700112:1 2700113:1 2700114:1 2700115:1 2700116:1 2700117:1 2700118:1 2700119:1 2700120:-1 2700121:-1 2700122:-1 2700123:-1 2700124:-1 2700125:-1 2700126:-1 2700127:-1 2800088:-1 2800089:-1 2800090:-1 2800091:-1 2800092:-1 2800093:-1 2800094:-1 2800095:-1 2800096:-1 2800097:-1 2800098:1 2800099:1 2800100:1 2800101:1 2800102:1 2800103:1 2800104:1 2800105:1 2800106:1 2800107:1 2800108:1 2800109:1 2800110:1 2800111:1 2800112:1 2800113:1 2800114:1 2800115:1 2800116:1 2800117:1 2800118:1 2800119:1 2800120:1 2800121:-1 2800122:-1 2800123:-1 2800124:-1 2800125:-1 2800126:-1 2800127:-1 2900089:-1 2900090:-1 2900091:-1 2900092:-1 2900093:-1 2900094:-1 2900095:-1 2900096:-1 2900097:-1 2900098:1 2900099:1 2900100:1 2900101:1 2900102:1 2900103:1 2900104:1 2900105:1 2900106:1 2900107:1 2900108:1 2900109:1 2900110:1 2900111:1 2900112:1 2900113:1 2900114:1 2900115:1 2900116:1 2900117:1 2900118:1 2900119:1 2900120:1 2900121:1 2900122:-1 2900123:-1 2900124:-1 2900125:-1 2900126:-1 3000089:-1 3000090:-1 3000091:-1 3000092:-1 3000093:-1 3000094:-1 3000095:-1 3000096:-1 3000097:-1 3000098:1 3000099:1 3000100:1 3000101:1 3000102:1 3000103:1 3000104:1 3000105:1 3000106:1 3000107:1 3000108:1 3000109:1 3000110:1 3000111:1 3000112:1 3000113:1 3000114:1 3000115:1 3000116:1 3000117:1 3000118:1 3000119:1 3000120:1 3000121:1 3000122:-1 3000123:-1 3000124:-1 3000125:-1 3000126:-1 3100089:-1 3100090:-1 3100091:-1 3100092:-1 3100093:-1 3100094:-1 3100095:-1 3100096:-1 3100097:-1 3100098:1 3100099:1 3100100:1 3100101:1 3100102:1 3100103:1 3100104:1 3100105:-1 3100106:-1 3100107:-1 3100108:-1 3100109:-1 3100110:-1 3100111:-1 3100112:-1 3100113:-1 3100114:1 3100115:1 3100116:1 3100117:1 3100118:1 3100119:1 3100120:1 3100121:1 3100122:-1 3100123:-1 3100124:-1 3100125:-1 3100126:-1 3200090:-1 3200091:-1 3200092:-1 3200093:-1 3200094:-1 3200095:-1 3200096:-1 3200097:-1 3200098:1 3200099:1 3200100:1 3200101:1 3200102:1 3200103:1 3200104:1 3200105:-1 3200106:-1 3200107:-1 3200108:-1 3200109:-1 3200110:-1 3200111:-1 3200112:-1 3200113:-1 3200114:-1 3200115:1 3200116:1 3200117:1 3200118:1 3200119:1 3200120:1 3200121:1 3200122:-1 3200123:-1 3200124:-1 3200125:-1 3200126:-1 3300090:-1 3300091:-1 3300092:-1 3300093:-1 3300094:-1 3300095:-1 3300096:-1 3300097:-1 3300098:1 3300099:1 3300100:1 3300101:1 3300102:1 3300103:1 3300104:1 3300105:-1 3300106:-1 3300107:-1 3300108:-1 3300109:-1 3300110:-1 3300111:-1 3300112:-1 3300113:-1 3300114:-1 3300115:-1 3300116:1 3300117:1 3300118:1 3300119:1 3300120:1 3300121:1 3300122:-1 3300123:-1 3300124:-1 3300125:-1 3300126:-1 3300127:-1 3400090:-1 3400091:-1 3400092:-1 3400093:-1 3400094:-1 3400095:-1 3400096:-1 3400097:-1 3400098:1 3400099:1 3400100:1 3400101:1 3400102:1 3400103:1 3400104:1 3400105:-1 3400106:-1 3400107:-1 3400108:-1 3400109:-1 3400110:-1 3400111:-1 3400112:-1 3400113:-1 3400114:-1 3400115:-1 3400116:1 3400117:1 3400118:1 3400119:1 3400120:1 3400121:1 3400122:-1 3400123:-1 3400124:-1 3400125:-1 3400126:-1 3400127:-1 3500090:-1 3500091:-1 3500092:-1 3500093:-1 3500094:-1 3500095:-1 3500096:-1 3500097:-1 3500098:1 3500099:1 3500100:1 3500101:1 3500102:1 3500103:1 3500104:1 3500105:-1 3500106:-1 3500107:-1 3500108:-1 3500109:-1 3500110:-1 3500111:-1 3500112:-1 3500113:-1 3500114:-1 3500115:-1 3500116:1 3500117:1 3500118:1 3500119:1 3500120:1 3500121:1 3500122:-1 3500123:-1 3500124:-1 3500125:-1 3500126:-1 3500127:-1 3600091:-1 3600092:-1 3600093:-1 3600094:-1 3600095:-1 3600096:-1 3600097:-1 3600098:1 3600099:1 3600100:1 3600101:1 3600102:1 3600103:1 3600104:1 3600105:-1 3600106:-1 3600107:-1 3600108:-1 3600109:-1 3600110:-1 3600111:-1 3600112:-1 3600113:-1 3600114:-1 3600115:1 3600116:1 3600117:1 3600118:1 3600119:1 3600120:1 3600121:1 3600122:-1 3600123:-1 3600124:-1 3600125:-1 3600126:-1 3600127:-1 3700091:-1 3700092:-1 3700093:-1 3700094:-1 3700095:-1 3700096:-1 3700097:-1 3700098:1 3700099:1 3700100:1 3700101:1 3700102:1 3700103:1 3700104:1 3700105:-1 3700106:-1 3700107:-1 3700108:-1 3700109:-1 3700110:-1 3700111:-1 3700112:-1 3700113:-1 3700114:1 3700115:1 3700116:1 3700117:1 3700118:1 3700119:1 3700120:1 3700121:-1 3700122:-1 3700123:-1 3700124:-1 3700125:-1 3700126:-1 3700127:-1 3800091:-1 3800092:-1 3800093:-1 3800094:-1 3800095:-1 3800096:-1 3800097:-1 3800098:1 3800099:1 3800100:1 3800101:1 3800102:1 3800103:1 3800104:1 3800105:1 3800106:-1 3800107:1 3800108:1 3800109:1 3800110:1 3800111:1 3800112:1 3800113:1 3800114:1 3800115:1 3800116:1 3800117:1 3800118:1 3800119:1 3800120:-1 3800121:-1 3800122:-1 3800123:-1 3800124:-1 3800125:-1 3800126:-1 3800127:-1 3900091:-1 3900092:-1 3900093:-1 3900094:-1 3900095:-1 3900096:-1 3900097:-1 3900098:1 3900099:1 3900100:1 3900101:1 3900102:1 3900103:1 3900104:1 3900105:1 3900106:1 3900107:1 3900108:1 3900109:1 3900110:1 3900111:1 3900112:1 3900113:1 3900114:1 3900115:1 3900116:1 3900117:1 3900118:1 3900119:-1 3900120:-1 3900121:-1 3900122:-1 3900123:-1 3900124:-1 3900125:-1 3900126:-1 3900127:-1 4000092:-1 4000093:-1 4000094:-1 4000095:-1 4000096:-1 4000097:-1 4000098:1 4000099:1 4000100:1 4000101:1 4000102:1 4000103:1 4000104:1 4000105:1 4000106:1 4000107:1 4000108:1 4000109:1 4000110:1 4000111:1 4000112:1 4000113:1 4000114:1 4000115:1 4000116:1 4000117:1 4000118:1 4000119:1 4000120:-1 4000121:-1 4000122:-1 4000123:-1 4000124:-1 4000125:-1 4000126:-1 4000127:-1 4100092:-1 4100093:-1 4100094:-1 4100095:-1 4100096:-1 4100097:-1 4100098:1 4100099:1 4100100:1 4100101:1 4100102:1 4100103:1 4100104:1 4100105:1 4100106:1 4100107:1 4100108:1 4100109:1 4100110:1 4100111:1 4100112:1 4100113:1 4100114:1 4100115:1 4100116:1 4100117:1 4100118:1 4100119:1 4100120:1 4100121:-1 4100122:-1 4100123:-1 4100124:-1 4100125:-1 4100126:-1 4100127:-1 4200092:-1 4200093:-1 4200094:-1 4200095:-1 4200096:-1 4200097:-1 4200098:1 4200099:1 4200100:1 4200101:1 4200102:1 4200103:1 4200104:1 4200105:1 4200106:1 4200107:1 4200108:1 4200109:1 4200110:1 4200111:1 4200112:1 4200113:1 4200114:1 4200115:1 4200116:1 4200117:1 4200118:1 4200119:1 4200120:1 4200121:1 4200122:-1 4200123:-1 4200124:-1 4200125:-1 4200126:-1 4200127:-1 4300092:-1 4300093:-1 4300094:-1 4300095:-1 4300096:-1 4300097:-1 4300098:1 4300099:1 4300100:1 4300101:1 4300102:1 4300103:1 4300104:1 4300105:-1 4300106:-1 4300107:-1 4300108:-1 4300109:-1 4300110:-1 4300111:-1 4300112:-1 4300113:-1 4300114:1 4300115:1 4300116:1 4300117:1 4300118:1 4300119:1 4300120:1 4300121:1 4300122:1 4300123:-1 4300124:-1 4300125:-1 4300126:-1 4300127:-1 4400093:-1 4400094:-1 4400095:-1 4400096:-1 4400097:-1 4400098:1 4400099:1 4400100:1 4400101:1 4400102:1 4400103:1 4400104:1 4400105:-1 4400106:-1 4400107:-1 4400108:-1 4400109:-1 4400110:-1 4400111:-1 4400112:-1 4400113:-1 4400114:-1 4400115:-1 4400116:1 4400117:1 4400118:1 4400119:1 4400120:1 4400121:1 4400122:1 4400123:-1 4400124:-1 4400125:-1 4400126:-1 4400127:-1 4500093:-1 4500094:-1 4500095:-1 4500096:-1 4500097:-1 4500098:1 4500099:1 4500100:1 4500101:1 4500102:1 4500103:1 4500104:1 4500105:-1 4500106:-1 4500107:-1 4500108:-1 4500109:-1 4500110:-1 4500111:-1 4500112:-1 4500113:-1 4500114:-1 4500115:-1 4500116:-1 4500117:1 4500118:1 4500119:1 4500120:1 4500121:1 4500122:1 4500123:1 4500124:-1 4500125:-1 4500126:-1 4500127:-1 4600093:-1 4600094:-1 4600095:-1 4600096:-1 4600097:-1 4600098:1 4600099:1 4600100:1 4600101:1 4600102:1 4600103:1 4600104:1 4600105:-1 4600106:-1 4600107:-1 4600108:-1 4600109:-1 4600110:-1 4600111:-1 4600112:-1 4600113:-1 4600114:-1 4600115:-1 4600116:-1 4600117:1 4600118:1 4600119:1 4600120:1 4600121:1 4600122:1 4600123:1 4600124:-1 4600125:-1 4600126:-1 4600127:-1 4700093:-1 4700094:-1 4700095:-1 4700096:-1 4700097:-1 4700098:1 4700099:1 4700100:1 4700101:1 4700102:1 4700103:1 4700104:1 4700105:-1 4700106:-1 4700107:-1 4700108:-1 4700109:-1 4700110:-1 4700111:-1 4700112:-1 4700113:-1 4700114:-1 4700115:-1 4700116:-1 4700117:1 4700118:1 4700119:1 4700120:1 4700121:1 4700122:1 4700123:1 4700124:-1 4700125:-1 4700126:-1 4700127:-1 4800093:-1 4800094:-1 4800095:-1 4800096:-1 4800097:-1 4800098:1 4800099:1 4800100:1 4800101:1 4800102:1 4800103:1 4800104:1 4800105:-1 4800106:-1 4800107:-1 4800108:-1 4800109:-1 4800110:-1 4800111:-1 4800112:-1 4800113:-1 4800114:-1 4800115:-1 4800116:-1 4800117:1 4800118:1 4800119:1 4800120:1 4800121:1 4800122:1 4800123:1 4800124:-1 4800125:-1 4800126:-1 4800127:-1 4900093:-1 4900094:-1 4900095:-1 4900096:-1 4900097:-1 4900098:1 4900099:1 4900100:1 4900101:1 4900102:1 4900103:1 4900104:-1 4900105:-1 4900106:-1 4900107:-1 4900108:-1 4900109:-1 4900110:-1 4900111:-1 4900112:-1 4900113:-1 4900114:-1 4900115:-1 4900116:-1 4900117:1 4900118:1 4900119:1 4900120:1 4900121:1 4900122:1 4900123:1 4900124:-1 4900125:-1 4900126:-1 4900127:-1 5000093:-1 5000094:-1 5000095:-1 5000096:-1 5000097:-1 5000098:1 5000099:1 5000100:1 5000101:1 5000102:1 5000103:1 5000104:-1 5000105:-1 5000106:-1 5000107:-1 5000108:-1 5000109:-1 5000110:-1 5000111:-1 5000112:-1 5000113:-1 5000114:-1 5000115:-1 5000116:1 5000117:1 5000118:1 5000119:1 5000120:1 5000121:1 5000122:1 5000123:-1 5000124:-1 5000125:-1 5000126:-1 5000127:-1 5100093:-1 5100094:-1 5100095:-1 5100096:-1 5100097:-1 5100098:1 5100099:1 5100100:1 5100101:1 5100102:1 5100103:1 5100104:1 5100105:-1 5100106:-1 5100107:-1 5100108:-1 5100109:-1 5100110:-1 5100111:-1 5100112:-1 5100113:1 5100114:1 5100115:1 5100116:1 5100117:1 5100118:1 5100119:1 5100120:1 5100121:1 5100122:1 5100123:-1 5100124:-1 5100125:-1 5100126:-1 5100127:-1 5200093:-1 5200094:-1 5200095:-1 5200096:-1 5200097:-1 5200098:1 5200099:1 5200100:1 5200101:1 5200102:1 5200103:1 5200104:1 5200105:1 5200106:1 5200107:1 5200108:1 5200109:1 5200110:1 5200111:1 5200112:1 5200113:1 5200114:1 5200115:1 5200116:1 5200117:1 5200118:1 5200119:1 5200120:1 5200121:1 5200122:1 5200123:-1 5200124:-1 5200125:-1 5200126:-1 5200127:-1 5300094:-1 5300095:-1 5300096:-1 5300097:-1 5300098:1 5300099:1 5300100:1 5300101:1 5300102:1 5300103:1 5300104:1 5300105:1 5300106:1 5300107:1 5300108:1 5300109:1 5300110:1 5300111:1 5300112:1 5300113:1 5300114:1 5300115:1 5300116:1 5300117:1 5300118:1 5300119:1 5300120:1 5300121:1 5300122:-1 5300123:-1 5300124:-1 5300125:-1 5300126:-1 5400094:-1 5400095:-1 5400096:-1 5400097:-1 5400098:1 5400099:1 5400100:1 5400101:1 5400102:1 5400103:1 5400104:1 5400105:1 5400106:1 5400107:1 5400108:1 5400109:1 5400110:1 5400111:1 5400112:1 5400113:1 5400114:1 5400115:1 5400116:1 5400117:1 5400118:1 5400119:1 5400120:1 5400121:-1 5400122:-1 5400123:-1 5400124:-1 5400125:-1 5400126:-1 5500094:-1 5500095:-1 5500096:-1 5500097:-1 5500098:1 5500099:1 5500100:1 5500101:1 5500102:1 5500103:1 5500104:1 5500105:1 5500106:1 5500107:1 5500108:1 5500109:1 5500110:1 5500111:1 5500112:1 5500113:1 5500114:1 5500115:1 5500116:1 5500117:1 5500118:1 5500119:-1 5500120:-1 5500121:-1 5500122:-1 5500123:-1 5500124:-1 5500125:-1 5500126:-1 5600097:-1 5600098:1 5600099:1 5600100:1 5600101:1 5600102:1 5600103:1 5600104:1 5600105:1 5600106:1 5600107:1 5600108:1 5600109:1 5600110:1 5600111:1 5600112:1 5600113:1 5600114:1 5600115:1 5600116:-1 5600117:-1 5600118:-1 5600119:-1 5600120:-1 5600121:-1 5600122:-1 5600123:-1 5700098:-1 5700099:-1 5700100:-1 5700101:-1 5700102:-1 5700103:-1 5700117:-1 5700118:-1 5700119:-1 5700120:-1 5700121:-1 5700122:-1 5700123:-1 
2.16449640743597 2.500861995330752 2.466943222581852 2.455776839644086 2.64370728217175 3.884282959589875 5.734902587421153 2.068396773025965 3.284073623938121 1.938106376454131 3.163759284865406 2.181276213647834 3.141981015844792 3.099549753573541 2.961930648289496 2.43909162536159 3.207079559683663 2.053171157679706 2.22868546600862 1.526638763454599 2.927380250940219 1.988643421814309 3.726127667596445 2.213235070180543 2.651345265676154 2.419824012786703 1.610248061845151 5.680266288540106 2.794622721090736 2.271747493638416 3.233166977413825 2.200567717094922 3.553410126307768 2.140673569157865 2.158150032145874 3.2186317737584 2.443638388380259 4.13667477941021 4.86777698629143 2.326934643195056 3.202742286538773 1.761356196379078 2.13509284616436 2300110:-1 2300111:-1 2300112:-1 2300113:-1 2300114:-1 2400098:-1 2400099:1 2400100:1 2400101:1 2400102:1 2400103:1 2400104:1 2400105:1 2400106:1 2400107:1 2400108:1 2400109:1 2400110:1 2400111:1 2400112:1 2400113:-1 2400114:-1 2400115:-1 2400119:-1 2400120:-1 2400121:-1 2400122:-1 2500088:-1 2500089:-1 2500090:-1 2500091:-1 2500092:-1 2500093:-1 2500094:-1 2500095:-1 2500096:-1 2500097:-1 2500098:-1 2500099:1 2500100:1 2500101:1 2500102:1 2500103:1 2500104:1 2500105:1 2500106:1 2500107:1 2500108:1 2500109:1 2500110:1 2500111:1 2500112:1 2500113:1 2500114:1 2500115:1 2500116:1 2500117:1 2500118:1 2500119:-1 2500120:-1 2500121:-1 2500122:-1 2500123:-1 2500124:-1 2500125:-1 2500126:-1 2500127:-1 2600088:-1 2600089:-1 2600090:-1 2600091:-1 2600092:-1 2600093:-1 2600094:-1 2600095:-1 2600096:-1 2600097:-1 2600098:-1 2600099:1 2600100:1 2600101:1 2600102:1 2600103:1 2600104:1 2600105:1 2600106:1 2600107:1 2600108:1 2600109:1 2600110:1 2600111:1 2600112:1 2600113:1 2600114:1 2600115:1 2600116:1 2600117:1 2600118:1 2600119:1 2600120:1 2600121:-1 2600122:-1 2600123:-1 2600124:-1 2600125:-1 2600126:-1 2600127:-1 2700088:-1 2700089:-1 2700090:-1 2700091:-1 2700092:-1 2700093:-1 2700094:-1 2700095:-1 2700096:-1 2700097:-1 2700098:-1 2700099:1 2700100:1 2700101:1 2700102:1 2700103:1 2700104:1 2700105:1 2700106:1 2700107:1 2700108:1 2700109:1 2700110:1 2700111:1 2700112:1 2700113:1 2700114:1 2700115:1 2700116:1 2700117:1 2700118:1 2700119:1 2700120:1 2700121:1 2700122:-1 2700123:-1 2700124:-1 2700125:-1 2700126:-1 2700127:-1 2800088:-1 2800089:-1 2800090:-1 2800091:-1 2800092:-1 2800093:-1 2800094:-1 2800095:-1 2800096:-1 2800097:-1 2800098:-1 2800099:1 2800100:1 2800101:1 2800102:1 2800103:1 2800104:1 2800105:1 2800106:1 2800107:1 2800108:1 2800109:1 2800110:1 2800111:1 2800112:1 2800113:1 2800114:1 2800115:1 2800116:1 2800117:1 2800118:1 2800119:1 2800120:1 2800121:1 2800122:1 2800123:-1 2800124:-1 2800125:-1 2800126:-1 2800127:-1 2900089:-1 2900090:-1 2900091:-1 2900092:-1 2900093:-1 2900094:-1 2900095:-1 2900096:-1 2900097:-1 2900098:-1 2900099:1 2900100:1 2900101:1 2900102:1 2900103:1 2900104:1 2900105:1 2900106:1 2900107:1 2900108:1 2900109:1 2900110:1 2900111:1 2900112:1 2900113:1 2900114:1 2900115:1 2900116:1 2900117:1 2900118:1 2900119:1 2900120:1 2900121:1 2900122:1 2900123:-1 2900124:-1 2900125:-1 2900126:-1 3000089:-1 3000090:-1 3000091:-1 3000092:-1 3000093:-1 3000094:-1 3000095:-1 3000096:-1 3000097:-1 3000098:-1 3000099:1 3000100:1 3000101:1 3000102:1 3000103:1 3000104:1 3000105:1 3000106:-1 3000107:-1 3000108:-1 3000109:-1 3000110:-1 3000111:-1 3000112:-1 3000113:-1 3000114:-1 3000115:1 3000116:1 3000117:1 3000118:1 3000119:1 3000120:1 3000121:1 3000122:1 3000123:-1 3000124:-1 3000125:-1 3000126:-1 3100089:-1 3100090:-1 3100091:-1 3100092:-1 3100093:-1 3100094:-1 3100095:-1 3100096:-1 3100097:-1 3100098:-1 3100099:1 3100100:1 3100101:1 3100102:1 3100103:1 3100104:1 3100105:1 3100106:-1 3100107:-1 3100108:-1 3100109:-1 3100110:-1 3100111:-1 3100112:-1 3100113:-1 3100114:-1 3100115:-1 3100116:1 3100117:1 3100118:1 3100119:1 3100120:1 3100121:1 3100122:1 3100123:1 3100124:-1 3100125:-1 3100126:-1 3200090:-1 3200091:-1 3200092:-1 3200093:-1 3200094:-1 3200095:-1 3200096:-1 3200097:-1 3200098:-1 3200099:1 3200100:1 3200101:1 3200102:1 3200103:1 3200104:1 3200105:1 3200106:-1 3200107:-1 3200108:-1 3200109:-1 3200110:-1 3200111:-1 3200112:-1 3200113:-1 3200114:-1 3200115:-1 3200116:-1 3200117:1 3200118:1 3200119:1 3200120:1 3200121:1 3200122:1 3200123:1 3200124:-1 3200125:-1 3200126:-1 3300090:-1 3300091:-1 3300092:-1 3300093:-1 3300094:-1 3300095:-1 3300096:-1 3300097:-1 3300098:-1 3300099:1 3300100:1 3300101:1 3300102:1 3300103:1 3300104:1 3300105:1 3300106:-1 3300107:-1 3300108:-1 3300109:-1 3300110:-1 3300111:-1 3300112:-1 3300113:-1 3300114:-1 3300115:-1 3300116:-1 3300117:1 3300118:1 3300119:1 3300120:1 3300121:1 3300122:1 3300123:-1 3300124:-1 3300125:-1 3300126:-1 3300127:-1 3400090:-1 3400091:-1 3400092:-1 3400093:-1 3400094:-1 3400095:-1 3400096:-1 3400097:-1 3400098:-1 3400099:1 3400100:1 3400101:1 3400102:1 3400103:1 3400104:1 3400105:1 3400106:-1 3400107:-1 3400108:-1 3400109:-1 3400110:-1 3400111:-1 3400112:-1 3400113:-1 3400114:-1 3400115:-1 3400116:-1 3400117:1 3400118:1 3400119:1 3400120:1 3400121:1 3400122:1 3400123:-1 3400124:-1 3400125:-1 3400126:-1 3400127:-1 3500090:-1 3500091:-1 3500092:-1 3500093:-1 3500094:-1 3500095:-1 3500096:-1 3500097:-1 3500098:-1 3500099:1 3500100:1 3500101:1 3500102:1 3500103:1 3500104:1 3500105:1 3500106:-1 3500107:-1 3500108:-1 3500109:-1 3500110:-1 3500111:-1 3500112:-1 3500113:-1 3500114:-1 3500115:-1 3500116:-1 3500117:1 3500118:1 3500119:1 3500120:1 3500121:1 3500122:1 3500123:-1 3500124:-1 3500125:-1 3500126:-1 3500127:-1 3600091:-1 3600092:-1 3600093:-1 3600094:-1 3600095:-1 3600096:-1 3600097:-1 3600098:-1 3600099:1 3600100:1 3600101:1 3600102:1 3600103:1 3600104:1 3600105:1 3600106:-1 3600107:-1 3600108:-1 3600109:-1 3600110:-1 3600111:-1 3600112:-1 3600113:-1 3600114:-1 3600115:-1 3600116:1 3600117:1 3600118:1 3600119:1 3600120:1 3600121:1 3600122:-1 3600123:-1 3600124:-1 3600125:-1 3600126:-1 3600127:-1 3700091:-1 3700092:-1 3700093:-1 3700094:-1 3700095:-1 3700096:-1 3700097:-1 3700098:-1 3700099:1 3700100:1 3700101:1 3700102:1 3700103:1 3700104:1 3700105:1 3700106:1 3700107:1 3700108:1 3700109:1 3700110:1 3700111:1 3700112:1 3700113:1 3700114:1 3700115:1 3700116:1 3700117:1 3700118:1 3700119:1 3700120:1 3700121:1 3700122:-1 3700123:-1 3700124:-1 3700125:-1 3700126:-1 3700127:-1 3800091:-1 3800092:-1 3800093:-1 3800094:-1 3800095:-1 3800096:-1 3800097:-1 3800098:-1 3800099:1 3800100:1 3800101:1 3800102:1 3800103:1 3800104:1 3800105:1 3800106:1 3800107:1 3800108:1 3800109:1 3800110:1 3800111:1 3800112:1 3800113:1 3800114:1 3800115:1 3800116:1 3800117:1 3800118:1 3800119:1 3800120:1 3800121:-1 3800122:-1 3800123:-1 3800124:-1 3800125:-1 3800126:-1 3800127:-1 3900091:-1 3900092:-1 3900093:-1 3900094:-1 3900095:-1 3900096:-1 3900097:-1 3900098:-1 3900099:1 3900100:1 3900101:1 3900102:1 3900103:1 3900104:1 3900105:1 3900106:1 3900107:1 3900108:1 3900109:1 3900110:1 3900111:1 3900112:1 3900113:1 3900114:1 3900115:1 3900116:1 3900117:1 3900118:1 3900119:1 3900120:1 3900121:-1 3900122:-1 3900123:-1 3900124:-1 3900125:-1 3900126:-1 3900127:-1 4000092:-1 4000093:-1 4000094:-1 4000095:-1 4000096:-1 4000097:-1 4000098:-1 4000099:1 4000100:1 4000101:1 4000102:1 4000103:1 4000104:1 4000105:1 4000106:1 4000107:1 4000108:1 4000109:1 4000110:1 4000111:1 4000112:1 4000113:1 4000114:1 4000115:1 4000116:1 4000117:1 4000118:1 4000119:1 4000120:1 4000121:1 4000122:-1 4000123:-1 4000124:-1 4000125:-1 4000126:-1 4000127:-1 4100092:-1 4100093:-1 4100094:-1 4100095:-1 4100096:-1 4100097:-1 4100098:-1 4100099:1 4100100:1 4100101:1 4100102:1 4100103:1 4100104:1 4100105:1 4100106:1 4100107:1 4100108:1 4100109:1 4100110:1 4100111:1 4100112:1 4100113:1 4100114:1 4100115:1 4100116:1 4100117:1 4100118:1 4100119:1 4100120:1 4100121:1 4100122:1 4100123:-1 4100124:-1 4100125:-1 4100126:-1 4100127:-1 4200092:-1 4200093:-1 4200094:-1 4200095:-1 4200096:-1 4200097:-1 4200098:-1 4200099:1 4200100:1 4200101:1 4200102:1 4200103:1 4200104:1 4200105:1 4200106:-1 4200107:-1 4200108:-1 4200109:-1 4200110:-1 4200111:-1 4200112:-1 4200113:-1 4200114:-1 4200115:1 4200116:1 4200117:1 4200118:1 4200119:1 4200120:1 4200121:1 4200122:1 4200123:1 4200124:-1 4200125:-1 4200126:-1 4200127:-1 4300092:-1 4300093:-1 4300094:-1 4300095:-1 4300096:-1 4300097:-1 4300098:-1 4300099:1 4300100:1 4300101:1 4300102:1 4300103:1 4300104:1 4300105:1 4300106:-1 4300107:-1 4300108:-1 4300109:-1 4300110:-1 4300111:-1 4300112:-1 4300113:-1 4300114:-1 4300115:-1 4300116:-1 4300117:1 4300118:1 4300119:1 4300120:1 4300121:1 4300122:1 4300123:1 4300124:-1 4300125:-1 4300126:-1 4300127:-1 4400093:-1 4400094:-1 4400095:-1 4400096:-1 4400097:-1 4400098:-1 4400099:1 4400100:1 4400101:1 4400102:1 4400103:1 4400104:1 4400105:1 4400106:-1 4400107:-1 4400108:-1 4400109:-1 4400110:-1 4400111:-1 4400112:-1 4400113:-1 4400114:-1 4400115:-1 4400116:-1 4400117:-1 4400118:1 4400119:1 4400120:1 4400121:1 4400122:1 4400123:1 4400124:1 4400125:-1 4400126:-1 4400127:-1 4500093:-1 4500094:-1 4500095:-1 4500096:-1 4500097:-1 4500098:-1 4500099:1 4500100:1 4500101:1 4500102:1 4500103:1 4500104:1 4500105:1 4500106:-1 4500107:-1 4500108:-1 4500109:-1 4500110:-1 4500111:-1 4500112:-1 4500113:-1 4500114:-1 4500115:-1 4500116:-1 4500117:-1 4500118:1 4500119:1 4500120:1 4500121:1 4500122:1 4500123:1 4500124:1 4500125:-1 4500126:-1 4500127:-1 4600093:-1 4600094:-1 4600095:-1 4600096:-1 4600097:-1 4600098:-1 4600099:1 4600100:1 4600101:1 4600102:1 4600103:1 4600104:1 4600105:1 4600106:-1 4600107:-1 4600108:-1 4600109:-1 4600110:-1 4600111:-1 4600112:-1 4600113:-1 4600114:-1 4600115:-1 4600116:-1 4600117:-1 4600118:1 4600119:1 4600120:1 4600121:1 4600122:1 4600123:1 4600124:1 4600125:-1 4600126:-1 4600127:-1 4700093:-1 4700094:-1 4700095:-1 4700096:-1 4700097:-1 4700098:-1 4700099:1 4700100:1 4700101:1 4700102:1 4700103:1 4700104:1 4700105:1 4700106:-1 4700107:-1 4700108:-1 4700109:-1 4700110:-1 4700111:-1 4700112:-1 4700113:-1 4700114:-1 4700115:-1 4700116:-1 4700117:-1 4700118:1 4700119:1 4700120:1 4700121:1 4700122:1 4700123:1 4700124:1 4700125:-1 4700126:-1 4700127:-1 4800093:-1 4800094:-1 4800095:-1 4800096:-1 4800097:-1 4800098:-1 4800099:1 4800100:1 4800101:1 4800102:1 4800103:1 4800104:1 4800105:1 4800106:-1 4800107:-1 4800108:-1 4800109:-1 4800110:-1 4800111:-1 4800112:-1 4800113:-1 4800114:-1 4800115:-1 4800116:-1 4800117:-1 4800118:1 4800119:1 4800120:1 4800121:1 4800122:1 4800123:1 4800124:1 4800125:-1 4800126:-1 4800127:-1 4900093:-1 4900094:-1 4900095:-1 4900096:-1 4900097:-1 4900098:-1 4900099:1 4900100:1 4900101:1 4900102:1 4900103:1 4900104:1 4900105:1 4900106:-1 4900107:-1 4900108:-1 4900109:-1 4900110:-1 4900111:-1 4900112:-1 4900113:-1 4900114:-1 4900115:-1 4900116:-1 4900117:-1 4900118:1 4900119:1 4900120:1 4900121:1 4900122:1 4900123:1 4900124:1 4900125:-1 4900126:-1 4900127:-1 5000093:-1 5000094:-1 5000095:-1 5000096:-1 5000097:-1 5000098:-1 5000099:1 5000100:1 5000101:1 5000102:1 5000103:1 5000104:1 5000105:1 5000106:-1 5000107:-1 5000108:-1 5000109:-1 5000110:-1 5000111:-1 5000112:-1 5000113:-1 5000114:-1 5000115:-1 5000116:-1 5000117:1 5000118:1 5000119:1 5000120:1 5000121:1 5000122:1 5000123:1 5000124:1 5000125:-1 5000126:-1 5000127:-1 5100093:-1 5100094:-1 5100095:-1 5100096:-1 5100097:-1 5100098:-1 5100099:1 5100100:1 5100101:1 5100102:1 5100103:1 5100104:1 5100105:1 5100106:1 5100107:1 5100108:1 5100109:1 5100110:1 5100111:1 5100112:1 5100113:1 5100114:1 5100115:1 5100116:1 5100117:1 5100118:1 5100119:1 5100120:1 5100121:1 5100122:1 5100123:1 5100124:-1 5100125:-1 5100126:-1 5100127:-1 5200093:-1 5200094:-1 5200095:-1 5200096:-1 5200097:-1 5200098:-1 5200099:1 5200100:1 5200101:1 5200102:1 5200103:1 5200104:1 5200105:1 5200106:1 5200107:1 5200108:1 5200109:1 5200110:1 5200111:1 5200112:1 5200113:1 5200114:1 5200115:1 5200116:1 5200117:1 5200118:1 5200119:1 5200120:1 5200121:1 5200122:1 5200123:1 5200124:-1 5200125:-1 5200126:-1 5200127:-1 5300094:-1 5300095:-1 5300096:-1 5300097:-1 5300098:-1 5300099:1 5300100:1 5300101:1 5300102:1 5300103:1 5300104:1 5300105:1 5300106:1 5300107:1 5300108:1 5300109:1 5300110:1 5300111:1 5300112:1 5300113:1 5300114:1 5300115:1 5300116:1 5300117:1 5300118:1 5300119:1 5300120:1 5300121:1 5300122:1 5300123:-1 5300124:-1 5300125:-1 5300126:-1 5400094:-1 5400095:-1 5400096:-1 5400097:-1 5400098:-1 5400099:1 5400100:1 5400101:1 5400102:1 5400103:1 5400104:1 5400105:1 5400106:1 5400107:1 5400108:1 5400109:1 5400110:1 5400111:1 5400112:1 5400113:1 5400114:1 5400115:1 5400116:1 5400117:1 5400118:1 5400119:1 5400120:1 5400121:1 5400122:-1 5400123:-1 5400124:-1 5400125:-1 5400126:-1 5500094:-1 5500095:-1 5500096:-1 5500097:-1 5500098:-1 5500099:1 5500100:1 5500101:1 5500102:1 5500103:1 5500104:1 5500105:1 5500106:1 5500107:1 5500108:1 5500109:1 5500110:1 5500111:1 5500112:1 5500113:1 5500114:1 5500115:1 5500116:1 5500117:1 5500118:1 5500119:1 5500120:-1 5500121:-1 5500122:-1 5500123:-1 5500124:-1 5500125:-1 5500126:-1 5600097:-1 5600098:-1 5600099:1 5600100:1 5600101:1 5600102:1 5600103:1 5600104:1 5600105:1 5600106:1 5600107:1 5600108:1 5600109:1 5600110:1 5600111:1 5600112:1 5600113:1 5600114:1 5600115:1 5600116:-1 5600117:-1 5600118:-1 5600119:-1 5600120:-1 5600121:-1 5600122:-1 5600123:-1 5700098:-1 5700099:-1 5700100:-1 5700101:-1 5700102:-1 5700103:-1 5700117:-1 5700118:-1 5700119:-1 5700120:-1 5700121:-1 5700122:-1 5700123:-1 
-2.299115606896561 2.016031962231324 1.923025328203636 1.732240866048684 1.78732755931163 2.389796074945519 2.791546275382416 1.807165888748831 2.091756093890627 2.840855950959419 1.645898459979973 1.829269363275884 1.831949744707751 2.638743724314495 2.267966536213669 1.641359972502642 3.876603162857154 2.248135708919214 2.200121972469435 2.230153226119825 2.254371861196136 3.295214777176993 2.176294806793124 1.980947933381133 2.259406677980473 1.611384838698189 2.362704837809937 2.132906078123079 2.591055748676796 1.932694651241678 2.386409264304607 2.160585643526855 2.273203060393457 2.196458033079465 2.207159665936002 1.865445981395375 2.339516418155623 1.832337906020482 2.376189389441593 2.253596423534864 1.876091546878731 2.007042332267834 2.092742931386629 2300110:-1 2300111:-1 2300112:-1 2300113:-1 2300114:-1 2400098:-1 2400099:-1 2400100:-1 2400101:-1 2400102:-1 2400103:-1 2400104:-1 2400105:-1 2400106:-1 2400107:-1 2400108:-1 2400109:-1 2400110:-1 2400111:-1 2400112:-1 2400113:-1 2400114:-1 2400115:-1 2400119:-1 2400120:-1 2400121:-1 2400122:-1 2500088:-1 2500089:-1 2500090:-1 2500091:-1 2500092:-1 2500093:-1 2500094:-1 2500095:-1 2500096:-1 2500097:-1 2500098:-1 2500099:-1 2500100:-1 2500101:-1 2500102:-1 2500103:-1 2500104:-1 2500105:-1 2500106:-1 2500107:-1 2500108:-1 2500109:-1 2500110:-1 2500111:-1 2500112:-1 2500113:-1 2500114:-1 2500115:-1 2500116:-1 2500117:-1 2500118:-1 2500119:-1 2500120:-1 2500121:-1 2500122:-1 2500123:-1 2500124:-1 2500125:-1 2500126:-1 2500127:-1 2600088:-1 2600089:1 2600090:1 2600091:1 2600092:1 2600093:1 2600094:1 2600095:-1 2600096:-1 2600097:-1 2600098:-1 2600099:-1 2600100:-1 2600101:-1 2600102:-1 2600103:-1 2600104:1 2600105:1 2600106:1 2600107:1 2600108:1 2600109:1 2600110:1 2600111:-1 2600112:-1 2600113:-1 2600114:-1 2600115:-1 2600116:-1 2600117:-1 2600118:-1 2600119:-1 2600120:-1 2600121:1 2600122:1 2600123:1 2600124:1 2600125:1 2600126:1 2600127:-1 2700088:-1 2700089:1 2700090:1 2700091:1 2700092:1 2700093:1 2700094:1 2700095:-1 2700096:-1 2700097:-1 2700098:-1 2700099:-1 2700100:-1 2700101:-1 2700102:-1 2700103:-1 2700104:1 2700105:1 2700106:1 2700107:1 2700108:1 2700109:1 2700110:1 2700111:-1 2700112:-1 2700113:-1 2700114:-1 2700115:-1 2700116:-1 2700117:-1 2700118:-1 2700119:-1 2700120:-1 2700121:1 2700122:1 2700123:1 2700124:1 2700125:1 2700126:1 2700127:1 2800088:-1 2800089:-1 2800090:1 2800091:1 2800092:1 2800093:1 2800094:1 2800095:-1 2800096:-1 2800097:-1 2800098:-1 2800099:-1 2800100:-1 2800101:-1 2800102:-1 2800103:-1 2800104:1 2800105:1 2800106:1 2800107:1 2800108:1 2800109:1 2800110:1 2800111:-1 2800112:-1 2800113:-1 2800114:-1 2800115:-1 2800116:-1 2800117:-1 2800118:-1 2800119:-1 2800120:1 2800121:1 2800122:1 2800123:1 2800124:1 2800125:1 2800126:1 2800127:-1 2900089:-1 2900090:1 2900091:1 2900092:1 2900093:1 2900094:1 2900095:1 2900096:-1 2900097:-1 2900098:-1 2900099:-1 2900100:-1 2900101:-1 2900102:-1 2900103:1 2900104:1 2900105:1 2900106:1 2900107:1 2900108:1 2900109:1 2900110:1 2900111:-1 2900112:-1 2900113:-1 2900114:-1 2900115:-1 2900116:-1 2900117:-1 2900118:-1 2900119:-1 2900120:1 2900121:1 2900122:1 2900123:1 2900124:1 2900125:1 2900126:1 3000089:-1 3000090:1 3000091:1 3000092:1 3000093:1 3000094:1 3000095:1 3000096:-1 3000097:-1 3000098:-1 3000099:-1 3000100:-1 3000101:-1 3000102:-1 3000103:1 3000104:1 3000105:1 3000106:1 3000107:1 3000108:1 3000109:1 3000110:1 3000111:1 3000112:-1 3000113:-1 3000114:-1 3000115:-1 3000116:-1 3000117:-1 3000118:-1 3000119:-1 3000120:1 3000121:1 3000122:1 3000123:1 3000124:1 3000125:1 3000126:-1 3100089:-1 3100090:1 3100091:1 3100092:1 3100093:1 3100094:1 3100095:1 3100096:-1 3100097:-1 3100098:-1 3100099:-1 3100100:-1 3100101:-1 3100102:-1 3100103:1 3100104:1 3100105:1 3100106:1 3100107:1 3100108:1 3100109:1 3100110:1 3100111:1 3100112:-1 3100113:-1 3100114:-1 3100115:-1 3100116:-1 3100117:-1 3100118:-1 3100119:-1 3100120:1 3100121:1 3100122:1 3100123:1 3100124:1 3100125:1 3100126:-1 3200090:-1 3200091:1 3200092:1 3200093:1 3200094:1 3200095:1 3200096:-1 3200097:-1 3200098:-1 3200099:-1 3200100:-1 3200101:-1 3200102:-1 3200103:1 3200104:1 3200105:1 3200106:1 3200107:1 3200108:1 3200109:1 3200110:1 3200111:1 3200112:-1 3200113:-1 3200114:-1 3200115:-1 3200116:-1 3200117:-1 3200118:-1 3200119:1 3200120:1 3200121:1 3200122:1 3200123:1 3200124:1 3200125:1 3200126:-1 3300090:-1 3300091:1 3300092:1 3300093:1 3300094:1 3300095:1 3300096:1 3300097:-1 3300098:-1 3300099:-1 3300100:-1 3300101:-1 3300102:-1 3300103:1 3300104:1 3300105:1 3300106:1 3300107:1 3300108:1 3300109:1 3300110:1 3300111:1 3300112:1 3300113:-1 3300114:-1 3300115:-1 3300116:-1 3300117:-1 3300118:-1 3300119:1 3300120:1 3300121:1 3300122:1 3300123:1 3300124:1 3300125:1 3300126:-1 3300127:-1 3400090:-1 3400091:1 3400092:1 3400093:1 3400094:1 3400095:1 3400096:1 3400097:-1 3400098:-1 3400099:-1 3400100:-1 3400101:-1 3400102:1 3400103:1 3400104:1 3400105:1 3400106:1 3400107:1 3400108:1 3400109:1 3400110:1 3400111:1 3400112:1 3400113:-1 3400114:-1 3400115:-1 3400116:-1 3400117:-1 3400118:-1 3400119:1 3400120:1 3400121:1 3400122:1 3400123:1 3400124:1 3400125:-1 3400126:-1 3400127:-1 3500090:-1 3500091:1 3500092:1 3500093:1 3500094:1 3500095:1 3500096:1 3500097:-1 3500098:-1 3500099:-1 3500100:-1 3500101:-1 3500102:1 3500103:1 3500104:1 3500105:1 3500106:1 3500107:1 3500108:1 3500109:1 3500110:1 3500111:1 3500112:1 3500113:-1 3500114:-1 3500115:-1 3500116:-1 3500117:-1 3500118:-1 3500119:1 3500120:1 3500121:1 3500122:1 3500123:1 3500124:1 3500125:-1 3500126:-1 3500127:-1 3600091:1 3600092:1 3600093:1 3600094:1 3600095:1 3600096:1 3600097:-1 3600098:-1 3600099:-1 3600100:-1 3600101:-1 3600102:1 3600103:1 3600104:1 3600105:1 3600106:1 3600107:1 3600108:1 3600109:1 3600110:1 3600111:1 3600112:1 3600113:-1 3600114:-1 3600115:-1 3600116:-1 3600117:-1 3600118:1 3600119:1 3600120:1 3600121:1 3600122:1 3600123:1 3600124:1 3600125:-1 3600126:-1 3600127:-1 3700091:-1 3700092:1 3700093:1 3700094:1 3700095:1 3700096:1 3700097:-1 3700098:-1 3700099:-1 3700100:-1 3700101:-1 3700102:1 3700103:1 3700104:1 3700105:1 3700106:1 3700107:-1 3700108:1 3700109:1 3700110:1 3700111:1 3700112:1 3700113:-1 3700114:-1 3700115:-1 3700116:-1 3700117:-1 3700118:1 3700119:1 3700120:1 3700121:1 3700122:1 3700123:1 3700124:1 3700125:-1 3700126:-1 3700127:-1 3800091:-1 3800092:1 3800093:1 3800094:1 3800095:1 3800096:1 3800097:-1 3800098:-1 3800099:-1 3800100:-1 3800101:1 3800102:1 3800103:1 3800104:1 3800105:1 3800106:1 3800107:-1 3800108:1 3800109:1 3800110:1 3800111:1 3800112:1 3800113:1 3800114:-1 3800115:-1 3800116:-1 3800117:-1 3800118:1 3800119:1 3800120:1 3800121:1 3800122:1 3800123:1 3800124:-1 3800125:-1 3800126:-1 3800127:-1 3900091:-1 3900092:1 3900093:1 3900094:1 3900095:1 3900096:1 3900097:1 3900098:-1 3900099:-1 3900100:-1 3900101:1 3900102:1 3900103:1 3900104:1 3900105:1 3900106:-1 3900107:-1 3900108:1 3900109:1 3900110:1 3900111:1 3900112:1 3900113:1 3900114:-1 3900115:-1 3900116:-1 3900117:-1 3900118:1 3900119:1 3900120:1 3900121:1 3900122:1 3900123:1 3900124:-1 3900125:-1 3900126:-1 3900127:-1 4000092:-1 4000093:1 4000094:1 4000095:1 4000096:1 4000097:1 4000098:-1 4000099:-1 4000100:-1 4000101:1 4000102:1 4000103:1 4000104:1 4000105:1 4000106:-1 4000107:-1 4000108:-1 4000109:1 4000110:1 4000111:1 4000112:1 4000113:1 4000114:-1 4000115:-1 4000116:-1 4000117:-1 4000118:1 4000119:1 4000120:1 4000121:1 4000122:1 4000123:1 4000124:-1 4000125:-1 4000126:-1 4000127:-1 4100092:-1 4100093:1 4100094:1 4100095:1 4100096:1 4100097:1 4100098:-1 4100099:-1 4100100:-1 4100101:1 4100102:1 4100103:1 4100104:1 4100105:1 4100106:-1 4100107:-1 4100108:-1 4100109:1 4100110:1 4100111:1 4100112:1 4100113:1 4100114:1 4100115:-1 4100116:-1 4100117:1 4100118:1 4100119:1 4100120:1 4100121:1 4100122:1 4100123:1 4100124:-1 4100125:-1 4100126:-1 4100127:-1 4200092:-1 4200093:1 4200094:1 4200095:1 4200096:1 4200097:1 4200098:-1 4200099:-1 4200100:1 4200101:1 4200102:1 4200103:1 4200104:1 4200105:1 4200106:-1 4200107:-1 4200108:-1 4200109:1 4200110:1 4200111:1 4200112:1 4200113:1 4200114:1 4200115:-1 4200116:-1 4200117:1 4200118:1 4200119:1 4200120:1 4200121:1 4200122:1 4200123:-1 4200124:-1 4200125:-1 4200126:-1 4200127:-1 4300092:-1 4300093:1 4300094:1 4300095:1 4300096:1 4300097:1 4300098:-1 4300099:-1 4300100:1 4300101:1 4300102:1 4300103:1 4300104:1 4300105:-1 4300106:-1 4300107:-1 4300108:-1 4300109:1 4300110:1 4300111:1 4300112:1 4300113:1 4300114:1 4300115:-1 4300116:-1 4300117:1 4300118:1 4300119:1 4300120:1 4300121:1 4300122:1 4300123:-1 4300124:-1 4300125:-1 4300126:-1 4300127:-1 4400093:1 4400094:1 4400095:1 4400096:1 4400097:1 4400098:1 4400099:-1 4400100:1 4400101:1 4400102:1 4400103:1 4400104:1 4400105:-1 4400106:-1 4400107:-1 4400108:-1 4400109:-1 4400110:1 4400111:1 4400112:1 4400113:1 4400114:1 4400115:-1 4400116:1 4400117:1 4400118:1 4400119:1 4400120:1 4400121:1 4400122:1 4400123:-1 4400124:-1 4400125:-1 4400126:-1 4400127:-1 4500093:-1 4500094:1 4500095:1 4500096:1 4500097:1 4500098:1 4500099:1 4500100:1 4500101:1 4500102:1 4500103:1 4500104:1 4500105:-1 4500106:-1 4500107:-1 4500108:-1 4500109:-1 4500110:1 4500111:1 4500112:1 4500113:1 4500114:1 4500115:1 4500116:1 4500117:1 4500118:1 4500119:1 4500120:1 4500121:1 4500122:-1 4500123:-1 4500124:-1 4500125:-1 4500126:-1 4500127:-1 4600093:-1 4600094:1 4600095:1 4600096:1 4600097:1 4600098:1 4600099:1 4600100:1 4600101:1 4600102:1 4600103:1 4600104:1 4600105:-1 4600106:-1 4600107:-1 4600108:-1 4600109:-1 4600110:1 4600111:1 4600112:1 4600113:1 4600114:1 4600115:1 4600116:1 4600117:1 4600118:1 4600119:1 4600120:1 4600121:1 4600122:-1 4600123:-1 4600124:-1 4600125:-1 4600126:-1 4600127:-1 4700093:-1 4700094:1 4700095:1 4700096:1 4700097:1 4700098:1 4700099:1 4700100:1 4700101:1 4700102:1 4700103:1 4700104:-1 4700105:-1 4700106:-1 4700107:-1 4700108:-1 4700109:-1 4700110:1 4700111:1 4700112:1 4700113:1 4700114:1 4700115:1 4700116:1 4700117:1 4700118:1 4700119:1 4700120:1 4700121:1 4700122:-1 4700123:-1 4700124:-1 4700125:-1 4700126:-1 4700127:-1 4800093:-1 4800094:1 4800095:1 4800096:1 4800097:1 4800098:1 4800099:1 4800100:1 4800101:1 4800102:1 4800103:1 4800104:-1 4800105:-1 4800106:-1 4800107:-1 4800108:-1 4800109:-1 4800110:-1 4800111:1 4800112:1 4800113:1 4800114:1 4800115:1 4800116:1 4800117:1 4800118:1 4800119:1 4800120:1 4800121:1 4800122:-1 4800123:-1 4800124:-1 4800125:-1 4800126:-1 4800127:-1 4900093:-1 4900094:-1 4900095:1 4900096:1 4900097:1 4900098:1 4900099:1 4900100:1 4900101:1 4900102:1 4900103:1 4900104:-1 4900105:-1 4900106:-1 4900107:-1 4900108:-1 4900109:-1 4900110:-1 4900111:1 4900112:1 4900113:1 4900114:1 4900115:1 4900116:1 4900117:1 4900118:1 4900119:1 4900120:1 4900121:-1 4900122:-1 4900123:-1 4900124:-1 4900125:-1 4900126:-1 4900127:-1 5000093:-1 5000094:-1 5000095:1 5000096:1 5000097:1 5000098:1 5000099:1 5000100:1 5000101:1 5000102:1 5000103:1 5000104:-1 5000105:-1 5000106:-1 5000107:-1 5000108:-1 5000109:-1 5000110:-1 5000111:1 5000112:1 5000113:1 5000114:1 5000115:1 5000116:1 5000117:1 5000118:1 5000119:1 5000120:1 5000121:-1 5000122:-1 5000123:-1 5000124:-1 5000125:-1 5000126:-1 5000127:-1 5100093:-1 5100094:-1 5100095:1 5100096:1 5100097:1 5100098:1 5100099:1 5100100:1 5100101:1 5100102:1 5100103:1 5100104:-1 5100105:-1 5100106:-1 5100107:-1 5100108:-1 5100109:-1 5100110:-1 5100111:1 5100112:1 5100113:1 5100114:1 5100115:1 5100116:1 5100117:1 5100118:1 5100119:1 5100120:1 5100121:-1 5100122:-1 5100123:-1 5100124:-1 5100125:-1 5100126:-1 5100127:-1 5200093:-1 5200094:-1 5200095:1 5200096:1 5200097:1 5200098:1 5200099:1 5200100:1 5200101:1 5200102:1 5200103:-1 5200104:-1 5200105:-1 5200106:-1 5200107:-1 5200108:-1 5200109:-1 5200110:-1 5200111:-1 5200112:1 5200113:1 5200114:1 5200115:1 5200116:1 5200117:1 5200118:1 5200119:1 5200120:-1 5200121:-1 5200122:-1 5200123:-1 5200124:-1 5200125:-1 5200126:-1 5200127:-1 5300094:-1 5300095:1 5300096:1 5300097:1 5300098:1 5300099:1 5300100:1 5300101:1 5300102:1 5300103:-1 5300104:-1 5300105:-1 5300106:-1 5300107:-1 5300108:-1 5300109:-1 5300110:-1 5300111:-1 5300112:1 5300113:1 5300114:1 5300115:1 5300116:1 5300117:1 5300118:1 5300119:1 5300120:-1 5300121:-1 5300122:-1 5300123:-1 5300124:-1 5300125:-1 5300126:-1 5400094:-1 5400095:-1 5400096:1 5400097:1 5400098:1 5400099:1 5400100:1 5400101:1 5400102:1 5400103:-1 5400104:-1 5400105:-1 5400106:-1 5400107:-1 5400108:-1 5400109:-1 5400110:-1 5400111:-1 5400112:1 5400113:1 5400114:1 5400115:1 5400116:1 5400117:1 5400118:1 5400119:1 5400120:-1 5400121:-1 5400122:-1 5400123:-1 5400124:-1 5400125:-1 5400126:-1 5500094:-1 5500095:-1 5500096:1 5500097:1 5500098:1 5500099:1 5500100:1 5500101:1 5500102:1 5500103:-1 5500104:-1 5500105:-1 5500106:-1 5500107:-1 5500108:-1 5500109:-1 5500110:-1 5500111:-1 5500112:-1 5500113:1 5500114:1 5500115:1 5500116:1 5500117:1 5500118:1 5500119:1 5500120:-1 5500121:-1 5500122:-1 5500123:-1 5500124:-1 5500125:-1 5500126:-1 5600097:-1 5600098:-1 5600099:-1 5600100:-1 5600101:-1 5600102:-1 5600103:-1 5600104:-1 5600105:-1 5600106:-1 5600107:-1 5600108:-1 5600109:-1 5600110:-1 5600111:-1 5600112:-1 5600113:1 5600114:1 5600115:1 5600116:1 5600117:1 5600118:1 5600119:-1 5600120:-1 5600121:-1 5600122:-1 5600123:-1 5700098:-1 5700099:-1 5700100:-1 5700101:-1 5700102:-1 5700103:-1 5700117:-1 5700118:-1 5700119:-1 5700120:-1 5700121:-1 5700122:-1 5700123:-1 
-0.776018883649475 0.658547274886923 1.058718260979235 0.9214118269082455 1.415998181152297 1.287765295086747 0.8055496897759173 1.12239575311772 0.9047600549318354 1.200098554219555 1.355700679523758 1.589242791802101 0.9265916046369925 0.9544847447214696 0.8214266930923507 1.043782466244241 1.196849400262212 1.146084075450099 1.303932737291067 1.553224974288804 0.8095030004080436 3.622091686499914 0.9895103332041123 1.599612993316124 0.8876944100963889 1.2047329965242 1.575156895608104 1.045635579051958 0.7686961820347127 1.170577162579936 0.6340332835333558 0.9289311105602603 0.9204164216937318 0.7347143396677427 1.316746470113479 1.00698433714381 1.239023812437832 0.9296172542461247 1.122588628661257 1.26007974048614 1.03689961089876 1.831126658564561 1.186385876807127 2300110:-1 2300111:-1 2300112:-1 2300113:-1 2300114:-1 2400098:-1 2400099:-1 2400100:-1 2400101:-1 2400102:-1 2400103:-1 2400104:-1 2400105:-1 2400106:-1 2400107:-1 2400108:-1 2400109:-1 2400110:-1 2400111:-1 2400112:-1 2400113:-1 2400114:-1 2400115:-1 2400119:-1 2400120:-1 2400121:-1 2400122:-1 2500088:-1 2500089:-1 2500090:-1 2500091:-1 2500092:-1 2500093:-1 2500094:-1 2500095:-1 2500096:-1 2500097:-1 2500098:-1 2500099:-1 2500100:-1 2500101:-1 2500102:-1 2500103:-1 2500104:-1 2500105:-1 2500106:-1 2500107:-1 2500108:-1 2500109:-1 2500110:-1 2500111:-1 2500112:-1 2500113:-1 2500114:-1 2500115:-1 2500116:-1 2500117:-1 2500118:-1 2500119:-1 2500120:-1 2500121:-1 2500122:-1 2500123:-1 2500124:-1 2500125:-1 2500126:-1 2500127:-1 2600088:-1 2600089:1 2600090:1 2600091:1 2600092:1 2600093:1 2600094:1 2600095:-1 2600096:-1 2600097:-1 2600098:-1 2600099:-1 2600100:-1 2600101:-1 2600102:-1 2600103:-1 2600104:-1 2600105:1 2600106:1 2600107:1 2600108:1 2600109:1 2600110:1 2600111:1 2600112:-1 2600113:-1 2600114:-1 2600115:-1 2600116:-1 2600117:-1 2600118:-1 2600119:-1 2600120:-1 2600121:1 2600122:1 2600123:1 2600124:1 2600125:1 2600126:1 2600127:1 2700088:-1 2700089:1 2700090:1 2700091:1 2700092:1 2700093:1 2700094:1 2700095:-1 2700096:-1 2700097:-1 2700098:-1 2700099:-1 2700100:-1 2700101:-1 2700102:-1 2700103:-1 2700104:-1 2700105:1 2700106:1 2700107:1 2700108:1 2700109:1 2700110:1 2700111:1 2700112:-1 2700113:-1 2700114:-1 2700115:-1 2700116:-1 2700117:-1 2700118:-1 2700119:-1 2700120:-1 2700121:1 2700122:1 2700123:1 2700124:1 2700125:1 2700126:1 2700127:1 2800088:-1 2800089:1 2800090:1 2800091:1 2800092:1 2800093:1 2800094:1 2800095:1 2800096:-1 2800097:-1 2800098:-1 2800099:-1 2800100:-1 2800101:-1 2800102:-1 2800103:-1 2800104:1 2800105:1 2800106:1 2800107:1 2800108:1 2800109:1 2800110:1 2800111:1 2800112:-1 2800113:-1 2800114:-1 2800115:-1 2800116:-1 2800117:-1 2800118:-1 2800119:-1 2800120:-1 2800121:1 2800122:1 2800123:1 2800124:1 2800125:1 2800126:1 2800127:-1 2900089:1 2900090:1 2900091:1 2900092:1 2900093:1 2900094:1 2900095:1 2900096:-1 2900097:-1 2900098:-1 2900099:-1 2900100:-1 2900101:-1 2900102:-1 2900103:-1 2900104:1 2900105:1 2900106:1 2900107:1 2900108:1 2900109:1 2900110:1 2900111:1 2900112:-1 2900113:-1 2900114:-1 2900115:-1 2900116:-1 2900117:-1 2900118:-1 2900119:-1 2900120:-1 2900121:1 2900122:1 2900123:1 2900124:1 2900125:1 2900126:1 3000089:-1 3000090:1 3000091:1 3000092:1 3000093:1 3000094:1 3000095:1 3000096:-1 3000097:-1 3000098:-1 3000099:-1 3000100:-1 3000101:-1 3000102:-1 3000103:-1 3000104:1 3000105:1 3000106:1 3000107:1 3000108:1 3000109:1 3000110:1 3000111:1 3000112:1 3000113:-1 3000114:-1 3000115:-1 3000116:-1 3000117:-1 3000118:-1 3000119:-1 3000120:-1 3000121:1 3000122:1 3000123:1 3000124:1 3000125:1 3000126:1 3100089:-1 3100090:1 3100091:1 3100092:1 3100093:1 3100094:1 3100095:1 3100096:-1 3100097:-1 3100098:-1 3100099:-1 3100100:-1 3100101:-1 3100102:-1 3100103:-1 3100104:1 3100105:1 3100106:1 3100107:1 3100108:1 3100109:1 3100110:1 3100111:1 3100112:1 3100113:-1 3100114:-1 3100115:-1 3100116:-1 3100117:-1 3100118:-1 3100119:-1 3100120:1 3100121:1 3100122:1 3100123:1 3100124:1 3100125:1 3100126:-1 3200090:1 3200091:1 3200092:1 3200093:1 3200094:1 3200095:1 3200096:-1 3200097:-1 3200098:-1 3200099:-1 3200100:-1 3200101:-1 3200102:-1 3200103:1 3200104:1 3200105:1 3200106:1 3200107:1 3200108:1 3200109:1 3200110:1 3200111:1 3200112:1 3200113:-1 3200114:-1 3200115:-1 3200116:-1 3200117:-1 3200118:-1 3200119:-1 3200120:1 3200121:1 3200122:1 3200123:1 3200124:1 3200125:1 3200126:-1 3300090:1 3300091:1 3300092:1 3300093:1 3300094:1 3300095:1 3300096:1 3300097:-1 3300098:-1 3300099:-1 3300100:-1 3300101:-1 3300102:-1 3300103:1 3300104:1 3300105:1 3300106:1 3300107:1 3300108:1 3300109:1 3300110:1 3300111:1 3300112:1 3300113:-1 3300114:-1 3300115:-1 3300116:-1 3300117:-1 3300118:-1 3300119:-1 3300120:1 3300121:1 3300122:1 3300123:1 3300124:1 3300125:1 3300126:-1 3300127:-1 3400090:-1 3400091:1 3400092:1 3400093:1 3400094:1 3400095:1 3400096:1 3400097:-1 3400098:-1 3400099:-1 3400100:-1 3400101:-1 3400102:-1 3400103:1 3400104:1 3400105:1 3400106:1 3400107:1 3400108:1 3400109:1 3400110:1 3400111:1 3400112:1 3400113:1 3400114:-1 3400115:-1 3400116:-1 3400117:-1 3400118:-1 3400119:-1 3400120:1 3400121:1 3400122:1 3400123:1 3400124:1 3400125:1 3400126:-1 3400127:-1 3500090:-1 3500091:1 3500092:1 3500093:1 3500094:1 3500095:1 3500096:1 3500097:-1 3500098:-1 3500099:-1 3500100:-1 3500101:-1 3500102:-1 3500103:1 3500104:1 3500105:1 3500106:1 3500107:1 3500108:1 3500109:1 3500110:1 3500111:1 3500112:1 3500113:1 3500114:-1 3500115:-1 3500116:-1 3500117:-1 3500118:-1 3500119:1 3500120:1 3500121:1 3500122:1 3500123:1 3500124:1 3500125:-1 3500126:-1 3500127:-1 3600091:1 3600092:1 3600093:1 3600094:1 3600095:1 3600096:1 3600097:-1 3600098:-1 3600099:-1 3600100:-1 3600101:-1 3600102:1 3600103:1 3600104:1 3600105:1 3600106:1 3600107:1 3600108:1 3600109:1 3600110:1 3600111:1 3600112:1 3600113:1 3600114:-1 3600115:-1 3600116:-1 3600117:-1 3600118:-1 3600119:1 3600120:1 3600121:1 3600122:1 3600123:1 3600124:1 3600125:-1 3600126:-1 3600127:-1 3700091:1 3700092:1 3700093:1 3700094:1 3700095:1 3700096:1 3700097:1 3700098:-1 3700099:-1 3700100:-1 3700101:-1 3700102:1 3700103:1 3700104:1 3700105:1 3700106:1 3700107:1 3700108:-1 3700109:1 3700110:1 3700111:1 3700112:1 3700113:1 3700114:-1 3700115:-1 3700116:-1 3700117:-1 3700118:-1 3700119:1 3700120:1 3700121:1 3700122:1 3700123:1 3700124:1 3700125:-1 3700126:-1 3700127:-1 3800091:-1 3800092:1 3800093:1 3800094:1 3800095:1 3800096:1 3800097:1 3800098:-1 3800099:-1 3800100:-1 3800101:-1 3800102:1 3800103:1 3800104:1 3800105:1 3800106:1 3800107:-1 3800108:-1 3800109:1 3800110:1 3800111:1 3800112:1 3800113:1 3800114:1 3800115:-1 3800116:-1 3800117:-1 3800118:-1 3800119:1 3800120:1 3800121:1 3800122:1 3800123:1 3800124:1 3800125:-1 3800126:-1 3800127:-1 3900091:-1 3900092:1 3900093:1 3900094:1 3900095:1 3900096:1 3900097:1 3900098:-1 3900099:-1 3900100:-1 3900101:-1 3900102:1 3900103:1 3900104:1 3900105:1 3900106:1 3900107:-1 3900108:-1 3900109:1 3900110:1 3900111:1 3900112:1 3900113:1 3900114:1 3900115:-1 3900116:-1 3900117:-1 3900118:1 3900119:1 3900120:1 3900121:1 3900122:1 3900123:1 3900124:-1 3900125:-1 3900126:-1 3900127:-1 4000092:1 4000093:1 4000094:1 4000095:1 4000096:1 4000097:1 4000098:-1 4000099:-1 4000100:-1 4000101:1 4000102:1 4000103:1 4000104:1 4000105:1 4000106:1 4000107:-1 4000108:-1 4000109:1 4000110:1 4000111:1 4000112:1 4000113:1 4000114:1 4000115:-1 4000116:-1 4000117:-1 4000118:1 4000119:1 4000120:1 4000121:1 4000122:1 4000123:1 4000124:-1 4000125:-1 4000126:-1 4000127:-1 4100092:-1 4100093:1 4100094:1 4100095:1 4100096:1 4100097:1 4100098:1 4100099:-1 4100100:-1 4100101:1 4100102:1 4100103:1 4100104:1 4100105:1 4100106:1 4100107:-1 4100108:-1 4100109:-1 4100110:1 4100111:1 4100112:1 4100113:1 4100114:1 4100115:-1 4100116:-1 4100117:-1 4100118:1 4100119:1 4100120:1 4100121:1 4100122:1 4100123:1 4100124:-1 4100125:-1 4100126:-1 4100127:-1 4200092:-1 4200093:1 4200094:1 4200095:1 4200096:1 4200097:1 4200098:1 4200099:-1 4200100:-1 4200101:1 4200102:1 4200103:1 4200104:1 4200105:1 4200106:-1 4200107:-1 4200108:-1 4200109:-1 4200110:1 4200111:1 4200112:1 4200113:1 4200114:1 4200115:1 4200116:-1 4200117:-1 4200118:1 4200119:1 4200120:1 4200121:1 4200122:1 4200123:1 4200124:-1 4200125:-1 4200126:-1 4200127:-1 4300092:-1 4300093:1 4300094:1 4300095:1 4300096:1 4300097:1 4300098:1 4300099:-1 4300100:-1 4300101:1 4300102:1 4300103:1 4300104:1 4300105:1 4300106:-1 4300107:-1 4300108:-1 4300109:-1 4300110:1 4300111:1 4300112:1 4300113:1 4300114:1 4300115:1 4300116:-1 4300117:1 4300118:1 4300119:1 4300120:1 4300121:1 4300122:1 4300123:-1 4300124:-1 4300125:-1 4300126:-1 4300127:-1 4400093:1 4400094:1 4400095:1 4400096:1 4400097:1 4400098:1 4400099:-1 4400100:1 4400101:1 4400102:1 4400103:1 4400104:1 4400105:1 4400106:-1 4400107:-1 4400108:-1 4400109:-1 4400110:-1 4400111:1 4400112:1 4400113:1 4400114:1 4400115:1 4400116:-1 4400117:1 4400118:1 4400119:1 4400120:1 4400121:1 4400122:1 4400123:-1 4400124:-1 4400125:-1 4400126:-1 4400127:-1 4500093:-1 4500094:1 4500095:1 4500096:1 4500097:1 4500098:1 4500099:1 4500100:1 4500101:1 4500102:1 4500103:1 4500104:1 4500105:1 4500106:-1 4500107:-1 4500108:-1 4500109:-1 4500110:-1 4500111:1 4500112:1 4500113:1 4500114:1 4500115:1 4500116:1 4500117:1 4500118:1 4500119:1 4500120:1 4500121:1 4500122:1 4500123:-1 4500124:-1 4500125:-1 4500126:-1 4500127:-1 4600093:-1 4600094:1 4600095:1 4600096:1 4600097:1 4600098:1 4600099:1 4600100:1 4600101:1 4600102:1 4600103:1 4600104:1 4600105:-1 4600106:-1 4600107:-1 4600108:-1 4600109:-1 4600110:-1 4600111:1 4600112:1 4600113:1 4600114:1 4600115:1 4600116:1 4600117:1 4600118:1 4600119:1 4600120:1 4600121:1 4600122:1 4600123:-1 4600124:-1 4600125:-1 4600126:-1 4600127:-1 4700093:-1 4700094:1 4700095:1 4700096:1 4700097:1 4700098:1 4700099:1 4700100:1 4700101:1 4700102:1 4700103:1 4700104:1 4700105:-1 4700106:-1 4700107:-1 4700108:-1 4700109:-1 4700110:-1 4700111:1 4700112:1 4700113:1 4700114:1 4700115:1 4700116:1 4700117:1 4700118:1 4700119:1 4700120:1 4700121:1 4700122:-1 4700123:-1 4700124:-1 4700125:-1 4700126:-1 4700127:-1 4800093:-1 4800094:1 4800095:1 4800096:1 4800097:1 4800098:1 4800099:1 4800100:1 4800101:1 4800102:1 4800103:1 4800104:1 4800105:-1 4800106:-1 4800107:-1 4800108:-1 4800109:-1 4800110:-1 4800111:-1 4800112:1 4800113:1 4800114:1 4800115:1 4800116:1 4800117:1 4800118:1 4800119:1 4800120:1 4800121:1 4800122:-1 4800123:-1 4800124:-1 4800125:-1 4800126:-1 4800127:-1 4900093:-1 4900094:-1 4900095:1 4900096:1 4900097:1 4900098:1 4900099:1 4900100:1 4900101:1 4900102:1 4900103:1 4900104:1 4900105:-1 4900106:-1 4900107:-1 4900108:-1 4900109:-1 4900110:-1 4900111:-1 4900112:1 4900113:1 4900114:1 4900115:1 4900116:1 4900117:1 4900118:1 4900119:1 4900120:1 4900121:1 4900122:-1 4900123:-1 4900124:-1 4900125:-1 4900126:-1 4900127:-1 5000093:-1 5000094:-1 5000095:1 5000096:1 5000097:1 5000098:1 5000099:1 5000100:1 5000101:1 5000102:1 5000103:1 5000104:-1 5000105:-1 5000106:-1 5000107:-1 5000108:-1 5000109:-1 5000110:-1 5000111:-1 5000112:1 5000113:1 5000114:1 5000115:1 5000116:1 5000117:1 5000118:1 5000119:1 5000120:1 5000121:-1 5000122:-1 5000123:-1 5000124:-1 5000125:-1 5000126:-1 5000127:-1 5100093:-1 5100094:-1 5100095:1 5100096:1 5100097:1 5100098:1 5100099:1 5100100:1 5100101:1 5100102:1 5100103:1 5100104:-1 5100105:-1 5100106:-1 5100107:-1 5100108:-1 5100109:-1 5100110:-1 5100111:-1 5100112:1 5100113:1 5100114:1 5100115:1 5100116:1 5100117:1 5100118:1 5100119:1 5100120:1 5100121:-1 5100122:-1 5100123:-1 5100124:-1 5100125:-1 5100126:-1 5100127:-1 5200093:-1 5200094:-1 5200095:1 5200096:1 5200097:1 5200098:1 5200099:1 5200100:1 5200101:1 5200102:1 5200103:1 5200104:-1 5200105:-1 5200106:-1 5200107:-1 5200108:-1 5200109:-1 5200110:-1 5200111:-1 5200112:1 5200113:1 5200114:1 5200115:1 5200116:1 5200117:1 5200118:1 5200119:1 5200120:1 5200121:-1 5200122:-1 5200123:-1 5200124:-1 5200125:-1 5200126:-1 5200127:-1 5300094:-1 5300095:-1 5300096:1 5300097:1 5300098:1 5300099:1 5300100:1 5300101:1 5300102:1 5300103:1 5300104:-1 5300105:-1 5300106:-1 5300107:-1 5300108:-1 5300109:-1 5300110:-1 5300111:-1 5300112:-1 5300113:1 5300114:1 5300115:1 5300116:1 5300117:1 5300118:1 5300119:1 5300120:1 5300121:-1 5300122:-1 5300123:-1 5300124:-1 5300125:-1 5300126:-1 5400094:-1 5400095:-1 5400096:1 5400097:1 5400098:1 5400099:1 5400100:1 5400101:1 5400102:1 5400103:-1 5400104:-1 5400105:-1 5400106:-1 5400107:-1 5400108:-1 5400109:-1 5400110:-1 5400111:-1 5400112:-1 5400113:1 5400114:1 5400115:1 5400116:1 5400117:1 5400118:1 5400119:1 5400120:-1 5400121:-1 5400122:-1 5400123:-1 5400124:-1 5400125:-1 5400126:-1 5500094:-1 5500095:-1 5500096:1 5500097:1 5500098:1 5500099:1 5500100:1 5500101:1 5500102:1 5500103:-1 5500104:-1 5500105:-1 5500106:-1 5500107:-1 5500108:-1 5500109:-1 5500110:-1 5500111:-1 5500112:-1 5500113:1 5500114:1 5500115:1 5500116:1 5500117:1 5500118:1 5500119:1 5500120:-1 5500121:-1 5500122:-1 5500123:-1 5500124:-1 5500125:-1 5500126:-1 5600097:-1 5600098:-1 5600099:-1 5600100:-1 5600101:-1 5600102:-1 5600103:-1 5600104:-1 5600105:-1 5600106:-1 5600107:-1 5600108:-1 5600109:-1 5600110:-1 5600111:-1 5600112:-1 5600113:-1 5600114:-1 5600115:-1 5600116:-1 5600117:-1 5600118:-1 5600119:-1 5600120:-1 5600121:-1 5600122:-1 5600123:-1 5700098:-1 5700099:-1 5700100:-1 5700101:-1 5700102:-1 5700103:-1 5700117:-1 5700118:-1 5700119:-1 5700120:-1 5700121:-1 5700122:-1 5700123:-1 
-1.463143114600538 1.251774378137378 1.565521598142166 0.7785160470749926 0.9780815399408682 1.019060435910246 1.177097053414047 0.7289149658637849 1.179534720803784 2.482592204875322 1.109768053026826 0.8185406172491519 1.21973202419542 1.218494158785959 1.316349828453169 0.7424907540506762 1.108180481872525 1.109700224397157 1.183803826414289 0.9536304831914082 1.157174756069483 0.6506313621135597 1.540344457174802 0.9001119476321355 1.286235076399818 0.8890176241995317 0.6282172786466157 1.128584618696689 0.9785530822999726 0.9521531417437082 1.229790500776838 0.6817358525260035 1.155740057455414 0.9870480510816343 1.062715844319332 1.504695013821209 1.358750423388476 1.358227741470464 1.206273504249808 0.6714639865616013 1.283183613434385 0.9599855063955504 1.054549755938754 2300110:-1 2300111:-1 2300112:-1 2300113:-1 2300114:-1 2400098:-1 2400099:-1 2400100:-1 2400101:-1 2400102:-1 2400103:-1 2400104:-1 2400105:-1 2400106:-1 2400107:-1 2400108:-1 2400109:-1 2400110:-1 2400111:-1 2400112:-1 2400113:-1 2400114:-1 2400115:-1 2400119:-1 2400120:-1 2400121:-1 2400122:-1 2500088:1 2500089:1 2500090:1 2500091:1 2500092:1 2500093:1 2500094:-1 2500095:-1 2500096:-1 2500097:-1 2500098:-1 2500099:-1 2500100:-1 2500101:-1 2500102:-1 2500103:-1 2500104:-1 2500105:1 2500106:1 2500107:1 2500108:1 2500109:1 2500110:1 2500111:-1 2500112:-1 2500113:-1 2500114:-1 2500115:-1 2500116:-1 2500117:-1 2500118:-1 2500119:-1 2500120:-1 2500121:-1 2500122:1 2500123:1 2500124:1 2500125:1 2500126:1 2500127:1 2600088:1 2600089:1 2600090:1 2600091:1 2600092:1 2600093:1 2600094:1 2600095:-1 2600096:-1 2600097:-1 2600098:-1 2600099:-1 2600100:-1 2600101:-1 2600102:-1 2600103:-1 2600104:1 2600105:1 2600106:1 2600107:1 2600108:1 2600109:1 2600110:1 2600111:1 2600112:-1 2600113:-1 2600114:-1 2600115:-1 2600116:-1 2600117:-1 2600118:-1 2600119:-1 2600120:-1 2600121:-1 2600122:1 2600123:1 2600124:1 2600125:1 2600126:1 2600127:1 2700088:1 2700089:1 2700090:1 2700091:1 2700092:1 2700093:1 2700094:1 2700095:-1 2700096:-1 2700097:-1 2700098:-1 2700099:-1 2700100:-1 2700101:-1 2700102:-1 2700103:-1 2700104:1 2700105:1 2700106:1 2700107:1 2700108:1 2700109:1 2700110:1 2700111:1 2700112:-1 2700113:-1 2700114:-1 2700115:-1 2700116:-1 2700117:-1 2700118:-1 2700119:-1 2700120:-1 2700121:1 2700122:1 2700123:1 2700124:1 2700125:1 2700126:1 2700127:1 2800088:1 2800089:1 2800090:1 2800091:1 2800092:1 2800093:1 2800094:1 2800095:-1 2800096:-1 2800097:-1 2800098:-1 2800099:-1 2800100:-1 2800101:-1 2800102:-1 2800103:-1 2800104:1 2800105:1 2800106:1 2800107:1 2800108:1 2800109:1 2800110:1 2800111:1 2800112:-1 2800113:-1 2800114:-1 2800115:-1 2800116:-1 2800117:-1 2800118:-1 2800119:-1 2800120:-1 2800121:1 2800122:1 2800123:1 2800124:1 2800125:1 2800126:1 2800127:1 2900089:1 2900090:1 2900091:1 2900092:1 2900093:1 2900094:1 2900095:-1 2900096:-1 2900097:-1 2900098:-1 2900099:-1 2900100:-1 2900101:-1 2900102:-1 2900103:-1 2900104:1 2900105:1 2900106:1 2900107:1 2900108:1 2900109:1 2900110:1 2900111:1 2900112:-1 2900113:-1 2900114:-1 2900115:-1 2900116:-1 2900117:-1 2900118:-1 2900119:-1 2900120:-1 2900121:1 2900122:1 2900123:1 2900124:1 2900125:1 2900126:1 3000089:1 3000090:1 3000091:1 3000092:1 3000093:1 3000094:1 3000095:-1 3000096:-1 3000097:-1 3000098:-1 3000099:-1 3000100:-1 3000101:-1 3000102:-1 3000103:1 3000104:1 3000105:1 3000106:1 3000107:1 3000108:1 3000109:1 3000110:1 3000111:1 3000112:1 3000113:-1 3000114:-1 3000115:-1 3000116:-1 3000117:-1 3000118:-1 3000119:-1 3000120:-1 3000121:1 3000122:1 3000123:1 3000124:1 3000125:1 3000126:1 3100089:1 3100090:1 3100091:1 3100092:1 3100093:1 3100094:1 3100095:1 3100096:-1 3100097:-1 3100098:-1 3100099:-1 3100100:-1 3100101:-1 3100102:-1 3100103:1 3100104:1 3100105:1 3100106:1 3100107:1 3100108:1 3100109:1 3100110:1 3100111:1 3100112:1 3100113:-1 3100114:-1 3100115:-1 3100116:-1 3100117:-1 3100118:-1 3100119:-1 3100120:1 3100121:1 3100122:1 3100123:1 3100124:1 3100125:1 3100126:1 3200090:1 3200091:1 3200092:1 3200093:1 3200094:1 3200095:1 3200096:-1 3200097:-1 3200098:-1 3200099:-1 3200100:-1 3200101:-1 3200102:-1 3200103:1 3200104:1 3200105:1 3200106:1 3200107:1 3200108:1 3200109:1 3200110:1 3200111:1 3200112:1 3200113:-1 3200114:-1 3200115:-1 3200116:-1 3200117:-1 3200118:-1 3200119:-1 3200120:1 3200121:1 3200122:1 3200123:1 3200124:1 3200125:1 3200126:1 3300090:1 3300091:1 3300092:1 3300093:1 3300094:1 3300095:1 3300096:-1 3300097:-1 3300098:-1 3300099:-1 3300100:-1 3300101:-1 3300102:1 3300103:1 3300104:1 3300105:1 3300106:1 3300107:1 3300108:1 3300109:1 3300110:1 3300111:1 3300112:1 3300113:-1 3300114:-1 3300115:-1 3300116:-1 3300117:-1 3300118:-1 3300119:-1 3300120:1 3300121:1 3300122:1 3300123:1 3300124:1 3300125:1 3300126:-1 3300127:-1 3400090:1 3400091:1 3400092:1 3400093:1 3400094:1 3400095:1 3400096:-1 3400097:-1 3400098:-1 3400099:-1 3400100:-1 3400101:-1 3400102:1 3400103:1 3400104:1 3400105:1 3400106:1 3400107:1 3400108:1 3400109:1 3400110:1 3400111:1 3400112:1 3400113:1 3400114:-1 3400115:-1 3400116:-1 3400117:-1 3400118:-1 3400119:-1 3400120:1 3400121:1 3400122:1 3400123:1 3400124:1 3400125:1 3400126:-1 3400127:-1 3500090:1 3500091:1 3500092:1 3500093:1 3500094:1 3500095:1 3500096:1 3500097:-1 3500098:-1 3500099:-1 3500100:-1 3500101:-1 3500102:1 3500103:1 3500104:1 3500105:1 3500106:1 3500107:1 3500108:1 3500109:1 3500110:1 3500111:1 3500112:1 3500113:1 3500114:-1 3500115:-1 3500116:-1 3500117:-1 3500118:-1 3500119:1 3500120:1 3500121:1 3500122:1 3500123:1 3500124:1 3500125:1 3500126:-1 3500127:-1 3600091:1 3600092:1 3600093:1 3600094:1 3600095:1 3600096:1 3600097:-1 3600098:-1 3600099:-1 3600100:-1 3600101:-1 3600102:1 3600103:1 3600104:1 3600105:1 3600106:1 3600107:1 3600108:1 3600109:1 3600110:1 3600111:1 3600112:1 3600113:1 3600114:-1 3600115:-1 3600116:-1 3600117:-1 3600118:-1 3600119:1 3600120:1 3600121:1 3600122:1 3600123:1 3600124:1 3600125:-1 3600126:-1 3600127:-1 3700091:1 3700092:1 3700093:1 3700094:1 3700095:1 3700096:1 3700097:-1 3700098:-1 3700099:-1 3700100:-1 3700101:-1 3700102:1 3700103:1 3700104:1 3700105:1 3700106:1 3700107:1 3700108:-1 3700109:1 3700110:1 3700111:1 3700112:1 3700113:1 3700114:1 3700115:-1 3700116:-1 3700117:-1 3700118:-1 3700119:1 3700120:1 3700121:1 3700122:1 3700123:1 3700124:1 3700125:-1 3700126:-1 3700127:-1 3800091:1 3800092:1 3800093:1 3800094:1 3800095:1 3800096:1 3800097:-1 3800098:-1 3800099:-1 3800100:-1 3800101:1 3800102:1 3800103:1 3800104:1 3800105:1 3800106:1 3800107:-1 3800108:-1 3800109:1 3800110:1 3800111:1 3800112:1 3800113:1 3800114:1 3800115:-1 3800116:-1 3800117:-1 3800118:-1 3800119:1 3800120:1 3800121:1 3800122:1 3800123:1 3800124:1 3800125:-1 3800126:-1 3800127:-1 3900091:1 3900092:1 3900093:1 3900094:1 3900095:1 3900096:1 3900097:1 3900098:-1 3900099:-1 3900100:-1 3900101:1 3900102:1 3900103:1 3900104:1 3900105:1 3900106:1 3900107:-1 3900108:-1 3900109:1 3900110:1 3900111:1 3900112:1 3900113:1 3900114:1 3900115:-1 3900116:-1 3900117:-1 3900118:1 3900119:1 3900120:1 3900121:1 3900122:1 3900123:1 3900124:1 3900125:-1 3900126:-1 3900127:-1 4000092:1 4000093:1 4000094:1 4000095:1 4000096:1 4000097:1 4000098:-1 4000099:-1 4000100:-1 4000101:1 4000102:1 4000103:1 4000104:1 4000105:1 4000106:1 4000107:-1 4000108:-1 4000109:-1 4000110:1 4000111:1 4000112:1 4000113:1 4000114:1 4000115:-1 4000116:-1 4000117:-1 4000118:1 4000119:1 4000120:1 4000121:1 4000122:1 4000123:1 4000124:-1 4000125:-1 4000126:-1 4000127:-1 4100092:1 4100093:1 4100094:1 4100095:1 4100096:1 4100097:1 4100098:-1 4100099:-1 4100100:-1 4100101:1 4100102:1 4100103:1 4100104:1 4100105:1 4100106:1 4100107:-1 4100108:-1 4100109:-1 4100110:1 4100111:1 4100112:1 4100113:1 4100114:1 4100115:1 4100116:-1 4100117:-1 4100118:1 4100119:1 4100120:1 4100121:1 4100122:1 4100123:1 4100124:-1 4100125:-1 4100126:-1 4100127:-1 4200092:1 4200093:1 4200094:1 4200095:1 4200096:1 4200097:1 4200098:-1 4200099:-1 4200100:1 4200101:1 4200102:1 4200103:1 4200104:1 4200105:1 4200106:-1 4200107:-1 4200108:-1 4200109:-1 4200110:1 4200111:1 4200112:1 4200113:1 4200114:1 4200115:1 4200116:-1 4200117:-1 4200118:1 4200119:1 4200120:1 4200121:1 4200122:1 4200123:1 4200124:-1 4200125:-1 4200126:-1 4200127:-1 4300092:1 4300093:1 4300094:1 4300095:1 4300096:1 4300097:1 4300098:1 4300099:-1 4300100:1 4300101:1 4300102:1 4300103:1 4300104:1 4300105:1 4300106:-1 4300107:-1 4300108:-1 4300109:-1 4300110:-1 4300111:1 4300112:1 4300113:1 4300114:1 4300115:1 4300116:-1 4300117:-1 4300118:1 4300119:1 4300120:1 4300121:1 4300122:1 4300123:-1 4300124:-1 4300125:-1 4300126:-1 4300127:-1 4400093:1 4400094:1 4400095:1 4400096:1 4400097:1 4400098:1 4400099:1 4400100:1 4400101:1 4400102:1 4400103:1 4400104:1 4400105:1 4400106:-1 4400107:-1 4400108:-1 4400109:-1 4400110:-1 4400111:1 4400112:1 4400113:1 4400114:1 4400115:1 4400116:-1 4400117:1 4400118:1 4400119:1 4400120:1 4400121:1 4400122:1 4400123:-1 4400124:-1 4400125:-1 4400126:-1 4400127:-1 4500093:1 4500094:1 4500095:1 4500096:1 4500097:1 4500098:1 4500099:1 4500100:1 4500101:1 4500102:1 4500103:1 4500104:1 4500105:1 4500106:-1 4500107:-1 4500108:-1 4500109:-1 4500110:-1 4500111:1 4500112:1 4500113:1 4500114:1 4500115:1 4500116:1 4500117:1 4500118:1 4500119:1 4500120:1 4500121:1 4500122:1 4500123:-1 4500124:-1 4500125:-1 4500126:-1 4500127:-1 4600093:1 4600094:1 4600095:1 4600096:1 4600097:1 4600098:1 4600099:1 4600100:1 4600101:1 4600102:1 4600103:1 4600104:1 4600105:-1 4600106:-1 4600107:-1 4600108:-1 4600109:-1 4600110:-1 4600111:1 4600112:1 4600113:1 4600114:1 4600115:1 4600116:1 4600117:1 4600118:1 4600119:1 4600120:1 4600121:1 4600122:-1 4600123:-1 4600124:-1 4600125:-1 4600126:-1 4600127:-1 4700093:1 4700094:1 4700095:1 4700096:1 4700097:1 4700098:1 4700099:1 4700100:1 4700101:1 4700102:1 4700103:1 4700104:1 4700105:-1 4700106:-1 4700107:-1 4700108:-1 4700109:-1 4700110:-1 4700111:-1 4700112:1 4700113:1 4700114:1 4700115:1 4700116:1 4700117:1 4700118:1 4700119:1 4700120:1 4700121:1 4700122:-1 4700123:-1 4700124:-1 4700125:-1 4700126:-1 4700127:-1 4800093:-1 4800094:1 4800095:1 4800096:1 4800097:1 4800098:1 4800099:1 4800100:1 4800101:1 4800102:1 4800103:1 4800104:1 4800105:-1 4800106:-1 4800107:-1 4800108:-1 4800109:-1 4800110:-1 4800111:-1 4800112:1 4800113:1 4800114:1 4800115:1 4800116:1 4800117:1 4800118:1 4800119:1 4800120:1 4800121:1 4800122:-1 4800123:-1 4800124:-1 4800125:-1 4800126:-1 4800127:-1 4900093:-1 4900094:1 4900095:1 4900096:1 4900097:1 4900098:1 4900099:1 4900100:1 4900101:1 4900102:1 4900103:1 4900104:1 4900105:-1 4900106:-1 4900107:-1 4900108:-1 4900109:-1 4900110:-1 4900111:-1 4900112:1 4900113:1 4900114:1 4900115:1 4900116:1 4900117:1 4900118:1 4900119:1 4900120:1 4900121:1 4900122:-1 4900123:-1 4900124:-1 4900125:-1 4900126:-1 4900127:-1 5000093:-1 5000094:1 5000095:1 5000096:1 5000097:1 5000098:1 5000099:1 5000100:1 5000101:1 5000102:1 5000103:1 5000104:-1 5000105:-1 5000106:-1 5000107:-1 5000108:-1 5000109:-1 5000110:-1 5000111:-1 5000112:1 5000113:1 5000114:1 5000115:1 5000116:1 5000117:1 5000118:1 5000119:1 5000120:1 5000121:-1 5000122:-1 5000123:-1 5000124:-1 5000125:-1 5000126:-1 5000127:-1 5100093:-1 5100094:-1 5100095:1 5100096:1 5100097:1 5100098:1 5100099:1 5100100:1 5100101:1 5100102:1 5100103:1 5100104:-1 5100105:-1 5100106:-1 5100107:-1 5100108:-1 5100109:-1 5100110:-1 5100111:-1 5100112:1 5100113:1 5100114:1 5100115:1 5100116:1 5100117:1 5100118:1 5100119:1 5100120:1 5100121:-1 5100122:-1 5100123:-1 5100124:-1 5100125:-1 5100126:-1 5100127:-1 5200093:-1 5200094:-1 5200095:1 5200096:1 5200097:1 5200098:1 5200099:1 5200100:1 5200101:1 5200102:1 5200103:1 5200104:-1 5200105:-1 5200106:-1 5200107:-1 5200108:-1 5200109:-1 5200110:-1 5200111:-1 5200112:-1 5200113:1 5200114:1 5200115:1 5200116:1 5200117:1 5200118:1 5200119:1 5200120:1 5200121:-1 5200122:-1 5200123:-1 5200124:-1 5200125:-1 5200126:-1 5200127:-1 5300094:-1 5300095:1 5300096:1 5300097:1 5300098:1 5300099:1 5300100:1 5300101:1 5300102:1 5300103:1 5300104:-1 5300105:-1 5300106:-1 5300107:-1 5300108:-1 5300109:-1 5300110:-1 5300111:-1 5300112:-1 5300113:1 5300114:1 5300115:1 5300116:1 5300117:1 5300118:1 5300119:1 5300120:1 5300121:-1 5300122:-1 5300123:-1 5300124:-1 5300125:-1 5300126:-1 5400094:-1 5400095:1 5400096:1 5400097:1 5400098:1 5400099:1 5400100:1 5400101:1 5400102:1 5400103:-1 5400104:-1 5400105:-1 5400106:-1 5400107:-1 5400108:-1 5400109:-1 5400110:-1 5400111:-1 5400112:-1 5400113:1 5400114:1 5400115:1 5400116:1 5400117:1 5400118:1 5400119:1 5400120:-1 5400121:-1 5400122:-1 5400123:-1 5400124:-1 5400125:-1 5400126:-1 5500094:-1 5500095:-1 5500096:1 5500097:1 5500098:1 5500099:1 5500100:1 5500101:1 5500102:1 5500103:-1 5500104:-1 5500105:-1 5500106:-1 5500107:-1 5500108:-1 5500109:-1 5500110:-1 5500111:-1 5500112:-1 5500113:1 5500114:1 5500115:1 5500116:1 5500117:1 5500118:1 5500119:1 5500120:-1 5500121:-1 5500122:-1 5500123:-1 5500124:-1 5500125:-1 5500126:-1 5600097:-1 5600098:-1 5600099:-1 5600100:-1 5600101:-1 5600102:-1 5600103:-1 5600104:-1 5600105:-1 5600106:-1 5600107:-1 5600108:-1 5600109:-1 5600110:-1 5600111:-1 5600112:-1 5600113:-1 5600114:-1 5600115:-1 5600116:-1 5600117:-1 5600118:-1 5600119:-1 5600120:-1 5600121:-1 5600122:-1 5600123:-1 5700098:-1 5700099:-1 5700100:-1 5700101:-1 5700102:-1 5700103:-1 5700117:-1 5700118:-1 5700119:-1 5700120:-1 5700121:-1 5700122:-1 5700123:-1 
-7.991226476299436 -3.926353615255625 12.61060239256081 7.131857390818721 5.782689013883672 6.979064096663187 6.455740893242277 6.599288091998273 7.076793419092882 5.851596594937263 6.144362207122112 5.369471889786101 10.1574217583066 7.469330919551261 6.416129414689179 5.523967064054409 5.134792701102451 6.646740772007209 7.430290908959241 5.620546294487031 9.224454248351639 4.714640217432517 11.48749622635833 6.027097991119743 11.10421830079655 5.848950029894558 3.664714251925713 7.722819840169102 6.953185443797086 7.053506711431603 15.66366251908815 5.38884929683234 8.989677967007777 4.016901396101557 6.483727453888049 11.82228398202264 8.451494296885629 6.893118392313925 5.172434672531788 5.280274242148616 7.722819840169102 5.919106468808224 6.283450883574326 2300110:-1 2300111:-1 2300112:-1 2300113:-1 2300114:-1 2400098:-1 2400099:-1 2400100:-1 2400101:-1 2400102:-1 2400103:-1 2400104:-1 2400105:-1 2400106:-1 2400107:1 2400108:1 2400109:1 2400110:1 2400111:-1 2400112:-1 2400113:-1 2400114:-1 2400115:-1 2400119:-1 2400120:-1 2400121:-1 2400122:-1 2500088:-1 2500089:-1 2500090:-1 2500091:-1 2500092:-1 2500093:-1 2500094:-1 2500095:-1 2500096:-1 2500097:-1 2500098:-1 2500099:-1 2500100:-1 2500101:-1 2500102:-1 2500103:-1 2500104:1 2500105:1 2500106:1 2500107:1 2500108:1 2500109:1 2500110:1 2500111:1 2500112:1 2500113:1 2500114:-1 2500115:-1 2500116:-1 2500117:-1 2500118:-1 2500119:-1 2500120:-1 2500121:-1 2500122:-1 2500123:-1 2500124:-1 2500125:-1 2500126:-1 2500127:-1 2600088:-1 2600089:-1 2600090:-1 2600091:-1 2600092:-1 2600093:-1 2600094:-1 2600095:-1 2600096:-1 2600097:-1 2600098:-1 2600099:-1 2600100:-1 2600101:-1 2600102:1 2600103:1 2600104:1 2600105:1 2600106:1 2600107:1 2600108:1 2600109:1 2600110:1 2600111:1 2600112:1 2600113:1 2600114:1 2600115:-1 2600116:-1 2600117:-1 2600118:-1 2600119:-1 2600120:-1 2600121:-1 2600122:-1 2600123:-1 2600124:-1 2600125:-1 2600126:-1 2600127:-1 2700088:-1 2700089:-1 2700090:-1 2700091:-1 2700092:-1 2700093:-1 2700094:-1 2700095:-1 2700096:-1 2700097:-1 2700098:-1 2700099:-1 2700100:-1 2700101:1 2700102:1 2700103:1 2700104:1 2700105:1 2700106:1 2700107:1 2700108:1 2700109:1 2700110:1 2700111:1 2700112:1 2700113:1 2700114:1 2700115:1 2700116:-1 2700117:-1 2700118:-1 2700119:-1 2700120:-1 2700121:-1 2700122:-1 2700123:-1 2700124:-1 2700125:-1 2700126:-1 2700127:-1 2800088:-1 2800089:-1 2800090:-1 2800091:-1 2800092:-1 2800093:-1 2800094:-1 2800095:-1 2800096:-1 2800097:-1 2800098:-1 2800099:-1 2800100:1 2800101:1 2800102:1 2800103:1 2800104:1 2800105:1 2800106:1 2800107:1 2800108:1 2800109:1 2800110:1 2800111:1 2800112:1 2800113:1 2800114:1 2800115:1 2800116:1 2800117:-1 2800118:-1 2800119:-1 2800120:-1 2800121:-1 2800122:-1 2800123:-1 2800124:-1 2800125:-1 2800126:-1 2800127:-1 2900089:-1 2900090:-1 2900091:-1 2900092:-1 2900093:-1 2900094:-1 2900095:-1 2900096:-1 2900097:-1 2900098:-1 2900099:-1 2900100:1 2900101:1 2900102:1 2900103:1 2900104:1 2900105:1 2900106:1 2900107:1 2900108:1 2900109:1 2900110:1 2900111:1 2900112:1 2900113:1 2900114:1 2900115:1 2900116:1 2900117:1 2900118:-1 2900119:-1 2900120:-1 2900121:-1 2900122:-1 2900123:-1 2900124:-1 2900125:-1 2900126:-1 3000089:-1 3000090:-1 3000091:-1 3000092:-1 3000093:-1 3000094:-1 3000095:-1 3000096:-1 3000097:-1 3000098:-1 3000099:1 3000100:1 3000101:1 3000102:1 3000103:1 3000104:1 3000105:1 3000106:-1 3000107:-1 3000108:-1 3000109:-1 3000110:-1 3000111:-1 3000112:1 3000113:1 3000114:1 3000115:1 3000116:1 3000117:1 3000118:1 3000119:-1 3000120:-1 3000121:-1 3000122:-1 3000123:-1 3000124:-1 3000125:-1 3000126:-1 3100089:-1 3100090:-1 3100091:-1 3100092:-1 3100093:-1 3100094:-1 3100095:-1 3100096:-1 3100097:-1 3100098:-1 3100099:1 3100100:1 3100101:1 3100102:1 3100103:1 3100104:1 3100105:-1 3100106:-1 3100107:-1 3100108:-1 3100109:-1 3100110:-1 3100111:-1 3100112:-1 3100113:1 3100114:1 3100115:1 3100116:1 3100117:1 3100118:1 3100119:-1 3100120:-1 3100121:-1 3100122:-1 3100123:-1 3100124:-1 3100125:-1 3100126:-1 3200090:-1 3200091:-1 3200092:-1 3200093:-1 3200094:-1 3200095:-1 3200096:-1 3200097:-1 3200098:1 3200099:1 3200100:1 3200101:1 3200102:1 3200103:1 3200104:1 3200105:-1 3200106:-1 3200107:-1 3200108:-1 3200109:-1 3200110:-1 3200111:-1 3200112:-1 3200113:1 3200114:1 3200115:1 3200116:1 3200117:1 3200118:1 3200119:-1 3200120:-1 3200121:-1 3200122:-1 3200123:-1 3200124:-1 3200125:-1 3200126:-1 3300090:-1 3300091:-1 3300092:-1 3300093:-1 3300094:-1 3300095:-1 3300096:-1 3300097:-1 3300098:1 3300099:1 3300100:1 3300101:1 3300102:1 3300103:1 3300104:-1 3300105:-1 3300106:-1 3300107:-1 3300108:-1 3300109:-1 3300110:-1 3300111:-1 3300112:-1 3300113:-1 3300114:1 3300115:1 3300116:1 3300117:1 3300118:1 3300119:1 3300120:-1 3300121:-1 3300122:-1 3300123:-1 3300124:-1 3300125:-1 3300126:-1 3300127:-1 3400090:-1 3400091:-1 3400092:-1 3400093:-1 3400094:-1 3400095:-1 3400096:-1 3400097:-1 3400098:1 3400099:1 3400100:1 3400101:1 3400102:1 3400103:1 3400104:-1 3400105:-1 3400106:-1 3400107:-1 3400108:-1 3400109:-1 3400110:-1 3400111:-1 3400112:-1 3400113:-1 3400114:1 3400115:1 3400116:1 3400117:1 3400118:1 3400119:1 3400120:-1 3400121:-1 3400122:-1 3400123:-1 3400124:-1 3400125:-1 3400126:-1 3400127:-1 3500090:-1 3500091:-1 3500092:-1 3500093:-1 3500094:-1 3500095:-1 3500096:-1 3500097:-1 3500098:1 3500099:1 3500100:1 3500101:1 3500102:1 3500103:1 3500104:-1 3500105:-1 3500106:-1 3500107:-1 3500108:-1 3500109:-1 3500110:-1 3500111:-1 3500112:-1 3500113:-1 3500114:1 3500115:1 3500116:1 3500117:1 3500118:1 3500119:1 3500120:-1 3500121:-1 3500122:-1 3500123:-1 3500124:-1 3500125:-1 3500126:-1 3500127:-1 3600091:-1 3600092:-1 3600093:-1 3600094:-1 3600095:-1 3600096:-1 3600097:-1 3600098:1 3600099:1 3600100:1 3600101:1 3600102:1 3600103:1 3600104:-1 3600105:-1 3600106:-1 3600107:-1 3600108:-1 3600109:-1 3600110:-1 3600111:-1 3600112:-1 3600113:-1 3600114:1 3600115:1 3600116:1 3600117:1 3600118:1 3600119:1 3600120:-1 3600121:-1 3600122:-1 3600123:-1 3600124:-1 3600125:-1 3600126:-1 3600127:-1 3700091:-1 3700092:-1 3700093:-1 3700094:-1 3700095:-1 3700096:-1 3700097:-1 3700098:1 3700099:1 3700100:1 3700101:1 3700102:1 3700103:1 3700104:-1 3700105:-1 3700106:-1 3700107:-1 3700108:-1 3700109:-1 3700110:-1 3700111:-1 3700112:-1 3700113:-1 3700114:1 3700115:1 3700116:1 3700117:1 3700118:1 3700119:1 3700120:-1 3700121:-1 3700122:-1 3700123:-1 3700124:-1 3700125:-1 3700126:-1 3700127:-1 3800091:-1 3800092:-1 3800093:-1 3800094:-1 3800095:-1 3800096:-1 3800097:-1 3800098:1 3800099:1 3800100:1 3800101:1 3800102:1 3800103:1 3800104:1 3800105:-1 3800106:-1 3800107:-1 3800108:-1 3800109:-1 3800110:-1 3800111:-1 3800112:-1 3800113:1 3800114:1 3800115:1 3800116:1 3800117:1 3800118:1 3800119:1 3800120:-1 3800121:-1 3800122:-1 3800123:-1 3800124:-1 3800125:-1 3800126:-1 3800127:-1 3900091:-1 3900092:-1 3900093:-1 3900094:-1 3900095:-1 3900096:-1 3900097:-1 3900098:-1 3900099:1 3900100:1 3900101:1 3900102:1 3900103:1 3900104:1 3900105:-1 3900106:-1 3900107:-1 3900108:-1 3900109:-1 3900110:-1 3900111:-1 3900112:-1 3900113:1 3900114:1 3900115:1 3900116:1 3900117:1 3900118:1 3900119:1 3900120:-1 3900121:-1 3900122:-1 3900123:-1 3900124:-1 3900125:-1 3900126:-1 3900127:-1 4000092:-1 4000093:-1 4000094:-1 4000095:-1 4000096:-1 4000097:-1 4000098:-1 4000099:1 4000100:1 4000101:1 4000102:1 4000103:1 4000104:1 4000105:1 4000106:-1 4000107:-1 4000108:-1 4000109:-1 4000110:-1 4000111:-1 4000112:1 4000113:1 4000114:1 4000115:1 4000116:1 4000117:1 4000118:1 4000119:1 4000120:1 4000121:-1 4000122:-1 4000123:-1 4000124:-1 4000125:-1 4000126:-1 4000127:-1 4100092:-1 4100093:-1 4100094:-1 4100095:-1 4100096:-1 4100097:-1 4100098:-1 4100099:-1 4100100:1 4100101:1 4100102:1 4100103:1 4100104:1 4100105:1 4100106:1 4100107:1 4100108:1 4100109:1 4100110:1 4100111:1 4100112:1 4100113:1 4100114:1 4100115:1 4100116:1 4100117:1 4100118:1 4100119:1 4100120:-1 4100121:-1 4100122:-1 4100123:-1 4100124:-1 4100125:-1 4100126:-1 4100127:-1 4200092:-1 4200093:-1 4200094:-1 4200095:-1 4200096:-1 4200097:-1 4200098:-1 4200099:-1 4200100:1 4200101:1 4200102:1 4200103:1 4200104:1 4200105:1 4200106:1 4200107:1 4200108:1 4200109:1 4200110:1 4200111:1 4200112:1 4200113:1 4200114:1 4200115:1 4200116:1 4200117:1 4200118:1 4200119:1 4200120:-1 4200121:-1 4200122:-1 4200123:-1 4200124:-1 4200125:-1 4200126:-1 4200127:-1 4300092:-1 4300093:-1 4300094:-1 4300095:-1 4300096:-1 4300097:-1 4300098:-1 4300099:-1 4300100:-1 4300101:1 4300102:1 4300103:1 4300104:1 4300105:1 4300106:1 4300107:1 4300108:1 4300109:1 4300110:1 4300111:1 4300112:1 4300113:1 4300114:1 4300115:1 4300116:1 4300117:1 4300118:1 4300119:1 4300120:-1 4300121:-1 4300122:-1 4300123:-1 4300124:-1 4300125:-1 4300126:-1 4300127:-1 4400093:-1 4400094:-1 4400095:-1 4400096:-1 4400097:-1 4400098:-1 4400099:-1 4400100:-1 4400101:-1 4400102:1 4400103:1 4400104:1 4400105:1 4400106:1 4400107:1 4400108:1 4400109:1 4400110:1 4400111:1 4400112:-1 4400113:-1 4400114:1 4400115:1 4400116:1 4400117:1 4400118:1 4400119:1 4400120:-1 4400121:-1 4400122:-1 4400123:-1 4400124:-1 4400125:-1 4400126:-1 4400127:-1 4500093:-1 4500094:-1 4500095:-1 4500096:-1 4500097:-1 4500098:-1 4500099:-1 4500100:-1 4500101:-1 4500102:-1 4500103:-1 4500104:-1 4500105:1 4500106:1 4500107:1 4500108:1 4500109:1 4500110:-1 4500111:-1 4500112:-1 4500113:-1 4500114:1 4500115:1 4500116:1 4500117:1 4500118:1 4500119:1 4500120:-1 4500121:-1 4500122:-1 4500123:-1 4500124:-1 4500125:-1 4500126:-1 4500127:-1 4600093:-1 4600094:-1 4600095:-1 4600096:-1 4600097:-1 4600098:-1 4600099:-1 4600100:-1 4600101:-1 4600102:-1 4600103:-1 4600104:-1 4600105:-1 4600106:-1 4600107:-1 4600108:-1 4600109:-1 4600110:-1 4600111:-1 4600112:-1 4600113:-1 4600114:1 4600115:1 4600116:1 4600117:1 4600118:1 4600119:1 4600120:-1 4600121:-1 4600122:-1 4600123:-1 4600124:-1 4600125:-1 4600126:-1 4600127:-1 4700093:-1 4700094:-1 4700095:-1 4700096:-1 4700097:-1 4700098:-1 4700099:-1 4700100:-1 4700101:-1 4700102:-1 4700103:-1 4700104:-1 4700105:-1 4700106:-1 4700107:-1 4700108:-1 4700109:-1 4700110:-1 4700111:-1 4700112:-1 4700113:-1 4700114:1 4700115:1 4700116:1 4700117:1 4700118:1 4700119:-1 4700120:-1 4700121:-1 4700122:-1 4700123:-1 4700124:-1 4700125:-1 4700126:-1 4700127:-1 4800093:-1 4800094:-1 4800095:-1 4800096:-1 4800097:-1 4800098:-1 4800099:1 4800100:1 4800101:1 4800102:1 4800103:1 4800104:-1 4800105:-1 4800106:-1 4800107:-1 4800108:-1 4800109:-1 4800110:-1 4800111:-1 4800112:-1 4800113:1 4800114:1 4800115:1 4800116:1 4800117:1 4800118:1 4800119:-1 4800120:-1 4800121:-1 4800122:-1 4800123:-1 4800124:-1 4800125:-1 4800126:-1 4800127:-1 4900093:-1 4900094:-1 4900095:-1 4900096:-1 4900097:-1 4900098:-1 4900099:1 4900100:1 4900101:1 4900102:1 4900103:1 4900104:1 4900105:-1 4900106:-1 4900107:-1 4900108:-1 4900109:-1 4900110:-1 4900111:-1 4900112:-1 4900113:1 4900114:1 4900115:1 4900116:1 4900117:1 4900118:1 4900119:-1 4900120:-1 4900121:-1 4900122:-1 4900123:-1 4900124:-1 4900125:-1 4900126:-1 4900127:-1 5000093:-1 5000094:-1 5000095:-1 5000096:-1 5000097:-1 5000098:-1 5000099:1 5000100:1 5000101:1 5000102:1 5000103:1 5000104:1 5000105:-1 5000106:-1 5000107:-1 5000108:-1 5000109:-1 5000110:-1 5000111:-1 5000112:1 5000113:1 5000114:1 5000115:1 5000116:1 5000117:1 5000118:-1 5000119:-1 5000120:-1 5000121:-1 5000122:-1 5000123:-1 5000124:-1 5000125:-1 5000126:-1 5000127:-1 5100093:-1 5100094:-1 5100095:-1 5100096:-1 5100097:-1 5100098:-1 5100099:-1 5100100:1 5100101:1 5100102:1 5100103:1 5100104:1 5100105:1 5100106:1 5100107:-1 5100108:-1 5100109:-1 5100110:1 5100111:1 5100112:1 5100113:1 5100114:1 5100115:1 5100116:1 5100117:1 5100118:-1 5100119:-1 5100120:-1 5100121:-1 5100122:-1 5100123:-1 5100124:-1 5100125:-1 5100126:-1 5100127:-1 5200093:-1 5200094:-1 5200095:-1 5200096:-1 5200097:-1 5200098:-1 5200099:-1 5200100:1 5200101:1 5200102:1 5200103:1 5200104:1 5200105:1 5200106:1 5200107:1 5200108:1 5200109:1 5200110:1 5200111:1 5200112:1 5200113:1 5200114:1 5200115:1 5200116:1 5200117:-1 5200118:-1 5200119:-1 5200120:-1 5200121:-1 5200122:-1 5200123:-1 5200124:-1 5200125:-1 5200126:-1 5200127:-1 5300094:-1 5300095:-1 5300096:-1 5300097:-1 5300098:-1 5300099:-1 5300100:-1 5300101:1 5300102:1 5300103:1 5300104:1 5300105:1 5300106:1 5300107:1 5300108:1 5300109:1 5300110:1 5300111:1 5300112:1 5300113:1 5300114:1 5300115:1 5300116:-1 5300117:-1 5300118:-1 5300119:-1 5300120:-1 5300121:-1 5300122:-1 5300123:-1 5300124:-1 5300125:-1 5300126:-1 5400094:-1 5400095:-1 5400096:-1 5400097:-1 5400098:-1 5400099:-1 5400100:-1 5400101:-1 5400102:1 5400103:1 5400104:1 5400105:1 5400106:1 5400107:1 5400108:1 5400109:1 5400110:1 5400111:1 5400112:1 5400113:1 5400114:1 5400115:-1 5400116:-1 5400117:-1 5400118:-1 5400119:-1 5400120:-1 5400121:-1 5400122:-1 5400123:-1 5400124:-1 5400125:-1 5400126:-1 5500094:-1 5500095:-1 5500096:-1 5500097:-1 5500098:-1 5500099:-1 5500100:-1 5500101:-1 5500102:-1 5500103:-1 5500104:1 5500105:1 5500106:1 5500107:1 5500108:1 5500109:1 5500110:1 5500111:1 5500112:1 5500113:-1 5500114:-1 5500115:-1 5500116:-1 5500117:-1 5500118:-1 5500119:-1 5500120:-1 5500121:-1 5500122:-1 5500123:-1 5500124:-1 5500125:-1 5500126:-1 5600097:-1 5600098:-1 5600099:-1 5600100:-1 5600101:-1 5600102:-1 5600103:-1 5600104:-1 5600105:-1 5600106:-1 5600107:-1 5600108:1 5600109:-1 5600110:-1 5600111:-1 5600112:-1 5600113:-1 5600114:-1 5600115:-1 5600116:-1 5600117:-1 5600118:-1 5600119:-1 5600120:-1 5600121:-1 5600122:-1 5600123:-1 5700098:-1 5700099:-1 5700100:-1 5700101:-1 5700102:-1 5700103:-1 5700117:-1 5700118:-1 5700119:-1 5700120:-1 5700121:-1 5700122:-1 5700123:-1 
