svm_type c_svc
kernel_type rbf
gamma 0.00012207
nr_class 50
total_sv 196
rho -0.042619 -0.0590984 -0.0536025 -0.0196975 -0.0547514 0.0032295 -0.0387235 -0.105284 0.0200402 -0.0307216 -0.0531722 -0.08293 -0.0352315 0.0308504 -0.0269695 -0.0419672 -0.0767116 -0.0637901 -0.0689891 -0.000468072 -0.0522885 -0.00834373 -0.0515368 0.00376717 -0.0862502 -0.072732 -0.0140215 -0.0629244 -0.0753878 -0.0447408 -0.0259626 0.0181206 -0.0713983 -0.06243 -0.0584381 -0.0937541 0.00938926 -0.13222 -0.0961283 -0.0895719 -0.106101 -0.0820365 -0.152821 -0.0927013 -0.024413 -0.131514 -0.106528 -0.0250569 -0.0944657 -0.00942902 -0.00715802 0.0419914 -0.00512702 0.0475605 0.0252171 -0.0852872 0.0629661 0.0258808 -0.0315894 -0.0309228 0.00613204 0.0708386 0.00985338 -0.0170801 -0.0443018 -0.0311648 -0.0317452 0.0493737 0.00216308 0.141092 -0.0176457 0.0736028 -0.0694697 -0.0319344 0.0147002 0.00345855 -0.0209617 0.00613156 0.0209146 0.0503196 -0.0126974 -0.000761843 0.00308202 -0.0980797 0.0365046 -0.0286588 -0.0374711 -0.0331611 -0.0480143 -0.0472763 -0.0849805 -0.0336952 -0.00241845 -0.0955585 -0.0861933 0.0112281 -0.067896 0.008811 0.030965 0.00474366 0.05804 0.0153965 -0.0401687 0.0585407 0.0486902 -0.00299523 -0.00153333 0.053662 0.0455095 0.0289547 -0.00641316 -0.0310313 -0.0263989 -0.00610733 0.0359402 0.0191328 0.0573137 -0.0172634 0.0790259 -0.0301034 -0.00947453 0.0216082 -0.000944945 -0.00992954 -0.00685171 0.0241031 0.0488402 -0.0286208 0.0103089 0.00777763 -0.0318849 0.0716642 -0.0301239 -0.0471095 -0.0379453 -0.0332998 -0.0383168 -0.0784878 -0.00320681 0.0080692 -0.0417519 -0.0335379 0.0182962 -0.0435111 0.0236709 -0.00965295 0.0672973 0.0143542 -0.0497699 0.041281 0.0294816 -0.0123114 -0.0130718 0.00501244 0.053716 0.0219361 -0.0025674 -0.0319213 -0.0238574 -0.00114952 0.0378536 0.0113753 0.0402747 0.0352348 0.0727684 -0.0364967 -0.0107173 0.0250169 -0.00309231 -0.00868906 0.00113837 0.0297217 0.050266 -0.0155353 0.00322324 0.0224303 -0.0392123 0.0492432 -0.014384 -0.0273479 -0.0303287 -0.037027 -0.0458988 -0.0634349 -0.0313541 0.0100129 -0.0442906 -0.048838 0.0194254 -0.0435454 -0.0312379 0.0221038 0.00710239 -0.193002 0.0328485 -0.0204449 -0.0618877 -0.0990624 -0.0107767 0.0451147 -0.0141355 -0.0606121 -0.0875991 -0.0780131 -0.0503574 0.000570943 -0.0269738 0.00574412 -0.0320877 0.0424102 -0.116771 -0.0600102 -0.0375892 -0.0226315 -0.0628393 -0.0434643 -0.0108758 0.0307695 -0.0474635 -0.0213171 -0.0319928 -0.11654 0.0128484 -0.0578896 -0.0615398 -0.0708511 -0.102432 -0.0785788 -0.100555 -0.0802848 -0.0244621 -0.122968 -0.145416 -0.0166745 -0.126178 0.0674366 0.0118333 -0.0543382 0.077252 0.0430419 -0.0138536 -0.0194484 0.0319803 0.0452723 0.0145941 -0.00541083 -0.0504978 -0.0273966 -0.00439578 0.0379297 0.0091018 0.0360533 -0.0106864 0.115963 -0.0502381 -0.0247327 0.0237326 0.0220585 -0.0211486 -0.0071121 0.0293256 0.0495282 -0.040102 0.00716918 -0.011061 -0.0422768 0.0543613 -0.0309834 -0.0371665 -0.0571108 -0.0320338 -0.0475147 -0.0764792 -0.0524047 0.00491399 -0.0511706 -0.0622911 0.0142354 -0.0403735 -0.042756 -0.0958042 -0.0151246 -0.0309822 -0.0550752 -0.0788853 -0.0390432 0.00175303 -0.041763 -0.0557721 -0.0635686 -0.0664182 -0.0543767 -0.00427339 -0.0496265 -0.0195777 -0.065992 -0.0188343 -0.116235 -0.0590352 -0.0267597 -0.0635913 -0.0942151 -0.0502045 -0.0364529 0.0143827 -0.0637692 -0.073309 -0.0552075 -0.110323 -0.0227137 -0.0614893 -0.121087 -0.110716 -0.0635556 -0.115227 -0.0883983 -0.0793188 -0.0844047 -0.0980472 -0.118295 -0.0297508 -0.0909007 -0.120605 0.0488052 0.00287172 -0.029957 -0.0838854 -0.00208575 0.0648037 0.00394638 -0.0268169 -0.0585737 -0.0432064 -0.0277856 0.0478433 -0.0148539 0.0262658 -0.0257079 0.0677041 -0.0809862 -0.0249497 0.00282389 -0.00960414 -0.0306319 -0.026767 0.011019 0.0458561 -0.0367355 -0.0144343 -0.0266511 -0.0760707 0.0272856 -0.0383735 -0.0531037 -0.0472816 -0.0678783 -0.0689247 -0.0813457 -0.0810285 -0.010019 -0.0828518 -0.125947 -0.0116138 -0.0931421 0.107553 0.0940186 0.0706074 0.0733222 0.0655993 0.153127 0.04544 0.06013 0.0234041 0.0400559 0.0602236 0.36713 0.0759443 0.124195 0.0477137 0.121397 0.0145911 0.0658084 0.0727842 0.0622302 0.0392156 0.119834 0.0719802 0.0939898 0.0432897 0.0577824 0.0444963 0 0.0992472 0.0355516 0.0176393 0.0278737 0.0376902 0.0132248 0 0.0219154 0.0373524 0 0 0.0663628 0 -0.0475927 -0.0565021 -0.0831361 -0.0297184 0.0148569 -0.0150301 -0.0562157 -0.104248 -0.0712263 -0.0815597 -0.0222165 -0.0599962 -0.0336215 -0.052634 -0.0352326 -0.124401 -0.0717912 -0.024943 -0.0591801 -0.0819432 -0.0583932 -0.0519593 0.0110407 -0.0671877 -0.0599874 -0.0556527 -0.133662 -0.0411473 -0.0861427 -0.0940714 -0.0941591 -0.0836223 -0.124378 -0.132874 -0.0926625 -0.041956 -0.123752 -0.119381 0.00758628 -0.12921 -0.0370246 -0.013335 -0.0123923 0.0424962 -0.00210197 -0.0250584 -0.0501547 -0.0528114 -0.0403947 0.0295183 -0.0376756 0.0143313 -0.0329807 0.0347025 -0.0931484 -0.0506895 0.00426453 -0.0356044 -0.0435357 -0.0148926 0.000953748 0.0426271 -0.0383811 -0.0774702 -0.0214492 -0.0804614 0.0242908 -0.0459292 -0.0630112 -0.0579784 -0.052519 -0.0666123 -0.0882778 -0.0964966 -0.0182593 -0.101845 -0.104346 -0.0107378 -0.0653199 -0.00945825 0.0257697 0.147621 0.0143251 -0.000324869 -0.0208307 0.00212521 0.000937901 0.0810787 0.0300248 0.0661194 0.00591853 0.0702524 -0.0385394 0.00254844 0.0423307 0.0111806 0.00202249 0.00887127 0.0238389 0.060575 0.000375793 0.0135725 0.00635784 -0.118451 0.0437986 -0.00853759 -0.0174905 -0.0132489 -0.0126595 -0.0322347 -0.0380521 -0.0185723 0.00807524 -0.0527067 -0.0473747 0.0760654 -0.081194 0.0292299 0.0951045 0.0228706 0.0188416 -0.0227545 -0.00768777 0.0155717 0.0974615 0.0291208 0.0662886 0.00517077 0.122113 -0.034847 0.00407638 0.0489509 0.0314363 -0.010087 0.0276547 0.0333418 0.0625654 -0.00331219 0.0217053 0.00450219 -0.0425461 0.0683619 -0.00469202 -0.0179698 0.00104927 -0.0288486 -0.0307006 -0.0385048 -0.0324435 0.011927 -0.058525 -0.0587351 0.0261512 -0.0484084 0.0409267 0.0143335 -0.0161158 -0.0523602 -0.0418225 -0.0350139 0.0171301 -0.00123084 0.046679 0.0277274 0.0526265 -0.0460818 -0.030607 0.00780642 -0.0235048 -0.0292911 -0.0255377 0.0102867 0.0437884 -0.0595706 -0.0263431 -0.0315903 -0.0508516 0.0203678 -0.0431188 -0.0559237 -0.0544549 -0.0628181 -0.0649023 -0.0953833 -0.0196356 -0.00741661 -0.0647327 -0.0491594 0.00705302 -0.0570601 -0.0474927 -0.235292 -0.107325 -0.192075 -0.0699748 -0.0394206 -0.0612383 -0.0458712 -0.0578078 0.00102844 -0.111308 -0.0980866 -0.0741933 -0.0413909 -0.0681251 -0.0724024 -0.0396667 -0.000709486 -0.0781834 -0.055283 -0.0705425 -0.187734 -0.028069 -0.0707654 -0.0735045 -0.0713325 -0.114367 -0.089621 -0.0990703 -0.112327 -0.0500089 -0.128902 -0.125568 -0.0386248 -0.195617 -0.0180944 -0.0355102 -0.0231856 -0.0121719 0.0179688 -0.00392456 0.00879384 -0.0217755 0.0282115 -0.0375486 -0.0186315 0.00993096 -0.00430901 -0.0147115 -0.00919003 0.0262865 0.0413298 -0.0360646 -0.0119418 -0.0401854 -0.0494038 0.0265012 -0.0302678 -0.0365081 -0.0247038 -0.0324439 -0.035854 -0.0570133 -0.0335546 -0.0116936 -0.049978 -0.0429214 0.0138484 -0.0487928 -0.029735 -0.0169421 -0.00438466 0.0688216 0.022062 0.0467395 3.72819e-05 0.0538355 -0.0357634 0.00452458 0.05287 0.0142193 -0.00149251 0.01784 0.0424523 0.0581233 -0.0111815 0.00319601 -0.0049341 -0.0615115 0.0304288 -0.0129346 -0.0207236 -0.0148493 -0.0261345 -0.0253771 -0.0416343 -0.0295297 0.00872568 -0.0443741 -0.0512227 0.0459694 -0.0549188 0.0200099 0.0286913 0.0868507 0.0476576 0.105099 0.0318297 0.0802411 -0.00930773 0.0275018 0.049287 0.0383309 0.0165419 0.0604654 0.0502464 0.0652994 0.0109438 0.0298458 0.035354 -0.0247665 0.0572777 0.0157964 -0.00102523 0.0104581 -0.0121179 -0.0106362 -0.030219 0.00432927 0.0266446 -0.0228963 -0.0216906 0.0471268 -0.0258922 0.0137196 0.102087 0.0439459 0.038182 0.0222891 0.0737649 -0.0188909 0.0186467 0.117931 0.0346526 0.013613 0.0345087 0.0571609 0.0755497 0.0151801 0.0281063 0.0154576 -0.0586959 0.0545429 0.00742931 -0.00219565 0.00467539 -0.00217766 -0.0184732 -0.0155396 -0.00380701 0.0124208 -0.036935 -0.0299339 0.0704022 -0.0436091 0.0510721 0.023226 0.0605641 0.00643732 0.0744456 -0.0611297 0.00557841 0.0326962 0.0182042 -0.0188461 0.0192958 0.0467318 0.0659866 -0.00844838 0.0106833 0.00344449 -0.0416513 0.0809344 -0.0132401 -0.0351735 -0.0245602 -0.0364244 -0.0463748 -0.076564 -0.0582143 0.0117505 -0.0450254 -0.0718374 0.013783 -0.043796 -0.0444766 -0.00297048 -0.0328316 0.0186379 -0.116485 -0.0923691 -0.050309 -0.0443911 -0.0841451 -0.0654761 -0.0282291 0.0240601 -0.0705156 -0.0460802 -0.0494167 -0.14285 -0.00534832 -0.0655235 -0.0714385 -0.0752022 -0.122175 -0.080039 -0.104255 -0.0921576 -0.0268114 -0.158712 -0.144653 -0.0385223 -0.145207 0.0236503 -0.018693 0.0386503 -0.0893281 -0.0275778 -0.0134722 0.00216951 -0.0253494 -0.00970281 0.00898966 0.0453759 -0.0256476 -0.00823834 -0.0192533 -0.0717911 0.0278061 -0.0345356 -0.0492065 -0.0320147 -0.0454102 -0.0384387 -0.0618891 -0.0655233 -0.0139676 -0.0693709 -0.12195 -0.0232015 -0.0708353 -0.0594912 0.0111389 -0.0789783 -0.0581109 -0.0116177 -0.0275706 -0.0460121 -0.0287318 -0.00507135 0.0289782 -0.0688802 -0.0330199 -0.0657095 -0.112787 -0.00393705 -0.0646495 -0.0686326 -0.0604783 -0.110648 -0.0725375 -0.112324 -0.134634 -0.0226485 -0.0902802 -0.0961335 -0.043851 -0.111211 0.0857083 -0.0172656 0.00030613 0.0218017 0.00448292 -0.00844224 -0.00286844 0.0279997 0.0557154 -0.0280826 0.0101711 0.0364319 -0.0326087 0.0561986 -0.0229859 -0.0248559 -0.0273394 -0.036873 -0.0382857 -0.0802234 -0.0164217 0.00811415 -0.0408859 -0.0377786 0.020664 -0.0429359 -0.113472 -0.0858874 -0.0238148 -0.0918948 -0.108392 -0.0825217 -0.0251754 0.0205673 -0.0969648 -0.0887273 -0.0700692 -0.0999113 -0.0102933 -0.093691 -0.141357 -0.199264 -0.106954 -0.116224 -0.138948 -0.108341 -0.0389101 -0.121308 -0.128749 -0.0381342 -0.0991011 0.0385966 0.0722667 0.0661946 0.0509207 0.0504626 0.0892865 0.0807331 0.0193584 0.0585268 0.0255262 -0.0106548 0.0944237 0.0216955 0.014288 0.0254075 0.012225 0.00826228 -0.0124656 0.0168938 0.0393043 -0.0107913 -0.0596264 0.0473448 -0.0116169 0.0314126 0.0291729 0.015645 0.0240814 0.0291094 0.065464 0.00491335 0.0417307 0.00134786 -0.126008 0.0695928 -0.00813059 -0.0136668 -0.00289482 0.00854701 -0.0294281 -0.051999 -0.0186438 0.00242997 -0.0273849 -0.0474332 0.0498853 -0.0527934 -0.0177791 -0.0294123 -0.0128122 -0.00619883 0.04434 -0.0320735 -0.031941 -0.0295271 -0.0880506 0.0113506 -0.0391935 -0.0458583 -0.0470401 -0.0455055 -0.0464471 -0.0613423 -0.0726997 -0.0214339 -0.0676279 -0.0979836 0.0307568 -0.0688117 -0.0273546 -0.00741549 0.021525 0.0494429 -0.0281219 -0.00254193 -0.0123759 -0.0488737 0.0864485 -0.0220259 -0.0620276 -0.125776 -0.0465526 -0.0600475 -0.0645181 -0.0580063 -0.00572385 -0.0718141 -0.0748864 0.0120294 -0.0462909 0.0143185 0.0305682 0.0654267 -0.011647 0.0321959 0.00431426 -0.044646 0.0827771 -0.00282466 -0.0256109 -0.0127797 -0.0212403 -0.038594 -0.0392171 -0.0159435 0.00782166 -0.0512288 -0.0509379 0.02034 -0.0369288 0.0151868 0.0457119 -0.0333738 0.00441667 -0.0159889 -0.0649208 0.0454008 -0.027367 -0.0436294 -0.0312423 -0.0691808 -0.05283 -0.0660029 -0.0452408 -0.00188992 -0.0770075 -0.0690056 0.00839819 -0.0446369 0.0297984 -0.0318453 -0.0248708 -0.0356581 -0.0838202 0.00849576 -0.0403329 -0.0553584 -0.0504593 -0.0499776 -0.0732204 -0.0706368 -0.0584241 -0.03079 -0.0761923 -0.0855764 0.0245324 -0.07735 -0.0547224 -0.0534573 -0.0552258 -0.0934031 -0.0343753 -0.064383 -0.0720157 -0.0719147 -0.0696383 -0.0809234 -0.0781491 -0.0760541 -0.0492051 -0.10073 -0.0915424 -0.0501401 -0.0901089 0.0239127 0.011764 -0.0331982 0.070345 -0.00657149 -0.0174972 -0.00726778 -0.0258986 -0.026157 -0.0798241 -0.0102947 0.0161369 -0.0386503 -0.0310121 0.0238528 -0.0332957 -0.00885685 -0.0461038 0.0689673 -0.0221515 -0.0599513 -0.0630318 -0.0399144 -0.0463223 -0.0619296 -0.0594363 0.00217569 -0.0609516 -0.0679651 0.0111389 -0.0385827 -0.035883 0.0521708 -0.0195958 -0.0163943 -0.0182251 -0.0213334 -0.0319752 -0.0739185 -0.0243222 0.0081041 -0.0433302 -0.03962 0.0248424 -0.0430336 0.0770803 0.0278037 0.0177273 0.0207781 0.0211723 0.0140806 0 0.0249729 0.0409453 0 0 0.202424 0 -0.120344 -0.107638 -0.0934426 -0.0941164 -0.0905303 -0.193454 -0.0924299 -0.0184534 -0.110294 -0.105245 -0.0158089 -0.0738637 -0.0149354 -0.00833495 -0.0139407 -0.0200641 -0.107274 -0.0116464 0.0139989 -0.0336467 -0.0358388 0.0338486 -0.0327917 0.00427845 -0.000350485 -0.0166366 -0.0243563 0.00595385 0.0312055 -0.0248619 -0.0238486 0.0430504 -0.0170981 -0.00291523 -0.0144018 -0.0312657 -0.0224812 0.0196714 -0.0393192 -0.0382076 0.0403615 -0.0237783 -0.0114269 -0.0303818 0.00227692 0.0258492 -0.0316716 -0.0273048 0.0404236 -0.0228655 -0.0118301 0.00961892 0.0447817 -0.0163449 -0.016039 0.0650024 -0.0105433 0.0284941 0.0382613 0 0 0.0614282 0 0.0291053 -0.0273818 -0.0374261 0.0445922 -0.0262325 -0.0355321 -0.0445054 0.0275126 -0.0362053 0 0.0831303 0 0.0530766 0 -0.0897637
label 58 42 28 22 9 36 33 6 10 47 31 38 7 30 43 23 39 62 40 21 17 14 41 16 29 18 52 57 15 24 4 50 49 8 13 56 54 32 61 5 11 3 37 35 48 59 26 12 44 55
nr_sv 9 6 5 5 6 6 9 7 1 5 8 3 5 5 6 6 3 2 2 2 3 4 2 7 9 2 2 3 7 3 3 7 4 2 5 5 1 5 2 2 2 2 2 1 2 2 1 1 3 1
SV
0.675767341646043 0.3335614160351507 0 0.1449910849155993 0 0 0 0 0 0 0 0 0.03911347363714121 0 0 0 0 0 0.8805958172948409 0 0 0.1987510677848772 0.1189790996912506 0.06704653317378238 0 0 0 0 0 0 0 0 0 0 0.08624673120207561 0 2.451390175459257 2.166481396960576 0.02627772417627458 0 0 0.05085909602207533 1.084916431762978 1.335037890975561 0 0 0 0 0 2300105:-1 2300106:-1 2300107:-1 2300108:-1 2300109:-1 2300110:-1 2400096:-1 2400097:-1 2400098:-1 2400099:-1 2400100:-1 2400101:-1 2400102:-1 2400103:-1 2400104:-1 2400105:-1 2400106:-1 2400107:-1 2400108:-1 2400109:-1 2400110:-1 2400111:-1 2400112:-1 2400113:-1 2400114:-1 2400115:-1 2400116:-1 2400117:-1 2400118:-1 2400119:-1 2400120:-1 2400121:-1 2400122:-1 2400123:-1 2500095:1 2500096:1 2500097:1 2500098:1 2500099:1 2500100:1 2500101:1 2500102:-1 2500103:-1 2500104:-1 2500105:-1 2500106:-1 2500107:-1 2500108:-1 2500109:-1 2500110:-1 2500111:-1 2500112:-1 2500113:-1 2500114:-1 2500115:-1 2500116:1 2500117:1 2500118:1 2500119:1 2500120:1 2500121:-1 2500122:-1 2500123:-1 2500124:-1 2500125:-1 2500126:-1 2500127:-1 2600088:-1 2600089:-1 2600090:-1 2600091:-1 2600092:-1 2600093:-1 2600094:-1 2600095:1 2600096:1 2600097:1 2600098:1 2600099:1 2600100:1 2600101:1 2600102:-1 2600103:-1 2600104:-1 2600105:-1 2600106:-1 2600107:-1 2600108:-1 2600109:-1 2600110:-1 2600111:-1 2600112:-1 2600113:-1 2600114:-1 2600115:1 2600116:1 2600117:1 2600118:1 2600119:1 2600120:1 2600121:-1 2600122:-1 2600123:-1 2600124:-1 2600125:-1 2600126:-1 2600127:-1 2600128:-1 2700088:-1 2700089:-1 2700090:-1 2700091:-1 2700092:-1 2700093:-1 2700094:-1 2700095:1 2700096:1 2700097:1 2700098:1 2700099:1 2700100:1 2700101:1 2700102:-1 2700103:-1 2700104:-1 2700105:-1 2700106:-1 2700107:-1 2700108:-1 2700109:-1 2700110:-1 2700111:-1 2700112:-1 2700113:-1 2700114:-1 2700115:1 2700116:1 2700117:1 2700118:1 2700119:1 2700120:1 2700121:-1 2700122:-1 2700123:-1 2700124:-1 2700125:-1 2700126:-1 2700127:-1 2800089:-1 2800090:-1 2800091:-1 2800092:-1 2800093:-1 2800094:-1 2800095:-1 2800096:1 2800097:1 2800098:1 2800099:1 2800100:1 2800101:1 2800102:1 2800103:-1 2800104:-1 2800105:-1 2800106:-1 2800107:-1 2800108:-1 2800109:-1 2800110:-1 2800111:-1 2800112:-1 2800113:-1 2800114:1 2800115:1 2800116:1 2800117:1 2800118:1 2800119:1 2800120:1 2800121:-1 2800122:-1 2800123:-1 2800124:-1 2800125:-1 2800126:-1 2800127:-1 2900089:-1 2900090:-1 2900091:-1 2900092:-1 2900093:-1 2900094:-1 2900095:-1 2900096:1 2900097:1 2900098:1 2900099:1 2900100:1 2900101:1 2900102:1 2900103:-1 2900104:-1 2900105:-1 2900106:-1 2900107:-1 2900108:-1 2900109:-1 2900110:-1 2900111:-1 2900112:-1 2900113:-1 2900114:1 2900115:1 2900116:1 2900117:1 2900118:1 2900119:1 2900120:-1 2900121:-1 2900122:-1 2900123:-1 2900124:-1 2900125:-1 2900126:-1 2900127:-1 3000089:-1 3000090:-1 3000091:-1 3000092:-1 3000093:-1 3000094:-1 3000095:-1 3000096:-1 3000097:1 3000098:1 3000099:1 3000100:1 3000101:1 3000102:1 3000103:-1 3000104:-1 3000105:-1 3000106:-1 3000107:-1 3000108:-1 3000109:-1 3000110:-1 3000111:-1 3000112:-1 3000113:-1 3000114:1 3000115:1 3000116:1 3000117:1 3000118:1 3000119:1 3000120:-1 3000121:-1 3000122:-1 3000123:-1 3000124:-1 3000125:-1 3000126:-1 3000127:-1 3100089:-1 3100090:-1 3100091:-1 3100092:-1 3100093:-1 3100094:-1 3100095:-1 3100096:-1 3100097:1 3100098:1 3100099:1 3100100:1 3100101:1 3100102:1 3100103:1 3100104:-1 3100105:-1 3100106:-1 3100107:-1 3100108:-1 3100109:-1 3100110:-1 3100111:-1 3100112:-1 3100113:1 3100114:1 3100115:1 3100116:1 3100117:1 3100118:1 3100119:1 3100120:-1 3100121:-1 3100122:-1 3100123:-1 3100124:-1 3100125:-1 3100126:-1 3100127:-1 3200089:-1 3200090:-1 3200091:-1 3200092:-1 3200093:-1 3200094:-1 3200095:-1 3200096:-1 3200097:1 3200098:1 3200099:1 3200100:1 3200101:1 3200102:1 3200103:1 3200104:-1 3200105:-1 3200106:-1 3200107:-1 3200108:-1 3200109:-1 3200110:-1 3200111:-1 3200112:-1 3200113:1 3200114:1 3200115:1 3200116:1 3200117:1 3200118:1 3200119:-1 3200120:-1 3200121:-1 3200122:-1 3200123:-1 3200124:-1 3200125:-1 3200126:-1 3200127:-1 3300090:-1 3300091:-1 3300092:-1 3300093:-1 3300094:-1 3300095:-1 3300096:-1 3300097:-1 3300098:1 3300099:1 3300100:1 3300101:1 3300102:1 3300103:1 3300104:-1 3300105:-1 3300106:-1 3300107:-1 3300108:-1 3300109:-1 3300110:-1 3300111:-1 3300112:-1 3300113:1 3300114:1 3300115:1 3300116:1 3300117:1 3300118:1 3300119:-1 3300120:-1 3300121:-1 3300122:-1 3300123:-1 3300124:-1 3300125:-1 3300126:-1 3300127:-1 3400090:-1 3400091:-1 3400092:-1 3400093:-1 3400094:-1 3400095:-1 3400096:-1 3400097:-1 3400098:1 3400099:1 3400100:1 3400101:1 3400102:1 3400103:1 3400104:1 3400105:-1 3400106:-1 3400107:-1 3400108:-1 3400109:-1 3400110:-1 3400111:-1 3400112:-1 3400113:1 3400114:1 3400115:1 3400116:1 3400117:1 3400118:1 3400119:-1 3400120:-1 3400121:-1 3400122:-1 3400123:-1 3400124:-1 3400125:-1 3400126:-1 3400127:-1 3500090:-1 3500091:-1 3500092:-1 3500093:-1 3500094:-1 3500095:-1 3500096:-1 3500097:-1 3500098:1 3500099:1 3500100:1 3500101:1 3500102:1 3500103:1 3500104:1 3500105:-1 3500106:-1 3500107:-1 3500108:-1 3500109:-1 3500110:-1 3500111:-1 3500112:1 3500113:1 3500114:1 3500115:1 3500116:1 3500117:1 3500118:-1 3500119:-1 3500120:-1 3500121:-1 3500122:-1 3500123:-1 3500124:-1 3500125:-1 3500126:-1 3500127:-1 3600091:-1 3600092:-1 3600093:-1 3600094:-1 3600095:-1 3600096:-1 3600097:-1 3600098:-1 3600099:1 3600100:1 3600101:1 3600102:1 3600103:1 3600104:1 3600105:-1 3600106:-1 3600107:-1 3600108:-1 3600109:-1 3600110:-1 3600111:-1 3600112:1 3600113:1 3600114:1 3600115:1 3600116:1 3600117:1 3600118:-1 3600119:-1 3600120:-1 3600121:-1 3600122:-1 3600123:-1 3600124:-1 3600125:-1 3600126:-1 3600127:-1 3700091:-1 3700092:-1 3700093:-1 3700094:-1 3700095:-1 3700096:-1 3700097:-1 3700098:-1 3700099:1 3700100:1 3700101:1 3700102:1 3700103:1 3700104:1 3700105:1 3700106:-1 3700107:-1 3700108:-1 3700109:-1 3700110:-1 3700111:-1 3700112:1 3700113:1 3700114:1 3700115:1 3700116:1 3700117:1 3700118:-1 3700119:-1 3700120:-1 3700121:-1 3700122:-1 3700123:-1 3700124:-1 3700125:-1 3700126:-1 3700127:-1 3800091:-1 3800092:-1 3800093:-1 3800094:-1 3800095:-1 3800096:-1 3800097:-1 3800098:-1 3800099:1 3800100:1 3800101:1 3800102:1 3800103:1 3800104:1 3800105:1 3800106:-1 3800107:-1 3800108:-1 3800109:-1 3800110:-1 3800111:1 3800112:1 3800113:1 3800114:1 3800115:1 3800116:1 3800117:-1 3800118:-1 3800119:-1 3800120:-1 3800121:-1 3800122:-1 3800123:-1 3800124:-1 3800125:-1 3800126:-1 3800127:-1 3900091:-1 3900092:-1 3900093:-1 3900094:-1 3900095:-1 3900096:-1 3900097:-1 3900098:-1 3900099:1 3900100:1 3900101:1 3900102:1 3900103:1 3900104:1 3900105:1 3900106:-1 3900107:-1 3900108:-1 3900109:-1 3900110:-1 3900111:1 3900112:1 3900113:1 3900114:1 3900115:1 3900116:1 3900117:-1 3900118:-1 3900119:-1 3900120:-1 3900121:-1 3900122:-1 3900123:-1 3900124:-1 3900125:-1 3900126:-1 3900127:-1 4000092:-1 4000093:-1 4000094:-1 4000095:-1 4000096:-1 4000097:-1 4000098:-1 4000099:-1 4000100:1 4000101:1 4000102:1 4000103:1 4000104:1 4000105:1 4000106:1 4000107:-1 4000108:-1 4000109:-1 4000110:-1 4000111:1 4000112:1 4000113:1 4000114:1 4000115:1 4000116:1 4000117:-1 4000118:-1 4000119:-1 4000120:-1 4000121:-1 4000122:-1 4000123:-1 4000124:-1 4000125:-1 4000126:-1 4000127:-1 4100092:-1 4100093:-1 4100094:-1 4100095:-1 4100096:-1 4100097:-1 4100098:-1 4100099:-1 4100100:1 4100101:1 4100102:1 4100103:1 4100104:1 4100105:1 4100106:1 4100107:-1 4100108:-1 4100109:-1 4100110:1 4100111:1 4100112:1 4100113:1 4100114:1 4100115:1 4100116:-1 4100117:-1 4100118:-1 4100119:-1 4100120:-1 4100121:-1 4100122:-1 4100123:-1 4100124:-1 4100125:-1 4100126:-1 4100127:-1 4200092:-1 4200093:-1 4200094:-1 4200095:-1 4200096:-1 4200097:-1 4200098:-1 4200099:-1 4200100:1 4200101:1 4200102:1 4200103:1 4200104:1 4200105:1 4200106:1 4200107:-1 4200108:-1 4200109:-1 4200110:1 4200111:1 4200112:1 4200113:1 4200114:1 4200115:1 4200116:-1 4200117:-1 4200118:-1 4200119:-1 4200120:-1 4200121:-1 4200122:-1 4200123:-1 4200124:-1 4200125:-1 4200126:-1 4200127:-1 4300092:-1 4300093:-1 4300094:-1 4300095:-1 4300096:-1 4300097:-1 4300098:-1 4300099:-1 4300100:-1 4300101:1 4300102:1 4300103:1 4300104:1 4300105:1 4300106:1 4300107:-1 4300108:-1 4300109:-1 4300110:1 4300111:1 4300112:1 4300113:1 4300114:1 4300115:1 4300116:-1 4300117:-1 4300118:-1 4300119:-1 4300120:-1 4300121:-1 4300122:-1 4300123:-1 4300124:-1 4300125:-1 4300126:-1 4300127:-1 4400093:-1 4400094:-1 4400095:-1 4400096:-1 4400097:-1 4400098:-1 4400099:-1 4400100:-1 4400101:1 4400102:1 4400103:1 4400104:1 4400105:1 4400106:1 4400107:1 4400108:-1 4400109:1 4400110:1 4400111:1 4400112:1 4400113:1 4400114:1 4400115:1 4400116:-1 4400117:-1 4400118:-1 4400119:-1 4400120:-1 4400121:-1 4400122:-1 4400123:-1 4400124:-1 4400125:-1 4400126:-1 4400127:-1 4500093:-1 4500094:-1 4500095:-1 4500096:-1 4500097:-1 4500098:-1 4500099:-1 4500100:-1 4500101:1 4500102:1 4500103:1 4500104:1 4500105:1 4500106:1 4500107:1 4500108:-1 4500109:1 4500110:1 4500111:1 4500112:1 4500113:1 4500114:1 4500115:-1 4500116:-1 4500117:-1 4500118:-1 4500119:-1 4500120:-1 4500121:-1 4500122:-1 4500123:-1 4500124:-1 4500125:-1 4500126:-1 4500127:-1 4600093:-1 4600094:-1 4600095:-1 4600096:-1 4600097:-1 4600098:-1 4600099:-1 4600100:-1 4600101:-1 4600102:1 4600103:1 4600104:1 4600105:1 4600106:1 4600107:1 4600108:1 4600109:1 4600110:1 4600111:1 4600112:1 4600113:1 4600114:1 4600115:-1 4600116:-1 4600117:-1 4600118:-1 4600119:-1 4600120:-1 4600121:-1 4600122:-1 4600123:-1 4600124:-1 4600125:-1 4600126:-1 4600127:-1 4700093:-1 4700094:-1 4700095:-1 4700096:-1 4700097:-1 4700098:-1 4700099:-1 4700100:-1 4700101:-1 4700102:1 4700103:1 4700104:1 4700105:1 4700106:1 4700107:1 4700108:1 4700109:1 4700110:1 4700111:1 4700112:1 4700113:1 4700114:1 4700115:-1 4700116:-1 4700117:-1 4700118:-1 4700119:-1 4700120:-1 4700121:-1 4700122:-1 4700123:-1 4700124:-1 4700125:-1 4700126:-1 4700127:-1 4800093:-1 4800094:-1 4800095:-1 4800096:-1 4800097:-1 4800098:-1 4800099:-1 4800100:-1 4800101:-1 4800102:1 4800103:1 4800104:1 4800105:1 4800106:1 4800107:1 4800108:1 4800109:1 4800110:1 4800111:1 4800112:1 4800113:1 4800114:-1 4800115:-1 4800116:-1 4800117:-1 4800118:-1 4800119:-1 4800120:-1 4800121:-1 4800122:-1 4800123:-1 4800124:-1 4800125:-1 4800126:-1 4800127:-1 4900093:-1 4900094:-1 4900095:-1 4900096:-1 4900097:-1 4900098:-1 4900099:-1 4900100:-1 4900101:-1 4900102:-1 4900103:1 4900104:1 4900105:1 4900106:1 4900107:1 4900108:1 4900109:1 4900110:1 4900111:1 4900112:1 4900113:1 4900114:-1 4900115:-1 4900116:-1 4900117:-1 4900118:-1 4900119:-1 4900120:-1 4900121:-1 4900122:-1 4900123:-1 4900124:-1 4900125:-1 4900126:-1 4900127:-1 5000093:-1 5000094:-1 5000095:-1 5000096:-1 5000097:-1 5000098:-1 5000099:-1 5000100:-1 5000101:-1 5000102:-1 5000103:1 5000104:1 5000105:1 5000106:1 5000107:1 5000108:1 5000109:1 5000110:1 5000111:1 5000112:1 5000113:1 5000114:-1 5000115:-1 5000116:-1 5000117:-1 5000118:-1 5000119:-1 5000120:-1 5000121:-1 5000122:-1 5000123:-1 5000124:-1 5000125:-1 5000126:-1 5000127:-1 5100093:-1 5100094:-1 5100095:-1 5100096:-1 5100097:-1 5100098:-1 5100099:-1 5100100:-1 5100101:-1 5100102:-1 5100103:1 5100104:1 5100105:1 5100106:1 5100107:1 5100108:1 5100109:1 5100110:1 5100111:1 5100112:1 5100113:-1 5100114:-1 5100115:-1 5100116:-1 5100117:-1 5100118:-1 5100119:-1 5100120:-1 5100121:-1 5100122:-1 5100123:-1 5100124:-1 5100125:-1 5100126:-1 5100127:-1 5200095:-1 5200096:-1 5200097:-1 5200098:-1 5200099:-1 5200100:-1 5200101:-1 5200102:-1 5200103:-1 5200104:1 5200105:1 5200106:1 5200107:1 5200108:1 5200109:1 5200110:1 5200111:1 5200112:1 5200113:-1 5200114:-1 5200115:-1 5200116:-1 5200117:-1 5200118:-1 5200119:-1 5200120:-1 5200121:-1 5200122:-1 5200123:-1 5200124:-1 5200125:-1 5200126:-1 5200127:-1 5300094:-1 5300095:-1 5300096:-1 5300097:-1 5300098:-1 5300099:-1 5300100:-1 5300101:-1 5300102:-1 5300103:-1 5300104:1 5300105:1 5300106:1 5300107:1 5300108:1 5300109:1 5300110:1 5300111:1 5300112:1 5300113:-1 5300114:-1 5300115:-1 5300116:-1 5300117:-1 5300118:-1 5300119:-1 5300120:-1 5300121:-1 5300122:-1 5300123:-1 5300124:-1 5300125:-1 5300126:-1 5300127:-1 5400094:-1 5400095:-1 5400096:-1 5400097:-1 5400098:-1 5400099:-1 5400100:-1 5400101:-1 5400102:-1 5400103:-1 5400104:1 5400105:1 5400106:1 5400107:1 5400108:1 5400109:1 5400110:1 5400111:1 5400112:-1 5400113:-1 5400114:-1 5400115:-1 5400116:-1 5400117:-1 5400118:-1 5400119:-1 5400120:-1 5400121:-1 5400122:-1 5400123:-1 5400124:-1 5400125:-1 5400126:-1 5400127:-1 5500094:-1 5500095:-1 5500096:-1 5500097:-1 5500098:-1 5500099:-1 5500100:-1 5500101:-1 5500102:-1 5500103:-1 5500104:-1 5500105:1 5500106:1 5500107:1 5500108:1 5500109:1 5500110:1 5500111:1 5500112:-1 5500113:-1 5500114:-1 5500115:-1 5500116:-1 5500117:-1 5500118:-1 5500119:-1 5500120:-1 5500121:-1 5500122:-1 5500123:-1 5500124:-1 5500125:-1 5500126:-1 5500127:-1 5600096:-1 5600097:-1 5600098:-1 5600099:-1 5600100:-1 5600101:-1 5600102:-1 5600103:-1 5600104:-1 5600105:-1 5600106:-1 5600107:-1 5600108:-1 5600109:-1 5600110:-1 5600111:-1 5600112:-1 5600113:-1 5600114:-1 5600115:-1 5600116:-1 5600117:-1 5600118:-1 5600119:-1 5600120:-1 5600121:-1 5600122:-1 5600123:-1 5600124:-1 
2.539402362710318 2.579499424882881 1.636650492200943 0.6530152883970435 2.287506107947203 0 0 0.3201141207485715 1.144082205107775 0.8555169782784884 0.9700417441361538 0 1.698553200427414 0 0.7093986344906403 0.4567091163272931 2.384012052704244 0.5046266164167796 2.07315679494659 1.000673938320028 0.7488410387945605 1.503497358404911 2.611938035814367 1.051066120795922 0.888910866918834 2.257065341629063 0.6698772121543817 1.140350956635112 1.329557747026503 0.3334784006134357 0.7964102903419078 0 3.93380209080039 0.6623005858462777 3.19066124191519 1.52299817315272 3.38290202843907 6.976505571681949 0.2463920925337977 0.6252156857801364 1.196012597384645 0.9203837543238975 4.41258164694704 0.4440934337690036 0.1791727694149626 0.8078723594017545 0.4804530742871905 1.821754311618049 0.1318602479043869 2300105:-1 2300106:-1 2300107:-1 2300108:-1 2300109:-1 2300110:-1 2400096:-1 2400097:-1 2400098:-1 2400099:-1 2400100:-1 2400101:-1 2400102:-1 2400103:-1 2400104:-1 2400105:-1 2400106:-1 2400107:-1 2400108:-1 2400109:-1 2400110:-1 2400111:-1 2400112:-1 2400113:-1 2400114:-1 2400115:-1 2400116:-1 2400117:-1 2400118:-1 2400119:-1 2400120:-1 2400121:-1 2400122:-1 2400123:-1 2500095:1 2500096:1 2500097:1 2500098:1 2500099:1 2500100:1 2500101:-1 2500102:-1 2500103:-1 2500104:-1 2500105:-1 2500106:-1 2500107:-1 2500108:-1 2500109:-1 2500110:-1 2500111:-1 2500112:-1 2500113:-1 2500114:-1 2500115:1 2500116:1 2500117:1 2500118:1 2500119:1 2500120:1 2500121:-1 2500122:-1 2500123:-1 2500124:-1 2500125:-1 2500126:-1 2500127:-1 2600088:-1 2600089:-1 2600090:-1 2600091:-1 2600092:-1 2600093:-1 2600094:-1 2600095:1 2600096:1 2600097:1 2600098:1 2600099:1 2600100:1 2600101:-1 2600102:-1 2600103:-1 2600104:-1 2600105:-1 2600106:-1 2600107:-1 2600108:-1 2600109:-1 2600110:-1 2600111:-1 2600112:-1 2600113:-1 2600114:1 2600115:1 2600116:1 2600117:1 2600118:1 2600119:1 2600120:1 2600121:-1 2600122:-1 2600123:-1 2600124:-1 2600125:-1 2600126:-1 2600127:-1 2600128:-1 2700088:-1 2700089:-1 2700090:-1 2700091:-1 2700092:-1 2700093:-1 2700094:-1 2700095:1 2700096:1 2700097:1 2700098:1 2700099:1 2700100:1 2700101:1 2700102:-1 2700103:-1 2700104:-1 2700105:-1 2700106:-1 2700107:-1 2700108:-1 2700109:-1 2700110:-1 2700111:-1 2700112:-1 2700113:-1 2700114:1 2700115:1 2700116:1 2700117:1 2700118:1 2700119:1 2700120:1 2700121:-1 2700122:-1 2700123:-1 2700124:-1 2700125:-1 2700126:-1 2700127:-1 2800089:-1 2800090:-1 2800091:-1 2800092:-1 2800093:-1 2800094:-1 2800095:1 2800096:1 2800097:1 2800098:1 2800099:1 2800100:1 2800101:1 2800102:-1 2800103:-1 2800104:-1 2800105:-1 2800106:-1 2800107:-1 2800108:-1 2800109:-1 2800110:-1 2800111:-1 2800112:-1 2800113:-1 2800114:1 2800115:1 2800116:1 2800117:1 2800118:1 2800119:1 2800120:1 2800121:-1 2800122:-1 2800123:-1 2800124:-1 2800125:-1 2800126:-1 2800127:-1 2900089:-1 2900090:-1 2900091:-1 2900092:-1 2900093:-1 2900094:-1 2900095:-1 2900096:1 2900097:1 2900098:1 2900099:1 2900100:1 2900101:1 2900102:-1 2900103:-1 2900104:-1 2900105:-1 2900106:-1 2900107:-1 2900108:-1 2900109:-1 2900110:-1 2900111:-1 2900112:-1 2900113:1 2900114:1 2900115:1 2900116:1 2900117:1 2900118:1 2900119:1 2900120:-1 2900121:-1 2900122:-1 2900123:-1 2900124:-1 2900125:-1 2900126:-1 2900127:-1 3000089:-1 3000090:-1 3000091:-1 3000092:-1 3000093:-1 3000094:-1 3000095:-1 3000096:1 3000097:1 3000098:1 3000099:1 3000100:1 3000101:1 3000102:1 3000103:-1 3000104:-1 3000105:-1 3000106:-1 3000107:-1 3000108:-1 3000109:-1 3000110:-1 3000111:-1 3000112:-1 3000113:1 3000114:1 3000115:1 3000116:1 3000117:1 3000118:1 3000119:1 3000120:-1 3000121:-1 3000122:-1 3000123:-1 3000124:-1 3000125:-1 3000126:-1 3000127:-1 3100089:-1 3100090:-1 3100091:-1 3100092:-1 3100093:-1 3100094:-1 3100095:-1 3100096:1 3100097:1 3100098:1 3100099:1 3100100:1 3100101:1 3100102:1 3100103:-1 3100104:-1 3100105:-1 3100106:-1 3100107:-1 3100108:-1 3100109:-1 3100110:-1 3100111:-1 3100112:-1 3100113:1 3100114:1 3100115:1 3100116:1 3100117:1 3100118:1 3100119:-1 3100120:-1 3100121:-1 3100122:-1 3100123:-1 3100124:-1 3100125:-1 3100126:-1 3100127:-1 3200089:-1 3200090:-1 3200091:-1 3200092:-1 3200093:-1 3200094:-1 3200095:-1 3200096:-1 3200097:1 3200098:1 3200099:1 3200100:1 3200101:1 3200102:1 3200103:-1 3200104:-1 3200105:-1 3200106:-1 3200107:-1 3200108:-1 3200109:-1 3200110:-1 3200111:-1 3200112:1 3200113:1 3200114:1 3200115:1 3200116:1 3200117:1 3200118:1 3200119:-1 3200120:-1 3200121:-1 3200122:-1 3200123:-1 3200124:-1 3200125:-1 3200126:-1 3200127:-1 3300090:-1 3300091:-1 3300092:-1 3300093:-1 3300094:-1 3300095:-1 3300096:-1 3300097:1 3300098:1 3300099:1 3300100:1 3300101:1 3300102:1 3300103:1 3300104:-1 3300105:-1 3300106:-1 3300107:-1 3300108:-1 3300109:-1 3300110:-1 3300111:-1 3300112:1 3300113:1 3300114:1 3300115:1 3300116:1 3300117:1 3300118:1 3300119:-1 3300120:-1 3300121:-1 3300122:-1 3300123:-1 3300124:-1 3300125:-1 3300126:-1 3300127:-1 3400090:-1 3400091:-1 3400092:-1 3400093:-1 3400094:-1 3400095:-1 3400096:-1 3400097:1 3400098:1 3400099:1 3400100:1 3400101:1 3400102:1 3400103:1 3400104:-1 3400105:-1 3400106:-1 3400107:-1 3400108:-1 3400109:-1 3400110:-1 3400111:-1 3400112:1 3400113:1 3400114:1 3400115:1 3400116:1 3400117:1 3400118:-1 3400119:-1 3400120:-1 3400121:-1 3400122:-1 3400123:-1 3400124:-1 3400125:-1 3400126:-1 3400127:-1 3500090:-1 3500091:-1 3500092:-1 3500093:-1 3500094:-1 3500095:-1 3500096:-1 3500097:-1 3500098:1 3500099:1 3500100:1 3500101:1 3500102:1 3500103:1 3500104:-1 3500105:-1 3500106:-1 3500107:-1 3500108:-1 3500109:-1 3500110:-1 3500111:1 3500112:1 3500113:1 3500114:1 3500115:1 3500116:1 3500117:1 3500118:-1 3500119:-1 3500120:-1 3500121:-1 3500122:-1 3500123:-1 3500124:-1 3500125:-1 3500126:-1 3500127:-1 3600091:-1 3600092:-1 3600093:-1 3600094:-1 3600095:-1 3600096:-1 3600097:-1 3600098:1 3600099:1 3600100:1 3600101:1 3600102:1 3600103:1 3600104:-1 3600105:-1 3600106:-1 3600107:-1 3600108:-1 3600109:-1 3600110:-1 3600111:1 3600112:1 3600113:1 3600114:1 3600115:1 3600116:1 3600117:1 3600118:-1 3600119:-1 3600120:-1 3600121:-1 3600122:-1 3600123:-1 3600124:-1 3600125:-1 3600126:-1 3600127:-1 3700091:-1 3700092:-1 3700093:-1 3700094:-1 3700095:-1 3700096:-1 3700097:-1 3700098:1 3700099:1 3700100:1 3700101:1 3700102:1 3700103:1 3700104:1 3700105:-1 3700106:-1 3700107:-1 3700108:-1 3700109:-1 3700110:-1 3700111:1 3700112:1 3700113:1 3700114:1 3700115:1 3700116:1 3700117:-1 3700118:-1 3700119:-1 3700120:-1 3700121:-1 3700122:-1 3700123:-1 3700124:-1 3700125:-1 3700126:-1 3700127:-1 3800091:-1 3800092:-1 3800093:-1 3800094:-1 3800095:-1 3800096:-1 3800097:-1 3800098:-1 3800099:1 3800100:1 3800101:1 3800102:1 3800103:1 3800104:1 3800105:-1 3800106:-1 3800107:-1 3800108:-1 3800109:-1 3800110:1 3800111:1 3800112:1 3800113:1 3800114:1 3800115:1 3800116:1 3800117:-1 3800118:-1 3800119:-1 3800120:-1 3800121:-1 3800122:-1 3800123:-1 3800124:-1 3800125:-1 3800126:-1 3800127:-1 3900091:-1 3900092:-1 3900093:-1 3900094:-1 3900095:-1 3900096:-1 3900097:-1 3900098:-1 3900099:1 3900100:1 3900101:1 3900102:1 3900103:1 3900104:1 3900105:-1 3900106:-1 3900107:-1 3900108:-1 3900109:-1 3900110:1 3900111:1 3900112:1 3900113:1 3900114:1 3900115:1 3900116:1 3900117:-1 3900118:-1 3900119:-1 3900120:-1 3900121:-1 3900122:-1 3900123:-1 3900124:-1 3900125:-1 3900126:-1 3900127:-1 4000092:-1 4000093:-1 4000094:-1 4000095:-1 4000096:-1 4000097:-1 4000098:-1 4000099:1 4000100:1 4000101:1 4000102:1 4000103:1 4000104:1 4000105:1 4000106:-1 4000107:-1 4000108:-1 4000109:1 4000110:1 4000111:1 4000112:1 4000113:1 4000114:1 4000115:1 4000116:-1 4000117:-1 4000118:-1 4000119:-1 4000120:-1 4000121:-1 4000122:-1 4000123:-1 4000124:-1 4000125:-1 4000126:-1 4000127:-1 4100092:-1 4100093:-1 4100094:-1 4100095:-1 4100096:-1 4100097:-1 4100098:-1 4100099:1 4100100:1 4100101:1 4100102:1 4100103:1 4100104:1 4100105:1 4100106:-1 4100107:-1 4100108:-1 4100109:1 4100110:1 4100111:1 4100112:1 4100113:1 4100114:1 4100115:1 4100116:-1 4100117:-1 4100118:-1 4100119:-1 4100120:-1 4100121:-1 4100122:-1 4100123:-1 4100124:-1 4100125:-1 4100126:-1 4100127:-1 4200092:-1 4200093:-1 4200094:-1 4200095:-1 4200096:-1 4200097:-1 4200098:-1 4200099:-1 4200100:1 4200101:1 4200102:1 4200103:1 4200104:1 4200105:1 4200106:-1 4200107:-1 4200108:-1 4200109:1 4200110:1 4200111:1 4200112:1 4200113:1 4200114:1 4200115:-1 4200116:-1 4200117:-1 4200118:-1 4200119:-1 4200120:-1 4200121:-1 4200122:-1 4200123:-1 4200124:-1 4200125:-1 4200126:-1 4200127:-1 4300092:-1 4300093:-1 4300094:-1 4300095:-1 4300096:-1 4300097:-1 4300098:-1 4300099:-1 4300100:1 4300101:1 4300102:1 4300103:1 4300104:1 4300105:1 4300106:-1 4300107:-1 4300108:1 4300109:1 4300110:1 4300111:1 4300112:1 4300113:1 4300114:1 4300115:-1 4300116:-1 4300117:-1 4300118:-1 4300119:-1 4300120:-1 4300121:-1 4300122:-1 4300123:-1 4300124:-1 4300125:-1 4300126:-1 4300127:-1 4400093:-1 4400094:-1 4400095:-1 4400096:-1 4400097:-1 4400098:-1 4400099:-1 4400100:1 4400101:1 4400102:1 4400103:1 4400104:1 4400105:1 4400106:1 4400107:-1 4400108:1 4400109:1 4400110:1 4400111:1 4400112:1 4400113:1 4400114:1 4400115:-1 4400116:-1 4400117:-1 4400118:-1 4400119:-1 4400120:-1 4400121:-1 4400122:-1 4400123:-1 4400124:-1 4400125:-1 4400126:-1 4400127:-1 4500093:-1 4500094:-1 4500095:-1 4500096:-1 4500097:-1 4500098:-1 4500099:-1 4500100:1 4500101:1 4500102:1 4500103:1 4500104:1 4500105:1 4500106:1 4500107:1 4500108:1 4500109:1 4500110:1 4500111:1 4500112:1 4500113:1 4500114:-1 4500115:-1 4500116:-1 4500117:-1 4500118:-1 4500119:-1 4500120:-1 4500121:-1 4500122:-1 4500123:-1 4500124:-1 4500125:-1 4500126:-1 4500127:-1 4600093:-1 4600094:-1 4600095:-1 4600096:-1 4600097:-1 4600098:-1 4600099:-1 4600100:-1 4600101:1 4600102:1 4600103:1 4600104:1 4600105:1 4600106:1 4600107:1 4600108:1 4600109:1 4600110:1 4600111:1 4600112:1 4600113:1 4600114:-1 4600115:-1 4600116:-1 4600117:-1 4600118:-1 4600119:-1 4600120:-1 4600121:-1 4600122:-1 4600123:-1 4600124:-1 4600125:-1 4600126:-1 4600127:-1 4700093:-1 4700094:-1 4700095:-1 4700096:-1 4700097:-1 4700098:-1 4700099:-1 4700100:-1 4700101:1 4700102:1 4700103:1 4700104:1 4700105:1 4700106:1 4700107:1 4700108:1 4700109:1 4700110:1 4700111:1 4700112:1 4700113:1 4700114:-1 4700115:-1 4700116:-1 4700117:-1 4700118:-1 4700119:-1 4700120:-1 4700121:-1 4700122:-1 4700123:-1 4700124:-1 4700125:-1 4700126:-1 4700127:-1 4800093:-1 4800094:-1 4800095:-1 4800096:-1 4800097:-1 4800098:-1 4800099:-1 4800100:-1 4800101:1 4800102:1 4800103:1 4800104:1 4800105:1 4800106:1 4800107:1 4800108:1 4800109:1 4800110:1 4800111:1 4800112:1 4800113:-1 4800114:-1 4800115:-1 4800116:-1 4800117:-1 4800118:-1 4800119:-1 4800120:-1 4800121:-1 4800122:-1 4800123:-1 4800124:-1 4800125:-1 4800126:-1 4800127:-1 4900093:-1 4900094:-1 4900095:-1 4900096:-1 4900097:-1 4900098:-1 4900099:-1 4900100:-1 4900101:-1 4900102:1 4900103:1 4900104:1 4900105:1 4900106:1 4900107:1 4900108:1 4900109:1 4900110:1 4900111:1 4900112:1 4900113:-1 4900114:-1 4900115:-1 4900116:-1 4900117:-1 4900118:-1 4900119:-1 4900120:-1 4900121:-1 4900122:-1 4900123:-1 4900124:-1 4900125:-1 4900126:-1 4900127:-1 5000093:-1 5000094:-1 5000095:-1 5000096:-1 5000097:-1 5000098:-1 5000099:-1 5000100:-1 5000101:-1 5000102:1 5000103:1 5000104:1 5000105:1 5000106:1 5000107:1 5000108:1 5000109:1 5000110:1 5000111:1 5000112:1 5000113:-1 5000114:-1 5000115:-1 5000116:-1 5000117:-1 5000118:-1 5000119:-1 5000120:-1 5000121:-1 5000122:-1 5000123:-1 5000124:-1 5000125:-1 5000126:-1 5000127:-1 5100093:-1 5100094:-1 5100095:-1 5100096:-1 5100097:-1 5100098:-1 5100099:-1 5100100:-1 5100101:-1 5100102:1 5100103:1 5100104:1 5100105:1 5100106:1 5100107:1 5100108:1 5100109:1 5100110:1 5100111:1 5100112:-1 5100113:-1 5100114:-1 5100115:-1 5100116:-1 5100117:-1 5100118:-1 5100119:-1 5100120:-1 5100121:-1 5100122:-1 5100123:-1 5100124:-1 5100125:-1 5100126:-1 5100127:-1 5200095:-1 5200096:-1 5200097:-1 5200098:-1 5200099:-1 5200100:-1 5200101:-1 5200102:-1 5200103:1 5200104:1 5200105:1 5200106:1 5200107:1 5200108:1 5200109:1 5200110:1 5200111:1 5200112:-1 5200113:-1 5200114:-1 5200115:-1 5200116:-1 5200117:-1 5200118:-1 5200119:-1 5200120:-1 5200121:-1 5200122:-1 5200123:-1 5200124:-1 5200125:-1 5200126:-1 5200127:-1 5300094:-1 5300095:-1 5300096:-1 5300097:-1 5300098:-1 5300099:-1 5300100:-1 5300101:-1 5300102:-1 5300103:1 5300104:1 5300105:1 5300106:1 5300107:1 5300108:1 5300109:1 5300110:1 5300111:1 5300112:-1 5300113:-1 5300114:-1 5300115:-1 5300116:-1 5300117:-1 5300118:-1 5300119:-1 5300120:-1 5300121:-1 5300122:-1 5300123:-1 5300124:-1 5300125:-1 5300126:-1 5300127:-1 5400094:-1 5400095:-1 5400096:-1 5400097:-1 5400098:-1 5400099:-1 5400100:-1 5400101:-1 5400102:-1 5400103:1 5400104:1 5400105:1 5400106:1 5400107:1 5400108:1 5400109:1 5400110:1 5400111:-1 5400112:-1 5400113:-1 5400114:-1 5400115:-1 5400116:-1 5400117:-1 5400118:-1 5400119:-1 5400120:-1 5400121:-1 5400122:-1 5400123:-1 5400124:-1 5400125:-1 5400126:-1 5400127:-1 5500094:-1 5500095:-1 5500096:-1 5500097:-1 5500098:-1 5500099:-1 5500100:-1 5500101:-1 5500102:-1 5500103:-1 5500104:1 5500105:1 5500106:1 5500107:1 5500108:1 5500109:1 5500110:1 5500111:-1 5500112:-1 5500113:-1 5500114:-1 5500115:-1 5500116:-1 5500117:-1 5500118:-1 5500119:-1 5500120:-1 5500121:-1 5500122:-1 5500123:-1 5500124:-1 5500125:-1 5500126:-1 5500127:-1 5600096:-1 5600097:-1 5600098:-1 5600099:-1 5600100:-1 5600101:-1 5600102:-1 5600103:-1 5600104:-1 5600105:-1 5600106:-1 5600107:-1 5600108:-1 5600109:-1 5600110:-1 5600111:-1 5600112:-1 5600113:-1 5600114:-1 5600115:-1 5600116:-1 5600117:-1 5600118:-1 5600119:-1 5600120:-1 5600121:-1 5600122:-1 5600123:-1 5600124:-1 
0.8376191652079639 0.4706775727343468 1.657122778929825 2.071845564417689 1.280290653136086 2.335671002222674 1.287517617829891 0.8542039607700167 2.589781792104719 0.8540335395707491 1.586410364623791 2.503514020262091 0.9977850685564239 2.6906314583194 2.191440236561208 2.623284297838076 1.382175176849923 2.275209076860259 1.057063511186542 1.749475640662696 2.32220967813139 1.108558659204892 0.3338016845525836 1.449473892237227 0.8359807932160601 1.130417299293975 2.266311518962405 1.921358217641088 0.9668627622943687 2.091266054431104 1.625233477457175 1.467553816290585 0.6626181486744044 2.063464250491815 0.5286234028685538 1.042530498038269 0.2652704842632859 0 2.414629196094368 1.743743120454208 1.902654795331037 1.448193353776324 0 1.568490406717531 1.298381985399293 1.841988933291425 1.306565244153967 1.097911940880202 2.017983269939915 2300105:-1 2300106:-1 2300107:-1 2300108:-1 2300109:-1 2300110:-1 2400096:-1 2400097:-1 2400098:-1 2400099:-1 2400100:-1 2400101:-1 2400102:-1 2400103:-1 2400104:-1 2400105:-1 2400106:-1 2400107:-1 2400108:-1 2400109:-1 2400110:-1 2400111:-1 2400112:-1 2400113:-1 2400114:-1 2400115:-1 2400116:-1 2400117:-1 2400118:-1 2400119:-1 2400120:-1 2400121:-1 2400122:-1 2400123:-1 2500095:1 2500096:1 2500097:1 2500098:1 2500099:1 2500100:-1 2500101:-1 2500102:-1 2500103:-1 2500104:-1 2500105:-1 2500106:-1 2500107:-1 2500108:-1 2500109:-1 2500110:-1 2500111:-1 2500112:-1 2500113:-1 2500114:-1 2500115:1 2500116:1 2500117:1 2500118:1 2500119:1 2500120:1 2500121:-1 2500122:-1 2500123:-1 2500124:-1 2500125:-1 2500126:-1 2500127:-1 2600088:-1 2600089:-1 2600090:-1 2600091:-1 2600092:-1 2600093:-1 2600094:1 2600095:1 2600096:1 2600097:1 2600098:1 2600099:1 2600100:1 2600101:-1 2600102:-1 2600103:-1 2600104:-1 2600105:-1 2600106:-1 2600107:-1 2600108:-1 2600109:-1 2600110:-1 2600111:-1 2600112:-1 2600113:-1 2600114:-1 2600115:1 2600116:1 2600117:1 2600118:1 2600119:1 2600120:1 2600121:-1 2600122:-1 2600123:-1 2600124:-1 2600125:-1 2600126:-1 2600127:-1 2600128:-1 2700088:-1 2700089:-1 2700090:-1 2700091:-1 2700092:-1 2700093:-1 2700094:1 2700095:1 2700096:1 2700097:1 2700098:1 2700099:1 2700100:1 2700101:-1 2700102:-1 2700103:-1 2700104:-1 2700105:-1 2700106:-1 2700107:-1 2700108:-1 2700109:-1 2700110:-1 2700111:-1 2700112:-1 2700113:-1 2700114:1 2700115:1 2700116:1 2700117:1 2700118:1 2700119:1 2700120:1 2700121:-1 2700122:-1 2700123:-1 2700124:-1 2700125:-1 2700126:-1 2700127:-1 2800089:-1 2800090:-1 2800091:-1 2800092:-1 2800093:-1 2800094:-1 2800095:1 2800096:1 2800097:1 2800098:1 2800099:1 2800100:1 2800101:1 2800102:-1 2800103:-1 2800104:-1 2800105:-1 2800106:-1 2800107:-1 2800108:-1 2800109:-1 2800110:-1 2800111:-1 2800112:-1 2800113:-1 2800114:1 2800115:1 2800116:1 2800117:1 2800118:1 2800119:1 2800120:-1 2800121:-1 2800122:-1 2800123:-1 2800124:-1 2800125:-1 2800126:-1 2800127:-1 2900089:-1 2900090:-1 2900091:-1 2900092:-1 2900093:-1 2900094:-1 2900095:1 2900096:1 2900097:1 2900098:1 2900099:1 2900100:1 2900101:1 2900102:-1 2900103:-1 2900104:-1 2900105:-1 2900106:-1 2900107:-1 2900108:-1 2900109:-1 2900110:-1 2900111:-1 2900112:-1 2900113:1 2900114:1 2900115:1 2900116:1 2900117:1 2900118:1 2900119:1 2900120:-1 2900121:-1 2900122:-1 2900123:-1 2900124:-1 2900125:-1 2900126:-1 2900127:-1 3000089:-1 3000090:-1 3000091:-1 3000092:-1 3000093:-1 3000094:-1 3000095:1 3000096:1 3000097:1 3000098:1 3000099:1 3000100:1 3000101:1 3000102:-1 3000103:-1 3000104:-1 3000105:-1 3000106:-1 3000107:-1 3000108:-1 3000109:-1 3000110:-1 3000111:-1 3000112:-1 3000113:1 3000114:1 3000115:1 3000116:1 3000117:1 3000118:1 3000119:1 3000120:-1 3000121:-1 3000122:-1 3000123:-1 3000124:-1 3000125:-1 3000126:-1 3000127:-1 3100089:-1 3100090:-1 3100091:-1 3100092:-1 3100093:-1 3100094:-1 3100095:-1 3100096:1 3100097:1 3100098:1 3100099:1 3100100:1 3100101:1 3100102:1 3100103:-1 3100104:-1 3100105:-1 3100106:-1 3100107:-1 3100108:-1 3100109:-1 3100110:-1 3100111:-1 3100112:-1 3100113:1 3100114:1 3100115:1 3100116:1 3100117:1 3100118:1 3100119:-1 3100120:-1 3100121:-1 3100122:-1 3100123:-1 3100124:-1 3100125:-1 3100126:-1 3100127:-1 3200089:-1 3200090:-1 3200091:-1 3200092:-1 3200093:-1 3200094:-1 3200095:-1 3200096:1 3200097:1 3200098:1 3200099:1 3200100:1 3200101:1 3200102:1 3200103:-1 3200104:-1 3200105:-1 3200106:-1 3200107:-1 3200108:-1 3200109:-1 3200110:-1 3200111:-1 3200112:1 3200113:1 3200114:1 3200115:1 3200116:1 3200117:1 3200118:1 3200119:-1 3200120:-1 3200121:-1 3200122:-1 3200123:-1 3200124:-1 3200125:-1 3200126:-1 3200127:-1 3300090:-1 3300091:-1 3300092:-1 3300093:-1 3300094:-1 3300095:-1 3300096:1 3300097:1 3300098:1 3300099:1 3300100:1 3300101:1 3300102:1 3300103:-1 3300104:-1 3300105:-1 3300106:-1 3300107:-1 3300108:-1 3300109:-1 3300110:-1 3300111:-1 3300112:1 3300113:1 3300114:1 3300115:1 3300116:1 3300117:1 3300118:1 3300119:-1 3300120:-1 3300121:-1 3300122:-1 3300123:-1 3300124:-1 3300125:-1 3300126:-1 3300127:-1 3400090:-1 3400091:-1 3400092:-1 3400093:-1 3400094:-1 3400095:-1 3400096:-1 3400097:1 3400098:1 3400099:1 3400100:1 3400101:1 3400102:1 3400103:1 3400104:-1 3400105:-1 3400106:-1 3400107:-1 3400108:-1 3400109:-1 3400110:-1 3400111:-1 3400112:1 3400113:1 3400114:1 3400115:1 3400116:1 3400117:1 3400118:-1 3400119:-1 3400120:-1 3400121:-1 3400122:-1 3400123:-1 3400124:-1 3400125:-1 3400126:-1 3400127:-1 3500090:-1 3500091:-1 3500092:-1 3500093:-1 3500094:-1 3500095:-1 3500096:-1 3500097:1 3500098:1 3500099:1 3500100:1 3500101:1 3500102:1 3500103:1 3500104:-1 3500105:-1 3500106:-1 3500107:-1 3500108:-1 3500109:-1 3500110:-1 3500111:1 3500112:1 3500113:1 3500114:1 3500115:1 3500116:1 3500117:1 3500118:-1 3500119:-1 3500120:-1 3500121:-1 3500122:-1 3500123:-1 3500124:-1 3500125:-1 3500126:-1 3500127:-1 3600091:-1 3600092:-1 3600093:-1 3600094:-1 3600095:-1 3600096:-1 3600097:1 3600098:1 3600099:1 3600100:1 3600101:1 3600102:1 3600103:1 3600104:-1 3600105:-1 3600106:-1 3600107:-1 3600108:-1 3600109:-1 3600110:-1 3600111:1 3600112:1 3600113:1 3600114:1 3600115:1 3600116:1 3600117:1 3600118:-1 3600119:-1 3600120:-1 3600121:-1 3600122:-1 3600123:-1 3600124:-1 3600125:-1 3600126:-1 3600127:-1 3700091:-1 3700092:-1 3700093:-1 3700094:-1 3700095:-1 3700096:-1 3700097:1 3700098:1 3700099:1 3700100:1 3700101:1 3700102:1 3700103:1 3700104:-1 3700105:-1 3700106:-1 3700107:-1 3700108:-1 3700109:-1 3700110:-1 3700111:1 3700112:1 3700113:1 3700114:1 3700115:1 3700116:1 3700117:-1 3700118:-1 3700119:-1 3700120:-1 3700121:-1 3700122:-1 3700123:-1 3700124:-1 3700125:-1 3700126:-1 3700127:-1 3800091:-1 3800092:-1 3800093:-1 3800094:-1 3800095:-1 3800096:-1 3800097:-1 3800098:1 3800099:1 3800100:1 3800101:1 3800102:1 3800103:1 3800104:1 3800105:-1 3800106:-1 3800107:-1 3800108:-1 3800109:-1 3800110:1 3800111:1 3800112:1 3800113:1 3800114:1 3800115:1 3800116:1 3800117:-1 3800118:-1 3800119:-1 3800120:-1 3800121:-1 3800122:-1 3800123:-1 3800124:-1 3800125:-1 3800126:-1 3800127:-1 3900091:-1 3900092:-1 3900093:-1 3900094:-1 3900095:-1 3900096:-1 3900097:-1 3900098:1 3900099:1 3900100:1 3900101:1 3900102:1 3900103:1 3900104:1 3900105:-1 3900106:-1 3900107:-1 3900108:-1 3900109:-1 3900110:1 3900111:1 3900112:1 3900113:1 3900114:1 3900115:1 3900116:-1 3900117:-1 3900118:-1 3900119:-1 3900120:-1 3900121:-1 3900122:-1 3900123:-1 3900124:-1 3900125:-1 3900126:-1 3900127:-1 4000092:-1 4000093:-1 4000094:-1 4000095:-1 4000096:-1 4000097:-1 4000098:1 4000099:1 4000100:1 4000101:1 4000102:1 4000103:1 4000104:1 4000105:-1 4000106:-1 4000107:-1 4000108:-1 4000109:-1 4000110:1 4000111:1 4000112:1 4000113:1 4000114:1 4000115:1 4000116:-1 4000117:-1 4000118:-1 4000119:-1 4000120:-1 4000121:-1 4000122:-1 4000123:-1 4000124:-1 4000125:-1 4000126:-1 4000127:-1 4100092:-1 4100093:-1 4100094:-1 4100095:-1 4100096:-1 4100097:-1 4100098:-1 4100099:1 4100100:1 4100101:1 4100102:1 4100103:1 4100104:1 4100105:1 4100106:-1 4100107:-1 4100108:-1 4100109:1 4100110:1 4100111:1 4100112:1 4100113:1 4100114:1 4100115:1 4100116:-1 4100117:-1 4100118:-1 4100119:-1 4100120:-1 4100121:-1 4100122:-1 4100123:-1 4100124:-1 4100125:-1 4100126:-1 4100127:-1 4200092:-1 4200093:-1 4200094:-1 4200095:-1 4200096:-1 4200097:-1 4200098:-1 4200099:1 4200100:1 4200101:1 4200102:1 4200103:1 4200104:1 4200105:1 4200106:-1 4200107:-1 4200108:-1 4200109:1 4200110:1 4200111:1 4200112:1 4200113:1 4200114:1 4200115:1 4200116:-1 4200117:-1 4200118:-1 4200119:-1 4200120:-1 4200121:-1 4200122:-1 4200123:-1 4200124:-1 4200125:-1 4200126:-1 4200127:-1 4300092:-1 4300093:-1 4300094:-1 4300095:-1 4300096:-1 4300097:-1 4300098:-1 4300099:1 4300100:1 4300101:1 4300102:1 4300103:1 4300104:1 4300105:1 4300106:-1 4300107:-1 4300108:-1 4300109:1 4300110:1 4300111:1 4300112:1 4300113:1 4300114:1 4300115:-1 4300116:-1 4300117:-1 4300118:-1 4300119:-1 4300120:-1 4300121:-1 4300122:-1 4300123:-1 4300124:-1 4300125:-1 4300126:-1 4300127:-1 4400093:-1 4400094:-1 4400095:-1 4400096:-1 4400097:-1 4400098:-1 4400099:-1 4400100:1 4400101:1 4400102:1 4400103:1 4400104:1 4400105:1 4400106:1 4400107:-1 4400108:1 4400109:1 4400110:1 4400111:1 4400112:1 4400113:1 4400114:1 4400115:-1 4400116:-1 4400117:-1 4400118:-1 4400119:-1 4400120:-1 4400121:-1 4400122:-1 4400123:-1 4400124:-1 4400125:-1 4400126:-1 4400127:-1 4500093:-1 4500094:-1 4500095:-1 4500096:-1 4500097:-1 4500098:-1 4500099:-1 4500100:1 4500101:1 4500102:1 4500103:1 4500104:1 4500105:1 4500106:1 4500107:-1 4500108:1 4500109:1 4500110:1 4500111:1 4500112:1 4500113:1 4500114:1 4500115:-1 4500116:-1 4500117:-1 4500118:-1 4500119:-1 4500120:-1 4500121:-1 4500122:-1 4500123:-1 4500124:-1 4500125:-1 4500126:-1 4500127:-1 4600093:-1 4600094:-1 4600095:-1 4600096:-1 4600097:-1 4600098:-1 4600099:-1 4600100:1 4600101:1 4600102:1 4600103:1 4600104:1 4600105:1 4600106:1 4600107:1 4600108:1 4600109:1 4600110:1 4600111:1 4600112:1 4600113:1 4600114:-1 4600115:-1 4600116:-1 4600117:-1 4600118:-1 4600119:-1 4600120:-1 4600121:-1 4600122:-1 4600123:-1 4600124:-1 4600125:-1 4600126:-1 4600127:-1 4700093:-1 4700094:-1 4700095:-1 4700096:-1 4700097:-1 4700098:-1 4700099:-1 4700100:-1 4700101:1 4700102:1 4700103:1 4700104:1 4700105:1 4700106:1 4700107:1 4700108:1 4700109:1 4700110:1 4700111:1 4700112:1 4700113:1 4700114:-1 4700115:-1 4700116:-1 4700117:-1 4700118:-1 4700119:-1 4700120:-1 4700121:-1 4700122:-1 4700123:-1 4700124:-1 4700125:-1 4700126:-1 4700127:-1 4800093:-1 4800094:-1 4800095:-1 4800096:-1 4800097:-1 4800098:-1 4800099:-1 4800100:-1 4800101:1 4800102:1 4800103:1 4800104:1 4800105:1 4800106:1 4800107:1 4800108:1 4800109:1 4800110:1 4800111:1 4800112:1 4800113:1 4800114:-1 4800115:-1 4800116:-1 4800117:-1 4800118:-1 4800119:-1 4800120:-1 4800121:-1 4800122:-1 4800123:-1 4800124:-1 4800125:-1 4800126:-1 4800127:-1 4900093:-1 4900094:-1 4900095:-1 4900096:-1 4900097:-1 4900098:-1 4900099:-1 4900100:-1 4900101:1 4900102:1 4900103:1 4900104:1 4900105:1 4900106:1 4900107:1 4900108:1 4900109:1 4900110:1 4900111:1 4900112:1 4900113:-1 4900114:-1 4900115:-1 4900116:-1 4900117:-1 4900118:-1 4900119:-1 4900120:-1 4900121:-1 4900122:-1 4900123:-1 4900124:-1 4900125:-1 4900126:-1 4900127:-1 5000093:-1 5000094:-1 5000095:-1 5000096:-1 5000097:-1 5000098:-1 5000099:-1 5000100:-1 5000101:-1 5000102:1 5000103:1 5000104:1 5000105:1 5000106:1 5000107:1 5000108:1 5000109:1 5000110:1 5000111:1 5000112:1 5000113:-1 5000114:-1 5000115:-1 5000116:-1 5000117:-1 5000118:-1 5000119:-1 5000120:-1 5000121:-1 5000122:-1 5000123:-1 5000124:-1 5000125:-1 5000126:-1 5000127:-1 5100093:-1 5100094:-1 5100095:-1 5100096:-1 5100097:-1 5100098:-1 5100099:-1 5100100:-1 5100101:-1 5100102:1 5100103:1 5100104:1 5100105:1 5100106:1 5100107:1 5100108:1 5100109:1 5100110:1 5100111:1 5100112:1 5100113:-1 5100114:-1 5100115:-1 5100116:-1 5100117:-1 5100118:-1 5100119:-1 5100120:-1 5100121:-1 5100122:-1 5100123:-1 5100124:-1 5100125:-1 5100126:-1 5100127:-1 5200095:-1 5200096:-1 5200097:-1 5200098:-1 5200099:-1 5200100:-1 5200101:-1 5200102:1 5200103:1 5200104:1 5200105:1 5200106:1 5200107:1 5200108:1 5200109:1 5200110:1 5200111:1 5200112:1 5200113:-1 5200114:-1 5200115:-1 5200116:-1 5200117:-1 5200118:-1 5200119:-1 5200120:-1 5200121:-1 5200122:-1 5200123:-1 5200124:-1 5200125:-1 5200126:-1 5200127:-1 5300094:-1 5300095:-1 5300096:-1 5300097:-1 5300098:-1 5300099:-1 5300100:-1 5300101:-1 5300102:-1 5300103:1 5300104:1 5300105:1 5300106:1 5300107:1 5300108:1 5300109:1 5300110:1 5300111:1 5300112:-1 5300113:-1 5300114:-1 5300115:-1 5300116:-1 5300117:-1 5300118:-1 5300119:-1 5300120:-1 5300121:-1 5300122:-1 5300123:-1 5300124:-1 5300125:-1 5300126:-1 5300127:-1 5400094:-1 5400095:-1 5400096:-1 5400097:-1 5400098:-1 5400099:-1 5400100:-1 5400101:-1 5400102:-1 5400103:1 5400104:1 5400105:1 5400106:1 5400107:1 5400108:1 5400109:1 5400110:1 5400111:1 5400112:-1 5400113:-1 5400114:-1 5400115:-1 5400116:-1 5400117:-1 5400118:-1 5400119:-1 5400120:-1 5400121:-1 5400122:-1 5400123:-1 5400124:-1 5400125:-1 5400126:-1 5400127:-1 5500094:-1 5500095:-1 5500096:-1 5500097:-1 5500098:-1 5500099:-1 5500100:-1 5500101:-1 5500102:-1 5500103:1 5500104:1 5500105:1 5500106:1 5500107:1 5500108:1 5500109:1 5500110:1 5500111:1 5500112:-1 5500113:-1 5500114:-1 5500115:-1 5500116:-1 5500117:-1 5500118:-1 5500119:-1 5500120:-1 5500121:-1 5500122:-1 5500123:-1 5500124:-1 5500125:-1 5500126:-1 5500127:-1 5600096:-1 5600097:-1 5600098:-1 5600099:-1 5600100:-1 5600101:-1 5600102:-1 5600103:-1 5600104:-1 5600105:-1 5600106:-1 5600107:-1 5600108:-1 5600109:-1 5600110:-1 5600111:-1 5600112:-1 5600113:-1 5600114:-1 5600115:-1 5600116:-1 5600117:-1 5600118:-1 5600119:-1 5600120:-1 5600121:-1 5600122:-1 5600123:-1 5600124:-1 
1.021055032244144 0 0 0 0 0 1.601225081909291 0 0.712078667448513 0 0 0.2481688375602474 0 0 0 0 0.4314757752147277 0.01825890447286451 0 0.0569443239291593 0 0.6588590303041496 0 0 0.8049386648699721 0 0 0 0 0 0 0 0.2045502593974186 0 0.1435844307986294 0 0 0 0 0 0 0 1.943929868615418 0.8687680650083225 0 0 0.8706390765004087 0 0.3653036295193722 2300105:-1 2300106:-1 2300107:-1 2300108:-1 2300109:-1 2300110:-1 2400096:-1 2400097:-1 2400098:-1 2400099:-1 2400100:-1 2400101:-1 2400102:-1 2400103:-1 2400104:-1 2400105:-1 2400106:-1 2400107:-1 2400108:-1 2400109:-1 2400110:-1 2400111:-1 2400112:-1 2400113:-1 2400114:-1 2400115:-1 2400116:-1 2400117:-1 2400118:-1 2400119:-1 2400120:-1 2400121:-1 2400122:-1 2400123:-1 2500095:-1 2500096:1 2500097:1 2500098:1 2500099:1 2500100:1 2500101:-1 2500102:-1 2500103:-1 2500104:-1 2500105:-1 2500106:-1 2500107:-1 2500108:-1 2500109:-1 2500110:-1 2500111:-1 2500112:-1 2500113:-1 2500114:-1 2500115:1 2500116:1 2500117:1 2500118:1 2500119:1 2500120:1 2500121:-1 2500122:-1 2500123:-1 2500124:-1 2500125:-1 2500126:-1 2500127:-1 2600088:-1 2600089:-1 2600090:-1 2600091:-1 2600092:-1 2600093:-1 2600094:-1 2600095:1 2600096:1 2600097:1 2600098:1 2600099:1 2600100:1 2600101:1 2600102:-1 2600103:-1 2600104:-1 2600105:-1 2600106:-1 2600107:-1 2600108:-1 2600109:-1 2600110:-1 2600111:-1 2600112:-1 2600113:-1 2600114:1 2600115:1 2600116:1 2600117:1 2600118:1 2600119:1 2600120:1 2600121:-1 2600122:-1 2600123:-1 2600124:-1 2600125:-1 2600126:-1 2600127:-1 2600128:-1 2700088:-1 2700089:-1 2700090:-1 2700091:-1 2700092:-1 2700093:-1 2700094:-1 2700095:1 2700096:1 2700097:1 2700098:1 2700099:1 2700100:1 2700101:1 2700102:-1 2700103:-1 2700104:-1 2700105:-1 2700106:-1 2700107:-1 2700108:-1 2700109:-1 2700110:-1 2700111:-1 2700112:-1 2700113:-1 2700114:1 2700115:1 2700116:1 2700117:1 2700118:1 2700119:1 2700120:1 2700121:-1 2700122:-1 2700123:-1 2700124:-1 2700125:-1 2700126:-1 2700127:-1 2800089:-1 2800090:-1 2800091:-1 2800092:-1 2800093:-1 2800094:-1 2800095:-1 2800096:1 2800097:1 2800098:1 2800099:1 2800100:1 2800101:1 2800102:-1 2800103:-1 2800104:-1 2800105:-1 2800106:-1 2800107:-1 2800108:-1 2800109:-1 2800110:-1 2800111:-1 2800112:-1 2800113:-1 2800114:1 2800115:1 2800116:1 2800117:1 2800118:1 2800119:1 2800120:-1 2800121:-1 2800122:-1 2800123:-1 2800124:-1 2800125:-1 2800126:-1 2800127:-1 2900089:-1 2900090:-1 2900091:-1 2900092:-1 2900093:-1 2900094:-1 2900095:-1 2900096:1 2900097:1 2900098:1 2900099:1 2900100:1 2900101:1 2900102:1 2900103:-1 2900104:-1 2900105:-1 2900106:-1 2900107:-1 2900108:-1 2900109:-1 2900110:-1 2900111:-1 2900112:-1 2900113:1 2900114:1 2900115:1 2900116:1 2900117:1 2900118:1 2900119:1 2900120:-1 2900121:-1 2900122:-1 2900123:-1 2900124:-1 2900125:-1 2900126:-1 2900127:-1 3000089:-1 3000090:-1 3000091:-1 3000092:-1 3000093:-1 3000094:-1 3000095:-1 3000096:1 3000097:1 3000098:1 3000099:1 3000100:1 3000101:1 3000102:1 3000103:-1 3000104:-1 3000105:-1 3000106:-1 3000107:-1 3000108:-1 3000109:-1 3000110:-1 3000111:-1 3000112:-1 3000113:1 3000114:1 3000115:1 3000116:1 3000117:1 3000118:1 3000119:1 3000120:-1 3000121:-1 3000122:-1 3000123:-1 3000124:-1 3000125:-1 3000126:-1 3000127:-1 3100089:-1 3100090:-1 3100091:-1 3100092:-1 3100093:-1 3100094:-1 3100095:-1 3100096:-1 3100097:1 3100098:1 3100099:1 3100100:1 3100101:1 3100102:1 3100103:-1 3100104:-1 3100105:-1 3100106:-1 3100107:-1 3100108:-1 3100109:-1 3100110:-1 3100111:-1 3100112:-1 3100113:1 3100114:1 3100115:1 3100116:1 3100117:1 3100118:1 3100119:-1 3100120:-1 3100121:-1 3100122:-1 3100123:-1 3100124:-1 3100125:-1 3100126:-1 3100127:-1 3200089:-1 3200090:-1 3200091:-1 3200092:-1 3200093:-1 3200094:-1 3200095:-1 3200096:-1 3200097:1 3200098:1 3200099:1 3200100:1 3200101:1 3200102:1 3200103:-1 3200104:-1 3200105:-1 3200106:-1 3200107:-1 3200108:-1 3200109:-1 3200110:-1 3200111:-1 3200112:1 3200113:1 3200114:1 3200115:1 3200116:1 3200117:1 3200118:1 3200119:-1 3200120:-1 3200121:-1 3200122:-1 3200123:-1 3200124:-1 3200125:-1 3200126:-1 3200127:-1 3300090:-1 3300091:-1 3300092:-1 3300093:-1 3300094:-1 3300095:-1 3300096:-1 3300097:1 3300098:1 3300099:1 3300100:1 3300101:1 3300102:1 3300103:1 3300104:-1 3300105:-1 3300106:-1 3300107:-1 3300108:-1 3300109:-1 3300110:-1 3300111:-1 3300112:1 3300113:1 3300114:1 3300115:1 3300116:1 3300117:1 3300118:1 3300119:-1 3300120:-1 3300121:-1 3300122:-1 3300123:-1 3300124:-1 3300125:-1 3300126:-1 3300127:-1 3400090:-1 3400091:-1 3400092:-1 3400093:-1 3400094:-1 3400095:-1 3400096:-1 3400097:1 3400098:1 3400099:1 3400100:1 3400101:1 3400102:1 3400103:1 3400104:-1 3400105:-1 3400106:-1 3400107:-1 3400108:-1 3400109:-1 3400110:-1 3400111:-1 3400112:1 3400113:1 3400114:1 3400115:1 3400116:1 3400117:1 3400118:-1 3400119:-1 3400120:-1 3400121:-1 3400122:-1 3400123:-1 3400124:-1 3400125:-1 3400126:-1 3400127:-1 3500090:-1 3500091:-1 3500092:-1 3500093:-1 3500094:-1 3500095:-1 3500096:-1 3500097:-1 3500098:1 3500099:1 3500100:1 3500101:1 3500102:1 3500103:1 3500104:-1 3500105:-1 3500106:-1 3500107:-1 3500108:-1 3500109:-1 3500110:-1 3500111:1 3500112:1 3500113:1 3500114:1 3500115:1 3500116:1 3500117:1 3500118:-1 3500119:-1 3500120:-1 3500121:-1 3500122:-1 3500123:-1 3500124:-1 3500125:-1 3500126:-1 3500127:-1 3600091:-1 3600092:-1 3600093:-1 3600094:-1 3600095:-1 3600096:-1 3600097:-1 3600098:1 3600099:1 3600100:1 3600101:1 3600102:1 3600103:1 3600104:1 3600105:-1 3600106:-1 3600107:-1 3600108:-1 3600109:-1 3600110:-1 3600111:1 3600112:1 3600113:1 3600114:1 3600115:1 3600116:1 3600117:1 3600118:-1 3600119:-1 3600120:-1 3600121:-1 3600122:-1 3600123:-1 3600124:-1 3600125:-1 3600126:-1 3600127:-1 3700091:-1 3700092:-1 3700093:-1 3700094:-1 3700095:-1 3700096:-1 3700097:-1 3700098:1 3700099:1 3700100:1 3700101:1 3700102:1 3700103:1 3700104:1 3700105:-1 3700106:-1 3700107:-1 3700108:-1 3700109:-1 3700110:-1 3700111:1 3700112:1 3700113:1 3700114:1 3700115:1 3700116:1 3700117:-1 3700118:-1 3700119:-1 3700120:-1 3700121:-1 3700122:-1 3700123:-1 3700124:-1 3700125:-1 3700126:-1 3700127:-1 3800091:-1 3800092:-1 3800093:-1 3800094:-1 3800095:-1 3800096:-1 3800097:-1 3800098:-1 3800099:1 3800100:1 3800101:1 3800102:1 3800103:1 3800104:1 3800105:-1 3800106:-1 3800107:-1 3800108:-1 3800109:-1 3800110:1 3800111:1 3800112:1 3800113:1 3800114:1 3800115:1 3800116:1 3800117:-1 3800118:-1 3800119:-1 3800120:-1 3800121:-1 3800122:-1 3800123:-1 3800124:-1 3800125:-1 3800126:-1 3800127:-1 3900091:-1 3900092:-1 3900093:-1 3900094:-1 3900095:-1 3900096:-1 3900097:-1 3900098:-1 3900099:1 3900100:1 3900101:1 3900102:1 3900103:1 3900104:1 3900105:1 3900106:-1 3900107:-1 3900108:-1 3900109:-1 3900110:1 3900111:1 3900112:1 3900113:1 3900114:1 3900115:1 3900116:1 3900117:-1 3900118:-1 3900119:-1 3900120:-1 3900121:-1 3900122:-1 3900123:-1 3900124:-1 3900125:-1 3900126:-1 3900127:-1 4000092:-1 4000093:-1 4000094:-1 4000095:-1 4000096:-1 4000097:-1 4000098:-1 4000099:1 4000100:1 4000101:1 4000102:1 4000103:1 4000104:1 4000105:1 4000106:-1 4000107:-1 4000108:-1 4000109:-1 4000110:1 4000111:1 4000112:1 4000113:1 4000114:1 4000115:1 4000116:-1 4000117:-1 4000118:-1 4000119:-1 4000120:-1 4000121:-1 4000122:-1 4000123:-1 4000124:-1 4000125:-1 4000126:-1 4000127:-1 4100092:-1 4100093:-1 4100094:-1 4100095:-1 4100096:-1 4100097:-1 4100098:-1 4100099:1 4100100:1 4100101:1 4100102:1 4100103:1 4100104:1 4100105:1 4100106:-1 4100107:-1 4100108:-1 4100109:-1 4100110:1 4100111:1 4100112:1 4100113:1 4100114:1 4100115:1 4100116:-1 4100117:-1 4100118:-1 4100119:-1 4100120:-1 4100121:-1 4100122:-1 4100123:-1 4100124:-1 4100125:-1 4100126:-1 4100127:-1 4200092:-1 4200093:-1 4200094:-1 4200095:-1 4200096:-1 4200097:-1 4200098:-1 4200099:-1 4200100:1 4200101:1 4200102:1 4200103:1 4200104:1 4200105:1 4200106:-1 4200107:-1 4200108:-1 4200109:1 4200110:1 4200111:1 4200112:1 4200113:1 4200114:1 4200115:1 4200116:-1 4200117:-1 4200118:-1 4200119:-1 4200120:-1 4200121:-1 4200122:-1 4200123:-1 4200124:-1 4200125:-1 4200126:-1 4200127:-1 4300092:-1 4300093:-1 4300094:-1 4300095:-1 4300096:-1 4300097:-1 4300098:-1 4300099:-1 4300100:1 4300101:1 4300102:1 4300103:1 4300104:1 4300105:1 4300106:1 4300107:-1 4300108:-1 4300109:1 4300110:1 4300111:1 4300112:1 4300113:1 4300114:1 4300115:-1 4300116:-1 4300117:-1 4300118:-1 4300119:-1 4300120:-1 4300121:-1 4300122:-1 4300123:-1 4300124:-1 4300125:-1 4300126:-1 4300127:-1 4400093:-1 4400094:-1 4400095:-1 4400096:-1 4400097:-1 4400098:-1 4400099:-1 4400100:1 4400101:1 4400102:1 4400103:1 4400104:1 4400105:1 4400106:1 4400107:-1 4400108:-1 4400109:1 4400110:1 4400111:1 4400112:1 4400113:1 4400114:1 4400115:-1 4400116:-1 4400117:-1 4400118:-1 4400119:-1 4400120:-1 4400121:-1 4400122:-1 4400123:-1 4400124:-1 4400125:-1 4400126:-1 4400127:-1 4500093:-1 4500094:-1 4500095:-1 4500096:-1 4500097:-1 4500098:-1 4500099:-1 4500100:-1 4500101:1 4500102:1 4500103:1 4500104:1 4500105:1 4500106:1 4500107:-1 4500108:1 4500109:1 4500110:1 4500111:1 4500112:1 4500113:1 4500114:1 4500115:-1 4500116:-1 4500117:-1 4500118:-1 4500119:-1 4500120:-1 4500121:-1 4500122:-1 4500123:-1 4500124:-1 4500125:-1 4500126:-1 4500127:-1 4600093:-1 4600094:-1 4600095:-1 4600096:-1 4600097:-1 4600098:-1 4600099:-1 4600100:-1 4600101:1 4600102:1 4600103:1 4600104:1 4600105:1 4600106:1 4600107:1 4600108:1 4600109:1 4600110:1 4600111:1 4600112:1 4600113:1 4600114:-1 4600115:-1 4600116:-1 4600117:-1 4600118:-1 4600119:-1 4600120:-1 4600121:-1 4600122:-1 4600123:-1 4600124:-1 4600125:-1 4600126:-1 4600127:-1 4700093:-1 4700094:-1 4700095:-1 4700096:-1 4700097:-1 4700098:-1 4700099:-1 4700100:-1 4700101:1 4700102:1 4700103:1 4700104:1 4700105:1 4700106:1 4700107:1 4700108:1 4700109:1 4700110:1 4700111:1 4700112:1 4700113:1 4700114:-1 4700115:-1 4700116:-1 4700117:-1 4700118:-1 4700119:-1 4700120:-1 4700121:-1 4700122:-1 4700123:-1 4700124:-1 4700125:-1 4700126:-1 4700127:-1 4800093:-1 4800094:-1 4800095:-1 4800096:-1 4800097:-1 4800098:-1 4800099:-1 4800100:-1 4800101:-1 4800102:1 4800103:1 4800104:1 4800105:1 4800106:1 4800107:1 4800108:1 4800109:1 4800110:1 4800111:1 4800112:1 4800113:1 4800114:-1 4800115:-1 4800116:-1 4800117:-1 4800118:-1 4800119:-1 4800120:-1 4800121:-1 4800122:-1 4800123:-1 4800124:-1 4800125:-1 4800126:-1 4800127:-1 4900093:-1 4900094:-1 4900095:-1 4900096:-1 4900097:-1 4900098:-1 4900099:-1 4900100:-1 4900101:-1 4900102:1 4900103:1 4900104:1 4900105:1 4900106:1 4900107:1 4900108:1 4900109:1 4900110:1 4900111:1 4900112:1 4900113:-1 4900114:-1 4900115:-1 4900116:-1 4900117:-1 4900118:-1 4900119:-1 4900120:-1 4900121:-1 4900122:-1 4900123:-1 4900124:-1 4900125:-1 4900126:-1 4900127:-1 5000093:-1 5000094:-1 5000095:-1 5000096:-1 5000097:-1 5000098:-1 5000099:-1 5000100:-1 5000101:-1 5000102:1 5000103:1 5000104:1 5000105:1 5000106:1 5000107:1 5000108:1 5000109:1 5000110:1 5000111:1 5000112:1 5000113:-1 5000114:-1 5000115:-1 5000116:-1 5000117:-1 5000118:-1 5000119:-1 5000120:-1 5000121:-1 5000122:-1 5000123:-1 5000124:-1 5000125:-1 5000126:-1 5000127:-1 5100093:-1 5100094:-1 5100095:-1 5100096:-1 5100097:-1 5100098:-1 5100099:-1 5100100:-1 5100101:-1 5100102:1 5100103:1 5100104:1 5100105:1 5100106:1 5100107:1 5100108:1 5100109:1 5100110:1 5100111:1 5100112:1 5100113:-1 5100114:-1 5100115:-1 5100116:-1 5100117:-1 5100118:-1 5100119:-1 5100120:-1 5100121:-1 5100122:-1 5100123:-1 5100124:-1 5100125:-1 5100126:-1 5100127:-1 5200095:-1 5200096:-1 5200097:-1 5200098:-1 5200099:-1 5200100:-1 5200101:-1 5200102:-1 5200103:1 5200104:1 5200105:1 5200106:1 5200107:1 5200108:1 5200109:1 5200110:1 5200111:1 5200112:-1 5200113:-1 5200114:-1 5200115:-1 5200116:-1 5200117:-1 5200118:-1 5200119:-1 5200120:-1 5200121:-1 5200122:-1 5200123:-1 5200124:-1 5200125:-1 5200126:-1 5200127:-1 5300094:-1 5300095:-1 5300096:-1 5300097:-1 5300098:-1 5300099:-1 5300100:-1 5300101:-1 5300102:-1 5300103:1 5300104:1 5300105:1 5300106:1 5300107:1 5300108:1 5300109:1 5300110:1 5300111:1 5300112:-1 5300113:-1 5300114:-1 5300115:-1 5300116:-1 5300117:-1 5300118:-1 5300119:-1 5300120:-1 5300121:-1 5300122:-1 5300123:-1 5300124:-1 5300125:-1 5300126:-1 5300127:-1 5400094:-1 5400095:-1 5400096:-1 5400097:-1 5400098:-1 5400099:-1 5400100:-1 5400101:-1 5400102:-1 5400103:1 5400104:1 5400105:1 5400106:1 5400107:1 5400108:1 5400109:1 5400110:1 5400111:1 5400112:-1 5400113:-1 5400114:-1 5400115:-1 5400116:-1 5400117:-1 5400118:-1 5400119:-1 5400120:-1 5400121:-1 5400122:-1 5400123:-1 5400124:-1 5400125:-1 5400126:-1 5400127:-1 5500094:-1 5500095:-1 5500096:-1 5500097:-1 5500098:-1 5500099:-1 5500100:-1 5500101:-1 5500102:-1 5500103:-1 5500104:1 5500105:1 5500106:1 5500107:1 5500108:1 5500109:1 5500110:1 5500111:-1 5500112:-1 5500113:-1 5500114:-1 5500115:-1 5500116:-1 5500117:-1 5500118:-1 5500119:-1 5500120:-1 5500121:-1 5500122:-1 5500123:-1 5500124:-1 5500125:-1 5500126:-1 5500127:-1 5600096:-1 5600097:-1 5600098:-1 5600099:-1 5600100:-1 5600101:-1 5600102:-1 5600103:-1 5600104:-1 5600105:-1 5600106:-1 5600107:-1 5600108:-1 5600109:-1 5600110:-1 5600111:-1 5600112:-1 5600113:-1 5600114:-1 5600115:-1 5600116:-1 5600117:-1 5600118:-1 5600119:-1 5600120:-1 5600121:-1 5600122:-1 5600123:-1 5600124:-1 
0 0 0 0 0 0 0 0 0 0 0 0 0 0 0 0 0.1821756595629291 0 0 0 0 0.2476830240605611 0 0 0 0 0 0 0 0 0 0 0 0 0 0 0 0 0 0 0 0 0 0 0 0 0 0 0 2300105:-1 2300106:-1 2300107:-1 2300108:-1 2300109:-1 2300110:-1 2400096:-1 2400097:-1 2400098:-1 2400099:-1 2400100:-1 2400101:-1 2400102:-1 2400103:-1 2400104:-1 2400105:-1 2400106:-1 2400107:-1 2400108:-1 2400109:-1 2400110:-1 2400111:-1 2400112:-1 2400113:-1 2400114:-1 2400115:-1 2400116:-1 2400117:-1 2400118:-1 2400119:-1 2400120:-1 2400121:-1 2400122:-1 2400123:-1 2500095:1 2500096:1 2500097:1 2500098:1 2500099:1 2500100:1 2500101:-1 2500102:-1 2500103:-1 2500104:-1 2500105:-1 2500106:-1 2500107:-1 2500108:-1 2500109:-1 2500110:-1 2500111:-1 2500112:-1 2500113:-1 2500114:-1 2500115:1 2500116:1 2500117:1 2500118:1 2500119:1 2500120:1 2500121:1 2500122:-1 2500123:-1 2500124:-1 2500125:-1 2500126:-1 2500127:-1 2600088:-1 2600089:-1 2600090:-1 2600091:-1 2600092:-1 2600093:-1 2600094:-1 2600095:1 2600096:1 2600097:1 2600098:1 2600099:1 2600100:1 2600101:1 2600102:-1 2600103:-1 2600104:-1 2600105:-1 2600106:-1 2600107:-1 2600108:-1 2600109:-1 2600110:-1 2600111:-1 2600112:-1 2600113:-1 2600114:-1 2600115:1 2600116:1 2600117:1 2600118:1 2600119:1 2600120:1 2600121:1 2600122:-1 2600123:-1 2600124:-1 2600125:-1 2600126:-1 2600127:-1 2600128:-1 2700088:-1 2700089:-1 2700090:-1 2700091:-1 2700092:-1 2700093:-1 2700094:-1 2700095:1 2700096:1 2700097:1 2700098:1 2700099:1 2700100:1 2700101:1 2700102:-1 2700103:-1 2700104:-1 2700105:-1 2700106:-1 2700107:-1 2700108:-1 2700109:-1 2700110:-1 2700111:-1 2700112:-1 2700113:-1 2700114:1 2700115:1 2700116:1 2700117:1 2700118:1 2700119:1 2700120:1 2700121:-1 2700122:-1 2700123:-1 2700124:-1 2700125:-1 2700126:-1 2700127:-1 2800089:-1 2800090:-1 2800091:-1 2800092:-1 2800093:-1 2800094:-1 2800095:-1 2800096:1 2800097:1 2800098:1 2800099:1 2800100:1 2800101:1 2800102:-1 2800103:-1 2800104:-1 2800105:-1 2800106:-1 2800107:-1 2800108:-1 2800109:-1 2800110:-1 2800111:-1 2800112:-1 2800113:-1 2800114:1 2800115:1 2800116:1 2800117:1 2800118:1 2800119:1 2800120:1 2800121:-1 2800122:-1 2800123:-1 2800124:-1 2800125:-1 2800126:-1 2800127:-1 2900089:-1 2900090:-1 2900091:-1 2900092:-1 2900093:-1 2900094:-1 2900095:-1 2900096:1 2900097:1 2900098:1 2900099:1 2900100:1 2900101:1 2900102:1 2900103:-1 2900104:-1 2900105:-1 2900106:-1 2900107:-1 2900108:-1 2900109:-1 2900110:-1 2900111:-1 2900112:-1 2900113:-1 2900114:1 2900115:1 2900116:1 2900117:1 2900118:1 2900119:1 2900120:1 2900121:-1 2900122:-1 2900123:-1 2900124:-1 2900125:-1 2900126:-1 2900127:-1 3000089:-1 3000090:-1 3000091:-1 3000092:-1 3000093:-1 3000094:-1 3000095:-1 3000096:1 3000097:1 3000098:1 3000099:1 3000100:1 3000101:1 3000102:1 3000103:-1 3000104:-1 3000105:-1 3000106:-1 3000107:-1 3000108:-1 3000109:-1 3000110:-1 3000111:-1 3000112:-1 3000113:1 3000114:1 3000115:1 3000116:1 3000117:1 3000118:1 3000119:1 3000120:-1 3000121:-1 3000122:-1 3000123:-1 3000124:-1 3000125:-1 3000126:-1 3000127:-1 3100089:-1 3100090:-1 3100091:-1 3100092:-1 3100093:-1 3100094:-1 3100095:-1 3100096:-1 3100097:1 3100098:1 3100099:1 3100100:1 3100101:1 3100102:1 3100103:-1 3100104:-1 3100105:-1 3100106:-1 3100107:-1 3100108:-1 3100109:-1 3100110:-1 3100111:-1 3100112:-1 3100113:1 3100114:1 3100115:1 3100116:1 3100117:1 3100118:1 3100119:1 3100120:-1 3100121:-1 3100122:-1 3100123:-1 3100124:-1 3100125:-1 3100126:-1 3100127:-1 3200089:-1 3200090:-1 3200091:-1 3200092:-1 3200093:-1 3200094:-1 3200095:-1 3200096:-1 3200097:1 3200098:1 3200099:1 3200100:1 3200101:1 3200102:1 3200103:1 3200104:-1 3200105:-1 3200106:-1 3200107:-1 3200108:-1 3200109:-1 3200110:-1 3200111:-1 3200112:-1 3200113:1 3200114:1 3200115:1 3200116:1 3200117:1 3200118:1 3200119:-1 3200120:-1 3200121:-1 3200122:-1 3200123:-1 3200124:-1 3200125:-1 3200126:-1 3200127:-1 3300090:-1 3300091:-1 3300092:-1 3300093:-1 3300094:-1 3300095:-1 3300096:-1 3300097:1 3300098:1 3300099:1 3300100:1 3300101:1 3300102:1 3300103:1 3300104:-1 3300105:-1 3300106:-1 3300107:-1 3300108:-1 3300109:-1 3300110:-1 3300111:-1 3300112:-1 3300113:1 3300114:1 3300115:1 3300116:1 3300117:1 3300118:1 3300119:-1 3300120:-1 3300121:-1 3300122:-1 3300123:-1 3300124:-1 3300125:-1 3300126:-1 3300127:-1 3400090:-1 3400091:-1 3400092:-1 3400093:-1 3400094:-1 3400095:-1 3400096:-1 3400097:-1 3400098:1 3400099:1 3400100:1 3400101:1 3400102:1 3400103:1 3400104:-1 3400105:-1 3400106:-1 3400107:-1 3400108:-1 3400109:-1 3400110:-1 3400111:-1 3400112:1 3400113:1 3400114:1 3400115:1 3400116:1 3400117:1 3400118:1 3400119:-1 3400120:-1 3400121:-1 3400122:-1 3400123:-1 3400124:-1 3400125:-1 3400126:-1 3400127:-1 3500090:-1 3500091:-1 3500092:-1 3500093:-1 3500094:-1 3500095:-1 3500096:-1 3500097:-1 3500098:1 3500099:1 3500100:1 3500101:1 3500102:1 3500103:1 3500104:1 3500105:-1 3500106:-1 3500107:-1 3500108:-1 3500109:-1 3500110:-1 3500111:-1 3500112:1 3500113:1 3500114:1 3500115:1 3500116:1 3500117:1 3500118:-1 3500119:-1 3500120:-1 3500121:-1 3500122:-1 3500123:-1 3500124:-1 3500125:-1 3500126:-1 3500127:-1 3600091:-1 3600092:-1 3600093:-1 3600094:-1 3600095:-1 3600096:-1 3600097:-1 3600098:1 3600099:1 3600100:1 3600101:1 3600102:1 3600103:1 3600104:1 3600105:-1 3600106:-1 3600107:-1 3600108:-1 3600109:-1 3600110:-1 3600111:-1 3600112:1 3600113:1 3600114:1 3600115:1 3600116:1 3600117:1 3600118:-1 3600119:-1 3600120:-1 3600121:-1 3600122:-1 3600123:-1 3600124:-1 3600125:-1 3600126:-1 3600127:-1 3700091:-1 3700092:-1 3700093:-1 3700094:-1 3700095:-1 3700096:-1 3700097:-1 3700098:-1 3700099:1 3700100:1 3700101:1 3700102:1 3700103:1 3700104:1 3700105:-1 3700106:-1 3700107:-1 3700108:-1 3700109:-1 3700110:-1 3700111:1 3700112:1 3700113:1 3700114:1 3700115:1 3700116:1 3700117:1 3700118:-1 3700119:-1 3700120:-1 3700121:-1 3700122:-1 3700123:-1 3700124:-1 3700125:-1 3700126:-1 3700127:-1 3800091:-1 3800092:-1 3800093:-1 3800094:-1 3800095:-1 3800096:-1 3800097:-1 3800098:-1 3800099:1 3800100:1 3800101:1 3800102:1 3800103:1 3800104:1 3800105:1 3800106:-1 3800107:-1 3800108:-1 3800109:-1 3800110:-1 3800111:1 3800112:1 3800113:1 3800114:1 3800115:1 3800116:1 3800117:-1 3800118:-1 3800119:-1 3800120:-1 3800121:-1 3800122:-1 3800123:-1 3800124:-1 3800125:-1 3800126:-1 3800127:-1 3900091:-1 3900092:-1 3900093:-1 3900094:-1 3900095:-1 3900096:-1 3900097:-1 3900098:-1 3900099:1 3900100:1 3900101:1 3900102:1 3900103:1 3900104:1 3900105:1 3900106:-1 3900107:-1 3900108:-1 3900109:-1 3900110:-1 3900111:1 3900112:1 3900113:1 3900114:1 3900115:1 3900116:1 3900117:-1 3900118:-1 3900119:-1 3900120:-1 3900121:-1 3900122:-1 3900123:-1 3900124:-1 3900125:-1 3900126:-1 3900127:-1 4000092:-1 4000093:-1 4000094:-1 4000095:-1 4000096:-1 4000097:-1 4000098:-1 4000099:-1 4000100:1 4000101:1 4000102:1 4000103:1 4000104:1 4000105:1 4000106:-1 4000107:-1 4000108:-1 4000109:-1 4000110:1 4000111:1 4000112:1 4000113:1 4000114:1 4000115:1 4000116:1 4000117:-1 4000118:-1 4000119:-1 4000120:-1 4000121:-1 4000122:-1 4000123:-1 4000124:-1 4000125:-1 4000126:-1 4000127:-1 4100092:-1 4100093:-1 4100094:-1 4100095:-1 4100096:-1 4100097:-1 4100098:-1 4100099:-1 4100100:1 4100101:1 4100102:1 4100103:1 4100104:1 4100105:1 4100106:1 4100107:-1 4100108:-1 4100109:-1 4100110:1 4100111:1 4100112:1 4100113:1 4100114:1 4100115:1 4100116:-1 4100117:-1 4100118:-1 4100119:-1 4100120:-1 4100121:-1 4100122:-1 4100123:-1 4100124:-1 4100125:-1 4100126:-1 4100127:-1 4200092:-1 4200093:-1 4200094:-1 4200095:-1 4200096:-1 4200097:-1 4200098:-1 4200099:-1 4200100:1 4200101:1 4200102:1 4200103:1 4200104:1 4200105:1 4200106:1 4200107:-1 4200108:-1 4200109:-1 4200110:1 4200111:1 4200112:1 4200113:1 4200114:1 4200115:1 4200116:-1 4200117:-1 4200118:-1 4200119:-1 4200120:-1 4200121:-1 4200122:-1 4200123:-1 4200124:-1 4200125:-1 4200126:-1 4200127:-1 4300092:-1 4300093:-1 4300094:-1 4300095:-1 4300096:-1 4300097:-1 4300098:-1 4300099:-1 4300100:-1 4300101:1 4300102:1 4300103:1 4300104:1 4300105:1 4300106:1 4300107:-1 4300108:-1 4300109:-1 4300110:1 4300111:1 4300112:1 4300113:1 4300114:1 4300115:1 4300116:-1 4300117:-1 4300118:-1 4300119:-1 4300120:-1 4300121:-1 4300122:-1 4300123:-1 4300124:-1 4300125:-1 4300126:-1 4300127:-1 4400093:-1 4400094:-1 4400095:-1 4400096:-1 4400097:-1 4400098:-1 4400099:-1 4400100:-1 4400101:1 4400102:1 4400103:1 4400104:1 4400105:1 4400106:1 4400107:1 4400108:-1 4400109:1 4400110:1 4400111:1 4400112:1 4400113:1 4400114:1 4400115:-1 4400116:-1 4400117:-1 4400118:-1 4400119:-1 4400120:-1 4400121:-1 4400122:-1 4400123:-1 4400124:-1 4400125:-1 4400126:-1 4400127:-1 4500093:-1 4500094:-1 4500095:-1 4500096:-1 4500097:-1 4500098:-1 4500099:-1 4500100:-1 4500101:1 4500102:1 4500103:1 4500104:1 4500105:1 4500106:1 4500107:1 4500108:-1 4500109:1 4500110:1 4500111:1 4500112:1 4500113:1 4500114:1 4500115:-1 4500116:-1 4500117:-1 4500118:-1 4500119:-1 4500120:-1 4500121:-1 4500122:-1 4500123:-1 4500124:-1 4500125:-1 4500126:-1 4500127:-1 4600093:-1 4600094:-1 4600095:-1 4600096:-1 4600097:-1 4600098:-1 4600099:-1 4600100:-1 4600101:-1 4600102:1 4600103:1 4600104:1 4600105:1 4600106:1 4600107:1 4600108:1 4600109:1 4600110:1 4600111:1 4600112:1 4600113:1 4600114:1 4600115:-1 4600116:-1 4600117:-1 4600118:-1 4600119:-1 4600120:-1 4600121:-1 4600122:-1 4600123:-1 4600124:-1 4600125:-1 4600126:-1 4600127:-1 4700093:-1 4700094:-1 4700095:-1 4700096:-1 4700097:-1 4700098:-1 4700099:-1 4700100:-1 4700101:-1 4700102:1 4700103:1 4700104:1 4700105:1 4700106:1 4700107:1 4700108:1 4700109:1 4700110:1 4700111:1 4700112:1 4700113:1 4700114:1 4700115:-1 4700116:-1 4700117:-1 4700118:-1 4700119:-1 4700120:-1 4700121:-1 4700122:-1 4700123:-1 4700124:-1 4700125:-1 4700126:-1 4700127:-1 4800093:-1 4800094:-1 4800095:-1 4800096:-1 4800097:-1 4800098:-1 4800099:-1 4800100:-1 4800101:-1 4800102:1 4800103:1 4800104:1 4800105:1 4800106:1 4800107:1 4800108:1 4800109:1 4800110:1 4800111:1 4800112:1 4800113:1 4800114:-1 4800115:-1 4800116:-1 4800117:-1 4800118:-1 4800119:-1 4800120:-1 4800121:-1 4800122:-1 4800123:-1 4800124:-1 4800125:-1 4800126:-1 4800127:-1 4900093:-1 4900094:-1 4900095:-1 4900096:-1 4900097:-1 4900098:-1 4900099:-1 4900100:-1 4900101:-1 4900102:-1 4900103:1 4900104:1 4900105:1 4900106:1 4900107:1 4900108:1 4900109:1 4900110:1 4900111:1 4900112:1 4900113:1 4900114:-1 4900115:-1 4900116:-1 4900117:-1 4900118:-1 4900119:-1 4900120:-1 4900121:-1 4900122:-1 4900123:-1 4900124:-1 4900125:-1 4900126:-1 4900127:-1 5000093:-1 5000094:-1 5000095:-1 5000096:-1 5000097:-1 5000098:-1 5000099:-1 5000100:-1 5000101:-1 5000102:-1 5000103:1 5000104:1 5000105:1 5000106:1 5000107:1 5000108:1 5000109:1 5000110:1 5000111:1 5000112:1 5000113:1 5000114:-1 5000115:-1 5000116:-1 5000117:-1 5000118:-1 5000119:-1 5000120:-1 5000121:-1 5000122:-1 5000123:-1 5000124:-1 5000125:-1 5000126:-1 5000127:-1 5100093:-1 5100094:-1 5100095:-1 5100096:-1 5100097:-1 5100098:-1 5100099:-1 5100100:-1 5100101:-1 5100102:-1 5100103:1 5100104:1 5100105:1 5100106:1 5100107:1 5100108:1 5100109:1 5100110:1 5100111:1 5100112:1 5100113:-1 5100114:-1 5100115:-1 5100116:-1 5100117:-1 5100118:-1 5100119:-1 5100120:-1 5100121:-1 5100122:-1 5100123:-1 5100124:-1 5100125:-1 5100126:-1 5100127:-1 5200095:-1 5200096:-1 5200097:-1 5200098:-1 5200099:-1 5200100:-1 5200101:-1 5200102:-1 5200103:1 5200104:1 5200105:1 5200106:1 5200107:1 5200108:1 5200109:1 5200110:1 5200111:1 5200112:1 5200113:-1 5200114:-1 5200115:-1 5200116:-1 5200117:-1 5200118:-1 5200119:-1 5200120:-1 5200121:-1 5200122:-1 5200123:-1 5200124:-1 5200125:-1 5200126:-1 5200127:-1 5300094:-1 5300095:-1 5300096:-1 5300097:-1 5300098:-1 5300099:-1 5300100:-1 5300101:-1 5300102:-1 5300103:-1 5300104:1 5300105:1 5300106:1 5300107:1 5300108:1 5300109:1 5300110:1 5300111:1 5300112:1 5300113:-1 5300114:-1 5300115:-1 5300116:-1 5300117:-1 5300118:-1 5300119:-1 5300120:-1 5300121:-1 5300122:-1 5300123:-1 5300124:-1 5300125:-1 5300126:-1 5300127:-1 5400094:-1 5400095:-1 5400096:-1 5400097:-1 5400098:-1 5400099:-1 5400100:-1 5400101:-1 5400102:-1 5400103:-1 5400104:1 5400105:1 5400106:1 5400107:1 5400108:1 5400109:1 5400110:1 5400111:1 5400112:-1 5400113:-1 5400114:-1 5400115:-1 5400116:-1 5400117:-1 5400118:-1 5400119:-1 5400120:-1 5400121:-1 5400122:-1 5400123:-1 5400124:-1 5400125:-1 5400126:-1 5400127:-1 5500094:-1 5500095:-1 5500096:-1 5500097:-1 5500098:-1 5500099:-1 5500100:-1 5500101:-1 5500102:-1 5500103:-1 5500104:1 5500105:1 5500106:1 5500107:1 5500108:1 5500109:1 5500110:1 5500111:1 5500112:-1 5500113:-1 5500114:-1 5500115:-1 5500116:-1 5500117:-1 5500118:-1 5500119:-1 5500120:-1 5500121:-1 5500122:-1 5500123:-1 5500124:-1 5500125:-1 5500126:-1 5500127:-1 5600096:-1 5600097:-1 5600098:-1 5600099:-1 5600100:-1 5600101:-1 5600102:-1 5600103:-1 5600104:-1 5600105:-1 5600106:-1 5600107:-1 5600108:-1 5600109:-1 5600110:-1 5600111:-1 5600112:-1 5600113:-1 5600114:-1 5600115:-1 5600116:-1 5600117:-1 5600118:-1 5600119:-1 5600120:-1 5600121:-1 5600122:-1 5600123:-1 5600124:-1 
0.1148016496590755 0 0 0.8318273708900211 0 0.7084940131265941 0.4422390189873956 1.710838564749351 0.004970427205356157 0.4491449572415792 1.393798356683939 0.8452112282175506 0 1.342812298775807 0 1.074422442902067 0 1.464137003685734 0 2.274866777807002 1.984671128224221 0.6648391650593474 0 0 0.694501100035412 0.9447577406797666 1.977038306414642 0 0 0 0.7529339561986401 0.6865937446910378 0 0 0 0.7352851837073799 0 0 0 0 0.1589539331891562 0 0 0.4938554158049169 0 0.8452300365732928 1.097510071009624 0.8388614170980555 0.9838709353695282 2300105:-1 2300106:-1 2300107:-1 2300108:-1 2300109:-1 2300110:-1 2400096:-1 2400097:-1 2400098:-1 2400099:-1 2400100:-1 2400101:-1 2400102:-1 2400103:-1 2400104:-1 2400105:-1 2400106:-1 2400107:-1 2400108:-1 2400109:-1 2400110:-1 2400111:-1 2400112:-1 2400113:-1 2400114:-1 2400115:-1 2400116:-1 2400117:-1 2400118:-1 2400119:-1 2400120:-1 2400121:-1 2400122:-1 2400123:-1 2500095:1 2500096:1 2500097:1 2500098:1 2500099:1 2500100:1 2500101:1 2500102:-1 2500103:-1 2500104:-1 2500105:-1 2500106:-1 2500107:-1 2500108:-1 2500109:-1 2500110:-1 2500111:-1 2500112:-1 2500113:-1 2500114:-1 2500115:-1 2500116:1 2500117:1 2500118:-1 2500119:-1 2500120:-1 2500121:-1 2500122:-1 2500123:-1 2500124:-1 2500125:-1 2500126:-1 2500127:-1 2600088:-1 2600089:-1 2600090:-1 2600091:-1 2600092:-1 2600093:-1 2600094:-1 2600095:1 2600096:1 2600097:1 2600098:1 2600099:1 2600100:1 2600101:1 2600102:-1 2600103:-1 2600104:-1 2600105:-1 2600106:-1 2600107:-1 2600108:-1 2600109:-1 2600110:-1 2600111:-1 2600112:-1 2600113:-1 2600114:-1 2600115:1 2600116:1 2600117:1 2600118:1 2600119:1 2600120:1 2600121:1 2600122:-1 2600123:-1 2600124:-1 2600125:-1 2600126:-1 2600127:-1 2600128:-1 2700088:-1 2700089:-1 2700090:-1 2700091:-1 2700092:-1 2700093:-1 2700094:-1 2700095:1 2700096:1 2700097:1 2700098:1 2700099:1 2700100:1 2700101:1 2700102:-1 2700103:-1 2700104:-1 2700105:-1 2700106:-1 2700107:-1 2700108:-1 2700109:-1 2700110:-1 2700111:-1 2700112:-1 2700113:-1 2700114:-1 2700115:1 2700116:1 2700117:1 2700118:1 2700119:1 2700120:1 2700121:1 2700122:-1 2700123:-1 2700124:-1 2700125:-1 2700126:-1 2700127:-1 2800089:-1 2800090:-1 2800091:-1 2800092:-1 2800093:-1 2800094:-1 2800095:-1 2800096:1 2800097:1 2800098:1 2800099:1 2800100:1 2800101:1 2800102:1 2800103:-1 2800104:-1 2800105:-1 2800106:-1 2800107:-1 2800108:-1 2800109:-1 2800110:-1 2800111:-1 2800112:-1 2800113:-1 2800114:-1 2800115:1 2800116:1 2800117:1 2800118:1 2800119:1 2800120:1 2800121:-1 2800122:-1 2800123:-1 2800124:-1 2800125:-1 2800126:-1 2800127:-1 2900089:-1 2900090:-1 2900091:-1 2900092:-1 2900093:-1 2900094:-1 2900095:-1 2900096:1 2900097:1 2900098:1 2900099:1 2900100:1 2900101:1 2900102:1 2900103:-1 2900104:-1 2900105:-1 2900106:-1 2900107:-1 2900108:-1 2900109:-1 2900110:-1 2900111:-1 2900112:-1 2900113:-1 2900114:1 2900115:1 2900116:1 2900117:1 2900118:1 2900119:1 2900120:1 2900121:-1 2900122:-1 2900123:-1 2900124:-1 2900125:-1 2900126:-1 2900127:-1 3000089:-1 3000090:-1 3000091:-1 3000092:-1 3000093:-1 3000094:-1 3000095:-1 3000096:1 3000097:1 3000098:1 3000099:1 3000100:1 3000101:1 3000102:1 3000103:-1 3000104:-1 3000105:-1 3000106:-1 3000107:-1 3000108:-1 3000109:-1 3000110:-1 3000111:-1 3000112:-1 3000113:-1 3000114:1 3000115:1 3000116:1 3000117:1 3000118:1 3000119:1 3000120:1 3000121:-1 3000122:-1 3000123:-1 3000124:-1 3000125:-1 3000126:-1 3000127:-1 3100089:-1 3100090:-1 3100091:-1 3100092:-1 3100093:-1 3100094:-1 3100095:-1 3100096:-1 3100097:1 3100098:1 3100099:1 3100100:1 3100101:1 3100102:1 3100103:1 3100104:-1 3100105:-1 3100106:-1 3100107:-1 3100108:-1 3100109:-1 3100110:-1 3100111:-1 3100112:-1 3100113:-1 3100114:1 3100115:1 3100116:1 3100117:1 3100118:1 3100119:1 3100120:-1 3100121:-1 3100122:-1 3100123:-1 3100124:-1 3100125:-1 3100126:-1 3100127:-1 3200089:-1 3200090:-1 3200091:-1 3200092:-1 3200093:-1 3200094:-1 3200095:-1 3200096:-1 3200097:1 3200098:1 3200099:1 3200100:1 3200101:1 3200102:1 3200103:1 3200104:-1 3200105:-1 3200106:-1 3200107:-1 3200108:-1 3200109:-1 3200110:-1 3200111:-1 3200112:-1 3200113:1 3200114:1 3200115:1 3200116:1 3200117:1 3200118:1 3200119:1 3200120:-1 3200121:-1 3200122:-1 3200123:-1 3200124:-1 3200125:-1 3200126:-1 3200127:-1 3300090:-1 3300091:-1 3300092:-1 3300093:-1 3300094:-1 3300095:-1 3300096:-1 3300097:1 3300098:1 3300099:1 3300100:1 3300101:1 3300102:1 3300103:1 3300104:-1 3300105:-1 3300106:-1 3300107:-1 3300108:-1 3300109:-1 3300110:-1 3300111:-1 3300112:-1 3300113:1 3300114:1 3300115:1 3300116:1 3300117:1 3300118:1 3300119:1 3300120:-1 3300121:-1 3300122:-1 3300123:-1 3300124:-1 3300125:-1 3300126:-1 3300127:-1 3400090:-1 3400091:-1 3400092:-1 3400093:-1 3400094:-1 3400095:-1 3400096:-1 3400097:-1 3400098:1 3400099:1 3400100:1 3400101:1 3400102:1 3400103:1 3400104:1 3400105:-1 3400106:-1 3400107:-1 3400108:-1 3400109:-1 3400110:-1 3400111:-1 3400112:-1 3400113:1 3400114:1 3400115:1 3400116:1 3400117:1 3400118:1 3400119:-1 3400120:-1 3400121:-1 3400122:-1 3400123:-1 3400124:-1 3400125:-1 3400126:-1 3400127:-1 3500090:-1 3500091:-1 3500092:-1 3500093:-1 3500094:-1 3500095:-1 3500096:-1 3500097:-1 3500098:1 3500099:1 3500100:1 3500101:1 3500102:1 3500103:1 3500104:1 3500105:-1 3500106:-1 3500107:-1 3500108:-1 3500109:-1 3500110:-1 3500111:-1 3500112:-1 3500113:1 3500114:1 3500115:1 3500116:1 3500117:1 3500118:1 3500119:-1 3500120:-1 3500121:-1 3500122:-1 3500123:-1 3500124:-1 3500125:-1 3500126:-1 3500127:-1 3600091:-1 3600092:-1 3600093:-1 3600094:-1 3600095:-1 3600096:-1 3600097:-1 3600098:1 3600099:1 3600100:1 3600101:1 3600102:1 3600103:1 3600104:1 3600105:-1 3600106:-1 3600107:-1 3600108:-1 3600109:-1 3600110:-1 3600111:-1 3600112:1 3600113:1 3600114:1 3600115:1 3600116:1 3600117:1 3600118:1 3600119:-1 3600120:-1 3600121:-1 3600122:-1 3600123:-1 3600124:-1 3600125:-1 3600126:-1 3600127:-1 3700091:-1 3700092:-1 3700093:-1 3700094:-1 3700095:-1 3700096:-1 3700097:-1 3700098:-1 3700099:1 3700100:1 3700101:1 3700102:1 3700103:1 3700104:1 3700105:1 3700106:-1 3700107:-1 3700108:-1 3700109:-1 3700110:-1 3700111:-1 3700112:1 3700113:1 3700114:1 3700115:1 3700116:1 3700117:1 3700118:1 3700119:-1 3700120:-1 3700121:-1 3700122:-1 3700123:-1 3700124:-1 3700125:-1 3700126:-1 3700127:-1 3800091:-1 3800092:-1 3800093:-1 3800094:-1 3800095:-1 3800096:-1 3800097:-1 3800098:-1 3800099:1 3800100:1 3800101:1 3800102:1 3800103:1 3800104:1 3800105:1 3800106:-1 3800107:-1 3800108:-1 3800109:-1 3800110:-1 3800111:-1 3800112:1 3800113:1 3800114:1 3800115:1 3800116:1 3800117:1 3800118:-1 3800119:-1 3800120:-1 3800121:-1 3800122:-1 3800123:-1 3800124:-1 3800125:-1 3800126:-1 3800127:-1 3900091:-1 3900092:-1 3900093:-1 3900094:-1 3900095:-1 3900096:-1 3900097:-1 3900098:-1 3900099:1 3900100:1 3900101:1 3900102:1 3900103:1 3900104:1 3900105:1 3900106:-1 3900107:-1 3900108:-1 3900109:-1 3900110:-1 3900111:1 3900112:1 3900113:1 3900114:1 3900115:1 3900116:1 3900117:1 3900118:-1 3900119:-1 3900120:-1 3900121:-1 3900122:-1 3900123:-1 3900124:-1 3900125:-1 3900126:-1 3900127:-1 4000092:-1 4000093:-1 4000094:-1 4000095:-1 4000096:-1 4000097:-1 4000098:-1 4000099:1 4000100:1 4000101:1 4000102:1 4000103:1 4000104:1 4000105:1 4000106:1 4000107:-1 4000108:-1 4000109:-1 4000110:-1 4000111:1 4000112:1 4000113:1 4000114:1 4000115:1 4000116:1 4000117:1 4000118:-1 4000119:-1 4000120:-1 4000121:-1 4000122:-1 4000123:-1 4000124:-1 4000125:-1 4000126:-1 4000127:-1 4100092:-1 4100093:-1 4100094:-1 4100095:-1 4100096:-1 4100097:-1 4100098:-1 4100099:-1 4100100:1 4100101:1 4100102:1 4100103:1 4100104:1 4100105:1 4100106:1 4100107:-1 4100108:-1 4100109:-1 4100110:-1 4100111:1 4100112:1 4100113:1 4100114:1 4100115:1 4100116:1 4100117:-1 4100118:-1 4100119:-1 4100120:-1 4100121:-1 4100122:-1 4100123:-1 4100124:-1 4100125:-1 4100126:-1 4100127:-1 4200092:-1 4200093:-1 4200094:-1 4200095:-1 4200096:-1 4200097:-1 4200098:-1 4200099:-1 4200100:1 4200101:1 4200102:1 4200103:1 4200104:1 4200105:1 4200106:1 4200107:-1 4200108:-1 4200109:-1 4200110:1 4200111:1 4200112:1 4200113:1 4200114:1 4200115:1 4200116:1 4200117:-1 4200118:-1 4200119:-1 4200120:-1 4200121:-1 4200122:-1 4200123:-1 4200124:-1 4200125:-1 4200126:-1 4200127:-1 4300092:-1 4300093:-1 4300094:-1 4300095:-1 4300096:-1 4300097:-1 4300098:-1 4300099:-1 4300100:-1 4300101:1 4300102:1 4300103:1 4300104:1 4300105:1 4300106:1 4300107:1 4300108:-1 4300109:-1 4300110:1 4300111:1 4300112:1 4300113:1 4300114:1 4300115:1 4300116:1 4300117:-1 4300118:-1 4300119:-1 4300120:-1 4300121:-1 4300122:-1 4300123:-1 4300124:-1 4300125:-1 4300126:-1 4300127:-1 4400093:-1 4400094:-1 4400095:-1 4400096:-1 4400097:-1 4400098:-1 4400099:-1 4400100:-1 4400101:1 4400102:1 4400103:1 4400104:1 4400105:1 4400106:1 4400107:1 4400108:-1 4400109:-1 4400110:1 4400111:1 4400112:1 4400113:1 4400114:1 4400115:1 4400116:-1 4400117:-1 4400118:-1 4400119:-1 4400120:-1 4400121:-1 4400122:-1 4400123:-1 4400124:-1 4400125:-1 4400126:-1 4400127:-1 4500093:-1 4500094:-1 4500095:-1 4500096:-1 4500097:-1 4500098:-1 4500099:-1 4500100:-1 4500101:1 4500102:1 4500103:1 4500104:1 4500105:1 4500106:1 4500107:1 4500108:-1 4500109:1 4500110:1 4500111:1 4500112:1 4500113:1 4500114:1 4500115:1 4500116:-1 4500117:-1 4500118:-1 4500119:-1 4500120:-1 4500121:-1 4500122:-1 4500123:-1 4500124:-1 4500125:-1 4500126:-1 4500127:-1 4600093:-1 4600094:-1 4600095:-1 4600096:-1 4600097:-1 4600098:-1 4600099:-1 4600100:-1 4600101:-1 4600102:1 4600103:1 4600104:1 4600105:1 4600106:1 4600107:1 4600108:1 4600109:1 4600110:1 4600111:1 4600112:1 4600113:1 4600114:1 4600115:1 4600116:-1 4600117:-1 4600118:-1 4600119:-1 4600120:-1 4600121:-1 4600122:-1 4600123:-1 4600124:-1 4600125:-1 4600126:-1 4600127:-1 4700093:-1 4700094:-1 4700095:-1 4700096:-1 4700097:-1 4700098:-1 4700099:-1 4700100:-1 4700101:-1 4700102:1 4700103:1 4700104:1 4700105:1 4700106:1 4700107:1 4700108:1 4700109:1 4700110:1 4700111:1 4700112:1 4700113:1 4700114:1 4700115:-1 4700116:-1 4700117:-1 4700118:-1 4700119:-1 4700120:-1 4700121:-1 4700122:-1 4700123:-1 4700124:-1 4700125:-1 4700126:-1 4700127:-1 4800093:-1 4800094:-1 4800095:-1 4800096:-1 4800097:-1 4800098:-1 4800099:-1 4800100:-1 4800101:-1 4800102:1 4800103:1 4800104:1 4800105:1 4800106:1 4800107:1 4800108:1 4800109:1 4800110:1 4800111:1 4800112:1 4800113:1 4800114:1 4800115:-1 4800116:-1 4800117:-1 4800118:-1 4800119:-1 4800120:-1 4800121:-1 4800122:-1 4800123:-1 4800124:-1 4800125:-1 4800126:-1 4800127:-1 4900093:-1 4900094:-1 4900095:-1 4900096:-1 4900097:-1 4900098:-1 4900099:-1 4900100:-1 4900101:-1 4900102:1 4900103:1 4900104:1 4900105:1 4900106:1 4900107:1 4900108:1 4900109:1 4900110:1 4900111:1 4900112:1 4900113:1 4900114:1 4900115:-1 4900116:-1 4900117:-1 4900118:-1 4900119:-1 4900120:-1 4900121:-1 4900122:-1 4900123:-1 4900124:-1 4900125:-1 4900126:-1 4900127:-1 5000093:-1 5000094:-1 5000095:-1 5000096:-1 5000097:-1 5000098:-1 5000099:-1 5000100:-1 5000101:-1 5000102:-1 5000103:1 5000104:1 5000105:1 5000106:1 5000107:1 5000108:1 5000109:1 5000110:1 5000111:1 5000112:1 5000113:1 5000114:-1 5000115:-1 5000116:-1 5000117:-1 5000118:-1 5000119:-1 5000120:-1 5000121:-1 5000122:-1 5000123:-1 5000124:-1 5000125:-1 5000126:-1 5000127:-1 5100093:-1 5100094:-1 5100095:-1 5100096:-1 5100097:-1 5100098:-1 5100099:-1 5100100:-1 5100101:-1 5100102:-1 5100103:1 5100104:1 5100105:1 5100106:1 5100107:1 5100108:1 5100109:1 5100110:1 5100111:1 5100112:1 5100113:1 5100114:-1 5100115:-1 5100116:-1 5100117:-1 5100118:-1 5100119:-1 5100120:-1 5100121:-1 5100122:-1 5100123:-1 5100124:-1 5100125:-1 5100126:-1 5100127:-1 5200095:-1 5200096:-1 5200097:-1 5200098:-1 5200099:-1 5200100:-1 5200101:-1 5200102:-1 5200103:1 5200104:1 5200105:1 5200106:1 5200107:1 5200108:1 5200109:1 5200110:1 5200111:1 5200112:1 5200113:1 5200114:-1 5200115:-1 5200116:-1 5200117:-1 5200118:-1 5200119:-1 5200120:-1 5200121:-1 5200122:-1 5200123:-1 5200124:-1 5200125:-1 5200126:-1 5200127:-1 5300094:-1 5300095:-1 5300096:-1 5300097:-1 5300098:-1 5300099:-1 5300100:-1 5300101:-1 5300102:-1 5300103:-1 5300104:1 5300105:1 5300106:1 5300107:1 5300108:1 5300109:1 5300110:1 5300111:1 5300112:1 5300113:-1 5300114:-1 5300115:-1 5300116:-1 5300117:-1 5300118:-1 5300119:-1 5300120:-1 5300121:-1 5300122:-1 5300123:-1 5300124:-1 5300125:-1 5300126:-1 5300127:-1 5400094:-1 5400095:-1 5400096:-1 5400097:-1 5400098:-1 5400099:-1 5400100:-1 5400101:-1 5400102:-1 5400103:-1 5400104:1 5400105:1 5400106:1 5400107:1 5400108:1 5400109:1 5400110:1 5400111:1 5400112:1 5400113:-1 5400114:-1 5400115:-1 5400116:-1 5400117:-1 5400118:-1 5400119:-1 5400120:-1 5400121:-1 5400122:-1 5400123:-1 5400124:-1 5400125:-1 5400126:-1 5400127:-1 5500094:-1 5500095:-1 5500096:-1 5500097:-1 5500098:-1 5500099:-1 5500100:-1 5500101:-1 5500102:-1 5500103:-1 5500104:1 5500105:1 5500106:1 5500107:1 5500108:1 5500109:1 5500110:1 5500111:1 5500112:1 5500113:-1 5500114:-1 5500115:-1 5500116:-1 5500117:-1 5500118:-1 5500119:-1 5500120:-1 5500121:-1 5500122:-1 5500123:-1 5500124:-1 5500125:-1 5500126:-1 5500127:-1 5600096:-1 5600097:-1 5600098:-1 5600099:-1 5600100:-1 5600101:-1 5600102:-1 5600103:-1 5600104:-1 5600105:1 5600106:-1 5600107:-1 5600108:-1 5600109:-1 5600110:-1 5600111:-1 5600112:-1 5600113:-1 5600114:-1 5600115:-1 5600116:-1 5600117:-1 5600118:-1 5600119:-1 5600120:-1 5600121:-1 5600122:-1 5600123:-1 5600124:-1 
