svm_type c_svc
kernel_type rbf
gamma 0.00012207
nr_class 50
total_sv 281
rho -0.031285 -0.0461831 0.00205298 0.0210578 0.0158462 0.0583942 -0.0365949 -0.00111892 -0.0203807 -0.0220523 0.0324107 0.0468431 -0.0560892 -0.0485002 -0.000791552 -0.0152324 -0.0042231 0.0695968 0.00976403 -0.0496468 0.0386064 0.0241379 -0.0342865 0.028079 0.021269 -0.0473249 0.00245864 -0.0470274 -0.0425454 -0.00183809 -0.0503626 -0.0640681 0.00312784 0.0381389 -0.0274395 0.0159879 -0.0445997 -0.0340761 0.00837962 -0.00320173 -0.00965655 0.0166443 -0.0695036 -0.0573714 0.0361569 0.0468953 0.0427267 -0.0920863 -0.0671181 -0.0211728 0.0294782 0.0379583 0.0230579 0.090925 -0.0401152 -0.000291443 0.0138603 -0.000363953 0.0517868 0.0491694 -0.0442215 -0.0244374 0.019401 0.0240128 0.0216424 0.0625233 0.0320345 -0.0299995 0.0810114 0.0372369 -0.0102446 0.0335086 0.0531132 -0.0320904 0.0139533 0.000925201 -0.029668 0.0308433 -0.0339332 -0.0441532 0.0169117 0.0217707 -0.0118943 0.0327758 -0.0376601 -0.0367213 0.0208741 0.0204716 0.0265055 0.0457334 -0.049382 -0.0469177 0.0543975 0.062394 0.0880542 -0.0864406 -0.045858 0.0541947 0.080769 0.0418648 0.117352 -0.0023281 0.0299976 0.0327831 0.0251631 0.0721874 0.0846412 -0.022702 0.00432 0.0370263 0.0406109 0.040865 0.0688395 0.0390053 -0.00601659 0.0684329 0.0525284 0.00748054 0.0486722 0.0954809 -0.00995353 0.0405413 0.00569477 0.015679 0.0356772 -0.00104901 -0.0282992 0.0318535 0.0424678 0.0066317 0.0539672 0.00215354 0.0196639 0.039111 0.0595078 0.0366224 0.0530887 -0.0220323 -0.0127009 0.0618503 0.0644871 0.0858568 -0.0570695 -0.0291257 0.0325991 -0.00953949 0.0723464 -0.0632795 -0.01584 -0.0260294 -0.0432469 0.0138153 0.0228355 -0.0804591 -0.038019 -0.0390649 -0.0133249 -0.0576226 0.0481813 0.00104495 -0.0668312 0.0423154 0.0272956 -0.0291014 -0.0135729 0.0378194 -0.0388888 -0.0228828 -0.0544559 -0.0473127 -0.0198419 -0.060021 -0.0531126 -0.0027919 0.0131061 -0.0254095 0.00589578 -0.0978602 -0.0461128 0.00354832 0.0617514 0.0207918 0.0115089 -0.24269 -0.0640773 0.0336983 0.0332317 0.0717402 -0.453312 -0.0820819 -0.00983743 0.101389 -0.0669813 -0.0263123 -0.0331841 -0.051521 0.0034364 0.0227559 -0.0705084 -0.0641278 -0.00827645 -0.0235339 -0.0219664 0.0370393 -0.0015537 -0.0589234 0.0173477 0.0125438 -0.0428062 -0.0193483 0.0331946 -0.0542802 -0.0243928 -0.0604792 -0.0508516 -0.0238373 -0.0578337 -0.0721214 -0.011321 -0.00303245 -0.0440841 -0.00420438 -0.0752052 -0.0445327 0.00513993 -0.0341209 -0.0268012 -0.0222525 -0.0910107 -0.0698211 0.0197065 0.0140293 0.0277071 -0.121803 -0.077913 0.0596503 -0.0544836 -0.017759 -0.0226631 -0.0107329 0.0265201 0.0225576 -0.0654206 -0.0593249 -0.00811826 -0.0195354 -0.00311959 0.0392583 -0.00408381 -0.0398084 0.0408641 0.0133268 -0.0540193 -0.0129021 0.0194996 -0.0673828 0.0131576 -0.0449366 -0.0365233 -0.0132153 -0.065818 -0.103755 -0.0112243 0.0174063 -0.0630309 0.0209147 -0.0330107 -0.0457345 -0.00276306 0.000913267 -0.00752529 -0.00431102 -0.0515079 -0.0579652 0.0418723 0.0195498 0.0593117 -0.0952158 -0.110367 -0.120722 -0.0787253 -0.0779533 -0.0850983 -0.0591655 -0.0466805 -0.116625 -0.104706 -0.0653223 -0.0673017 -0.0719349 -0.0139507 -0.0809757 -0.100193 -0.0374929 -0.053894 -0.0919739 -0.0588354 -0.111999 -0.10181 -0.0741902 -0.0999772 -0.0947924 -0.0696457 -0.0885649 -0.123033 -0.0694646 -0.0519286 -0.0943436 -0.063784 -0.102266 -0.0961067 -0.0589265 -0.0747035 -0.0728506 -0.0696643 -0.115336 -0.111222 -0.0335056 -0.0470617 -0.0472492 -0.148044 -0.11406 0.034196 0.0518143 0.034838 0.0756637 0.0711149 0.00432396 0.00977586 0.0764564 0.030252 0.0637677 0.0704216 0.0739639 -0.00717459 0.121839 0.0410275 0.0197404 0.0344935 0.085877 -0.013529 0.0398544 0.00455154 0.0111131 0.0479668 -0.00190133 -0.0256413 0.070337 0.0732892 0.0114933 0.0414727 0.00374968 0.0210399 0.0659988 0.045284 0.0551132 0.0506441 -0.0170741 -0.0178341 0.0874581 0.075321 0.107759 -0.496093 -0.0111478 -0.00665685 -0.00491402 0.0440127 0.0688568 -0.0225527 -0.0316001 0.046497 -0.00180952 0.0397786 0.0505563 0.0327767 -0.0329143 0.0792445 0.0225956 -0.0130734 0.0130103 0.0398383 -0.0470688 0.0134028 -0.033325 -0.0146478 0.00702717 -0.0273366 -0.0379535 0.0996094 0.0172422 -0.0156247 0.0170274 -0.0369273 -0.0266688 0.0339673 0.0125553 0.0107067 0.00941562 -0.0534037 -0.0654147 0.0822174 0.0762744 0.0880201 -0.090431 -0.0427146 -0.00837535 0.0356015 0.0784592 -0.0619064 -0.0562677 0.00333749 -0.000160919 0.0333208 0.0708773 0.0299255 -0.0354592 0.076026 0.0230746 -0.0129126 0.00774573 0.0314502 -0.0198275 -0.00782539 -0.0315819 -0.0156668 -0.00180762 -0.0304752 -0.0357883 0.0337798 0.0304734 -0.0101532 0.0219416 -0.0401958 -0.0222071 0.0320421 0.0275957 0.0255914 -0.00855944 -0.0943587 -0.0382325 0.0644565 0.0501814 0.052439 -0.654245 -0.0532552 0.0301658 0.0642301 -0.0525414 -0.025749 -0.0010513 0.000186065 0.0056038 0.060773 0.0250267 -0.0341291 0.0612132 0.0300228 -0.00829019 0.0164991 0.0504853 -0.023977 0.00782713 -0.0221651 -0.00929389 0.00663516 -0.035384 -0.044972 0.0294634 0.0345349 -0.0104904 0.0609039 -0.0489654 -0.012602 0.0231852 0.0815592 0.0211934 0.028785 -0.103838 -0.0415986 0.0629456 0.0469832 0.0733187 -0.532602 -0.0492456 0.0103146 -0.11723 -0.0579813 -0.000796912 -0.0467787 -0.061916 0.0319838 -0.00996942 -0.0607725 0.0378929 0.0124809 -0.106721 -0.0336291 0.0137314 -0.0604052 -0.046197 -0.0730051 -0.0753002 -0.0350218 -0.0862589 -0.0917507 0.000989806 0.0234989 -0.0716583 -0.0192875 -0.0643225 -0.062823 0.00463882 -0.0249133 -0.0775195 -0.0192216 -0.063185 -0.0992416 0.0290445 0.00633463 0.0528673 -0.108154 -0.101938 -0.0682345 -0.0782793 -0.00194253 -0.0538509 -0.0427741 0.0186779 -0.0269366 -0.0643141 0.0185563 -0.0106589 -0.0772044 -0.0362802 -0.00913393 -0.0827195 -0.0420872 -0.0733194 -0.0576626 -0.0469718 -0.0917758 -0.142694 -0.0228697 -0.0229587 -0.0738768 -0.0165361 -0.0759746 -0.0492711 -0.0234228 -0.0526785 -0.054828 -0.0564394 -0.0969867 -0.0985945 -0.000180872 -0.00284666 0.016105 -0.304664 -0.193356 0.0328214 0.0786552 0.0333853 0.0905548 0.078846 0.0673223 -0.0103121 0.153465 0.0475394 0.0332344 0.0417262 0.087881 -0.00595999 0.0743686 0.00523986 0.00275707 0.0503122 -0.00409474 -0.0294876 0.0558682 0.0828089 0.0100487 0.0381298 0.0122673 -0.000191878 0.0568979 0.0623251 0.081072 0.0541711 0.0120399 -0.0156904 0.0990943 0.0728321 0.146488 -0.376379 -0.011877 0.0532258 0.0349886 0.076932 0.0726301 0.054433 -0.00519819 0.116295 0.0353407 0.0167007 0.0434442 0.0813005 0.000923074 0.0125608 -0.00163851 0.00186576 0.0301164 -0.00500133 -0.0436788 0.0533249 0.0738472 0.00283456 0.052773 0.00741186 0.0238033 0.0627382 0.0447159 0.0460914 0.0415462 -0.00645043 -0.0239464 0.0939165 0.0908057 0.103293 -0.291094 -0.0183543 -0.00274561 0.00143119 0.0335507 -0.00460956 -0.037168 0.0733191 0.0122682 -0.0526654 -0.000545135 0.0232137 -0.0903144 -0.00124837 -0.0339254 -0.0365383 -0.00962481 -0.0420226 -0.073302 -0.0117635 -0.0366014 -0.0689099 0.0112567 -0.0250357 -0.0351829 -0.0401333 0.00572069 -0.0117698 0.00391305 -0.0323403 -0.0833615 0.058423 0.0229606 0.0541781 -0.0765712 -0.124939 0.00894132 0.0568575 0.0141703 -0.0458352 0.0579709 0.03184 -0.0240831 -0.0201776 0.0354464 -0.0363523 0.0215375 -0.0812809 -0.0471971 0.0509282 -0.138314 -0.0496308 0.0143207 0.0274649 -0.0185495 0.030032 -0.0350689 -0.0198686 0.0146307 0.0124554 0.00781783 0.0228098 -0.0438446 -0.0649183 0.0582172 0.0472661 0.0585367 -0.0637661 -0.0548973 0.0422619 0.00230837 -0.0435182 0.0210939 0.0175607 -0.076028 0.000265982 0.0327284 -0.0565793 -0.0094638 -0.0301186 -0.0371457 -0.00624079 -0.045908 -0.107444 -0.0163998 -0.00761021 -0.0622365 0.0163893 -0.0284483 -0.0509157 0.0110657 0.0196517 0.00109648 0.00782125 -0.0283683 -0.0799703 0.0459788 0.0198981 -0.255075 -0.113205 -0.0848741 -0.0261051 -0.0772992 -0.0195154 -0.0481062 -0.0676039 -0.0774399 -0.0232985 -0.102908 -0.0432503 -0.0730327 -0.0686609 -0.0636738 -0.0808302 -0.095506 -0.0433354 -0.0343002 -0.0643102 -0.0456718 -0.0701291 -0.0714464 -0.024073 -0.0538621 -0.0524029 -0.0801104 -0.0864908 -0.0800957 -0.0101473 -0.0124149 -0.0221543 -0.101519 -0.0840229 -0.045314 0.0392006 0.0147715 -0.0358425 -0.0121378 0.0327018 -0.103075 -0.00505129 -0.0382786 -0.0335748 -0.0121088 -0.0484398 -0.0774249 -0.00760909 0.010039 -0.0414112 -0.000163328 -0.0394237 -0.0358334 0.0331354 -0.00924863 -0.00872725 -0.0114591 -0.0576032 -0.0555122 0.0293289 0.0348626 0.0350754 -0.099552 -0.0875993 0.0842228 0.0602206 0.0156158 0.0372063 0.0777648 0.000773971 0.0348568 0.00849083 0.0705209 0.0579529 -0.0130951 -0.011012 0.0418201 0.0366819 0.00690117 0.113594 -0.0247239 0.0356702 0.046863 0.0532783 0.0460678 0.070721 -0.00908517 -0.013149 0.0737216 0.0691122 0.088975 -0.17467 -0.00982467 -0.0138405 -0.129907 -0.0407544 -0.0077861 -0.13457 -0.0553009 -0.0755754 -0.0793328 -0.0520034 -0.0983157 -0.170291 -0.0630809 -0.089667 -0.11347 -0.0343215 -0.0685447 -0.102592 -0.0505876 -0.0210212 0.0405828 -0.0426028 -0.0852894 -0.113941 -0.0271187 0.00054729 -0.0169631 -0.229192 -0.18314 -0.0372383 -0.0308621 0.0182402 -0.0405608 -0.0291447 -0.0669058 -0.0492352 -0.0241206 -0.0599507 -0.053756 -0.000721002 0.00562643 -0.0291856 -0.0208944 -0.0658423 -0.0327418 0.00515768 -0.0272902 -0.0167285 -0.033686 -0.0634732 -0.0565492 0.028056 0.0119136 0.00231118 -0.0753249 -0.0514725 0.0296414 0.061443 -0.0143681 0.0364303 -0.0103978 -0.00648511 0.0228847 -0.0189748 -0.056353 0.0417888 0.130287 -0.00882172 0.0344266 -0.00810825 -0.00197105 0.0435831 0.0290828 0.0689368 0.0272927 -0.0206234 -0.0441202 0.0862409 0.0637793 -0.0426291 -0.0631469 -0.0502987 0.027521 -0.0457067 0.00667794 -0.0445401 -0.034199 0.0556468 -0.078885 -0.0538692 0.00163587 0.0299236 -0.0236593 0.0442888 -0.0282142 -0.0272343 0.0179723 0.00405331 -0.00367847 0.0303504 -0.0524353 -0.0495086 0.0388375 0.0572706 0.0506479 -0.081659 -0.0566005 -0.0855868 -0.0367391 -0.0743297 -0.0653755 -0.0450929 -0.0680364 -0.0892791 -0.0165729 -0.00579325 -0.0610406 -0.0305297 -0.0862196 -0.0574648 -0.0207532 -0.0359852 -0.0279062 -0.0320843 -0.103999 -0.0733177 -0.000557362 -0.00570529 -0.00260107 -0.143983 -0.0906699 0.0255227 0.000721873 0.00434674 0.0377661 -0.00132991 -0.0215202 0.0675414 0.103186 0.0148216 0.0341964 0.0120959 0.023036 0.137123 0.0486492 0.0464495 0.0344321 -0.00144143 -0.0146529 0.118237 0.086177 0.096036 -0.0388875 -0.00485635 -0.040674 -0.0279398 -0.00471836 -0.0616668 -0.0699021 0.00454243 0.0435361 -0.0312983 0.0226144 -0.0393338 -0.0266225 0.0190947 0.00373933 -0.0246412 0.00720458 -0.0530036 -0.0919299 0.018396 0.0397206 -0.199092 -0.0700275 -0.0683633 -0.00553954 0.0378553 0.0225394 -0.0185796 0.0417229 0.047081 0.0100879 0.0986448 -0.00031863 0.0231688 0.0386489 0.0455424 0.0438215 0.0524414 -0.0105037 -0.0201467 0.0778218 0.0469725 0.0779895 -0.0365624 -0.0143761 0.0303569 -0.0225205 -0.0230793 0.0371211 0.0265489 0.00141938 0.112715 -0.00859163 0.0195687 0.0355663 0.0374059 0.0358095 0.0373267 -0.0261279 -0.0262602 0.071522 0.0503786 0.0869283 -0.0509947 -0.0130431 -0.0922753 -0.0519001 0.00532296 0.0248396 -0.0206861 0.0353818 -0.0402459 -0.0411496 0.013978 0.00860413 0.00798283 0.0489588 -0.0467317 -0.0680432 0.0499461 0.0469161 0.0567687 -0.0802301 -0.0620215 -0.00867089 0.050067 0.070064 0.0134789 0.123779 0.0237273 0.0161527 0.0511108 0.051861 0.0432357 0.0683612 -0.000108927 0.00597933 0.0908683 0.0637514 0.0850365 -0.0239327 -0.00181056 0.114759 0.176284 0.0555901 0.057416 0.0230475 0.0367054 0.0942784 0.0547481 0.0862173 0.0448297 0.0165361 0.00357838 0.160924 0.100182 0.156951 -0.0132365 0.00297356 -0.0365617 -0.0716572 -0.000377522 -0.0359876 -0.0408443 0.0305808 0.00395399 0.00524231 -0.0115049 -0.0517405 -0.0650372 0.0501844 0.030647 0.0654164 -0.103782 -0.137303 -0.126969 0.00434542 -0.0414628 -0.0404873 -0.0013055 -0.0141742 -0.0448825 -0.0188106 -0.0630008 -0.120419 0.0228432 0.0327436 -0.0417275 -0.095857 -0.0885609 0.0304968 -0.00167705 0.0072966 0.0573092 0.0354224 0.0393706 0.0239457 -0.00758135 -0.0252042 0.141069 0.0696855 0.102073 -0.0416392 -0.0322107 -0.106164 -0.0117736 0.00973267 -0.026346 -0.00610307 -0.0416173 -0.079763 -0.0766497 0.0337435 0.0183367 0.0376041 -0.089669 -0.0459686 0.0120741 0.0394535 0.0842913 0.0447937 0.0816872 -0.0197261 -0.030594 0.0636829 0.0823084 0.106568 -0.142211 -0.0269345 0.0454478 0.0270964 0.0375824 0.0420287 -0.0238122 -0.0457055 0.0925144 0.0600431 0.0992442 -0.0738666 -0.0172291 -0.0106386 -0.00814568 -0.0143454 -0.0610474 -0.0650967 0.0141143 0.00740979 0.0333736 -0.102899 -0.101576 0.001896 -0.00284186 -0.320269 -0.0522575 0.0432486 0.0388011 0.0596956 -0.453658 -0.0771399 -0.00378609 -0.0714993 -0.0603643 0.0214995 0.0300581 -0.0108359 -0.100187 -0.0918497 -0.0762538 -0.0516504 0.0361719 0.0470873 0.04539 -0.145229 -0.0566297 -0.0100085 0.0747614 0.0836365 0.133453 -0.405672 -0.0198851 0.127858 0.113568 0.135765 -0.0215325 -0.00449012 -0.0102272 0.0173055 -0.117396 -0.122091 -0.00458156 -0.111897 -0.0902 -0.163655 -0.138381 0.0265859
label 58 21 5 29 37 3 59 18 42 31 13 6 26 12 14 41 8 7 49 50 28 17 23 55 61 33 57 4 22 16 35 56 40 54 38 43 30 36 48 44 15 10 32 11 62 39 47 9 24 52
nr_sv 7 8 6 7 8 7 6 4 6 7 8 8 7 4 4 5 6 4 6 7 5 7 4 5 8 7 4 6 4 9 8 6 2 7 6 4 6 5 6 10 4 4 5 3 3 7 5 2 1 3
SV
0 0 0.1001693269458202 0 0.8987198912834357 0.5995348814567315 0.3766691806074969 0.7654708725500603 2.412801942760082 1.053145888370901 0.5965617587372444 1.287412141667157 0.5310939458046799 2.066069660860389 1.153365222466069 0 0.9470047043388781 1.434999105201434 1.448698993620199 0 1.787389561091307 0.5525448279125997 0.864658809790938 0 1.415844552584107 2.068973213805478 0.3534503609708002 0 0 0 0 1.137208469068733 0.8231034252958452 1.233459998154537 1.4384937051022 0 0 0.1629771562022242 1.474382669562108 1.143336361851252 1.801877792934682 0 0.8931057743875135 0 1.401702104361142 0.5172577020646747 1.109766624777226 0.8159678583587758 0.8505010214310175 2400095:-1 2400096:-1 2400097:-1 2400098:-1 2400099:-1 2400100:-1 2400101:-1 2400102:-1 2400103:-1 2400104:-1 2400105:-1 2400106:-1 2400107:-1 2400108:-1 2400109:-1 2400110:-1 2400111:-1 2400112:-1 2400113:-1 2400114:-1 2400115:-1 2400116:-1 2400117:-1 2400118:-1 2400119:-1 2400120:-1 2400122:-1 2500088:-1 2500089:-1 2500090:-1 2500091:-1 2500092:-1 2500093:-1 2500094:-1 2500095:-1 2500096:-1 2500097:-1 2500098:-1 2500099:-1 2500100:-1 2500101:-1 2500102:-1 2500103:-1 2500104:-1 2500105:-1 2500106:-1 2500107:-1 2500108:-1 2500109:-1 2500110:-1 2500111:-1 2500112:-1 2500113:-1 2500114:-1 2500115:-1 2500116:1 2500117:1 2500118:1 2500119:1 2500120:1 2500121:1 2500122:-1 2500123:-1 2500124:-1 2500125:-1 2500126:-1 2500127:-1 2600088:-1 2600089:-1 2600090:-1 2600091:-1 2600092:-1 2600093:-1 2600094:1 2600095:1 2600096:1 2600097:1 2600098:1 2600099:1 2600100:1 2600101:-1 2600102:-1 2600103:-1 2600104:-1 2600105:-1 2600106:-1 2600107:-1 2600108:-1 2600109:-1 2600110:-1 2600111:-1 2600112:-1 2600113:-1 2600114:-1 2600115:1 2600116:1 2600117:1 2600118:1 2600119:1 2600120:1 2600121:1 2600122:-1 2600123:-1 2600124:-1 2600125:-1 2600126:-1 2600127:-1 2700088:-1 2700089:-1 2700090:-1 2700091:-1 2700092:-1 2700093:-1 2700094:-1 2700095:1 2700096:1 2700097:1 2700098:1 2700099:1 2700100:1 2700101:1 2700102:-1 2700103:-1 2700104:-1 2700105:-1 2700106:-1 2700107:-1 2700108:-1 2700109:-1 2700110:-1 2700111:-1 2700112:-1 2700113:-1 2700114:-1 2700115:1 2700116:1 2700117:1 2700118:1 2700119:1 2700120:1 2700121:1 2700122:-1 2700123:-1 2700124:-1 2700125:-1 2700126:-1 2700127:-1 2800088:-1 2800089:-1 2800090:-1 2800091:-1 2800092:-1 2800093:-1 2800094:-1 2800095:1 2800096:1 2800097:1 2800098:1 2800099:1 2800100:1 2800101:1 2800102:-1 2800103:-1 2800104:-1 2800105:-1 2800106:-1 2800107:-1 2800108:-1 2800109:-1 2800110:-1 2800111:-1 2800112:-1 2800113:-1 2800114:1 2800115:1 2800116:1 2800117:1 2800118:1 2800119:1 2800120:1 2800121:-1 2800122:-1 2800123:-1 2800124:-1 2800125:-1 2800126:-1 2800127:-1 2900089:-1 2900090:-1 2900091:-1 2900092:-1 2900093:-1 2900094:-1 2900095:1 2900096:1 2900097:1 2900098:1 2900099:1 2900100:1 2900101:1 2900102:-1 2900103:-1 2900104:-1 2900105:-1 2900106:-1 2900107:-1 2900108:-1 2900109:-1 2900110:-1 2900111:-1 2900112:-1 2900113:-1 2900114:1 2900115:1 2900116:1 2900117:1 2900118:1 2900119:1 2900120:1 2900121:-1 2900122:-1 2900123:-1 2900124:-1 2900125:-1 2900126:-1 2900127:-1 3000089:-1 3000090:-1 3000091:-1 3000092:-1 3000093:-1 3000094:-1 3000095:-1 3000096:1 3000097:1 3000098:1 3000099:1 3000100:1 3000101:1 3000102:1 3000103:-1 3000104:-1 3000105:-1 3000106:-1 3000107:-1 3000108:-1 3000109:-1 3000110:-1 3000111:-1 3000112:-1 3000113:-1 3000114:1 3000115:1 3000116:1 3000117:1 3000118:1 3000119:1 3000120:1 3000121:-1 3000122:-1 3000123:-1 3000124:-1 3000125:-1 3000126:-1 3000127:-1 3100089:-1 3100090:-1 3100091:-1 3100092:-1 3100093:-1 3100094:-1 3100095:-1 3100096:1 3100097:1 3100098:1 3100099:1 3100100:1 3100101:1 3100102:1 3100103:-1 3100104:-1 3100105:-1 3100106:-1 3100107:-1 3100108:-1 3100109:-1 3100110:-1 3100111:-1 3100112:-1 3100113:1 3100114:1 3100115:1 3100116:1 3100117:1 3100118:1 3100119:1 3100120:-1 3100121:-1 3100122:-1 3100123:-1 3100124:-1 3100125:-1 3100126:-1 3100127:-1 3200090:-1 3200091:-1 3200092:-1 3200093:-1 3200094:-1 3200095:-1 3200096:1 3200097:1 3200098:1 3200099:1 3200100:1 3200101:1 3200102:1 3200103:-1 3200104:-1 3200105:-1 3200106:-1 3200107:-1 3200108:-1 3200109:-1 3200110:-1 3200111:-1 3200112:-1 3200113:1 3200114:1 3200115:1 3200116:1 3200117:1 3200118:1 3200119:1 3200120:-1 3200121:-1 3200122:-1 3200123:-1 3200124:-1 3200125:-1 3200126:-1 3200127:-1 3300090:-1 3300091:-1 3300092:-1 3300093:-1 3300094:-1 3300095:-1 3300096:-1 3300097:1 3300098:1 3300099:1 3300100:1 3300101:1 3300102:1 3300103:1 3300104:-1 3300105:-1 3300106:-1 3300107:-1 3300108:-1 3300109:-1 3300110:-1 3300111:-1 3300112:-1 3300113:1 3300114:1 3300115:1 3300116:1 3300117:1 3300118:1 3300119:1 3300120:-1 3300121:-1 3300122:-1 3300123:-1 3300124:-1 3300125:-1 3300126:-1 3300127:-1 3400090:-1 3400091:-1 3400092:-1 3400093:-1 3400094:-1 3400095:-1 3400096:-1 3400097:1 3400098:1 3400099:1 3400100:1 3400101:1 3400102:1 3400103:1 3400104:-1 3400105:-1 3400106:-1 3400107:-1 3400108:-1 3400109:-1 3400110:-1 3400111:-1 3400112:-1 3400113:1 3400114:1 3400115:1 3400116:1 3400117:1 3400118:1 3400119:-1 3400120:-1 3400121:-1 3400122:-1 3400123:-1 3400124:-1 3400125:-1 3400126:-1 3400127:-1 3500090:-1 3500091:-1 3500092:-1 3500093:-1 3500094:-1 3500095:-1 3500096:-1 3500097:1 3500098:1 3500099:1 3500100:1 3500101:1 3500102:1 3500103:1 3500104:-1 3500105:-1 3500106:-1 3500107:-1 3500108:-1 3500109:-1 3500110:-1 3500111:-1 3500112:1 3500113:1 3500114:1 3500115:1 3500116:1 3500117:1 3500118:1 3500119:-1 3500120:-1 3500121:-1 3500122:-1 3500123:-1 3500124:-1 3500125:-1 3500126:-1 3500127:-1 3600090:-1 3600091:-1 3600092:-1 3600093:-1 3600094:-1 3600095:-1 3600096:-1 3600097:-1 3600098:1 3600099:1 3600100:1 3600101:1 3600102:1 3600103:1 3600104:1 3600105:-1 3600106:-1 3600107:-1 3600108:-1 3600109:-1 3600110:-1 3600111:-1 3600112:1 3600113:1 3600114:1 3600115:1 3600116:1 3600117:1 3600118:1 3600119:-1 3600120:-1 3600121:-1 3600122:-1 3600123:-1 3600124:-1 3600125:-1 3600126:-1 3600127:-1 3700091:-1 3700092:-1 3700093:-1 3700094:-1 3700095:-1 3700096:-1 3700097:-1 3700098:1 3700099:1 3700100:1 3700101:1 3700102:1 3700103:1 3700104:1 3700105:-1 3700106:-1 3700107:-1 3700108:-1 3700109:-1 3700110:-1 3700111:1 3700112:1 3700113:1 3700114:1 3700115:1 3700116:1 3700117:1 3700118:1 3700119:-1 3700120:-1 3700121:-1 3700122:-1 3700123:-1 3700124:-1 3700125:-1 3700126:-1 3700127:-1 3800091:-1 3800092:-1 3800093:-1 3800094:-1 3800095:-1 3800096:-1 3800097:-1 3800098:1 3800099:1 3800100:1 3800101:1 3800102:1 3800103:1 3800104:1 3800105:-1 3800106:-1 3800107:-1 3800108:-1 3800109:-1 3800110:-1 3800111:1 3800112:1 3800113:1 3800114:1 3800115:1 3800116:1 3800117:1 3800118:-1 3800119:-1 3800120:-1 3800121:-1 3800122:-1 3800123:-1 3800124:-1 3800125:-1 3800126:-1 3800127:-1 3900091:-1 3900092:-1 3900093:-1 3900094:-1 3900095:-1 3900096:-1 3900097:-1 3900098:-1 3900099:1 3900100:1 3900101:1 3900102:1 3900103:1 3900104:1 3900105:-1 3900106:-1 3900107:-1 3900108:-1 3900109:-1 3900110:-1 3900111:1 3900112:1 3900113:1 3900114:1 3900115:1 3900116:1 3900117:1 3900118:-1 3900119:-1 3900120:-1 3900121:-1 3900122:-1 3900123:-1 3900124:-1 3900125:-1 3900126:-1 3900127:-1 4000091:-1 4000092:-1 4000093:-1 4000094:-1 4000095:-1 4000096:-1 4000097:-1 4000098:-1 4000099:1 4000100:1 4000101:1 4000102:1 4000103:1 4000104:1 4000105:1 4000106:-1 4000107:-1 4000108:-1 4000109:-1 4000110:1 4000111:1 4000112:1 4000113:1 4000114:1 4000115:1 4000116:1 4000117:1 4000118:-1 4000119:-1 4000120:-1 4000121:-1 4000122:-1 4000123:-1 4000124:-1 4000125:-1 4000126:-1 4000127:-1 4100092:-1 4100093:-1 4100094:-1 4100095:-1 4100096:-1 4100097:-1 4100098:-1 4100099:1 4100100:1 4100101:1 4100102:1 4100103:1 4100104:1 4100105:1 4100106:-1 4100107:-1 4100108:-1 4100109:-1 4100110:1 4100111:1 4100112:1 4100113:1 4100114:1 4100115:1 4100116:1 4100117:-1 4100118:-1 4100119:-1 4100120:-1 4100121:-1 4100122:-1 4100123:-1 4100124:-1 4100125:-1 4100126:-1 4100127:-1 4200092:-1 4200093:-1 4200094:-1 4200095:-1 4200096:-1 4200097:-1 4200098:-1 4200099:-1 4200100:1 4200101:1 4200102:1 4200103:1 4200104:1 4200105:1 4200106:1 4200107:-1 4200108:-1 4200109:-1 4200110:1 4200111:1 4200112:1 4200113:1 4200114:1 4200115:1 4200116:1 4200117:-1 4200118:-1 4200119:-1 4200120:-1 4200121:-1 4200122:-1 4200123:-1 4200124:-1 4200125:-1 4200126:-1 4200127:-1 4300092:-1 4300093:-1 4300094:-1 4300095:-1 4300096:-1 4300097:-1 4300098:-1 4300099:-1 4300100:1 4300101:1 4300102:1 4300103:1 4300104:1 4300105:1 4300106:1 4300107:-1 4300108:-1 4300109:-1 4300110:1 4300111:1 4300112:1 4300113:1 4300114:1 4300115:1 4300116:-1 4300117:-1 4300118:-1 4300119:-1 4300120:-1 4300121:-1 4300122:-1 4300123:-1 4300124:-1 4300125:-1 4300126:-1 4300127:-1 4400092:-1 4400093:-1 4400094:-1 4400095:-1 4400096:-1 4400097:-1 4400098:-1 4400099:-1 4400100:1 4400101:1 4400102:1 4400103:1 4400104:1 4400105:1 4400106:1 4400107:-1 4400108:-1 4400109:1 4400110:1 4400111:1 4400112:1 4400113:1 4400114:1 4400115:1 4400116:-1 4400117:-1 4400118:-1 4400119:-1 4400120:-1 4400121:-1 4400122:-1 4400123:-1 4400124:-1 4400125:-1 4400126:-1 4400127:-1 4500093:-1 4500094:-1 4500095:-1 4500096:-1 4500097:-1 4500098:-1 4500099:-1 4500100:-1 4500101:1 4500102:1 4500103:1 4500104:1 4500105:1 4500106:1 4500107:-1 4500108:-1 4500109:1 4500110:1 4500111:1 4500112:1 4500113:1 4500114:1 4500115:1 4500116:-1 4500117:-1 4500118:-1 4500119:-1 4500120:-1 4500121:-1 4500122:-1 4500123:-1 4500124:-1 4500125:-1 4500126:-1 4500127:-1 4600093:-1 4600094:-1 4600095:-1 4600096:-1 4600097:-1 4600098:-1 4600099:-1 4600100:-1 4600101:1 4600102:1 4600103:1 4600104:1 4600105:1 4600106:1 4600107:1 4600108:1 4600109:1 4600110:1 4600111:1 4600112:1 4600113:1 4600114:1 4600115:-1 4600116:-1 4600117:-1 4600118:-1 4600119:-1 4600120:-1 4600121:-1 4600122:-1 4600123:-1 4600124:-1 4600125:-1 4600126:-1 4600127:-1 4700093:-1 4700094:-1 4700095:-1 4700096:-1 4700097:-1 4700098:-1 4700099:-1 4700100:-1 4700101:1 4700102:1 4700103:1 4700104:1 4700105:1 4700106:1 4700107:1 4700108:1 4700109:1 4700110:1 4700111:1 4700112:1 4700113:1 4700114:1 4700115:-1 4700116:-1 4700117:-1 4700118:-1 4700119:-1 4700120:-1 4700121:-1 4700122:-1 4700123:-1 4700124:-1 4700125:-1 4700126:-1 4700127:-1 4800093:-1 4800094:-1 4800095:-1 4800096:-1 4800097:-1 4800098:-1 4800099:-1 4800100:-1 4800101:-1 4800102:1 4800103:1 4800104:1 4800105:1 4800106:1 4800107:1 4800108:1 4800109:1 4800110:1 4800111:1 4800112:1 4800113:1 4800114:1 4800115:-1 4800116:-1 4800117:-1 4800118:-1 4800119:-1 4800120:-1 4800121:-1 4800122:-1 4800123:-1 4800124:-1 4800125:-1 4800126:-1 4800127:-1 4900093:-1 4900094:-1 4900095:-1 4900096:-1 4900097:-1 4900098:-1 4900099:-1 4900100:-1 4900101:-1 4900102:1 4900103:1 4900104:1 4900105:1 4900106:1 4900107:1 4900108:1 4900109:1 4900110:1 4900111:1 4900112:1 4900113:1 4900114:-1 4900115:-1 4900116:-1 4900117:-1 4900118:-1 4900119:-1 4900120:-1 4900121:-1 4900122:-1 4900123:-1 4900124:-1 4900125:-1 4900126:-1 4900127:-1 5000093:-1 5000094:-1 5000095:-1 5000096:-1 5000097:-1 5000098:-1 5000099:-1 5000100:-1 5000101:-1 5000102:-1 5000103:1 5000104:1 5000105:1 5000106:1 5000107:1 5000108:1 5000109:1 5000110:1 5000111:1 5000112:1 5000113:1 5000114:-1 5000115:-1 5000116:-1 5000117:-1 5000118:-1 5000119:-1 5000120:-1 5000121:-1 5000122:-1 5000123:-1 5000124:-1 5000125:-1 5000126:-1 5000127:-1 5100093:-1 5100094:-1 5100095:-1 5100096:-1 5100097:-1 5100098:-1 5100099:-1 5100100:-1 5100101:-1 5100102:-1 5100103:1 5100104:1 5100105:1 5100106:1 5100107:1 5100108:1 5100109:1 5100110:1 5100111:1 5100112:1 5100113:1 5100114:-1 5100115:-1 5100116:-1 5100117:-1 5100118:-1 5100119:-1 5100120:-1 5100121:-1 5100122:-1 5100123:-1 5100124:-1 5100125:-1 5100126:-1 5100127:-1 5200094:-1 5200095:-1 5200096:-1 5200097:-1 5200098:-1 5200099:-1 5200100:-1 5200101:-1 5200102:-1 5200103:1 5200104:1 5200105:1 5200106:1 5200107:1 5200108:1 5200109:1 5200110:1 5200111:1 5200112:1 5200113:-1 5200114:-1 5200115:-1 5200116:-1 5200117:-1 5200118:-1 5200119:-1 5200120:-1 5200121:-1 5200122:-1 5200123:-1 5200124:-1 5200125:-1 5200126:-1 5200127:-1 5300094:-1 5300095:-1 5300096:-1 5300097:-1 5300098:-1 5300099:-1 5300100:-1 5300101:-1 5300102:-1 5300103:1 5300104:1 5300105:1 5300106:1 5300107:1 5300108:1 5300109:1 5300110:1 5300111:1 5300112:1 5300113:-1 5300114:-1 5300115:-1 5300116:-1 5300117:-1 5300118:-1 5300119:-1 5300120:-1 5300121:-1 5300122:-1 5300123:-1 5300124:-1 5300125:-1 5300126:-1 5300127:-1 5400093:-1 5400094:-1 5400095:-1 5400096:-1 5400097:-1 5400098:-1 5400099:-1 5400100:-1 5400101:-1 5400102:-1 5400103:-1 5400104:1 5400105:1 5400106:1 5400107:1 5400108:1 5400109:1 5400110:1 5400111:1 5400112:1 5400113:-1 5400114:-1 5400115:-1 5400116:-1 5400117:-1 5400118:-1 5400119:-1 5400120:-1 5400121:-1 5400122:-1 5400123:-1 5400124:-1 5400125:-1 5400126:-1 5400127:-1 5500093:-1 5500094:-1 5500095:-1 5500096:-1 5500097:-1 5500098:-1 5500099:-1 5500100:-1 5500101:-1 5500102:-1 5500103:-1 5500104:1 5500105:1 5500106:1 5500107:1 5500108:1 5500109:1 5500110:1 5500111:1 5500112:-1 5500113:-1 5500114:-1 5500115:-1 5500116:-1 5500117:-1 5500118:-1 5500119:-1 5500120:-1 5500121:-1 5500122:-1 5500123:-1 5500124:-1 5500125:-1 5500126:-1 5500127:-1 5600094:-1 5600095:-1 5600096:-1 5600097:-1 5600098:-1 5600099:-1 5600100:-1 5600101:-1 5600102:-1 5600103:-1 5600104:-1 5600105:-1 5600106:-1 5600107:-1 5600108:1 5600109:1 5600110:1 5600111:-1 5600112:-1 5600113:-1 5600114:-1 5600115:-1 5600116:-1 5600117:-1 5600118:-1 5600119:-1 5600120:-1 5600121:-1 5600122:-1 5600123:-1 5600124:-1 5600125:-1 5600126:-1 5600127:-1 5700098:-1 5700099:-1 5700100:-1 5700101:-1 5700102:-1 5700103:-1 
0 0 0 0 0.09651465081062842 0 0 0 0 0 0 0 0 0 0 0 0 1.016371545567785 0.1459312344344008 0 0.4121422667152621 0.06538200526878275 0 0 0 0.765349741450153 0 0 0 0 0 0.1822547890770197 0 0.2381173833779855 0 0 0 0 0.09878964751848551 0 0 0 0 0 0 0 0 0 0.2045574579572401 2400095:-1 2400096:-1 2400097:-1 2400098:-1 2400099:-1 2400100:-1 2400101:-1 2400102:-1 2400103:-1 2400104:-1 2400105:-1 2400106:-1 2400107:-1 2400108:-1 2400109:-1 2400110:-1 2400111:-1 2400112:-1 2400113:-1 2400114:-1 2400115:-1 2400116:-1 2400117:-1 2400118:-1 2400119:-1 2400120:-1 2400122:-1 2500088:-1 2500089:-1 2500090:-1 2500091:-1 2500092:-1 2500093:-1 2500094:-1 2500095:1 2500096:1 2500097:1 2500098:1 2500099:1 2500100:1 2500101:1 2500102:-1 2500103:-1 2500104:-1 2500105:-1 2500106:-1 2500107:-1 2500108:-1 2500109:-1 2500110:-1 2500111:-1 2500112:-1 2500113:-1 2500114:-1 2500115:1 2500116:1 2500117:1 2500118:1 2500119:1 2500120:1 2500121:1 2500122:-1 2500123:-1 2500124:-1 2500125:-1 2500126:-1 2500127:-1 2600088:-1 2600089:-1 2600090:-1 2600091:-1 2600092:-1 2600093:-1 2600094:-1 2600095:1 2600096:1 2600097:1 2600098:1 2600099:1 2600100:1 2600101:1 2600102:-1 2600103:-1 2600104:-1 2600105:-1 2600106:-1 2600107:-1 2600108:-1 2600109:-1 2600110:-1 2600111:-1 2600112:-1 2600113:-1 2600114:-1 2600115:1 2600116:1 2600117:1 2600118:1 2600119:1 2600120:1 2600121:1 2600122:-1 2600123:-1 2600124:-1 2600125:-1 2600126:-1 2600127:-1 2700088:-1 2700089:-1 2700090:-1 2700091:-1 2700092:-1 2700093:-1 2700094:-1 2700095:-1 2700096:1 2700097:1 2700098:1 2700099:1 2700100:1 2700101:1 2700102:-1 2700103:-1 2700104:-1 2700105:-1 2700106:-1 2700107:-1 2700108:-1 2700109:-1 2700110:-1 2700111:-1 2700112:-1 2700113:-1 2700114:-1 2700115:1 2700116:1 2700117:1 2700118:1 2700119:1 2700120:1 2700121:1 2700122:-1 2700123:-1 2700124:-1 2700125:-1 2700126:-1 2700127:-1 2800088:-1 2800089:-1 2800090:-1 2800091:-1 2800092:-1 2800093:-1 2800094:-1 2800095:-1 2800096:1 2800097:1 2800098:1 2800099:1 2800100:1 2800101:1 2800102:1 2800103:-1 2800104:-1 2800105:-1 2800106:-1 2800107:-1 2800108:-1 2800109:-1 2800110:-1 2800111:-1 2800112:-1 2800113:-1 2800114:1 2800115:1 2800116:1 2800117:1 2800118:1 2800119:1 2800120:1 2800121:-1 2800122:-1 2800123:-1 2800124:-1 2800125:-1 2800126:-1 2800127:-1 2900089:-1 2900090:-1 2900091:-1 2900092:-1 2900093:-1 2900094:-1 2900095:-1 2900096:1 2900097:1 2900098:1 2900099:1 2900100:1 2900101:1 2900102:1 2900103:-1 2900104:-1 2900105:-1 2900106:-1 2900107:-1 2900108:-1 2900109:-1 2900110:-1 2900111:-1 2900112:-1 2900113:-1 2900114:1 2900115:1 2900116:1 2900117:1 2900118:1 2900119:1 2900120:1 2900121:-1 2900122:-1 2900123:-1 2900124:-1 2900125:-1 2900126:-1 2900127:-1 3000089:-1 3000090:-1 3000091:-1 3000092:-1 3000093:-1 3000094:-1 3000095:-1 3000096:-1 3000097:1 3000098:1 3000099:1 3000100:1 3000101:1 3000102:1 3000103:-1 3000104:-1 3000105:-1 3000106:-1 3000107:-1 3000108:-1 3000109:-1 3000110:-1 3000111:-1 3000112:-1 3000113:-1 3000114:1 3000115:1 3000116:1 3000117:1 3000118:1 3000119:1 3000120:1 3000121:-1 3000122:-1 3000123:-1 3000124:-1 3000125:-1 3000126:-1 3000127:-1 3100089:-1 3100090:-1 3100091:-1 3100092:-1 3100093:-1 3100094:-1 3100095:-1 3100096:-1 3100097:1 3100098:1 3100099:1 3100100:1 3100101:1 3100102:1 3100103:1 3100104:-1 3100105:-1 3100106:-1 3100107:-1 3100108:-1 3100109:-1 3100110:-1 3100111:-1 3100112:-1 3100113:1 3100114:1 3100115:1 3100116:1 3100117:1 3100118:1 3100119:1 3100120:-1 3100121:-1 3100122:-1 3100123:-1 3100124:-1 3100125:-1 3100126:-1 3100127:-1 3200090:-1 3200091:-1 3200092:-1 3200093:-1 3200094:-1 3200095:-1 3200096:-1 3200097:1 3200098:1 3200099:1 3200100:1 3200101:1 3200102:1 3200103:1 3200104:-1 3200105:-1 3200106:-1 3200107:-1 3200108:-1 3200109:-1 3200110:-1 3200111:-1 3200112:-1 3200113:1 3200114:1 3200115:1 3200116:1 3200117:1 3200118:1 3200119:1 3200120:-1 3200121:-1 3200122:-1 3200123:-1 3200124:-1 3200125:-1 3200126:-1 3200127:-1 3300090:-1 3300091:-1 3300092:-1 3300093:-1 3300094:-1 3300095:-1 3300096:-1 3300097:1 3300098:1 3300099:1 3300100:1 3300101:1 3300102:1 3300103:1 3300104:-1 3300105:-1 3300106:-1 3300107:-1 3300108:-1 3300109:-1 3300110:-1 3300111:-1 3300112:-1 3300113:1 3300114:1 3300115:1 3300116:1 3300117:1 3300118:1 3300119:1 3300120:-1 3300121:-1 3300122:-1 3300123:-1 3300124:-1 3300125:-1 3300126:-1 3300127:-1 3400090:-1 3400091:-1 3400092:-1 3400093:-1 3400094:-1 3400095:-1 3400096:-1 3400097:-1 3400098:1 3400099:1 3400100:1 3400101:1 3400102:1 3400103:1 3400104:1 3400105:-1 3400106:-1 3400107:-1 3400108:-1 3400109:-1 3400110:-1 3400111:-1 3400112:1 3400113:1 3400114:1 3400115:1 3400116:1 3400117:1 3400118:1 3400119:-1 3400120:-1 3400121:-1 3400122:-1 3400123:-1 3400124:-1 3400125:-1 3400126:-1 3400127:-1 3500090:-1 3500091:-1 3500092:-1 3500093:-1 3500094:-1 3500095:-1 3500096:-1 3500097:-1 3500098:1 3500099:1 3500100:1 3500101:1 3500102:1 3500103:1 3500104:1 3500105:-1 3500106:-1 3500107:-1 3500108:-1 3500109:-1 3500110:-1 3500111:-1 3500112:1 3500113:1 3500114:1 3500115:1 3500116:1 3500117:1 3500118:1 3500119:-1 3500120:-1 3500121:-1 3500122:-1 3500123:-1 3500124:-1 3500125:-1 3500126:-1 3500127:-1 3600090:-1 3600091:-1 3600092:-1 3600093:-1 3600094:-1 3600095:-1 3600096:-1 3600097:-1 3600098:1 3600099:1 3600100:1 3600101:1 3600102:1 3600103:1 3600104:1 3600105:-1 3600106:-1 3600107:-1 3600108:-1 3600109:-1 3600110:-1 3600111:-1 3600112:1 3600113:1 3600114:1 3600115:1 3600116:1 3600117:1 3600118:1 3600119:-1 3600120:-1 3600121:-1 3600122:-1 3600123:-1 3600124:-1 3600125:-1 3600126:-1 3600127:-1 3700091:-1 3700092:-1 3700093:-1 3700094:-1 3700095:-1 3700096:-1 3700097:-1 3700098:-1 3700099:1 3700100:1 3700101:1 3700102:1 3700103:1 3700104:1 3700105:1 3700106:-1 3700107:-1 3700108:-1 3700109:-1 3700110:-1 3700111:-1 3700112:1 3700113:1 3700114:1 3700115:1 3700116:1 3700117:1 3700118:-1 3700119:-1 3700120:-1 3700121:-1 3700122:-1 3700123:-1 3700124:-1 3700125:-1 3700126:-1 3700127:-1 3800091:-1 3800092:-1 3800093:-1 3800094:-1 3800095:-1 3800096:-1 3800097:-1 3800098:-1 3800099:1 3800100:1 3800101:1 3800102:1 3800103:1 3800104:1 3800105:1 3800106:-1 3800107:-1 3800108:-1 3800109:-1 3800110:-1 3800111:1 3800112:1 3800113:1 3800114:1 3800115:1 3800116:1 3800117:1 3800118:-1 3800119:-1 3800120:-1 3800121:-1 3800122:-1 3800123:-1 3800124:-1 3800125:-1 3800126:-1 3800127:-1 3900091:-1 3900092:-1 3900093:-1 3900094:-1 3900095:-1 3900096:-1 3900097:-1 3900098:-1 3900099:1 3900100:1 3900101:1 3900102:1 3900103:1 3900104:1 3900105:1 3900106:-1 3900107:-1 3900108:-1 3900109:-1 3900110:-1 3900111:1 3900112:1 3900113:1 3900114:1 3900115:1 3900116:1 3900117:1 3900118:-1 3900119:-1 3900120:-1 3900121:-1 3900122:-1 3900123:-1 3900124:-1 3900125:-1 3900126:-1 3900127:-1 4000091:-1 4000092:-1 4000093:-1 4000094:-1 4000095:-1 4000096:-1 4000097:-1 4000098:-1 4000099:-1 4000100:1 4000101:1 4000102:1 4000103:1 4000104:1 4000105:1 4000106:1 4000107:-1 4000108:-1 4000109:-1 4000110:-1 4000111:1 4000112:1 4000113:1 4000114:1 4000115:1 4000116:1 4000117:-1 4000118:-1 4000119:-1 4000120:-1 4000121:-1 4000122:-1 4000123:-1 4000124:-1 4000125:-1 4000126:-1 4000127:-1 4100092:-1 4100093:-1 4100094:-1 4100095:-1 4100096:-1 4100097:-1 4100098:-1 4100099:-1 4100100:1 4100101:1 4100102:1 4100103:1 4100104:1 4100105:1 4100106:1 4100107:-1 4100108:-1 4100109:-1 4100110:1 4100111:1 4100112:1 4100113:1 4100114:1 4100115:1 4100116:1 4100117:-1 4100118:-1 4100119:-1 4100120:-1 4100121:-1 4100122:-1 4100123:-1 4100124:-1 4100125:-1 4100126:-1 4100127:-1 4200092:-1 4200093:-1 4200094:-1 4200095:-1 4200096:-1 4200097:-1 4200098:-1 4200099:-1 4200100:1 4200101:1 4200102:1 4200103:1 4200104:1 4200105:1 4200106:1 4200107:-1 4200108:-1 4200109:-1 4200110:1 4200111:1 4200112:1 4200113:1 4200114:1 4200115:1 4200116:-1 4200117:-1 4200118:-1 4200119:-1 4200120:-1 4200121:-1 4200122:-1 4200123:-1 4200124:-1 4200125:-1 4200126:-1 4200127:-1 4300092:-1 4300093:-1 4300094:-1 4300095:-1 4300096:-1 4300097:-1 4300098:-1 4300099:-1 4300100:-1 4300101:1 4300102:1 4300103:1 4300104:1 4300105:1 4300106:1 4300107:1 4300108:-1 4300109:-1 4300110:1 4300111:1 4300112:1 4300113:1 4300114:1 4300115:1 4300116:-1 4300117:-1 4300118:-1 4300119:-1 4300120:-1 4300121:-1 4300122:-1 4300123:-1 4300124:-1 4300125:-1 4300126:-1 4300127:-1 4400092:-1 4400093:-1 4400094:-1 4400095:-1 4400096:-1 4400097:-1 4400098:-1 4400099:-1 4400100:-1 4400101:1 4400102:1 4400103:1 4400104:1 4400105:1 4400106:1 4400107:1 4400108:-1 4400109:1 4400110:1 4400111:1 4400112:1 4400113:1 4400114:1 4400115:1 4400116:-1 4400117:-1 4400118:-1 4400119:-1 4400120:-1 4400121:-1 4400122:-1 4400123:-1 4400124:-1 4400125:-1 4400126:-1 4400127:-1 4500093:-1 4500094:-1 4500095:-1 4500096:-1 4500097:-1 4500098:-1 4500099:-1 4500100:-1 4500101:1 4500102:1 4500103:1 4500104:1 4500105:1 4500106:1 4500107:1 4500108:1 4500109:1 4500110:1 4500111:1 4500112:1 4500113:1 4500114:1 4500115:-1 4500116:-1 4500117:-1 4500118:-1 4500119:-1 4500120:-1 4500121:-1 4500122:-1 4500123:-1 4500124:-1 4500125:-1 4500126:-1 4500127:-1 4600093:-1 4600094:-1 4600095:-1 4600096:-1 4600097:-1 4600098:-1 4600099:-1 4600100:-1 4600101:-1 4600102:1 4600103:1 4600104:1 4600105:1 4600106:1 4600107:1 4600108:1 4600109:1 4600110:1 4600111:1 4600112:1 4600113:1 4600114:1 4600115:-1 4600116:-1 4600117:-1 4600118:-1 4600119:-1 4600120:-1 4600121:-1 4600122:-1 4600123:-1 4600124:-1 4600125:-1 4600126:-1 4600127:-1 4700093:-1 4700094:-1 4700095:-1 4700096:-1 4700097:-1 4700098:-1 4700099:-1 4700100:-1 4700101:-1 4700102:1 4700103:1 4700104:1 4700105:1 4700106:1 4700107:1 4700108:1 4700109:1 4700110:1 4700111:1 4700112:1 4700113:1 4700114:1 4700115:-1 4700116:-1 4700117:-1 4700118:-1 4700119:-1 4700120:-1 4700121:-1 4700122:-1 4700123:-1 4700124:-1 4700125:-1 4700126:-1 4700127:-1 4800093:-1 4800094:-1 4800095:-1 4800096:-1 4800097:-1 4800098:-1 4800099:-1 4800100:-1 4800101:-1 4800102:1 4800103:1 4800104:1 4800105:1 4800106:1 4800107:1 4800108:1 4800109:1 4800110:1 4800111:1 4800112:1 4800113:1 4800114:1 4800115:-1 4800116:-1 4800117:-1 4800118:-1 4800119:-1 4800120:-1 4800121:-1 4800122:-1 4800123:-1 4800124:-1 4800125:-1 4800126:-1 4800127:-1 4900093:-1 4900094:-1 4900095:-1 4900096:-1 4900097:-1 4900098:-1 4900099:-1 4900100:-1 4900101:-1 4900102:-1 4900103:1 4900104:1 4900105:1 4900106:1 4900107:1 4900108:1 4900109:1 4900110:1 4900111:1 4900112:1 4900113:1 4900114:-1 4900115:-1 4900116:-1 4900117:-1 4900118:-1 4900119:-1 4900120:-1 4900121:-1 4900122:-1 4900123:-1 4900124:-1 4900125:-1 4900126:-1 4900127:-1 5000093:-1 5000094:-1 5000095:-1 5000096:-1 5000097:-1 5000098:-1 5000099:-1 5000100:-1 5000101:-1 5000102:-1 5000103:1 5000104:1 5000105:1 5000106:1 5000107:1 5000108:1 5000109:1 5000110:1 5000111:1 5000112:1 5000113:1 5000114:-1 5000115:-1 5000116:-1 5000117:-1 5000118:-1 5000119:-1 5000120:-1 5000121:-1 5000122:-1 5000123:-1 5000124:-1 5000125:-1 5000126:-1 5000127:-1 5100093:-1 5100094:-1 5100095:-1 5100096:-1 5100097:-1 5100098:-1 5100099:-1 5100100:-1 5100101:-1 5100102:-1 5100103:1 5100104:1 5100105:1 5100106:1 5100107:1 5100108:1 5100109:1 5100110:1 5100111:1 5100112:1 5100113:-1 5100114:-1 5100115:-1 5100116:-1 5100117:-1 5100118:-1 5100119:-1 5100120:-1 5100121:-1 5100122:-1 5100123:-1 5100124:-1 5100125:-1 5100126:-1 5100127:-1 5200094:-1 5200095:-1 5200096:-1 5200097:-1 5200098:-1 5200099:-1 5200100:-1 5200101:-1 5200102:-1 5200103:-1 5200104:1 5200105:1 5200106:1 5200107:1 5200108:1 5200109:1 5200110:1 5200111:1 5200112:1 5200113:-1 5200114:-1 5200115:-1 5200116:-1 5200117:-1 5200118:-1 5200119:-1 5200120:-1 5200121:-1 5200122:-1 5200123:-1 5200124:-1 5200125:-1 5200126:-1 5200127:-1 5300094:-1 5300095:-1 5300096:-1 5300097:-1 5300098:-1 5300099:-1 5300100:-1 5300101:-1 5300102:-1 5300103:-1 5300104:1 5300105:1 5300106:1 5300107:1 5300108:1 5300109:1 5300110:1 5300111:1 5300112:1 5300113:-1 5300114:-1 5300115:-1 5300116:-1 5300117:-1 5300118:-1 5300119:-1 5300120:-1 5300121:-1 5300122:-1 5300123:-1 5300124:-1 5300125:-1 5300126:-1 5300127:-1 5400093:-1 5400094:-1 5400095:-1 5400096:-1 5400097:-1 5400098:-1 5400099:-1 5400100:-1 5400101:-1 5400102:-1 5400103:-1 5400104:1 5400105:1 5400106:1 5400107:1 5400108:1 5400109:1 5400110:1 5400111:1 5400112:1 5400113:-1 5400114:-1 5400115:-1 5400116:-1 5400117:-1 5400118:-1 5400119:-1 5400120:-1 5400121:-1 5400122:-1 5400123:-1 5400124:-1 5400125:-1 5400126:-1 5400127:-1 5500093:-1 5500094:-1 5500095:-1 5500096:-1 5500097:-1 5500098:-1 5500099:-1 5500100:-1 5500101:-1 5500102:-1 5500103:-1 5500104:-1 5500105:1 5500106:1 5500107:1 5500108:1 5500109:1 5500110:1 5500111:1 5500112:-1 5500113:-1 5500114:-1 5500115:-1 5500116:-1 5500117:-1 5500118:-1 5500119:-1 5500120:-1 5500121:-1 5500122:-1 5500123:-1 5500124:-1 5500125:-1 5500126:-1 5500127:-1 5600094:-1 5600095:-1 5600096:-1 5600097:-1 5600098:-1 5600099:-1 5600100:-1 5600101:-1 5600102:-1 5600103:-1 5600104:-1 5600105:-1 5600106:-1 5600107:-1 5600108:-1 5600109:-1 5600110:-1 5600111:-1 5600112:-1 5600113:-1 5600114:-1 5600115:-1 5600116:-1 5600117:-1 5600118:-1 5600119:-1 5600120:-1 5600121:-1 5600122:-1 5600123:-1 5600124:-1 5600125:-1 5600126:-1 5600127:-1 5700098:-1 5700099:-1 5700100:-1 5700101:-1 5700102:-1 5700103:-1 
0 0.5414163038148307 0.498097012692863 0.392063468982825 0.1443009472771019 0 0 0.7250818640032586 0 0.1699321480080203 0 0.04269138703198511 0 0 0 2.120828520945375 0 0 0.08154659153804997 1.039749855323736 0 0.3544113247371035 0 5.993962502349588 0 0 0 1.170417877561975 1.033771116641015 2.782393130890162 1.606908645597432 0 0.2926840849274691 0 0 0.8202062971796188 1.038896195792837 0 0.3093139769840619 0.3610443853844949 0 5.897722866701231 0.4787774952977088 1.15419247012953 0 0.8184836101967397 0 0.3154742702148944 0.03056875302446329 2400095:-1 2400096:-1 2400097:-1 2400098:-1 2400099:-1 2400100:-1 2400101:-1 2400102:-1 2400103:-1 2400104:-1 2400105:-1 2400106:-1 2400107:-1 2400108:-1 2400109:-1 2400110:-1 2400111:-1 2400112:-1 2400113:-1 2400114:-1 2400115:-1 2400116:-1 2400117:-1 2400118:-1 2400119:-1 2400120:-1 2400122:-1 2500088:-1 2500089:-1 2500090:-1 2500091:-1 2500092:-1 2500093:-1 2500094:-1 2500095:1 2500096:1 2500097:1 2500098:1 2500099:1 2500100:1 2500101:-1 2500102:-1 2500103:-1 2500104:-1 2500105:-1 2500106:-1 2500107:-1 2500108:-1 2500109:-1 2500110:-1 2500111:-1 2500112:-1 2500113:-1 2500114:-1 2500115:1 2500116:1 2500117:1 2500118:1 2500119:1 2500120:1 2500121:-1 2500122:-1 2500123:-1 2500124:-1 2500125:-1 2500126:-1 2500127:-1 2600088:-1 2600089:-1 2600090:-1 2600091:-1 2600092:-1 2600093:-1 2600094:-1 2600095:1 2600096:1 2600097:1 2600098:1 2600099:1 2600100:1 2600101:1 2600102:-1 2600103:-1 2600104:-1 2600105:-1 2600106:-1 2600107:-1 2600108:-1 2600109:-1 2600110:-1 2600111:-1 2600112:-1 2600113:-1 2600114:-1 2600115:1 2600116:1 2600117:1 2600118:1 2600119:1 2600120:1 2600121:1 2600122:-1 2600123:-1 2600124:-1 2600125:-1 2600126:-1 2600127:-1 2700088:-1 2700089:-1 2700090:-1 2700091:-1 2700092:-1 2700093:-1 2700094:-1 2700095:-1 2700096:1 2700097:1 2700098:1 2700099:1 2700100:1 2700101:1 2700102:-1 2700103:-1 2700104:-1 2700105:-1 2700106:-1 2700107:-1 2700108:-1 2700109:-1 2700110:-1 2700111:-1 2700112:-1 2700113:-1 2700114:1 2700115:1 2700116:1 2700117:1 2700118:1 2700119:1 2700120:1 2700121:-1 2700122:-1 2700123:-1 2700124:-1 2700125:-1 2700126:-1 2700127:-1 2800088:-1 2800089:-1 2800090:-1 2800091:-1 2800092:-1 2800093:-1 2800094:-1 2800095:-1 2800096:1 2800097:1 2800098:1 2800099:1 2800100:1 2800101:1 2800102:1 2800103:-1 2800104:-1 2800105:-1 2800106:-1 2800107:-1 2800108:-1 2800109:-1 2800110:-1 2800111:-1 2800112:-1 2800113:-1 2800114:1 2800115:1 2800116:1 2800117:1 2800118:1 2800119:1 2800120:1 2800121:-1 2800122:-1 2800123:-1 2800124:-1 2800125:-1 2800126:-1 2800127:-1 2900089:-1 2900090:-1 2900091:-1 2900092:-1 2900093:-1 2900094:-1 2900095:-1 2900096:1 2900097:1 2900098:1 2900099:1 2900100:1 2900101:1 2900102:1 2900103:-1 2900104:-1 2900105:-1 2900106:-1 2900107:-1 2900108:-1 2900109:-1 2900110:-1 2900111:-1 2900112:-1 2900113:1 2900114:1 2900115:1 2900116:1 2900117:1 2900118:1 2900119:1 2900120:-1 2900121:-1 2900122:-1 2900123:-1 2900124:-1 2900125:-1 2900126:-1 2900127:-1 3000089:-1 3000090:-1 3000091:-1 3000092:-1 3000093:-1 3000094:-1 3000095:-1 3000096:-1 3000097:1 3000098:1 3000099:1 3000100:1 3000101:1 3000102:1 3000103:-1 3000104:-1 3000105:-1 3000106:-1 3000107:-1 3000108:-1 3000109:-1 3000110:-1 3000111:-1 3000112:-1 3000113:1 3000114:1 3000115:1 3000116:1 3000117:1 3000118:1 3000119:1 3000120:-1 3000121:-1 3000122:-1 3000123:-1 3000124:-1 3000125:-1 3000126:-1 3000127:-1 3100089:-1 3100090:-1 3100091:-1 3100092:-1 3100093:-1 3100094:-1 3100095:-1 3100096:-1 3100097:1 3100098:1 3100099:1 3100100:1 3100101:1 3100102:1 3100103:-1 3100104:-1 3100105:-1 3100106:-1 3100107:-1 3100108:-1 3100109:-1 3100110:-1 3100111:-1 3100112:-1 3100113:1 3100114:1 3100115:1 3100116:1 3100117:1 3100118:1 3100119:1 3100120:-1 3100121:-1 3100122:-1 3100123:-1 3100124:-1 3100125:-1 3100126:-1 3100127:-1 3200090:-1 3200091:-1 3200092:-1 3200093:-1 3200094:-1 3200095:-1 3200096:-1 3200097:1 3200098:1 3200099:1 3200100:1 3200101:1 3200102:1 3200103:1 3200104:-1 3200105:-1 3200106:-1 3200107:-1 3200108:-1 3200109:-1 3200110:-1 3200111:-1 3200112:1 3200113:1 3200114:1 3200115:1 3200116:1 3200117:1 3200118:1 3200119:-1 3200120:-1 3200121:-1 3200122:-1 3200123:-1 3200124:-1 3200125:-1 3200126:-1 3200127:-1 3300090:-1 3300091:-1 3300092:-1 3300093:-1 3300094:-1 3300095:-1 3300096:-1 3300097:-1 3300098:1 3300099:1 3300100:1 3300101:1 3300102:1 3300103:1 3300104:-1 3300105:-1 3300106:-1 3300107:-1 3300108:-1 3300109:-1 3300110:-1 3300111:-1 3300112:1 3300113:1 3300114:1 3300115:1 3300116:1 3300117:1 3300118:1 3300119:-1 3300120:-1 3300121:-1 3300122:-1 3300123:-1 3300124:-1 3300125:-1 3300126:-1 3300127:-1 3400090:-1 3400091:-1 3400092:-1 3400093:-1 3400094:-1 3400095:-1 3400096:-1 3400097:-1 3400098:1 3400099:1 3400100:1 3400101:1 3400102:1 3400103:1 3400104:-1 3400105:-1 3400106:-1 3400107:-1 3400108:-1 3400109:-1 3400110:-1 3400111:-1 3400112:1 3400113:1 3400114:1 3400115:1 3400116:1 3400117:1 3400118:1 3400119:-1 3400120:-1 3400121:-1 3400122:-1 3400123:-1 3400124:-1 3400125:-1 3400126:-1 3400127:-1 3500090:-1 3500091:-1 3500092:-1 3500093:-1 3500094:-1 3500095:-1 3500096:-1 3500097:-1 3500098:1 3500099:1 3500100:1 3500101:1 3500102:1 3500103:1 3500104:1 3500105:-1 3500106:-1 3500107:-1 3500108:-1 3500109:-1 3500110:-1 3500111:-1 3500112:1 3500113:1 3500114:1 3500115:1 3500116:1 3500117:1 3500118:1 3500119:-1 3500120:-1 3500121:-1 3500122:-1 3500123:-1 3500124:-1 3500125:-1 3500126:-1 3500127:-1 3600090:-1 3600091:-1 3600092:-1 3600093:-1 3600094:-1 3600095:-1 3600096:-1 3600097:-1 3600098:1 3600099:1 3600100:1 3600101:1 3600102:1 3600103:1 3600104:1 3600105:-1 3600106:-1 3600107:-1 3600108:-1 3600109:-1 3600110:-1 3600111:1 3600112:1 3600113:1 3600114:1 3600115:1 3600116:1 3600117:1 3600118:-1 3600119:-1 3600120:-1 3600121:-1 3600122:-1 3600123:-1 3600124:-1 3600125:-1 3600126:-1 3600127:-1 3700091:-1 3700092:-1 3700093:-1 3700094:-1 3700095:-1 3700096:-1 3700097:-1 3700098:-1 3700099:1 3700100:1 3700101:1 3700102:1 3700103:1 3700104:1 3700105:-1 3700106:-1 3700107:-1 3700108:-1 3700109:-1 3700110:-1 3700111:1 3700112:1 3700113:1 3700114:1 3700115:1 3700116:1 3700117:1 3700118:-1 3700119:-1 3700120:-1 3700121:-1 3700122:-1 3700123:-1 3700124:-1 3700125:-1 3700126:-1 3700127:-1 3800091:-1 3800092:-1 3800093:-1 3800094:-1 3800095:-1 3800096:-1 3800097:-1 3800098:-1 3800099:1 3800100:1 3800101:1 3800102:1 3800103:1 3800104:1 3800105:1 3800106:-1 3800107:-1 3800108:-1 3800109:-1 3800110:-1 3800111:1 3800112:1 3800113:1 3800114:1 3800115:1 3800116:1 3800117:1 3800118:-1 3800119:-1 3800120:-1 3800121:-1 3800122:-1 3800123:-1 3800124:-1 3800125:-1 3800126:-1 3800127:-1 3900091:-1 3900092:-1 3900093:-1 3900094:-1 3900095:-1 3900096:-1 3900097:-1 3900098:-1 3900099:1 3900100:1 3900101:1 3900102:1 3900103:1 3900104:1 3900105:1 3900106:-1 3900107:-1 3900108:-1 3900109:-1 3900110:1 3900111:1 3900112:1 3900113:1 3900114:1 3900115:1 3900116:1 3900117:-1 3900118:-1 3900119:-1 3900120:-1 3900121:-1 3900122:-1 3900123:-1 3900124:-1 3900125:-1 3900126:-1 3900127:-1 4000091:-1 4000092:-1 4000093:-1 4000094:-1 4000095:-1 4000096:-1 4000097:-1 4000098:-1 4000099:-1 4000100:1 4000101:1 4000102:1 4000103:1 4000104:1 4000105:1 4000106:-1 4000107:-1 4000108:-1 4000109:-1 4000110:1 4000111:1 4000112:1 4000113:1 4000114:1 4000115:1 4000116:1 4000117:-1 4000118:-1 4000119:-1 4000120:-1 4000121:-1 4000122:-1 4000123:-1 4000124:-1 4000125:-1 4000126:-1 4000127:-1 4100092:-1 4100093:-1 4100094:-1 4100095:-1 4100096:-1 4100097:-1 4100098:-1 4100099:-1 4100100:1 4100101:1 4100102:1 4100103:1 4100104:1 4100105:1 4100106:1 4100107:-1 4100108:-1 4100109:-1 4100110:1 4100111:1 4100112:1 4100113:1 4100114:1 4100115:1 4100116:1 4100117:-1 4100118:-1 4100119:-1 4100120:-1 4100121:-1 4100122:-1 4100123:-1 4100124:-1 4100125:-1 4100126:-1 4100127:-1 4200092:-1 4200093:-1 4200094:-1 4200095:-1 4200096:-1 4200097:-1 4200098:-1 4200099:-1 4200100:1 4200101:1 4200102:1 4200103:1 4200104:1 4200105:1 4200106:1 4200107:-1 4200108:-1 4200109:-1 4200110:1 4200111:1 4200112:1 4200113:1 4200114:1 4200115:1 4200116:-1 4200117:-1 4200118:-1 4200119:-1 4200120:-1 4200121:-1 4200122:-1 4200123:-1 4200124:-1 4200125:-1 4200126:-1 4200127:-1 4300092:-1 4300093:-1 4300094:-1 4300095:-1 4300096:-1 4300097:-1 4300098:-1 4300099:-1 4300100:-1 4300101:1 4300102:1 4300103:1 4300104:1 4300105:1 4300106:1 4300107:-1 4300108:-1 4300109:1 4300110:1 4300111:1 4300112:1 4300113:1 4300114:1 4300115:1 4300116:-1 4300117:-1 4300118:-1 4300119:-1 4300120:-1 4300121:-1 4300122:-1 4300123:-1 4300124:-1 4300125:-1 4300126:-1 4300127:-1 4400092:-1 4400093:-1 4400094:-1 4400095:-1 4400096:-1 4400097:-1 4400098:-1 4400099:-1 4400100:-1 4400101:1 4400102:1 4400103:1 4400104:1 4400105:1 4400106:1 4400107:-1 4400108:-1 4400109:1 4400110:1 4400111:1 4400112:1 4400113:1 4400114:1 4400115:1 4400116:-1 4400117:-1 4400118:-1 4400119:-1 4400120:-1 4400121:-1 4400122:-1 4400123:-1 4400124:-1 4400125:-1 4400126:-1 4400127:-1 4500093:-1 4500094:-1 4500095:-1 4500096:-1 4500097:-1 4500098:-1 4500099:-1 4500100:-1 4500101:1 4500102:1 4500103:1 4500104:1 4500105:1 4500106:1 4500107:1 4500108:1 4500109:1 4500110:1 4500111:1 4500112:1 4500113:1 4500114:1 4500115:-1 4500116:-1 4500117:-1 4500118:-1 4500119:-1 4500120:-1 4500121:-1 4500122:-1 4500123:-1 4500124:-1 4500125:-1 4500126:-1 4500127:-1 4600093:-1 4600094:-1 4600095:-1 4600096:-1 4600097:-1 4600098:-1 4600099:-1 4600100:-1 4600101:-1 4600102:1 4600103:1 4600104:1 4600105:1 4600106:1 4600107:1 4600108:1 4600109:1 4600110:1 4600111:1 4600112:1 4600113:1 4600114:1 4600115:-1 4600116:-1 4600117:-1 4600118:-1 4600119:-1 4600120:-1 4600121:-1 4600122:-1 4600123:-1 4600124:-1 4600125:-1 4600126:-1 4600127:-1 4700093:-1 4700094:-1 4700095:-1 4700096:-1 4700097:-1 4700098:-1 4700099:-1 4700100:-1 4700101:-1 4700102:1 4700103:1 4700104:1 4700105:1 4700106:1 4700107:1 4700108:1 4700109:1 4700110:1 4700111:1 4700112:1 4700113:1 4700114:-1 4700115:-1 4700116:-1 4700117:-1 4700118:-1 4700119:-1 4700120:-1 4700121:-1 4700122:-1 4700123:-1 4700124:-1 4700125:-1 4700126:-1 4700127:-1 4800093:-1 4800094:-1 4800095:-1 4800096:-1 4800097:-1 4800098:-1 4800099:-1 4800100:-1 4800101:-1 4800102:1 4800103:1 4800104:1 4800105:1 4800106:1 4800107:1 4800108:1 4800109:1 4800110:1 4800111:1 4800112:1 4800113:1 4800114:-1 4800115:-1 4800116:-1 4800117:-1 4800118:-1 4800119:-1 4800120:-1 4800121:-1 4800122:-1 4800123:-1 4800124:-1 4800125:-1 4800126:-1 4800127:-1 4900093:-1 4900094:-1 4900095:-1 4900096:-1 4900097:-1 4900098:-1 4900099:-1 4900100:-1 4900101:-1 4900102:-1 4900103:1 4900104:1 4900105:1 4900106:1 4900107:1 4900108:1 4900109:1 4900110:1 4900111:1 4900112:1 4900113:1 4900114:-1 4900115:-1 4900116:-1 4900117:-1 4900118:-1 4900119:-1 4900120:-1 4900121:-1 4900122:-1 4900123:-1 4900124:-1 4900125:-1 4900126:-1 4900127:-1 5000093:-1 5000094:-1 5000095:-1 5000096:-1 5000097:-1 5000098:-1 5000099:-1 5000100:-1 5000101:-1 5000102:-1 5000103:1 5000104:1 5000105:1 5000106:1 5000107:1 5000108:1 5000109:1 5000110:1 5000111:1 5000112:1 5000113:-1 5000114:-1 5000115:-1 5000116:-1 5000117:-1 5000118:-1 5000119:-1 5000120:-1 5000121:-1 5000122:-1 5000123:-1 5000124:-1 5000125:-1 5000126:-1 5000127:-1 5100093:-1 5100094:-1 5100095:-1 5100096:-1 5100097:-1 5100098:-1 5100099:-1 5100100:-1 5100101:-1 5100102:-1 5100103:1 5100104:1 5100105:1 5100106:1 5100107:1 5100108:1 5100109:1 5100110:1 5100111:1 5100112:1 5100113:-1 5100114:-1 5100115:-1 5100116:-1 5100117:-1 5100118:-1 5100119:-1 5100120:-1 5100121:-1 5100122:-1 5100123:-1 5100124:-1 5100125:-1 5100126:-1 5100127:-1 5200094:-1 5200095:-1 5200096:-1 5200097:-1 5200098:-1 5200099:-1 5200100:-1 5200101:-1 5200102:-1 5200103:-1 5200104:1 5200105:1 5200106:1 5200107:1 5200108:1 5200109:1 5200110:1 5200111:1 5200112:1 5200113:-1 5200114:-1 5200115:-1 5200116:-1 5200117:-1 5200118:-1 5200119:-1 5200120:-1 5200121:-1 5200122:-1 5200123:-1 5200124:-1 5200125:-1 5200126:-1 5200127:-1 5300094:-1 5300095:-1 5300096:-1 5300097:-1 5300098:-1 5300099:-1 5300100:-1 5300101:-1 5300102:-1 5300103:-1 5300104:1 5300105:1 5300106:1 5300107:1 5300108:1 5300109:1 5300110:1 5300111:1 5300112:-1 5300113:-1 5300114:-1 5300115:-1 5300116:-1 5300117:-1 5300118:-1 5300119:-1 5300120:-1 5300121:-1 5300122:-1 5300123:-1 5300124:-1 5300125:-1 5300126:-1 5300127:-1 5400093:-1 5400094:-1 5400095:-1 5400096:-1 5400097:-1 5400098:-1 5400099:-1 5400100:-1 5400101:-1 5400102:-1 5400103:-1 5400104:1 5400105:1 5400106:1 5400107:1 5400108:1 5400109:1 5400110:1 5400111:1 5400112:-1 5400113:-1 5400114:-1 5400115:-1 5400116:-1 5400117:-1 5400118:-1 5400119:-1 5400120:-1 5400121:-1 5400122:-1 5400123:-1 5400124:-1 5400125:-1 5400126:-1 5400127:-1 5500093:-1 5500094:-1 5500095:-1 5500096:-1 5500097:-1 5500098:-1 5500099:-1 5500100:-1 5500101:-1 5500102:-1 5500103:-1 5500104:-1 5500105:1 5500106:1 5500107:1 5500108:1 5500109:1 5500110:1 5500111:-1 5500112:-1 5500113:-1 5500114:-1 5500115:-1 5500116:-1 5500117:-1 5500118:-1 5500119:-1 5500120:-1 5500121:-1 5500122:-1 5500123:-1 5500124:-1 5500125:-1 5500126:-1 5500127:-1 5600094:-1 5600095:-1 5600096:-1 5600097:-1 5600098:-1 5600099:-1 5600100:-1 5600101:-1 5600102:-1 5600103:-1 5600104:-1 5600105:-1 5600106:-1 5600107:-1 5600108:-1 5600109:-1 5600110:-1 5600111:-1 5600112:-1 5600113:-1 5600114:-1 5600115:-1 5600116:-1 5600117:-1 5600118:-1 5600119:-1 5600120:-1 5600121:-1 5600122:-1 5600123:-1 5600124:-1 5600125:-1 5600126:-1 5600127:-1 5700098:-1 5700099:-1 5700100:-1 5700101:-1 5700102:-1 5700103:-1 
0.472009423152383 0 0 0 0 0 0 0.3914296782865159 0 0 0 0 0 0 0.6983878518011409 0 0 0 0 0 0 0 0 0.6069387664607888 0 0 0 0 0 0 0 0 0 0 0 0 0 0 0 0 0 0 0 0.2621420780373431 0 0.4582247559803874 0 0 0 2400095:1 2400096:1 2400097:1 2400098:1 2400099:1 2400100:1 2400101:-1 2400102:-1 2400103:-1 2400104:-1 2400105:-1 2400106:-1 2400107:-1 2400108:-1 2400109:-1 2400110:-1 2400111:-1 2400112:-1 2400113:-1 2400114:-1 2400115:-1 2400116:-1 2400117:-1 2400118:-1 2400119:-1 2400120:-1 2400122:-1 2500088:-1 2500089:-1 2500090:-1 2500091:-1 2500092:-1 2500093:-1 2500094:-1 2500095:1 2500096:1 2500097:1 2500098:1 2500099:1 2500100:1 2500101:1 2500102:-1 2500103:-1 2500104:-1 2500105:-1 2500106:-1 2500107:-1 2500108:-1 2500109:-1 2500110:-1 2500111:-1 2500112:-1 2500113:-1 2500114:-1 2500115:1 2500116:1 2500117:1 2500118:1 2500119:1 2500120:1 2500121:1 2500122:-1 2500123:-1 2500124:-1 2500125:-1 2500126:-1 2500127:-1 2600088:-1 2600089:-1 2600090:-1 2600091:-1 2600092:-1 2600093:-1 2600094:-1 2600095:1 2600096:1 2600097:1 2600098:1 2600099:1 2600100:1 2600101:1 2600102:-1 2600103:-1 2600104:-1 2600105:-1 2600106:-1 2600107:-1 2600108:-1 2600109:-1 2600110:-1 2600111:-1 2600112:-1 2600113:-1 2600114:-1 2600115:1 2600116:1 2600117:1 2600118:1 2600119:1 2600120:1 2600121:1 2600122:-1 2600123:-1 2600124:-1 2600125:-1 2600126:-1 2600127:-1 2700088:-1 2700089:-1 2700090:-1 2700091:-1 2700092:-1 2700093:-1 2700094:-1 2700095:1 2700096:1 2700097:1 2700098:1 2700099:1 2700100:1 2700101:1 2700102:-1 2700103:-1 2700104:-1 2700105:-1 2700106:-1 2700107:-1 2700108:-1 2700109:-1 2700110:-1 2700111:-1 2700112:-1 2700113:-1 2700114:1 2700115:1 2700116:1 2700117:1 2700118:1 2700119:1 2700120:1 2700121:-1 2700122:-1 2700123:-1 2700124:-1 2700125:-1 2700126:-1 2700127:-1 2800088:-1 2800089:-1 2800090:-1 2800091:-1 2800092:-1 2800093:-1 2800094:-1 2800095:-1 2800096:1 2800097:1 2800098:1 2800099:1 2800100:1 2800101:1 2800102:1 2800103:-1 2800104:-1 2800105:-1 2800106:-1 2800107:-1 2800108:-1 2800109:-1 2800110:-1 2800111:-1 2800112:-1 2800113:-1 2800114:1 2800115:1 2800116:1 2800117:1 2800118:1 2800119:1 2800120:1 2800121:-1 2800122:-1 2800123:-1 2800124:-1 2800125:-1 2800126:-1 2800127:-1 2900089:-1 2900090:-1 2900091:-1 2900092:-1 2900093:-1 2900094:-1 2900095:-1 2900096:1 2900097:1 2900098:1 2900099:1 2900100:1 2900101:1 2900102:1 2900103:-1 2900104:-1 2900105:-1 2900106:-1 2900107:-1 2900108:-1 2900109:-1 2900110:-1 2900111:-1 2900112:-1 2900113:-1 2900114:1 2900115:1 2900116:1 2900117:1 2900118:1 2900119:1 2900120:1 2900121:-1 2900122:-1 2900123:-1 2900124:-1 2900125:-1 2900126:-1 2900127:-1 3000089:-1 3000090:-1 3000091:-1 3000092:-1 3000093:-1 3000094:-1 3000095:-1 3000096:1 3000097:1 3000098:1 3000099:1 3000100:1 3000101:1 3000102:1 3000103:-1 3000104:-1 3000105:-1 3000106:-1 3000107:-1 3000108:-1 3000109:-1 3000110:-1 3000111:-1 3000112:-1 3000113:1 3000114:1 3000115:1 3000116:1 3000117:1 3000118:1 3000119:1 3000120:-1 3000121:-1 3000122:-1 3000123:-1 3000124:-1 3000125:-1 3000126:-1 3000127:-1 3100089:-1 3100090:-1 3100091:-1 3100092:-1 3100093:-1 3100094:-1 3100095:-1 3100096:-1 3100097:1 3100098:1 3100099:1 3100100:1 3100101:1 3100102:1 3100103:1 3100104:-1 3100105:-1 3100106:-1 3100107:-1 3100108:-1 3100109:-1 3100110:-1 3100111:-1 3100112:-1 3100113:1 3100114:1 3100115:1 3100116:1 3100117:1 3100118:1 3100119:1 3100120:-1 3100121:-1 3100122:-1 3100123:-1 3100124:-1 3100125:-1 3100126:-1 3100127:-1 3200090:-1 3200091:-1 3200092:-1 3200093:-1 3200094:-1 3200095:-1 3200096:-1 3200097:1 3200098:1 3200099:1 3200100:1 3200101:1 3200102:1 3200103:1 3200104:-1 3200105:-1 3200106:-1 3200107:-1 3200108:-1 3200109:-1 3200110:-1 3200111:-1 3200112:-1 3200113:1 3200114:1 3200115:1 3200116:1 3200117:1 3200118:1 3200119:-1 3200120:-1 3200121:-1 3200122:-1 3200123:-1 3200124:-1 3200125:-1 3200126:-1 3200127:-1 3300090:-1 3300091:-1 3300092:-1 3300093:-1 3300094:-1 3300095:-1 3300096:-1 3300097:1 3300098:1 3300099:1 3300100:1 3300101:1 3300102:1 3300103:1 3300104:-1 3300105:-1 3300106:-1 3300107:-1 3300108:-1 3300109:-1 3300110:-1 3300111:-1 3300112:1 3300113:1 3300114:1 3300115:1 3300116:1 3300117:1 3300118:1 3300119:-1 3300120:-1 3300121:-1 3300122:-1 3300123:-1 3300124:-1 3300125:-1 3300126:-1 3300127:-1 3400090:-1 3400091:-1 3400092:-1 3400093:-1 3400094:-1 3400095:-1 3400096:-1 3400097:-1 3400098:1 3400099:1 3400100:1 3400101:1 3400102:1 3400103:1 3400104:-1 3400105:-1 3400106:-1 3400107:-1 3400108:-1 3400109:-1 3400110:-1 3400111:-1 3400112:1 3400113:1 3400114:1 3400115:1 3400116:1 3400117:1 3400118:1 3400119:-1 3400120:-1 3400121:-1 3400122:-1 3400123:-1 3400124:-1 3400125:-1 3400126:-1 3400127:-1 3500090:-1 3500091:-1 3500092:-1 3500093:-1 3500094:-1 3500095:-1 3500096:-1 3500097:-1 3500098:1 3500099:1 3500100:1 3500101:1 3500102:1 3500103:1 3500104:1 3500105:-1 3500106:-1 3500107:-1 3500108:-1 3500109:-1 3500110:-1 3500111:-1 3500112:1 3500113:1 3500114:1 3500115:1 3500116:1 3500117:1 3500118:1 3500119:-1 3500120:-1 3500121:-1 3500122:-1 3500123:-1 3500124:-1 3500125:-1 3500126:-1 3500127:-1 3600090:-1 3600091:-1 3600092:-1 3600093:-1 3600094:-1 3600095:-1 3600096:-1 3600097:-1 3600098:1 3600099:1 3600100:1 3600101:1 3600102:1 3600103:1 3600104:1 3600105:-1 3600106:-1 3600107:-1 3600108:-1 3600109:-1 3600110:-1 3600111:1 3600112:1 3600113:1 3600114:1 3600115:1 3600116:1 3600117:1 3600118:-1 3600119:-1 3600120:-1 3600121:-1 3600122:-1 3600123:-1 3600124:-1 3600125:-1 3600126:-1 3600127:-1 3700091:-1 3700092:-1 3700093:-1 3700094:-1 3700095:-1 3700096:-1 3700097:-1 3700098:-1 3700099:1 3700100:1 3700101:1 3700102:1 3700103:1 3700104:1 3700105:1 3700106:-1 3700107:-1 3700108:-1 3700109:-1 3700110:-1 3700111:1 3700112:1 3700113:1 3700114:1 3700115:1 3700116:1 3700117:1 3700118:-1 3700119:-1 3700120:-1 3700121:-1 3700122:-1 3700123:-1 3700124:-1 3700125:-1 3700126:-1 3700127:-1 3800091:-1 3800092:-1 3800093:-1 3800094:-1 3800095:-1 3800096:-1 3800097:-1 3800098:-1 3800099:1 3800100:1 3800101:1 3800102:1 3800103:1 3800104:1 3800105:1 3800106:-1 3800107:-1 3800108:-1 3800109:-1 3800110:-1 3800111:1 3800112:1 3800113:1 3800114:1 3800115:1 3800116:1 3800117:1 3800118:-1 3800119:-1 3800120:-1 3800121:-1 3800122:-1 3800123:-1 3800124:-1 3800125:-1 3800126:-1 3800127:-1 3900091:-1 3900092:-1 3900093:-1 3900094:-1 3900095:-1 3900096:-1 3900097:-1 3900098:-1 3900099:1 3900100:1 3900101:1 3900102:1 3900103:1 3900104:1 3900105:1 3900106:-1 3900107:-1 3900108:-1 3900109:-1 3900110:1 3900111:1 3900112:1 3900113:1 3900114:1 3900115:1 3900116:1 3900117:-1 3900118:-1 3900119:-1 3900120:-1 3900121:-1 3900122:-1 3900123:-1 3900124:-1 3900125:-1 3900126:-1 3900127:-1 4000091:-1 4000092:-1 4000093:-1 4000094:-1 4000095:-1 4000096:-1 4000097:-1 4000098:-1 4000099:-1 4000100:1 4000101:1 4000102:1 4000103:1 4000104:1 4000105:1 4000106:-1 4000107:-1 4000108:-1 4000109:-1 4000110:1 4000111:1 4000112:1 4000113:1 4000114:1 4000115:1 4000116:1 4000117:-1 4000118:-1 4000119:-1 4000120:-1 4000121:-1 4000122:-1 4000123:-1 4000124:-1 4000125:-1 4000126:-1 4000127:-1 4100092:-1 4100093:-1 4100094:-1 4100095:-1 4100096:-1 4100097:-1 4100098:-1 4100099:-1 4100100:1 4100101:1 4100102:1 4100103:1 4100104:1 4100105:1 4100106:1 4100107:-1 4100108:-1 4100109:-1 4100110:1 4100111:1 4100112:1 4100113:1 4100114:1 4100115:1 4100116:1 4100117:-1 4100118:-1 4100119:-1 4100120:-1 4100121:-1 4100122:-1 4100123:-1 4100124:-1 4100125:-1 4100126:-1 4100127:-1 4200092:-1 4200093:-1 4200094:-1 4200095:-1 4200096:-1 4200097:-1 4200098:-1 4200099:-1 4200100:1 4200101:1 4200102:1 4200103:1 4200104:1 4200105:1 4200106:1 4200107:-1 4200108:-1 4200109:-1 4200110:1 4200111:1 4200112:1 4200113:1 4200114:1 4200115:1 4200116:-1 4200117:-1 4200118:-1 4200119:-1 4200120:-1 4200121:-1 4200122:-1 4200123:-1 4200124:-1 4200125:-1 4200126:-1 4200127:-1 4300092:-1 4300093:-1 4300094:-1 4300095:-1 4300096:-1 4300097:-1 4300098:-1 4300099:-1 4300100:1 4300101:1 4300102:1 4300103:1 4300104:1 4300105:1 4300106:1 4300107:-1 4300108:-1 4300109:1 4300110:1 4300111:1 4300112:1 4300113:1 4300114:1 4300115:1 4300116:-1 4300117:-1 4300118:-1 4300119:-1 4300120:-1 4300121:-1 4300122:-1 4300123:-1 4300124:-1 4300125:-1 4300126:-1 4300127:-1 4400092:-1 4400093:-1 4400094:-1 4400095:-1 4400096:-1 4400097:-1 4400098:-1 4400099:-1 4400100:-1 4400101:1 4400102:1 4400103:1 4400104:1 4400105:1 4400106:1 4400107:1 4400108:-1 4400109:1 4400110:1 4400111:1 4400112:1 4400113:1 4400114:1 4400115:1 4400116:-1 4400117:-1 4400118:-1 4400119:-1 4400120:-1 4400121:-1 4400122:-1 4400123:-1 4400124:-1 4400125:-1 4400126:-1 4400127:-1 4500093:-1 4500094:-1 4500095:-1 4500096:-1 4500097:-1 4500098:-1 4500099:-1 4500100:-1 4500101:1 4500102:1 4500103:1 4500104:1 4500105:1 4500106:1 4500107:1 4500108:-1 4500109:1 4500110:1 4500111:1 4500112:1 4500113:1 4500114:1 4500115:-1 4500116:-1 4500117:-1 4500118:-1 4500119:-1 4500120:-1 4500121:-1 4500122:-1 4500123:-1 4500124:-1 4500125:-1 4500126:-1 4500127:-1 4600093:-1 4600094:-1 4600095:-1 4600096:-1 4600097:-1 4600098:-1 4600099:-1 4600100:-1 4600101:1 4600102:1 4600103:1 4600104:1 4600105:1 4600106:1 4600107:1 4600108:1 4600109:1 4600110:1 4600111:1 4600112:1 4600113:1 4600114:1 4600115:-1 4600116:-1 4600117:-1 4600118:-1 4600119:-1 4600120:-1 4600121:-1 4600122:-1 4600123:-1 4600124:-1 4600125:-1 4600126:-1 4600127:-1 4700093:-1 4700094:-1 4700095:-1 4700096:-1 4700097:-1 4700098:-1 4700099:-1 4700100:-1 4700101:-1 4700102:1 4700103:1 4700104:1 4700105:1 4700106:1 4700107:1 4700108:1 4700109:1 4700110:1 4700111:1 4700112:1 4700113:1 4700114:1 4700115:-1 4700116:-1 4700117:-1 4700118:-1 4700119:-1 4700120:-1 4700121:-1 4700122:-1 4700123:-1 4700124:-1 4700125:-1 4700126:-1 4700127:-1 4800093:-1 4800094:-1 4800095:-1 4800096:-1 4800097:-1 4800098:-1 4800099:-1 4800100:-1 4800101:-1 4800102:1 4800103:1 4800104:1 4800105:1 4800106:1 4800107:1 4800108:1 4800109:1 4800110:1 4800111:1 4800112:1 4800113:1 4800114:-1 4800115:-1 4800116:-1 4800117:-1 4800118:-1 4800119:-1 4800120:-1 4800121:-1 4800122:-1 4800123:-1 4800124:-1 4800125:-1 4800126:-1 4800127:-1 4900093:-1 4900094:-1 4900095:-1 4900096:-1 4900097:-1 4900098:-1 4900099:-1 4900100:-1 4900101:-1 4900102:-1 4900103:1 4900104:1 4900105:1 4900106:1 4900107:1 4900108:1 4900109:1 4900110:1 4900111:1 4900112:1 4900113:1 4900114:-1 4900115:-1 4900116:-1 4900117:-1 4900118:-1 4900119:-1 4900120:-1 4900121:-1 4900122:-1 4900123:-1 4900124:-1 4900125:-1 4900126:-1 4900127:-1 5000093:-1 5000094:-1 5000095:-1 5000096:-1 5000097:-1 5000098:-1 5000099:-1 5000100:-1 5000101:-1 5000102:-1 5000103:1 5000104:1 5000105:1 5000106:1 5000107:1 5000108:1 5000109:1 5000110:1 5000111:1 5000112:1 5000113:1 5000114:-1 5000115:-1 5000116:-1 5000117:-1 5000118:-1 5000119:-1 5000120:-1 5000121:-1 5000122:-1 5000123:-1 5000124:-1 5000125:-1 5000126:-1 5000127:-1 5100093:-1 5100094:-1 5100095:-1 5100096:-1 5100097:-1 5100098:-1 5100099:-1 5100100:-1 5100101:-1 5100102:-1 5100103:1 5100104:1 5100105:1 5100106:1 5100107:1 5100108:1 5100109:1 5100110:1 5100111:1 5100112:1 5100113:-1 5100114:-1 5100115:-1 5100116:-1 5100117:-1 5100118:-1 5100119:-1 5100120:-1 5100121:-1 5100122:-1 5100123:-1 5100124:-1 5100125:-1 5100126:-1 5100127:-1 5200094:-1 5200095:-1 5200096:-1 5200097:-1 5200098:-1 5200099:-1 5200100:-1 5200101:-1 5200102:-1 5200103:1 5200104:1 5200105:1 5200106:1 5200107:1 5200108:1 5200109:1 5200110:1 5200111:1 5200112:1 5200113:-1 5200114:-1 5200115:-1 5200116:-1 5200117:-1 5200118:-1 5200119:-1 5200120:-1 5200121:-1 5200122:-1 5200123:-1 5200124:-1 5200125:-1 5200126:-1 5200127:-1 5300094:-1 5300095:-1 5300096:-1 5300097:-1 5300098:-1 5300099:-1 5300100:-1 5300101:-1 5300102:-1 5300103:-1 5300104:1 5300105:1 5300106:1 5300107:1 5300108:1 5300109:1 5300110:1 5300111:1 5300112:1 5300113:-1 5300114:-1 5300115:-1 5300116:-1 5300117:-1 5300118:-1 5300119:-1 5300120:-1 5300121:-1 5300122:-1 5300123:-1 5300124:-1 5300125:-1 5300126:-1 5300127:-1 5400093:-1 5400094:-1 5400095:-1 5400096:-1 5400097:-1 5400098:-1 5400099:-1 5400100:-1 5400101:-1 5400102:-1 5400103:-1 5400104:1 5400105:1 5400106:1 5400107:1 5400108:1 5400109:1 5400110:1 5400111:1 5400112:-1 5400113:-1 5400114:-1 5400115:-1 5400116:-1 5400117:-1 5400118:-1 5400119:-1 5400120:-1 5400121:-1 5400122:-1 5400123:-1 5400124:-1 5400125:-1 5400126:-1 5400127:-1 5500093:-1 5500094:-1 5500095:-1 5500096:-1 5500097:-1 5500098:-1 5500099:-1 5500100:-1 5500101:-1 5500102:-1 5500103:-1 5500104:1 5500105:1 5500106:1 5500107:1 5500108:1 5500109:1 5500110:1 5500111:1 5500112:-1 5500113:-1 5500114:-1 5500115:-1 5500116:-1 5500117:-1 5500118:-1 5500119:-1 5500120:-1 5500121:-1 5500122:-1 5500123:-1 5500124:-1 5500125:-1 5500126:-1 5500127:-1 5600094:-1 5600095:-1 5600096:-1 5600097:-1 5600098:-1 5600099:-1 5600100:-1 5600101:-1 5600102:-1 5600103:-1 5600104:-1 5600105:-1 5600106:-1 5600107:-1 5600108:-1 5600109:-1 5600110:-1 5600111:-1 5600112:-1 5600113:-1 5600114:-1 5600115:-1 5600116:-1 5600117:-1 5600118:-1 5600119:-1 5600120:-1 5600121:-1 5600122:-1 5600123:-1 5600124:-1 5600125:-1 5600126:-1 5600127:-1 5700098:-1 5700099:-1 5700100:-1 5700101:-1 5700102:-1 5700103:-1 
5.128938181849502 2.814646504069017 4.52022816024826 2.729374033411661 3.749093270472295 1.375343556701154 3.808095589261828 4.058909744107236 5.18283671953375 3.8418011826407 4.076238716609964 4.499464773334522 3.864170505390045 2.81482806201982 3.620412881639082 3.325552194886795 3.094122759051155 2.246918127671281 1.989187032649889 3.85448502332641 4.559517524204423 1.344497737950786 3.060103392194527 7.285233033664877 1.481560851311585 2.284244055665087 3.303795377691534 2.219358651738686 3.34779977382133 5.086153304176481 3.536173519610894 1.717340370106234 2.809431850567407 2.824916720028279 1.509013817715556 3.901261221782995 3.053738529191437 4.664417494320088 2.529056885166057 3.754490216363615 3.851995337719914 8 3.618182150634791 2.528413274282671 2.095640549579636 2.340551900829186 3.573907898269819 3.243196381513195 3.473227556944578 2400095:-1 2400096:-1 2400097:-1 2400098:-1 2400099:-1 2400100:-1 2400101:-1 2400102:-1 2400103:-1 2400104:-1 2400105:-1 2400106:-1 2400107:-1 2400108:-1 2400109:-1 2400110:-1 2400111:-1 2400112:-1 2400113:-1 2400114:-1 2400115:-1 2400116:-1 2400117:-1 2400118:-1 2400119:-1 2400120:-1 2400122:-1 2500088:-1 2500089:-1 2500090:-1 2500091:-1 2500092:-1 2500093:-1 2500094:-1 2500095:-1 2500096:1 2500097:1 2500098:1 2500099:1 2500100:1 2500101:1 2500102:-1 2500103:-1 2500104:-1 2500105:-1 2500106:-1 2500107:-1 2500108:-1 2500109:-1 2500110:-1 2500111:-1 2500112:-1 2500113:-1 2500114:-1 2500115:-1 2500116:1 2500117:1 2500118:1 2500119:1 2500120:1 2500121:-1 2500122:-1 2500123:-1 2500124:-1 2500125:-1 2500126:-1 2500127:-1 2600088:-1 2600089:-1 2600090:-1 2600091:-1 2600092:-1 2600093:-1 2600094:-1 2600095:-1 2600096:1 2600097:1 2600098:1 2600099:1 2600100:1 2600101:1 2600102:1 2600103:-1 2600104:-1 2600105:-1 2600106:-1 2600107:-1 2600108:-1 2600109:-1 2600110:-1 2600111:-1 2600112:-1 2600113:-1 2600114:-1 2600115:1 2600116:1 2600117:1 2600118:1 2600119:1 2600120:1 2600121:-1 2600122:-1 2600123:-1 2600124:-1 2600125:-1 2600126:-1 2600127:-1 2700088:-1 2700089:-1 2700090:-1 2700091:-1 2700092:-1 2700093:-1 2700094:-1 2700095:-1 2700096:1 2700097:1 2700098:1 2700099:1 2700100:1 2700101:1 2700102:1 2700103:-1 2700104:-1 2700105:-1 2700106:-1 2700107:-1 2700108:-1 2700109:-1 2700110:-1 2700111:-1 2700112:-1 2700113:-1 2700114:-1 2700115:1 2700116:1 2700117:1 2700118:1 2700119:1 2700120:1 2700121:-1 2700122:-1 2700123:-1 2700124:-1 2700125:-1 2700126:-1 2700127:-1 2800088:-1 2800089:-1 2800090:-1 2800091:-1 2800092:-1 2800093:-1 2800094:-1 2800095:-1 2800096:1 2800097:1 2800098:1 2800099:1 2800100:1 2800101:1 2800102:1 2800103:-1 2800104:-1 2800105:-1 2800106:-1 2800107:-1 2800108:-1 2800109:-1 2800110:-1 2800111:-1 2800112:-1 2800113:-1 2800114:1 2800115:1 2800116:1 2800117:1 2800118:1 2800119:1 2800120:1 2800121:-1 2800122:-1 2800123:-1 2800124:-1 2800125:-1 2800126:-1 2800127:-1 2900089:-1 2900090:-1 2900091:-1 2900092:-1 2900093:-1 2900094:-1 2900095:-1 2900096:-1 2900097:1 2900098:1 2900099:1 2900100:1 2900101:1 2900102:1 2900103:1 2900104:-1 2900105:-1 2900106:-1 2900107:-1 2900108:-1 2900109:-1 2900110:-1 2900111:-1 2900112:-1 2900113:-1 2900114:1 2900115:1 2900116:1 2900117:1 2900118:1 2900119:1 2900120:-1 2900121:-1 2900122:-1 2900123:-1 2900124:-1 2900125:-1 2900126:-1 2900127:-1 3000089:-1 3000090:-1 3000091:-1 3000092:-1 3000093:-1 3000094:-1 3000095:-1 3000096:-1 3000097:1 3000098:1 3000099:1 3000100:1 3000101:1 3000102:1 3000103:1 3000104:-1 3000105:-1 3000106:-1 3000107:-1 3000108:-1 3000109:-1 3000110:-1 3000111:-1 3000112:-1 3000113:-1 3000114:1 3000115:1 3000116:1 3000117:1 3000118:1 3000119:1 3000120:-1 3000121:-1 3000122:-1 3000123:-1 3000124:-1 3000125:-1 3000126:-1 3000127:-1 3100089:-1 3100090:-1 3100091:-1 3100092:-1 3100093:-1 3100094:-1 3100095:-1 3100096:-1 3100097:1 3100098:1 3100099:1 3100100:1 3100101:1 3100102:1 3100103:1 3100104:-1 3100105:-1 3100106:-1 3100107:-1 3100108:-1 3100109:-1 3100110:-1 3100111:-1 3100112:-1 3100113:-1 3100114:1 3100115:1 3100116:1 3100117:1 3100118:1 3100119:1 3100120:-1 3100121:-1 3100122:-1 3100123:-1 3100124:-1 3100125:-1 3100126:-1 3100127:-1 3200090:-1 3200091:-1 3200092:-1 3200093:-1 3200094:-1 3200095:-1 3200096:-1 3200097:-1 3200098:1 3200099:1 3200100:1 3200101:1 3200102:1 3200103:1 3200104:-1 3200105:-1 3200106:-1 3200107:-1 3200108:-1 3200109:-1 3200110:-1 3200111:-1 3200112:-1 3200113:1 3200114:1 3200115:1 3200116:1 3200117:1 3200118:1 3200119:1 3200120:-1 3200121:-1 3200122:-1 3200123:-1 3200124:-1 3200125:-1 3200126:-1 3200127:-1 3300090:-1 3300091:-1 3300092:-1 3300093:-1 3300094:-1 3300095:-1 3300096:-1 3300097:-1 3300098:1 3300099:1 3300100:1 3300101:1 3300102:1 3300103:1 3300104:1 3300105:-1 3300106:-1 3300107:-1 3300108:-1 3300109:-1 3300110:-1 3300111:-1 3300112:-1 3300113:1 3300114:1 3300115:1 3300116:1 3300117:1 3300118:1 3300119:-1 3300120:-1 3300121:-1 3300122:-1 3300123:-1 3300124:-1 3300125:-1 3300126:-1 3300127:-1 3400090:-1 3400091:-1 3400092:-1 3400093:-1 3400094:-1 3400095:-1 3400096:-1 3400097:-1 3400098:1 3400099:1 3400100:1 3400101:1 3400102:1 3400103:1 3400104:1 3400105:-1 3400106:-1 3400107:-1 3400108:-1 3400109:-1 3400110:-1 3400111:-1 3400112:-1 3400113:1 3400114:1 3400115:1 3400116:1 3400117:1 3400118:1 3400119:-1 3400120:-1 3400121:-1 3400122:-1 3400123:-1 3400124:-1 3400125:-1 3400126:-1 3400127:-1 3500090:-1 3500091:-1 3500092:-1 3500093:-1 3500094:-1 3500095:-1 3500096:-1 3500097:-1 3500098:-1 3500099:1 3500100:1 3500101:1 3500102:1 3500103:1 3500104:1 3500105:-1 3500106:-1 3500107:-1 3500108:-1 3500109:-1 3500110:-1 3500111:-1 3500112:1 3500113:1 3500114:1 3500115:1 3500116:1 3500117:1 3500118:1 3500119:-1 3500120:-1 3500121:-1 3500122:-1 3500123:-1 3500124:-1 3500125:-1 3500126:-1 3500127:-1 3600090:-1 3600091:-1 3600092:-1 3600093:-1 3600094:-1 3600095:-1 3600096:-1 3600097:-1 3600098:-1 3600099:1 3600100:1 3600101:1 3600102:1 3600103:1 3600104:1 3600105:1 3600106:-1 3600107:-1 3600108:-1 3600109:-1 3600110:-1 3600111:-1 3600112:1 3600113:1 3600114:1 3600115:1 3600116:1 3600117:1 3600118:-1 3600119:-1 3600120:-1 3600121:-1 3600122:-1 3600123:-1 3600124:-1 3600125:-1 3600126:-1 3600127:-1 3700091:-1 3700092:-1 3700093:-1 3700094:-1 3700095:-1 3700096:-1 3700097:-1 3700098:-1 3700099:1 3700100:1 3700101:1 3700102:1 3700103:1 3700104:1 3700105:1 3700106:-1 3700107:-1 3700108:-1 3700109:-1 3700110:-1 3700111:-1 3700112:1 3700113:1 3700114:1 3700115:1 3700116:1 3700117:1 3700118:-1 3700119:-1 3700120:-1 3700121:-1 3700122:-1 3700123:-1 3700124:-1 3700125:-1 3700126:-1 3700127:-1 3800091:-1 3800092:-1 3800093:-1 3800094:-1 3800095:-1 3800096:-1 3800097:-1 3800098:-1 3800099:-1 3800100:1 3800101:1 3800102:1 3800103:1 3800104:1 3800105:1 3800106:-1 3800107:-1 3800108:-1 3800109:-1 3800110:-1 3800111:-1 3800112:1 3800113:1 3800114:1 3800115:1 3800116:1 3800117:1 3800118:-1 3800119:-1 3800120:-1 3800121:-1 3800122:-1 3800123:-1 3800124:-1 3800125:-1 3800126:-1 3800127:-1 3900091:-1 3900092:-1 3900093:-1 3900094:-1 3900095:-1 3900096:-1 3900097:-1 3900098:-1 3900099:-1 3900100:1 3900101:1 3900102:1 3900103:1 3900104:1 3900105:1 3900106:1 3900107:-1 3900108:-1 3900109:-1 3900110:-1 3900111:1 3900112:1 3900113:1 3900114:1 3900115:1 3900116:1 3900117:1 3900118:-1 3900119:-1 3900120:-1 3900121:-1 3900122:-1 3900123:-1 3900124:-1 3900125:-1 3900126:-1 3900127:-1 4000091:-1 4000092:-1 4000093:-1 4000094:-1 4000095:-1 4000096:-1 4000097:-1 4000098:-1 4000099:-1 4000100:1 4000101:1 4000102:1 4000103:1 4000104:1 4000105:1 4000106:1 4000107:-1 4000108:-1 4000109:-1 4000110:-1 4000111:1 4000112:1 4000113:1 4000114:1 4000115:1 4000116:1 4000117:-1 4000118:-1 4000119:-1 4000120:-1 4000121:-1 4000122:-1 4000123:-1 4000124:-1 4000125:-1 4000126:-1 4000127:-1 4100092:-1 4100093:-1 4100094:-1 4100095:-1 4100096:-1 4100097:-1 4100098:-1 4100099:-1 4100100:1 4100101:1 4100102:1 4100103:1 4100104:1 4100105:1 4100106:1 4100107:-1 4100108:-1 4100109:-1 4100110:-1 4100111:1 4100112:1 4100113:1 4100114:1 4100115:1 4100116:1 4100117:-1 4100118:-1 4100119:-1 4100120:-1 4100121:-1 4100122:-1 4100123:-1 4100124:-1 4100125:-1 4100126:-1 4100127:-1 4200092:-1 4200093:-1 4200094:-1 4200095:-1 4200096:-1 4200097:-1 4200098:-1 4200099:-1 4200100:-1 4200101:1 4200102:1 4200103:1 4200104:1 4200105:1 4200106:1 4200107:1 4200108:-1 4200109:-1 4200110:1 4200111:1 4200112:1 4200113:1 4200114:1 4200115:1 4200116:1 4200117:-1 4200118:-1 4200119:-1 4200120:-1 4200121:-1 4200122:-1 4200123:-1 4200124:-1 4200125:-1 4200126:-1 4200127:-1 4300092:-1 4300093:-1 4300094:-1 4300095:-1 4300096:-1 4300097:-1 4300098:-1 4300099:-1 4300100:-1 4300101:1 4300102:1 4300103:1 4300104:1 4300105:1 4300106:1 4300107:1 4300108:-1 4300109:-1 4300110:1 4300111:1 4300112:1 4300113:1 4300114:1 4300115:1 4300116:-1 4300117:-1 4300118:-1 4300119:-1 4300120:-1 4300121:-1 4300122:-1 4300123:-1 4300124:-1 4300125:-1 4300126:-1 4300127:-1 4400092:-1 4400093:-1 4400094:-1 4400095:-1 4400096:-1 4400097:-1 4400098:-1 4400099:-1 4400100:-1 4400101:1 4400102:1 4400103:1 4400104:1 4400105:1 4400106:1 4400107:1 4400108:-1 4400109:-1 4400110:1 4400111:1 4400112:1 4400113:1 4400114:1 4400115:1 4400116:-1 4400117:-1 4400118:-1 4400119:-1 4400120:-1 4400121:-1 4400122:-1 4400123:-1 4400124:-1 4400125:-1 4400126:-1 4400127:-1 4500093:-1 4500094:-1 4500095:-1 4500096:-1 4500097:-1 4500098:-1 4500099:-1 4500100:-1 4500101:-1 4500102:1 4500103:1 4500104:1 4500105:1 4500106:1 4500107:1 4500108:-1 4500109:1 4500110:1 4500111:1 4500112:1 4500113:1 4500114:1 4500115:1 4500116:-1 4500117:-1 4500118:-1 4500119:-1 4500120:-1 4500121:-1 4500122:-1 4500123:-1 4500124:-1 4500125:-1 4500126:-1 4500127:-1 4600093:-1 4600094:-1 4600095:-1 4600096:-1 4600097:-1 4600098:-1 4600099:-1 4600100:-1 4600101:-1 4600102:1 4600103:1 4600104:1 4600105:1 4600106:1 4600107:1 4600108:1 4600109:1 4600110:1 4600111:1 4600112:1 4600113:1 4600114:1 4600115:-1 4600116:-1 4600117:-1 4600118:-1 4600119:-1 4600120:-1 4600121:-1 4600122:-1 4600123:-1 4600124:-1 4600125:-1 4600126:-1 4600127:-1 4700093:-1 4700094:-1 4700095:-1 4700096:-1 4700097:-1 4700098:-1 4700099:-1 4700100:-1 4700101:-1 4700102:1 4700103:1 4700104:1 4700105:1 4700106:1 4700107:1 4700108:1 4700109:1 4700110:1 4700111:1 4700112:1 4700113:1 4700114:1 4700115:-1 4700116:-1 4700117:-1 4700118:-1 4700119:-1 4700120:-1 4700121:-1 4700122:-1 4700123:-1 4700124:-1 4700125:-1 4700126:-1 4700127:-1 4800093:-1 4800094:-1 4800095:-1 4800096:-1 4800097:-1 4800098:-1 4800099:-1 4800100:-1 4800101:-1 4800102:-1 4800103:1 4800104:1 4800105:1 4800106:1 4800107:1 4800108:1 4800109:1 4800110:1 4800111:1 4800112:1 4800113:1 4800114:1 4800115:-1 4800116:-1 4800117:-1 4800118:-1 4800119:-1 4800120:-1 4800121:-1 4800122:-1 4800123:-1 4800124:-1 4800125:-1 4800126:-1 4800127:-1 4900093:-1 4900094:-1 4900095:-1 4900096:-1 4900097:-1 4900098:-1 4900099:-1 4900100:-1 4900101:-1 4900102:-1 4900103:1 4900104:1 4900105:1 4900106:1 4900107:1 4900108:1 4900109:1 4900110:1 4900111:1 4900112:1 4900113:1 4900114:-1 4900115:-1 4900116:-1 4900117:-1 4900118:-1 4900119:-1 4900120:-1 4900121:-1 4900122:-1 4900123:-1 4900124:-1 4900125:-1 4900126:-1 4900127:-1 5000093:-1 5000094:-1 5000095:-1 5000096:-1 5000097:-1 5000098:-1 5000099:-1 5000100:-1 5000101:-1 5000102:-1 5000103:1 5000104:1 5000105:1 5000106:1 5000107:1 5000108:1 5000109:1 5000110:1 5000111:1 5000112:1 5000113:1 5000114:-1 5000115:-1 5000116:-1 5000117:-1 5000118:-1 5000119:-1 5000120:-1 5000121:-1 5000122:-1 5000123:-1 5000124:-1 5000125:-1 5000126:-1 5000127:-1 5100093:-1 5100094:-1 5100095:-1 5100096:-1 5100097:-1 5100098:-1 5100099:-1 5100100:-1 5100101:-1 5100102:-1 5100103:-1 5100104:1 5100105:1 5100106:1 5100107:1 5100108:1 5100109:1 5100110:1 5100111:1 5100112:1 5100113:-1 5100114:-1 5100115:-1 5100116:-1 5100117:-1 5100118:-1 5100119:-1 5100120:-1 5100121:-1 5100122:-1 5100123:-1 5100124:-1 5100125:-1 5100126:-1 5100127:-1 5200094:-1 5200095:-1 5200096:-1 5200097:-1 5200098:-1 5200099:-1 5200100:-1 5200101:-1 5200102:-1 5200103:-1 5200104:1 5200105:1 5200106:1 5200107:1 5200108:1 5200109:1 5200110:1 5200111:1 5200112:1 5200113:-1 5200114:-1 5200115:-1 5200116:-1 5200117:-1 5200118:-1 5200119:-1 5200120:-1 5200121:-1 5200122:-1 5200123:-1 5200124:-1 5200125:-1 5200126:-1 5200127:-1 5300094:-1 5300095:-1 5300096:-1 5300097:-1 5300098:-1 5300099:-1 5300100:-1 5300101:-1 5300102:-1 5300103:-1 5300104:1 5300105:1 5300106:1 5300107:1 5300108:1 5300109:1 5300110:1 5300111:1 5300112:1 5300113:-1 5300114:-1 5300115:-1 5300116:-1 5300117:-1 5300118:-1 5300119:-1 5300120:-1 5300121:-1 5300122:-1 5300123:-1 5300124:-1 5300125:-1 5300126:-1 5300127:-1 5400093:-1 5400094:-1 5400095:-1 5400096:-1 5400097:-1 5400098:-1 5400099:-1 5400100:-1 5400101:-1 5400102:-1 5400103:-1 5400104:1 5400105:1 5400106:1 5400107:1 5400108:1 5400109:1 5400110:1 5400111:1 5400112:-1 5400113:-1 5400114:-1 5400115:-1 5400116:-1 5400117:-1 5400118:-1 5400119:-1 5400120:-1 5400121:-1 5400122:-1 5400123:-1 5400124:-1 5400125:-1 5400126:-1 5400127:-1 5500093:-1 5500094:-1 5500095:-1 5500096:-1 5500097:-1 5500098:-1 5500099:-1 5500100:-1 5500101:-1 5500102:-1 5500103:-1 5500104:-1 5500105:1 5500106:1 5500107:1 5500108:1 5500109:1 5500110:1 5500111:1 5500112:-1 5500113:-1 5500114:-1 5500115:-1 5500116:-1 5500117:-1 5500118:-1 5500119:-1 5500120:-1 5500121:-1 5500122:-1 5500123:-1 5500124:-1 5500125:-1 5500126:-1 5500127:-1 5600094:-1 5600095:-1 5600096:-1 5600097:-1 5600098:-1 5600099:-1 5600100:-1 5600101:-1 5600102:-1 5600103:-1 5600104:-1 5600105:-1 5600106:-1 5600107:-1 5600108:-1 5600109:-1 5600110:-1 5600111:-1 5600112:-1 5600113:-1 5600114:-1 5600115:-1 5600116:-1 5600117:-1 5600118:-1 5600119:-1 5600120:-1 5600121:-1 5600122:-1 5600123:-1 5600124:-1 5600125:-1 5600126:-1 5600127:-1 5700098:-1 5700099:-1 5700100:-1 5700101:-1 5700102:-1 5700103:-1 
2.609061019275352 4.312212812852987 3.468054941126091 2.825687176849282 2.90719901500644 1.880380102578123 2.111523607999003 1.879976344094955 2.224314195722665 3.551467546550752 2.734326629379297 3.358815510918426 1.977667920162103 2.340740300042018 1.834630676030153 3.411892169770909 3.792791256755915 0.7136476152059039 1.529868773256921 2.376657941948389 2.238610152434804 2.542980066730844 2.35142645353251 3.20922285039824 2.424115790427356 0.990764293440127 3.675127263370201 3.477787960127894 2.462172525065234 2.926553974025084 1.972826614653893 1.999471304859137 1.852447900562353 1.728788305620742 2.452671057685462 2.362561318690962 3.518760488153704 2.33069640971913 1.405270877470485 3.770614334763597 3.47373557972138 4.255822355110068 2.947080934438291 2.42524466294527 2.821970792756293 3.148942762345154 3.003846382952709 2.09216799034892 2.00212779697919 2400095:-1 2400096:-1 2400097:-1 2400098:-1 2400099:-1 2400100:-1 2400101:-1 2400102:-1 2400103:-1 2400104:-1 2400105:-1 2400106:-1 2400107:-1 2400108:-1 2400109:-1 2400110:-1 2400111:-1 2400112:-1 2400113:-1 2400114:-1 2400115:-1 2400116:-1 2400117:-1 2400118:-1 2400119:-1 2400120:-1 2400122:-1 2500088:-1 2500089:-1 2500090:-1 2500091:-1 2500092:-1 2500093:-1 2500094:-1 2500095:1 2500096:1 2500097:1 2500098:-1 2500099:-1 2500100:-1 2500101:-1 2500102:-1 2500103:-1 2500104:-1 2500105:-1 2500106:-1 2500107:-1 2500108:-1 2500109:-1 2500110:-1 2500111:-1 2500112:-1 2500113:-1 2500114:-1 2500115:-1 2500116:-1 2500117:-1 2500118:-1 2500119:-1 2500120:-1 2500121:-1 2500122:-1 2500123:-1 2500124:-1 2500125:-1 2500126:-1 2500127:-1 2600088:-1 2600089:-1 2600090:-1 2600091:-1 2600092:-1 2600093:-1 2600094:1 2600095:1 2600096:1 2600097:1 2600098:1 2600099:1 2600100:1 2600101:-1 2600102:-1 2600103:-1 2600104:-1 2600105:-1 2600106:-1 2600107:-1 2600108:-1 2600109:-1 2600110:-1 2600111:-1 2600112:-1 2600113:-1 2600114:1 2600115:1 2600116:1 2600117:1 2600118:1 2600119:1 2600120:1 2600121:-1 2600122:-1 2600123:-1 2600124:-1 2600125:-1 2600126:-1 2600127:-1 2700088:-1 2700089:-1 2700090:-1 2700091:-1 2700092:-1 2700093:-1 2700094:-1 2700095:1 2700096:1 2700097:1 2700098:1 2700099:1 2700100:1 2700101:-1 2700102:-1 2700103:-1 2700104:-1 2700105:-1 2700106:-1 2700107:-1 2700108:-1 2700109:-1 2700110:-1 2700111:-1 2700112:-1 2700113:-1 2700114:1 2700115:1 2700116:1 2700117:1 2700118:1 2700119:1 2700120:1 2700121:-1 2700122:-1 2700123:-1 2700124:-1 2700125:-1 2700126:-1 2700127:-1 2800088:-1 2800089:-1 2800090:-1 2800091:-1 2800092:-1 2800093:-1 2800094:-1 2800095:1 2800096:1 2800097:1 2800098:1 2800099:1 2800100:1 2800101:-1 2800102:-1 2800103:-1 2800104:-1 2800105:-1 2800106:-1 2800107:-1 2800108:-1 2800109:-1 2800110:-1 2800111:-1 2800112:-1 2800113:1 2800114:1 2800115:1 2800116:1 2800117:1 2800118:1 2800119:1 2800120:-1 2800121:-1 2800122:-1 2800123:-1 2800124:-1 2800125:-1 2800126:-1 2800127:-1 2900089:-1 2900090:-1 2900091:-1 2900092:-1 2900093:-1 2900094:-1 2900095:1 2900096:1 2900097:1 2900098:1 2900099:1 2900100:1 2900101:1 2900102:-1 2900103:-1 2900104:-1 2900105:-1 2900106:-1 2900107:-1 2900108:-1 2900109:-1 2900110:-1 2900111:-1 2900112:-1 2900113:1 2900114:1 2900115:1 2900116:1 2900117:1 2900118:1 2900119:1 2900120:-1 2900121:-1 2900122:-1 2900123:-1 2900124:-1 2900125:-1 2900126:-1 2900127:-1 3000089:-1 3000090:-1 3000091:-1 3000092:-1 3000093:-1 3000094:-1 3000095:-1 3000096:1 3000097:1 3000098:1 3000099:1 3000100:1 3000101:1 3000102:-1 3000103:-1 3000104:-1 3000105:-1 3000106:-1 3000107:-1 3000108:-1 3000109:-1 3000110:-1 3000111:-1 3000112:-1 3000113:1 3000114:1 3000115:1 3000116:1 3000117:1 3000118:1 3000119:1 3000120:-1 3000121:-1 3000122:-1 3000123:-1 3000124:-1 3000125:-1 3000126:-1 3000127:-1 3100089:-1 3100090:-1 3100091:-1 3100092:-1 3100093:-1 3100094:-1 3100095:-1 3100096:1 3100097:1 3100098:1 3100099:1 3100100:1 3100101:1 3100102:-1 3100103:-1 3100104:-1 3100105:-1 3100106:-1 3100107:-1 3100108:-1 3100109:-1 3100110:-1 3100111:-1 3100112:-1 3100113:1 3100114:1 3100115:1 3100116:1 3100117:1 3100118:1 3100119:-1 3100120:-1 3100121:-1 3100122:-1 3100123:-1 3100124:-1 3100125:-1 3100126:-1 3100127:-1 3200090:-1 3200091:-1 3200092:-1 3200093:-1 3200094:-1 3200095:-1 3200096:1 3200097:1 3200098:1 3200099:1 3200100:1 3200101:1 3200102:1 3200103:-1 3200104:-1 3200105:-1 3200106:-1 3200107:-1 3200108:-1 3200109:-1 3200110:-1 3200111:-1 3200112:1 3200113:1 3200114:1 3200115:1 3200116:1 3200117:1 3200118:1 3200119:-1 3200120:-1 3200121:-1 3200122:-1 3200123:-1 3200124:-1 3200125:-1 3200126:-1 3200127:-1 3300090:-1 3300091:-1 3300092:-1 3300093:-1 3300094:-1 3300095:-1 3300096:-1 3300097:1 3300098:1 3300099:1 3300100:1 3300101:1 3300102:1 3300103:-1 3300104:-1 3300105:-1 3300106:-1 3300107:-1 3300108:-1 3300109:-1 3300110:-1 3300111:-1 3300112:1 3300113:1 3300114:1 3300115:1 3300116:1 3300117:1 3300118:1 3300119:-1 3300120:-1 3300121:-1 3300122:-1 3300123:-1 3300124:-1 3300125:-1 3300126:-1 3300127:-1 3400090:-1 3400091:-1 3400092:-1 3400093:-1 3400094:-1 3400095:-1 3400096:-1 3400097:1 3400098:1 3400099:1 3400100:1 3400101:1 3400102:1 3400103:-1 3400104:-1 3400105:-1 3400106:-1 3400107:-1 3400108:-1 3400109:-1 3400110:-1 3400111:-1 3400112:1 3400113:1 3400114:1 3400115:1 3400116:1 3400117:1 3400118:-1 3400119:-1 3400120:-1 3400121:-1 3400122:-1 3400123:-1 3400124:-1 3400125:-1 3400126:-1 3400127:-1 3500090:-1 3500091:-1 3500092:-1 3500093:-1 3500094:-1 3500095:-1 3500096:-1 3500097:1 3500098:1 3500099:1 3500100:1 3500101:1 3500102:1 3500103:1 3500104:-1 3500105:-1 3500106:-1 3500107:-1 3500108:-1 3500109:-1 3500110:-1 3500111:1 3500112:1 3500113:1 3500114:1 3500115:1 3500116:1 3500117:1 3500118:-1 3500119:-1 3500120:-1 3500121:-1 3500122:-1 3500123:-1 3500124:-1 3500125:-1 3500126:-1 3500127:-1 3600090:-1 3600091:-1 3600092:-1 3600093:-1 3600094:-1 3600095:-1 3600096:-1 3600097:1 3600098:1 3600099:1 3600100:1 3600101:1 3600102:1 3600103:1 3600104:-1 3600105:-1 3600106:-1 3600107:-1 3600108:-1 3600109:-1 3600110:-1 3600111:1 3600112:1 3600113:1 3600114:1 3600115:1 3600116:1 3600117:1 3600118:-1 3600119:-1 3600120:-1 3600121:-1 3600122:-1 3600123:-1 3600124:-1 3600125:-1 3600126:-1 3600127:-1 3700091:-1 3700092:-1 3700093:-1 3700094:-1 3700095:-1 3700096:-1 3700097:-1 3700098:1 3700099:1 3700100:1 3700101:1 3700102:1 3700103:1 3700104:-1 3700105:-1 3700106:-1 3700107:-1 3700108:-1 3700109:-1 3700110:-1 3700111:1 3700112:1 3700113:1 3700114:1 3700115:1 3700116:1 3700117:1 3700118:-1 3700119:-1 3700120:-1 3700121:-1 3700122:-1 3700123:-1 3700124:-1 3700125:-1 3700126:-1 3700127:-1 3800091:-1 3800092:-1 3800093:-1 3800094:-1 3800095:-1 3800096:-1 3800097:-1 3800098:1 3800099:1 3800100:1 3800101:1 3800102:1 3800103:1 3800104:1 3800105:-1 3800106:-1 3800107:-1 3800108:-1 3800109:-1 3800110:-1 3800111:1 3800112:1 3800113:1 3800114:1 3800115:1 3800116:1 3800117:-1 3800118:-1 3800119:-1 3800120:-1 3800121:-1 3800122:-1 3800123:-1 3800124:-1 3800125:-1 3800126:-1 3800127:-1 3900091:-1 3900092:-1 3900093:-1 3900094:-1 3900095:-1 3900096:-1 3900097:-1 3900098:1 3900099:1 3900100:1 3900101:1 3900102:1 3900103:1 3900104:1 3900105:-1 3900106:-1 3900107:-1 3900108:-1 3900109:-1 3900110:1 3900111:1 3900112:1 3900113:1 3900114:1 3900115:1 3900116:1 3900117:-1 3900118:-1 3900119:-1 3900120:-1 3900121:-1 3900122:-1 3900123:-1 3900124:-1 3900125:-1 3900126:-1 3900127:-1 4000091:-1 4000092:-1 4000093:-1 4000094:-1 4000095:-1 4000096:-1 4000097:-1 4000098:-1 4000099:1 4000100:1 4000101:1 4000102:1 4000103:1 4000104:1 4000105:-1 4000106:-1 4000107:-1 4000108:-1 4000109:-1 4000110:1 4000111:1 4000112:1 4000113:1 4000114:1 4000115:1 4000116:1 4000117:-1 4000118:-1 4000119:-1 4000120:-1 4000121:-1 4000122:-1 4000123:-1 4000124:-1 4000125:-1 4000126:-1 4000127:-1 4100092:-1 4100093:-1 4100094:-1 4100095:-1 4100096:-1 4100097:-1 4100098:-1 4100099:1 4100100:1 4100101:1 4100102:1 4100103:1 4100104:1 4100105:1 4100106:-1 4100107:-1 4100108:-1 4100109:-1 4100110:1 4100111:1 4100112:1 4100113:1 4100114:1 4100115:1 4100116:1 4100117:-1 4100118:-1 4100119:-1 4100120:-1 4100121:-1 4100122:-1 4100123:-1 4100124:-1 4100125:-1 4100126:-1 4100127:-1 4200092:-1 4200093:-1 4200094:-1 4200095:-1 4200096:-1 4200097:-1 4200098:-1 4200099:1 4200100:1 4200101:1 4200102:1 4200103:1 4200104:1 4200105:1 4200106:-1 4200107:-1 4200108:-1 4200109:1 4200110:1 4200111:1 4200112:1 4200113:1 4200114:1 4200115:1 4200116:-1 4200117:-1 4200118:-1 4200119:-1 4200120:-1 4200121:-1 4200122:-1 4200123:-1 4200124:-1 4200125:-1 4200126:-1 4200127:-1 4300092:-1 4300093:-1 4300094:-1 4300095:-1 4300096:-1 4300097:-1 4300098:-1 4300099:-1 4300100:1 4300101:1 4300102:1 4300103:1 4300104:1 4300105:1 4300106:-1 4300107:-1 4300108:-1 4300109:1 4300110:1 4300111:1 4300112:1 4300113:1 4300114:1 4300115:1 4300116:-1 4300117:-1 4300118:-1 4300119:-1 4300120:-1 4300121:-1 4300122:-1 4300123:-1 4300124:-1 4300125:-1 4300126:-1 4300127:-1 4400092:-1 4400093:-1 4400094:-1 4400095:-1 4400096:-1 4400097:-1 4400098:-1 4400099:-1 4400100:1 4400101:1 4400102:1 4400103:1 4400104:1 4400105:1 4400106:1 4400107:-1 4400108:-1 4400109:1 4400110:1 4400111:1 4400112:1 4400113:1 4400114:1 4400115:1 4400116:-1 4400117:-1 4400118:-1 4400119:-1 4400120:-1 4400121:-1 4400122:-1 4400123:-1 4400124:-1 4400125:-1 4400126:-1 4400127:-1 4500093:-1 4500094:-1 4500095:-1 4500096:-1 4500097:-1 4500098:-1 4500099:-1 4500100:1 4500101:1 4500102:1 4500103:1 4500104:1 4500105:1 4500106:1 4500107:-1 4500108:1 4500109:1 4500110:1 4500111:1 4500112:1 4500113:1 4500114:1 4500115:-1 4500116:-1 4500117:-1 4500118:-1 4500119:-1 4500120:-1 4500121:-1 4500122:-1 4500123:-1 4500124:-1 4500125:-1 4500126:-1 4500127:-1 4600093:-1 4600094:-1 4600095:-1 4600096:-1 4600097:-1 4600098:-1 4600099:-1 4600100:-1 4600101:1 4600102:1 4600103:1 4600104:1 4600105:1 4600106:1 4600107:1 4600108:1 4600109:1 4600110:1 4600111:1 4600112:1 4600113:1 4600114:1 4600115:-1 4600116:-1 4600117:-1 4600118:-1 4600119:-1 4600120:-1 4600121:-1 4600122:-1 4600123:-1 4600124:-1 4600125:-1 4600126:-1 4600127:-1 4700093:-1 4700094:-1 4700095:-1 4700096:-1 4700097:-1 4700098:-1 4700099:-1 4700100:-1 4700101:1 4700102:1 4700103:1 4700104:1 4700105:1 4700106:1 4700107:1 4700108:1 4700109:1 4700110:1 4700111:1 4700112:1 4700113:1 4700114:1 4700115:-1 4700116:-1 4700117:-1 4700118:-1 4700119:-1 4700120:-1 4700121:-1 4700122:-1 4700123:-1 4700124:-1 4700125:-1 4700126:-1 4700127:-1 4800093:-1 4800094:-1 4800095:-1 4800096:-1 4800097:-1 4800098:-1 4800099:-1 4800100:-1 4800101:1 4800102:1 4800103:1 4800104:1 4800105:1 4800106:1 4800107:1 4800108:1 4800109:1 4800110:1 4800111:1 4800112:1 4800113:1 4800114:-1 4800115:-1 4800116:-1 4800117:-1 4800118:-1 4800119:-1 4800120:-1 4800121:-1 4800122:-1 4800123:-1 4800124:-1 4800125:-1 4800126:-1 4800127:-1 4900093:-1 4900094:-1 4900095:-1 4900096:-1 4900097:-1 4900098:-1 4900099:-1 4900100:-1 4900101:-1 4900102:1 4900103:1 4900104:1 4900105:1 4900106:1 4900107:1 4900108:1 4900109:1 4900110:1 4900111:1 4900112:1 4900113:1 4900114:-1 4900115:-1 4900116:-1 4900117:-1 4900118:-1 4900119:-1 4900120:-1 4900121:-1 4900122:-1 4900123:-1 4900124:-1 4900125:-1 4900126:-1 4900127:-1 5000093:-1 5000094:-1 5000095:-1 5000096:-1 5000097:-1 5000098:-1 5000099:-1 5000100:-1 5000101:-1 5000102:1 5000103:1 5000104:1 5000105:1 5000106:1 5000107:1 5000108:1 5000109:1 5000110:1 5000111:1 5000112:1 5000113:1 5000114:-1 5000115:-1 5000116:-1 5000117:-1 5000118:-1 5000119:-1 5000120:-1 5000121:-1 5000122:-1 5000123:-1 5000124:-1 5000125:-1 5000126:-1 5000127:-1 5100093:-1 5100094:-1 5100095:-1 5100096:-1 5100097:-1 5100098:-1 5100099:-1 5100100:-1 5100101:-1 5100102:1 5100103:1 5100104:1 5100105:1 5100106:1 5100107:1 5100108:1 5100109:1 5100110:1 5100111:1 5100112:1 5100113:-1 5100114:-1 5100115:-1 5100116:-1 5100117:-1 5100118:-1 5100119:-1 5100120:-1 5100121:-1 5100122:-1 5100123:-1 5100124:-1 5100125:-1 5100126:-1 5100127:-1 5200094:-1 5200095:-1 5200096:-1 5200097:-1 5200098:-1 5200099:-1 5200100:-1 5200101:-1 5200102:-1 5200103:1 5200104:1 5200105:1 5200106:1 5200107:1 5200108:1 5200109:1 5200110:1 5200111:1 5200112:1 5200113:-1 5200114:-1 5200115:-1 5200116:-1 5200117:-1 5200118:-1 5200119:-1 5200120:-1 5200121:-1 5200122:-1 5200123:-1 5200124:-1 5200125:-1 5200126:-1 5200127:-1 5300094:-1 5300095:-1 5300096:-1 5300097:-1 5300098:-1 5300099:-1 5300100:-1 5300101:-1 5300102:-1 5300103:1 5300104:1 5300105:1 5300106:1 5300107:1 5300108:1 5300109:1 5300110:1 5300111:1 5300112:-1 5300113:-1 5300114:-1 5300115:-1 5300116:-1 5300117:-1 5300118:-1 5300119:-1 5300120:-1 5300121:-1 5300122:-1 5300123:-1 5300124:-1 5300125:-1 5300126:-1 5300127:-1 5400093:-1 5400094:-1 5400095:-1 5400096:-1 5400097:-1 5400098:-1 5400099:-1 5400100:-1 5400101:-1 5400102:-1 5400103:1 5400104:1 5400105:1 5400106:1 5400107:1 5400108:1 5400109:1 5400110:1 5400111:1 5400112:-1 5400113:-1 5400114:-1 5400115:-1 5400116:-1 5400117:-1 5400118:-1 5400119:-1 5400120:-1 5400121:-1 5400122:-1 5400123:-1 5400124:-1 5400125:-1 5400126:-1 5400127:-1 5500093:-1 5500094:-1 5500095:-1 5500096:-1 5500097:-1 5500098:-1 5500099:-1 5500100:-1 5500101:-1 5500102:-1 5500103:-1 5500104:1 5500105:1 5500106:1 5500107:1 5500108:1 5500109:1 5500110:1 5500111:1 5500112:-1 5500113:-1 5500114:-1 5500115:-1 5500116:-1 5500117:-1 5500118:-1 5500119:-1 5500120:-1 5500121:-1 5500122:-1 5500123:-1 5500124:-1 5500125:-1 5500126:-1 5500127:-1 5600094:-1 5600095:-1 5600096:-1 5600097:-1 5600098:-1 5600099:-1 5600100:-1 5600101:-1 5600102:-1 5600103:-1 5600104:-1 5600105:-1 5600106:-1 5600107:-1 5600108:-1 5600109:-1 5600110:-1 5600111:-1 5600112:-1 5600113:-1 5600114:-1 5600115:-1 5600116:-1 5600117:-1 5600118:-1 5600119:-1 5600120:-1 5600121:-1 5600122:-1 5600123:-1 5600124:-1 5600125:-1 5600126:-1 5600127:-1 5700098:-1 5700099:-1 5700100:-1 5700101:-1 5700102:-1 5700103:-1 
