svm_type c_svc
kernel_type rbf
gamma 0.0078125
nr_class 50
total_sv 142
rho 0 0 0 0 0 0 0 0 0 0 0 0 0 0 0 0 0 0 0 0 0 0 0 0 0 0 0 0 0 0 0 0 0 0 0 0 0 0 0 0 0 0 0 0 0 0 0 0 -0.500001 0 0 0 0 0 0 0 0 0 0 0 0 0 0 0 0 0 0 0 0 0 0 0 0 0 0 0 0 0 0 0 0 0 0 0 0 0 0 0 0 0 0 0 0 0 0 0 -0.500002 0 0 0 0 0 0 0 0 0 0 0 0 0 0 0 0 0 0 0 0 0 0 0 0 0 0 0 0 0 0 0 0 0 0 0 0 0 0 0 0 0 0 0 0 0 0 -0.500014 0 0 0 0 0 0 0 0 0 0 0 0 0 0 0 0 0 0 0 0 0 0 0 0 0 0 0 0 0 0 0 0 0 0 0 0 0 0 0 0 0 0 0 0 0 -0.5 0 0 0 0 0 0 0 0 0 0 0 0 0 0 0 0 0 0 0 0 0 0 0 0 0 0 0 0 0 0 0 0 0 0 0 0 0 0 0 0 0 0 0 0 -0.500062 0 0 0 0 0 0 0 0 0 0 0 0 0 0 0 0 0 0 0 0 0 0 0 0 0 0 0 0 0 0 0 0 0 0 0 0 0 0 0 0 0 0 0 -0.500015 0 0 0 0 0 0 0 0 0 0 0 0 0 0 0 0 0 0 0 0 0 0 0 0 0 0 0 0 0 0 0 0 0 0 0 0 0 0 0 0 0 0 -0.500012 0 0 0 0 0 0 0 0 0 0 0 0 0 0 0 0 0 0 0 0 0 0 0 0 0 0 0 0 0 0 0 0 0 0 0 0 0 0 0 0 0 -0.500001 0 0 0 0 0 0 0 0 0 0 0 0 0 0 0 0 0 0 0 0 0 0 0 0 0 0 0 0 0 0 0 0 0 0 0 0 0 0 0 0 -0.500011 0 0 0 0 0 0 0 0 0 0 0 0 0 0 0 0 0 0 0 0 0 0 0 0 0 0 0 0 0 0 0 0 0 0 0 0 0 0 0 -0.500163 0 0 0 0 0 0 0 0 0 0 0 0 0 0 0 0 0 0 0 0 0 0 0 0 0 0 0 0 0 0 0 0 0 0 0 0 0 0 -0.500001 0 0 0 0 0 0 0 0 0 0 0 0 0 0 0 0 0 0 0 0 0 0 0 0 0 0 0 0 0 0 0 0 0 0 0 0 0 -0.500028 0 0 0 0 0 0 0 0 0 0 0 0 0 0 0 0 0 0 0 0 0 0 0 0 0 0 0 0 0 0 0 0 0 0 0 0 -0.5 0 0 0 0 0 0 0 0 0 0 0 0 0 0 0 0 0 0 0 0 0 0 0 0 0 0 0 0 0 0 0 0 0 0 0 -0.500068 0 0 0 0 0 0 0 0 0 0 0 0 0 0 0 0 0 0 0 0 0 0 0 0 0 0 0 0 0 0 0 0 0 0 -0.500006 0 0 0 0 0 0 0 0 0 0 0 0 0 0 0 0 0 0 0 0 0 0 0 0 0 0 0 0 0 0 0 0 0 -0.500019 0 0 0 0 0 0 0 0 0 0 0 0 0 0 0 0 0 0 0 0 0 0 0 0 0 0 0 0 0 0 0 0 -0.500014 0 0 0 0 0 0 0 0 0 0 0 0 0 0 0 0 0 0 0 0 0 0 0 0 0 0 0 0 0 0 0 -0.500002 0 0 0 0 0 0 0 0 0 0 0 0 0 0 0 0 0 0 0 0 0 0 0 0 0 0 0 0 0 0 -0.5008 0 0 0 0 0 0 0 0 0 0 0 0 0 0 0 0 0 0 0 0 0 0 0 0 0 0 0 0 0 -0.500005 0 0 0 0 0 0 0 0 0 0 0 0 0 0 0 0 0 0 0 0 0 0 0 0 0 0 0 0 -0.5 0 0 0 0 0 0 0 0 0 0 0 0 0 0 0 0 0 0 0 0 0 0 0 0 0 0 0 -0.500035 0 0 0 0 0 0 0 0 0 0 0 0 0 0 0 0 0 0 0 0 0 0 0 0 0 0 -0.500304 0 0 0 0 0 0 0 0 0 0 0 0 0 0 0 0 0 0 0 0 0 0 0 0 0 -0.500304 0 0 0 0 0 0 0 0 0 0 0 0 0 0 0 0 0 0 0 0 0 0 0 0 -0.50001 0 0 0 0 0 0 0 0 0 0 0 0 0 0 0 0 0 0 0 0 0 0 0 -0.500002 0 0 0 0 0 0 0 0 0 0 0 0 0 0 0 0 0 0 0 0 0 0 -0.5 0 0 0 0 0 0 0 0 0 0 0 0 0 0 0 0 0 0 0 0 0 -0.500014 0 0 0 0 0 0 0 0 0 0 0 0 0 0 0 0 0 0 0 0 -0.500009 0 0 0 0 0 0 0 0 0 0 0 0 0 0 0 0 0 0 0 -0.500035 0 0 0 0 0 0 0 0 0 0 0 0 0 0 0 0 0 0 -0.500023 0 0 0 0 0 0 0 0 0 0 0 0 0 0 0 0 0 -0.5 0 0 0 0 0 0 0 0 0 0 0 0 0 0 0 0 -0.500005 0 0 0 0 0 0 0 0 0 0 0 0 0 0 0 -0.500042 0 0 0 0 0 0 0 0 0 0 0 0 0 0 -0.500002 0 0 0 0 0 0 0 0 0 0 0 0 0 -0.500003 0 0 0 0 0 0 0 0 0 0 0 0 -0.5 0 0 0 0 0 0 0 0 0 0 0 -0.500072 0 0 0 0 0 0 0 0 0 0 -0.500019 0 0 0 0 0 0 0 0 0 -0.500005 0 0 0 0 0 0 0 0 -0.500012 0 0 0 0 0 0 0 -0.500093 0 0 0 0 0 0 -0.500001 0 0 0 0 0 -0.5 0 0 0 0 -0.500018 0 0 0 -0.500035 0 0 -0.500036 0 -0.500047 -0.500016
label 55 50 61 43 36 26 6 57 17 35 54 29 40 3 62 37 41 22 48 47 39 10 32 18 30 38 23 4 52 13 24 49 8 11 44 16 59 42 5 14 7 12 56 33 58 31 9 15 28 21
nr_sv 3 3 3 3 3 3 3 3 3 3 3 3 3 3 3 2 3 3 3 2 3 3 3 3 3 3 2 3 3 3 3 2 3 3 3 3 2 3 3 3 3 3 3 2 3 3 3 3 3 1
SV
0 0 0.00103436643188358 0 0 0.001002510482488088 0 0 0 0 0 0 0 0 0 0 0 0 0 0.0009716364661474875 0 0 0 0 0.001287615555406763 0 0.000688798741341659 0 0 0 0 0 0 0 0 0 0 0 0 0.001653935876646883 0 0 0 0 0 0.00205918921964057 0 0 0 2400105:1 2400106:1 2400107:1 2400108:1 2400109:1 2400110:1 2400111:1 2400112:-1 2400113:-1 2500097:-1 2500098:-1 2500099:-1 2500100:-1 2500101:-1 2500102:1 2500103:1 2500104:1 2500105:1 2500106:1 2500107:1 2500108:1 2500109:1 2500110:1 2500111:1 2500112:1 2500113:1 2500114:1 2500115:-1 2500116:-1 2500117:-1 2500118:-1 2500119:-1 2500120:-1 2500121:-1 2500122:-1 2500123:-1 2600095:-1 2600096:-1 2600097:-1 2600098:-1 2600099:-1 2600100:-1 2600101:1 2600102:1 2600103:1 2600104:1 2600105:1 2600106:1 2600107:1 2600108:1 2600109:1 2600110:1 2600111:1 2600112:1 2600113:1 2600114:1 2600115:1 2600116:1 2600117:-1 2600118:-1 2600119:-1 2600120:-1 2600121:-1 2600122:-1 2600123:-1 2600124:-1 2600125:-1 2600126:-1 2700088:-1 2700089:-1 2700090:-1 2700091:-1 2700092:-1 2700093:-1 2700094:-1 2700095:-1 2700096:-1 2700097:-1 2700098:-1 2700099:-1 2700100:1 2700101:1 2700102:1 2700103:1 2700104:1 2700105:1 2700106:1 2700107:1 2700108:1 2700109:1 2700110:1 2700111:1 2700112:1 2700113:1 2700114:1 2700115:1 2700116:1 2700117:1 2700118:-1 2700119:-1 2700120:-1 2700121:-1 2700122:-1 2700123:-1 2700124:-1 2700125:-1 2700126:-1 2700127:-1 2800088:-1 2800089:-1 2800090:-1 2800091:-1 2800092:-1 2800093:-1 2800094:-1 2800095:-1 2800096:-1 2800097:-1 2800098:-1 2800099:1 2800100:1 2800101:1 2800102:1 2800103:1 2800104:1 2800105:1 2800106:1 2800107:1 2800108:1 2800109:1 2800110:1 2800111:1 2800112:1 2800113:1 2800114:1 2800115:1 2800116:1 2800117:1 2800118:1 2800119:-1 2800120:-1 2800121:-1 2800122:-1 2800123:-1 2800124:-1 2800125:-1 2800126:-1 2800127:-1 2900089:-1 2900090:-1 2900091:-1 2900092:-1 2900093:-1 2900094:-1 2900095:-1 2900096:-1 2900097:-1 2900098:1 2900099:1 2900100:1 2900101:1 2900102:1 2900103:1 2900104:1 2900105:1 2900106:1 2900107:1 2900108:-1 2900109:1 2900110:1 2900111:1 2900112:1 2900113:1 2900114:1 2900115:1 2900116:1 2900117:1 2900118:1 2900119:1 2900120:-1 2900121:-1 2900122:-1 2900123:-1 2900124:-1 2900125:-1 2900126:-1 2900127:-1 3000089:-1 3000090:-1 3000091:-1 3000092:-1 3000093:-1 3000094:-1 3000095:-1 3000096:-1 3000097:-1 3000098:1 3000099:1 3000100:1 3000101:1 3000102:1 3000103:1 3000104:1 3000105:-1 3000106:-1 3000107:-1 3000108:-1 3000109:-1 3000110:-1 3000111:-1 3000112:1 3000113:1 3000114:1 3000115:1 3000116:1 3000117:1 3000118:1 3000119:1 3000120:-1 3000121:-1 3000122:-1 3000123:-1 3000124:-1 3000125:-1 3000126:-1 3000127:-1 3100089:-1 3100090:-1 3100091:-1 3100092:-1 3100093:-1 3100094:-1 3100095:-1 3100096:-1 3100097:1 3100098:1 3100099:1 3100100:1 3100101:1 3100102:1 3100103:1 3100104:-1 3100105:-1 3100106:-1 3100107:-1 3100108:-1 3100109:-1 3100110:-1 3100111:-1 3100112:-1 3100113:1 3100114:1 3100115:1 3100116:1 3100117:1 3100118:1 3100119:1 3100120:1 3100121:-1 3100122:-1 3100123:-1 3100124:-1 3100125:-1 3100126:-1 3100127:-1 3200090:-1 3200091:-1 3200092:-1 3200093:-1 3200094:-1 3200095:-1 3200096:-1 3200097:1 3200098:1 3200099:1 3200100:1 3200101:1 3200102:1 3200103:1 3200104:-1 3200105:-1 3200106:-1 3200107:-1 3200108:-1 3200109:-1 3200110:-1 3200111:-1 3200112:-1 3200113:-1 3200114:1 3200115:1 3200116:1 3200117:1 3200118:1 3200119:1 3200120:1 3200121:-1 3200122:-1 3200123:-1 3200124:-1 3200125:-1 3200126:-1 3200127:-1 3300090:-1 3300091:-1 3300092:-1 3300093:-1 3300094:-1 3300095:-1 3300096:-1 3300097:1 3300098:1 3300099:1 3300100:1 3300101:1 3300102:1 3300103:1 3300104:-1 3300105:-1 3300106:-1 3300107:-1 3300108:-1 3300109:-1 3300110:-1 3300111:-1 3300112:-1 3300113:-1 3300114:1 3300115:1 3300116:1 3300117:1 3300118:1 3300119:1 3300120:1 3300121:-1 3300122:-1 3300123:-1 3300124:-1 3300125:-1 3300126:-1 3300127:-1 3400090:-1 3400091:-1 3400092:-1 3400093:-1 3400094:-1 3400095:-1 3400096:-1 3400097:1 3400098:1 3400099:1 3400100:1 3400101:1 3400102:1 3400103:1 3400104:-1 3400105:-1 3400106:-1 3400107:-1 3400108:-1 3400109:-1 3400110:-1 3400111:-1 3400112:-1 3400113:-1 3400114:-1 3400115:-1 3400116:-1 3400117:-1 3400118:-1 3400119:-1 3400120:-1 3400121:-1 3400122:-1 3400123:-1 3400124:-1 3400125:-1 3400126:-1 3400127:-1 3500090:-1 3500091:-1 3500092:-1 3500093:-1 3500094:-1 3500095:-1 3500096:-1 3500097:1 3500098:1 3500099:1 3500100:1 3500101:1 3500102:1 3500103:1 3500104:1 3500105:1 3500106:-1 3500107:-1 3500108:-1 3500109:-1 3500110:-1 3500111:-1 3500112:-1 3500113:-1 3500114:-1 3500115:-1 3500116:-1 3500117:-1 3500118:-1 3500119:-1 3500120:-1 3500121:-1 3500122:-1 3500123:-1 3500124:-1 3500125:-1 3500126:-1 3500127:-1 3600091:-1 3600092:-1 3600093:-1 3600094:-1 3600095:-1 3600096:-1 3600097:-1 3600098:1 3600099:1 3600100:1 3600101:1 3600102:1 3600103:1 3600104:1 3600105:1 3600106:1 3600107:1 3600108:1 3600109:-1 3600110:-1 3600111:-1 3600112:-1 3600113:-1 3600114:-1 3600115:-1 3600116:-1 3600117:-1 3600118:-1 3600119:-1 3600120:-1 3600121:-1 3600122:-1 3600123:-1 3600124:-1 3600125:-1 3600126:-1 3600127:-1 3700091:-1 3700092:-1 3700093:-1 3700094:-1 3700095:-1 3700096:-1 3700097:-1 3700098:1 3700099:1 3700100:1 3700101:1 3700102:1 3700103:1 3700104:1 3700105:1 3700106:1 3700107:1 3700108:1 3700109:1 3700110:1 3700111:1 3700112:1 3700113:-1 3700114:-1 3700115:-1 3700116:-1 3700117:-1 3700118:-1 3700119:-1 3700120:-1 3700121:-1 3700122:-1 3700123:-1 3700124:-1 3700125:-1 3700126:-1 3700127:-1 3800091:-1 3800092:-1 3800093:-1 3800094:-1 3800095:-1 3800096:-1 3800097:-1 3800098:-1 3800099:1 3800100:1 3800101:1 3800102:1 3800103:1 3800104:1 3800105:1 3800106:1 3800107:1 3800108:1 3800109:1 3800110:1 3800111:1 3800112:1 3800113:1 3800114:1 3800115:1 3800116:-1 3800117:-1 3800118:-1 3800119:-1 3800120:-1 3800121:-1 3800122:-1 3800123:-1 3800124:-1 3800125:-1 3800126:-1 3800127:-1 3900091:-1 3900092:-1 3900093:-1 3900094:-1 3900095:-1 3900096:-1 3900097:-1 3900098:-1 3900099:-1 3900100:1 3900101:1 3900102:1 3900103:1 3900104:1 3900105:1 3900106:1 3900107:1 3900108:1 3900109:1 3900110:1 3900111:1 3900112:1 3900113:1 3900114:1 3900115:1 3900116:1 3900117:1 3900118:-1 3900119:-1 3900120:-1 3900121:-1 3900122:-1 3900123:-1 3900124:-1 3900125:-1 3900126:-1 3900127:-1 4000092:-1 4000093:-1 4000094:-1 4000095:-1 4000096:-1 4000097:-1 4000098:-1 4000099:-1 4000100:-1 4000101:1 4000102:1 4000103:1 4000104:1 4000105:1 4000106:1 4000107:1 4000108:1 4000109:1 4000110:1 4000111:1 4000112:1 4000113:1 4000114:1 4000115:1 4000116:1 4000117:1 4000118:1 4000119:-1 4000120:-1 4000121:-1 4000122:-1 4000123:-1 4000124:-1 4000125:-1 4000126:-1 4000127:-1 4100092:-1 4100093:-1 4100094:-1 4100095:-1 4100096:-1 4100097:-1 4100098:-1 4100099:-1 4100100:-1 4100101:-1 4100102:-1 4100103:-1 4100104:1 4100105:1 4100106:1 4100107:1 4100108:1 4100109:1 4100110:1 4100111:1 4100112:1 4100113:1 4100114:1 4100115:1 4100116:1 4100117:1 4100118:1 4100119:1 4100120:-1 4100121:-1 4100122:-1 4100123:-1 4100124:-1 4100125:-1 4100126:-1 4100127:-1 4200092:-1 4200093:-1 4200094:-1 4200095:-1 4200096:-1 4200097:-1 4200098:-1 4200099:-1 4200100:-1 4200101:-1 4200102:-1 4200103:-1 4200104:-1 4200105:-1 4200106:-1 4200107:1 4200108:1 4200109:1 4200110:1 4200111:1 4200112:1 4200113:1 4200114:1 4200115:1 4200116:1 4200117:1 4200118:1 4200119:1 4200120:1 4200121:-1 4200122:-1 4200123:-1 4200124:-1 4200125:-1 4200126:-1 4200127:-1 4300092:-1 4300093:-1 4300094:-1 4300095:-1 4300096:-1 4300097:-1 4300098:-1 4300099:-1 4300100:-1 4300101:-1 4300102:-1 4300103:-1 4300104:-1 4300105:-1 4300106:-1 4300107:-1 4300108:-1 4300109:-1 4300110:-1 4300111:1 4300112:1 4300113:1 4300114:1 4300115:1 4300116:1 4300117:1 4300118:1 4300119:1 4300120:1 4300121:-1 4300122:-1 4300123:-1 4300124:-1 4300125:-1 4300126:-1 4300127:-1 4400093:-1 4400094:-1 4400095:-1 4400096:-1 4400097:-1 4400098:-1 4400099:-1 4400100:-1 4400101:-1 4400102:-1 4400103:-1 4400104:-1 4400105:-1 4400106:-1 4400107:-1 4400108:-1 4400109:-1 4400110:-1 4400111:-1 4400112:-1 4400113:1 4400114:1 4400115:1 4400116:1 4400117:1 4400118:1 4400119:1 4400120:1 4400121:1 4400122:-1 4400123:-1 4400124:-1 4400125:-1 4400126:-1 4400127:-1 4500093:-1 4500094:-1 4500095:-1 4500096:-1 4500097:1 4500098:1 4500099:1 4500100:1 4500101:1 4500102:-1 4500103:-1 4500104:-1 4500105:-1 4500106:-1 4500107:-1 4500108:-1 4500109:-1 4500110:-1 4500111:-1 4500112:-1 4500113:-1 4500114:-1 4500115:1 4500116:1 4500117:1 4500118:1 4500119:1 4500120:1 4500121:1 4500122:-1 4500123:-1 4500124:-1 4500125:-1 4500126:-1 4500127:-1 4600093:-1 4600094:-1 4600095:-1 4600096:1 4600097:1 4600098:1 4600099:1 4600100:1 4600101:1 4600102:1 4600103:-1 4600104:-1 4600105:-1 4600106:-1 4600107:-1 4600108:-1 4600109:-1 4600110:-1 4600111:-1 4600112:-1 4600113:-1 4600114:-1 4600115:1 4600116:1 4600117:1 4600118:1 4600119:1 4600120:1 4600121:1 4600122:-1 4600123:-1 4600124:-1 4600125:-1 4600126:-1 4600127:-1 4700094:-1 4700095:-1 4700096:1 4700097:1 4700098:1 4700099:1 4700100:1 4700101:1 4700102:1 4700103:-1 4700104:-1 4700105:-1 4700106:-1 4700107:-1 4700108:-1 4700109:-1 4700110:-1 4700111:-1 4700112:-1 4700113:-1 4700114:-1 4700115:1 4700116:1 4700117:1 4700118:1 4700119:1 4700120:1 4700121:1 4700122:-1 4700123:-1 4700124:-1 4700125:-1 4700126:-1 4700127:-1 4800094:-1 4800095:-1 4800096:1 4800097:1 4800098:1 4800099:1 4800100:1 4800101:1 4800102:1 4800103:1 4800104:-1 4800105:-1 4800106:-1 4800107:-1 4800108:-1 4800109:-1 4800110:-1 4800111:-1 4800112:-1 4800113:-1 4800114:-1 4800115:1 4800116:1 4800117:1 4800118:1 4800119:1 4800120:1 4800121:1 4800122:-1 4800123:-1 4800124:-1 4800125:-1 4800126:-1 4800127:-1 4900094:-1 4900095:-1 4900096:-1 4900097:1 4900098:1 4900099:1 4900100:1 4900101:1 4900102:1 4900103:1 4900104:-1 4900105:-1 4900106:-1 4900107:-1 4900108:-1 4900109:-1 4900110:-1 4900111:-1 4900112:-1 4900113:-1 4900114:1 4900115:1 4900116:1 4900117:1 4900118:1 4900119:1 4900120:1 4900121:-1 4900122:-1 4900123:-1 4900124:-1 4900125:-1 4900126:-1 4900127:-1 5000094:-1 5000095:-1 5000096:-1 5000097:1 5000098:1 5000099:1 5000100:1 5000101:1 5000102:1 5000103:1 5000104:1 5000105:1 5000106:-1 5000107:-1 5000108:-1 5000109:-1 5000110:-1 5000111:-1 5000112:-1 5000113:1 5000114:1 5000115:1 5000116:1 5000117:1 5000118:1 5000119:1 5000120:1 5000121:-1 5000122:-1 5000123:-1 5000124:-1 5000125:-1 5000126:-1 5000127:-1 5100094:-1 5100095:-1 5100096:-1 5100097:-1 5100098:1 5100099:1 5100100:1 5100101:1 5100102:1 5100103:1 5100104:1 5100105:1 5100106:1 5100107:1 5100108:1 5100109:1 5100110:1 5100111:1 5100112:1 5100113:1 5100114:1 5100115:1 5100116:1 5100117:1 5100118:1 5100119:1 5100120:-1 5100121:-1 5100122:-1 5100123:-1 5100124:-1 5100125:-1 5100126:-1 5100127:-1 5200094:-1 5200095:-1 5200096:-1 5200097:-1 5200098:-1 5200099:1 5200100:1 5200101:1 5200102:1 5200103:1 5200104:1 5200105:1 5200106:1 5200107:1 5200108:1 5200109:1 5200110:1 5200111:1 5200112:1 5200113:1 5200114:1 5200115:1 5200116:1 5200117:1 5200118:1 5200119:1 5200120:-1 5200121:-1 5200122:-1 5200123:-1 5200124:-1 5200125:-1 5200126:-1 5200127:-1 5300094:-1 5300095:-1 5300096:-1 5300097:-1 5300098:-1 5300099:-1 5300100:1 5300101:1 5300102:1 5300103:1 5300104:1 5300105:1 5300106:1 5300107:1 5300108:1 5300109:1 5300110:1 5300111:1 5300112:1 5300113:1 5300114:1 5300115:1 5300116:1 5300117:1 5300118:1 5300119:-1 5300120:-1 5300121:-1 5300122:-1 5300123:-1 5300124:-1 5300125:-1 5300126:-1 5300127:-1 5400094:-1 5400095:-1 5400096:-1 5400097:-1 5400098:-1 5400099:-1 5400100:-1 5400101:1 5400102:1 5400103:1 5400104:1 5400105:1 5400106:1 5400107:1 5400108:1 5400109:1 5400110:1 5400111:1 5400112:1 5400113:1 5400114:1 5400115:1 5400116:1 5400117:-1 5400118:-1 5400119:-1 5400120:-1 5400121:-1 5400122:-1 5400123:-1 5400124:-1 5400125:-1 5400126:-1 5400127:-1 5500093:-1 5500094:-1 5500095:-1 5500096:-1 5500097:-1 5500098:-1 5500099:-1 5500100:-1 5500101:-1 5500102:-1 5500103:-1 5500104:1 5500105:1 5500106:1 5500107:1 5500108:1 5500109:1 5500110:1 5500111:1 5500112:1 5500113:1 5500114:1 5500115:-1 5500116:-1 5500117:-1 5500118:-1 5500119:-1 5500120:-1 5500121:-1 5500122:-1 5500123:-1 5500124:-1 5500125:-1 5500126:-1 5500127:-1 5600093:-1 5600094:-1 5600095:-1 5600096:-1 5600097:-1 5600098:-1 5600099:-1 5600100:-1 5600101:-1 5600102:-1 5600103:-1 5600104:-1 5600105:-1 5600106:1 5600107:1 5600108:1 5600109:1 5600110:1 5600111:1 5600112:-1 5600113:-1 5600114:-1 5600115:-1 5600116:-1 5600117:-1 5600118:-1 5600119:-1 5600120:-1 5600121:-1 5600122:-1 5600123:-1 5600124:-1 5600125:-1 5600126:-1 5600127:-1 
0.5 0.5 0.5 0.5 0.5 0.5 0.5 0.5 0.5 0.5 0.5 0.5 0.5 0.5 0.5 0.5 0.5 0.5 0.5 0.5 0.5 0.5 0.5 0.5 0.5 0.5 0.5 0.5 0.5 0.5 0.5 0.5 0.5 0.5 0.5 0.5 0.5 0.5 0.5 0.5 0.5 0.5 0.5 0.5 0.5 0.5 0.5 0.5 0 2400105:1 2400106:1 2400107:1 2400108:1 2400109:1 2400110:1 2400111:1 2400112:-1 2400113:-1 2500097:-1 2500098:-1 2500099:-1 2500100:-1 2500101:-1 2500102:1 2500103:1 2500104:1 2500105:1 2500106:1 2500107:1 2500108:1 2500109:1 2500110:1 2500111:1 2500112:1 2500113:1 2500114:1 2500115:-1 2500116:-1 2500117:-1 2500118:-1 2500119:-1 2500120:-1 2500121:-1 2500122:-1 2500123:-1 2600095:-1 2600096:-1 2600097:-1 2600098:-1 2600099:-1 2600100:-1 2600101:1 2600102:1 2600103:1 2600104:1 2600105:1 2600106:1 2600107:1 2600108:1 2600109:1 2600110:1 2600111:1 2600112:1 2600113:1 2600114:1 2600115:1 2600116:1 2600117:-1 2600118:-1 2600119:-1 2600120:-1 2600121:-1 2600122:-1 2600123:-1 2600124:-1 2600125:-1 2600126:-1 2700088:-1 2700089:-1 2700090:-1 2700091:-1 2700092:-1 2700093:-1 2700094:-1 2700095:-1 2700096:-1 2700097:-1 2700098:-1 2700099:-1 2700100:1 2700101:1 2700102:1 2700103:1 2700104:1 2700105:1 2700106:1 2700107:1 2700108:1 2700109:1 2700110:1 2700111:1 2700112:1 2700113:1 2700114:1 2700115:1 2700116:1 2700117:1 2700118:-1 2700119:-1 2700120:-1 2700121:-1 2700122:-1 2700123:-1 2700124:-1 2700125:-1 2700126:-1 2700127:-1 2800088:-1 2800089:-1 2800090:-1 2800091:-1 2800092:-1 2800093:-1 2800094:-1 2800095:-1 2800096:-1 2800097:-1 2800098:-1 2800099:1 2800100:1 2800101:1 2800102:1 2800103:1 2800104:1 2800105:1 2800106:1 2800107:1 2800108:1 2800109:1 2800110:1 2800111:1 2800112:1 2800113:1 2800114:1 2800115:1 2800116:1 2800117:1 2800118:1 2800119:-1 2800120:-1 2800121:-1 2800122:-1 2800123:-1 2800124:-1 2800125:-1 2800126:-1 2800127:-1 2900089:-1 2900090:-1 2900091:-1 2900092:-1 2900093:-1 2900094:-1 2900095:-1 2900096:-1 2900097:-1 2900098:1 2900099:1 2900100:1 2900101:1 2900102:1 2900103:1 2900104:1 2900105:1 2900106:1 2900107:1 2900108:-1 2900109:1 2900110:1 2900111:1 2900112:1 2900113:1 2900114:1 2900115:1 2900116:1 2900117:1 2900118:1 2900119:1 2900120:-1 2900121:-1 2900122:-1 2900123:-1 2900124:-1 2900125:-1 2900126:-1 2900127:-1 3000089:-1 3000090:-1 3000091:-1 3000092:-1 3000093:-1 3000094:-1 3000095:-1 3000096:-1 3000097:-1 3000098:1 3000099:1 3000100:1 3000101:1 3000102:1 3000103:1 3000104:1 3000105:-1 3000106:-1 3000107:-1 3000108:-1 3000109:-1 3000110:-1 3000111:-1 3000112:1 3000113:1 3000114:1 3000115:1 3000116:1 3000117:1 3000118:1 3000119:1 3000120:-1 3000121:-1 3000122:-1 3000123:-1 3000124:-1 3000125:-1 3000126:-1 3000127:-1 3100089:-1 3100090:-1 3100091:-1 3100092:-1 3100093:-1 3100094:-1 3100095:-1 3100096:-1 3100097:1 3100098:1 3100099:1 3100100:1 3100101:1 3100102:1 3100103:1 3100104:-1 3100105:-1 3100106:-1 3100107:-1 3100108:-1 3100109:-1 3100110:-1 3100111:-1 3100112:-1 3100113:1 3100114:1 3100115:1 3100116:1 3100117:1 3100118:1 3100119:1 3100120:1 3100121:-1 3100122:-1 3100123:-1 3100124:-1 3100125:-1 3100126:-1 3100127:-1 3200090:-1 3200091:-1 3200092:-1 3200093:-1 3200094:-1 3200095:-1 3200096:-1 3200097:1 3200098:1 3200099:1 3200100:1 3200101:1 3200102:1 3200103:1 3200104:-1 3200105:-1 3200106:-1 3200107:-1 3200108:-1 3200109:-1 3200110:-1 3200111:-1 3200112:-1 3200113:-1 3200114:1 3200115:1 3200116:1 3200117:1 3200118:1 3200119:1 3200120:1 3200121:-1 3200122:-1 3200123:-1 3200124:-1 3200125:-1 3200126:-1 3200127:-1 3300090:-1 3300091:-1 3300092:-1 3300093:-1 3300094:-1 3300095:-1 3300096:-1 3300097:1 3300098:1 3300099:1 3300100:1 3300101:1 3300102:1 3300103:1 3300104:-1 3300105:-1 3300106:-1 3300107:-1 3300108:-1 3300109:-1 3300110:-1 3300111:-1 3300112:-1 3300113:-1 3300114:1 3300115:1 3300116:1 3300117:1 3300118:1 3300119:1 3300120:1 3300121:-1 3300122:-1 3300123:-1 3300124:-1 3300125:-1 3300126:-1 3300127:-1 3400090:-1 3400091:-1 3400092:-1 3400093:-1 3400094:-1 3400095:-1 3400096:-1 3400097:1 3400098:1 3400099:1 3400100:1 3400101:1 3400102:1 3400103:1 3400104:-1 3400105:-1 3400106:-1 3400107:-1 3400108:-1 3400109:-1 3400110:-1 3400111:-1 3400112:-1 3400113:-1 3400114:-1 3400115:-1 3400116:-1 3400117:-1 3400118:-1 3400119:-1 3400120:-1 3400121:-1 3400122:-1 3400123:-1 3400124:-1 3400125:-1 3400126:-1 3400127:-1 3500090:-1 3500091:-1 3500092:-1 3500093:-1 3500094:-1 3500095:-1 3500096:-1 3500097:1 3500098:1 3500099:1 3500100:1 3500101:1 3500102:1 3500103:1 3500104:1 3500105:1 3500106:-1 3500107:-1 3500108:-1 3500109:-1 3500110:-1 3500111:-1 3500112:-1 3500113:-1 3500114:-1 3500115:-1 3500116:-1 3500117:-1 3500118:-1 3500119:-1 3500120:-1 3500121:-1 3500122:-1 3500123:-1 3500124:-1 3500125:-1 3500126:-1 3500127:-1 3600091:-1 3600092:-1 3600093:-1 3600094:-1 3600095:-1 3600096:-1 3600097:-1 3600098:1 3600099:1 3600100:1 3600101:1 3600102:1 3600103:1 3600104:1 3600105:1 3600106:1 3600107:1 3600108:1 3600109:-1 3600110:-1 3600111:-1 3600112:-1 3600113:-1 3600114:-1 3600115:-1 3600116:-1 3600117:-1 3600118:-1 3600119:-1 3600120:-1 3600121:-1 3600122:-1 3600123:-1 3600124:-1 3600125:-1 3600126:-1 3600127:-1 3700091:-1 3700092:-1 3700093:-1 3700094:-1 3700095:-1 3700096:-1 3700097:-1 3700098:1 3700099:1 3700100:1 3700101:1 3700102:1 3700103:1 3700104:1 3700105:1 3700106:1 3700107:1 3700108:1 3700109:1 3700110:1 3700111:1 3700112:1 3700113:-1 3700114:-1 3700115:-1 3700116:-1 3700117:-1 3700118:-1 3700119:-1 3700120:-1 3700121:-1 3700122:-1 3700123:-1 3700124:-1 3700125:-1 3700126:-1 3700127:-1 3800091:-1 3800092:-1 3800093:-1 3800094:-1 3800095:-1 3800096:-1 3800097:-1 3800098:-1 3800099:1 3800100:1 3800101:1 3800102:1 3800103:1 3800104:1 3800105:1 3800106:1 3800107:1 3800108:1 3800109:1 3800110:1 3800111:1 3800112:1 3800113:1 3800114:1 3800115:1 3800116:-1 3800117:-1 3800118:-1 3800119:-1 3800120:-1 3800121:-1 3800122:-1 3800123:-1 3800124:-1 3800125:-1 3800126:-1 3800127:-1 3900091:-1 3900092:-1 3900093:-1 3900094:-1 3900095:-1 3900096:-1 3900097:-1 3900098:-1 3900099:-1 3900100:1 3900101:1 3900102:1 3900103:1 3900104:1 3900105:1 3900106:1 3900107:1 3900108:1 3900109:1 3900110:1 3900111:1 3900112:1 3900113:1 3900114:1 3900115:1 3900116:1 3900117:1 3900118:-1 3900119:-1 3900120:-1 3900121:-1 3900122:-1 3900123:-1 3900124:-1 3900125:-1 3900126:-1 3900127:-1 4000092:-1 4000093:-1 4000094:-1 4000095:-1 4000096:-1 4000097:-1 4000098:-1 4000099:-1 4000100:-1 4000101:1 4000102:1 4000103:1 4000104:1 4000105:1 4000106:1 4000107:1 4000108:1 4000109:1 4000110:1 4000111:1 4000112:1 4000113:1 4000114:1 4000115:1 4000116:1 4000117:1 4000118:1 4000119:-1 4000120:-1 4000121:-1 4000122:-1 4000123:-1 4000124:-1 4000125:-1 4000126:-1 4000127:-1 4100092:-1 4100093:-1 4100094:-1 4100095:-1 4100096:-1 4100097:-1 4100098:-1 4100099:-1 4100100:-1 4100101:-1 4100102:-1 4100103:-1 4100104:1 4100105:1 4100106:1 4100107:1 4100108:1 4100109:1 4100110:1 4100111:1 4100112:1 4100113:1 4100114:1 4100115:1 4100116:1 4100117:1 4100118:1 4100119:1 4100120:-1 4100121:-1 4100122:-1 4100123:-1 4100124:-1 4100125:-1 4100126:-1 4100127:-1 4200092:-1 4200093:-1 4200094:-1 4200095:-1 4200096:-1 4200097:-1 4200098:-1 4200099:-1 4200100:-1 4200101:-1 4200102:-1 4200103:-1 4200104:-1 4200105:-1 4200106:-1 4200107:1 4200108:1 4200109:1 4200110:1 4200111:1 4200112:1 4200113:1 4200114:1 4200115:1 4200116:1 4200117:1 4200118:1 4200119:1 4200120:1 4200121:-1 4200122:-1 4200123:-1 4200124:-1 4200125:-1 4200126:-1 4200127:-1 4300092:-1 4300093:-1 4300094:-1 4300095:-1 4300096:-1 4300097:-1 4300098:-1 4300099:-1 4300100:-1 4300101:-1 4300102:-1 4300103:-1 4300104:-1 4300105:-1 4300106:-1 4300107:-1 4300108:-1 4300109:-1 4300110:-1 4300111:1 4300112:1 4300113:1 4300114:1 4300115:1 4300116:1 4300117:1 4300118:1 4300119:1 4300120:1 4300121:-1 4300122:-1 4300123:-1 4300124:-1 4300125:-1 4300126:-1 4300127:-1 4400093:-1 4400094:-1 4400095:-1 4400096:-1 4400097:-1 4400098:-1 4400099:-1 4400100:-1 4400101:-1 4400102:-1 4400103:-1 4400104:-1 4400105:-1 4400106:-1 4400107:-1 4400108:-1 4400109:-1 4400110:-1 4400111:-1 4400112:-1 4400113:1 4400114:1 4400115:1 4400116:1 4400117:1 4400118:1 4400119:1 4400120:1 4400121:1 4400122:-1 4400123:-1 4400124:-1 4400125:-1 4400126:-1 4400127:-1 4500093:-1 4500094:-1 4500095:-1 4500096:-1 4500097:1 4500098:1 4500099:1 4500100:1 4500101:1 4500102:-1 4500103:-1 4500104:-1 4500105:-1 4500106:-1 4500107:-1 4500108:-1 4500109:-1 4500110:-1 4500111:-1 4500112:-1 4500113:-1 4500114:-1 4500115:1 4500116:1 4500117:1 4500118:1 4500119:1 4500120:1 4500121:1 4500122:-1 4500123:-1 4500124:-1 4500125:-1 4500126:-1 4500127:-1 4600093:-1 4600094:-1 4600095:-1 4600096:1 4600097:1 4600098:1 4600099:1 4600100:1 4600101:1 4600102:1 4600103:-1 4600104:-1 4600105:-1 4600106:-1 4600107:-1 4600108:-1 4600109:-1 4600110:-1 4600111:-1 4600112:-1 4600113:-1 4600114:-1 4600115:1 4600116:1 4600117:1 4600118:1 4600119:1 4600120:1 4600121:1 4600122:-1 4600123:-1 4600124:-1 4600125:-1 4600126:-1 4600127:-1 4700094:-1 4700095:-1 4700096:1 4700097:1 4700098:1 4700099:1 4700100:1 4700101:1 4700102:1 4700103:-1 4700104:-1 4700105:-1 4700106:-1 4700107:-1 4700108:-1 4700109:-1 4700110:-1 4700111:-1 4700112:-1 4700113:-1 4700114:-1 4700115:1 4700116:1 4700117:1 4700118:1 4700119:1 4700120:1 4700121:1 4700122:-1 4700123:-1 4700124:-1 4700125:-1 4700126:-1 4700127:-1 4800094:-1 4800095:-1 4800096:1 4800097:1 4800098:1 4800099:1 4800100:1 4800101:1 4800102:1 4800103:1 4800104:-1 4800105:-1 4800106:-1 4800107:-1 4800108:-1 4800109:-1 4800110:-1 4800111:-1 4800112:-1 4800113:-1 4800114:-1 4800115:1 4800116:1 4800117:1 4800118:1 4800119:1 4800120:1 4800121:1 4800122:-1 4800123:-1 4800124:-1 4800125:-1 4800126:-1 4800127:-1 4900094:-1 4900095:-1 4900096:-1 4900097:1 4900098:1 4900099:1 4900100:1 4900101:1 4900102:1 4900103:1 4900104:-1 4900105:-1 4900106:-1 4900107:-1 4900108:-1 4900109:-1 4900110:-1 4900111:-1 4900112:-1 4900113:-1 4900114:1 4900115:1 4900116:1 4900117:1 4900118:1 4900119:1 4900120:1 4900121:-1 4900122:-1 4900123:-1 4900124:-1 4900125:-1 4900126:-1 4900127:-1 5000094:-1 5000095:-1 5000096:-1 5000097:1 5000098:1 5000099:1 5000100:1 5000101:1 5000102:1 5000103:1 5000104:1 5000105:1 5000106:-1 5000107:-1 5000108:-1 5000109:-1 5000110:-1 5000111:-1 5000112:-1 5000113:1 5000114:1 5000115:1 5000116:1 5000117:1 5000118:1 5000119:1 5000120:1 5000121:-1 5000122:-1 5000123:-1 5000124:-1 5000125:-1 5000126:-1 5000127:-1 5100094:-1 5100095:-1 5100096:-1 5100097:-1 5100098:1 5100099:1 5100100:1 5100101:1 5100102:1 5100103:1 5100104:1 5100105:1 5100106:1 5100107:1 5100108:1 5100109:1 5100110:1 5100111:1 5100112:1 5100113:1 5100114:1 5100115:1 5100116:1 5100117:1 5100118:1 5100119:1 5100120:-1 5100121:-1 5100122:-1 5100123:-1 5100124:-1 5100125:-1 5100126:-1 5100127:-1 5200094:-1 5200095:-1 5200096:-1 5200097:-1 5200098:-1 5200099:1 5200100:1 5200101:1 5200102:1 5200103:1 5200104:1 5200105:1 5200106:1 5200107:1 5200108:1 5200109:1 5200110:1 5200111:1 5200112:1 5200113:1 5200114:1 5200115:1 5200116:1 5200117:1 5200118:1 5200119:1 5200120:-1 5200121:-1 5200122:-1 5200123:-1 5200124:-1 5200125:-1 5200126:-1 5200127:-1 5300094:-1 5300095:-1 5300096:-1 5300097:-1 5300098:-1 5300099:-1 5300100:1 5300101:1 5300102:1 5300103:1 5300104:1 5300105:1 5300106:1 5300107:1 5300108:1 5300109:1 5300110:1 5300111:1 5300112:1 5300113:1 5300114:1 5300115:1 5300116:1 5300117:1 5300118:1 5300119:-1 5300120:-1 5300121:-1 5300122:-1 5300123:-1 5300124:-1 5300125:-1 5300126:-1 5300127:-1 5400094:-1 5400095:-1 5400096:-1 5400097:-1 5400098:-1 5400099:-1 5400100:-1 5400101:1 5400102:1 5400103:1 5400104:1 5400105:1 5400106:1 5400107:1 5400108:1 5400109:1 5400110:1 5400111:1 5400112:1 5400113:1 5400114:1 5400115:1 5400116:1 5400117:-1 5400118:-1 5400119:-1 5400120:-1 5400121:-1 5400122:-1 5400123:-1 5400124:-1 5400125:-1 5400126:-1 5400127:-1 5500093:-1 5500094:-1 5500095:-1 5500096:-1 5500097:-1 5500098:-1 5500099:-1 5500100:-1 5500101:-1 5500102:-1 5500103:-1 5500104:1 5500105:1 5500106:1 5500107:1 5500108:1 5500109:1 5500110:1 5500111:1 5500112:1 5500113:1 5500114:1 5500115:-1 5500116:-1 5500117:-1 5500118:-1 5500119:-1 5500120:-1 5500121:-1 5500122:-1 5500123:-1 5500124:-1 5500125:-1 5500126:-1 5500127:-1 5600093:-1 5600094:-1 5600095:-1 5600096:-1 5600097:-1 5600098:-1 5600099:-1 5600100:-1 5600101:-1 5600102:-1 5600103:-1 5600104:-1 5600105:-1 5600106:1 5600107:1 5600108:1 5600109:1 5600110:1 5600111:1 5600112:-1 5600113:-1 5600114:-1 5600115:-1 5600116:-1 5600117:-1 5600118:-1 5600119:-1 5600120:-1 5600121:-1 5600122:-1 5600123:-1 5600124:-1 5600125:-1 5600126:-1 5600127:-1 
0.5 0.5 0.5 0.5 0.5 0.5 0.5 0.5 0.5 0.5 0.5 0.5 0.5 0.5 0.5 0.5 0.5 0.5 0.5 0.5 0.5 0.5 0.5 0.5 0.5 0.5 0.5 0.5 0.5 0.5 0.5 0.5 0.5 0.5 0.5 0.5 0.5 0.5 0.5 0.5 0.5 0.5 0.5 0.5 0.5 0.5 0.5 0.5 0.5 2400105:1 2400106:1 2400107:1 2400108:1 2400109:1 2400110:1 2400111:1 2400112:-1 2400113:-1 2500097:-1 2500098:-1 2500099:-1 2500100:-1 2500101:-1 2500102:1 2500103:1 2500104:1 2500105:1 2500106:1 2500107:1 2500108:1 2500109:1 2500110:1 2500111:1 2500112:1 2500113:1 2500114:1 2500115:-1 2500116:-1 2500117:-1 2500118:-1 2500119:-1 2500120:-1 2500121:-1 2500122:-1 2500123:-1 2600095:-1 2600096:-1 2600097:-1 2600098:-1 2600099:-1 2600100:-1 2600101:1 2600102:1 2600103:1 2600104:1 2600105:1 2600106:1 2600107:1 2600108:1 2600109:1 2600110:1 2600111:1 2600112:1 2600113:1 2600114:1 2600115:1 2600116:1 2600117:-1 2600118:-1 2600119:-1 2600120:-1 2600121:-1 2600122:-1 2600123:-1 2600124:-1 2600125:-1 2600126:-1 2700088:-1 2700089:-1 2700090:-1 2700091:-1 2700092:-1 2700093:-1 2700094:-1 2700095:-1 2700096:-1 2700097:-1 2700098:-1 2700099:-1 2700100:1 2700101:1 2700102:1 2700103:1 2700104:1 2700105:1 2700106:1 2700107:1 2700108:1 2700109:1 2700110:1 2700111:1 2700112:1 2700113:1 2700114:1 2700115:1 2700116:1 2700117:1 2700118:-1 2700119:-1 2700120:-1 2700121:-1 2700122:-1 2700123:-1 2700124:-1 2700125:-1 2700126:-1 2700127:-1 2800088:-1 2800089:-1 2800090:-1 2800091:-1 2800092:-1 2800093:-1 2800094:-1 2800095:-1 2800096:-1 2800097:-1 2800098:-1 2800099:1 2800100:1 2800101:1 2800102:1 2800103:1 2800104:1 2800105:1 2800106:1 2800107:1 2800108:1 2800109:1 2800110:1 2800111:1 2800112:1 2800113:1 2800114:1 2800115:1 2800116:1 2800117:1 2800118:1 2800119:-1 2800120:-1 2800121:-1 2800122:-1 2800123:-1 2800124:-1 2800125:-1 2800126:-1 2800127:-1 2900089:-1 2900090:-1 2900091:-1 2900092:-1 2900093:-1 2900094:-1 2900095:-1 2900096:-1 2900097:-1 2900098:1 2900099:1 2900100:1 2900101:1 2900102:1 2900103:1 2900104:1 2900105:1 2900106:1 2900107:1 2900108:-1 2900109:1 2900110:1 2900111:1 2900112:1 2900113:1 2900114:1 2900115:1 2900116:1 2900117:1 2900118:1 2900119:1 2900120:-1 2900121:-1 2900122:-1 2900123:-1 2900124:-1 2900125:-1 2900126:-1 2900127:-1 3000089:-1 3000090:-1 3000091:-1 3000092:-1 3000093:-1 3000094:-1 3000095:-1 3000096:-1 3000097:-1 3000098:1 3000099:1 3000100:1 3000101:1 3000102:1 3000103:1 3000104:1 3000105:-1 3000106:-1 3000107:-1 3000108:-1 3000109:-1 3000110:-1 3000111:-1 3000112:1 3000113:1 3000114:1 3000115:1 3000116:1 3000117:1 3000118:1 3000119:1 3000120:-1 3000121:-1 3000122:-1 3000123:-1 3000124:-1 3000125:-1 3000126:-1 3000127:-1 3100089:-1 3100090:-1 3100091:-1 3100092:-1 3100093:-1 3100094:-1 3100095:-1 3100096:-1 3100097:1 3100098:1 3100099:1 3100100:1 3100101:1 3100102:1 3100103:1 3100104:-1 3100105:-1 3100106:-1 3100107:-1 3100108:-1 3100109:-1 3100110:-1 3100111:-1 3100112:-1 3100113:1 3100114:1 3100115:1 3100116:1 3100117:1 3100118:1 3100119:1 3100120:1 3100121:-1 3100122:-1 3100123:-1 3100124:-1 3100125:-1 3100126:-1 3100127:-1 3200090:-1 3200091:-1 3200092:-1 3200093:-1 3200094:-1 3200095:-1 3200096:-1 3200097:1 3200098:1 3200099:1 3200100:1 3200101:1 3200102:1 3200103:1 3200104:-1 3200105:-1 3200106:-1 3200107:-1 3200108:-1 3200109:-1 3200110:-1 3200111:-1 3200112:-1 3200113:-1 3200114:1 3200115:1 3200116:1 3200117:1 3200118:1 3200119:1 3200120:1 3200121:-1 3200122:-1 3200123:-1 3200124:-1 3200125:-1 3200126:-1 3200127:-1 3300090:-1 3300091:-1 3300092:-1 3300093:-1 3300094:-1 3300095:-1 3300096:-1 3300097:1 3300098:1 3300099:1 3300100:1 3300101:1 3300102:1 3300103:1 3300104:-1 3300105:-1 3300106:-1 3300107:-1 3300108:-1 3300109:-1 3300110:-1 3300111:-1 3300112:-1 3300113:-1 3300114:1 3300115:1 3300116:1 3300117:1 3300118:1 3300119:1 3300120:1 3300121:-1 3300122:-1 3300123:-1 3300124:-1 3300125:-1 3300126:-1 3300127:-1 3400090:-1 3400091:-1 3400092:-1 3400093:-1 3400094:-1 3400095:-1 3400096:-1 3400097:1 3400098:1 3400099:1 3400100:1 3400101:1 3400102:1 3400103:1 3400104:-1 3400105:-1 3400106:-1 3400107:-1 3400108:-1 3400109:-1 3400110:-1 3400111:-1 3400112:-1 3400113:-1 3400114:-1 3400115:-1 3400116:-1 3400117:-1 3400118:-1 3400119:-1 3400120:-1 3400121:-1 3400122:-1 3400123:-1 3400124:-1 3400125:-1 3400126:-1 3400127:-1 3500090:-1 3500091:-1 3500092:-1 3500093:-1 3500094:-1 3500095:-1 3500096:-1 3500097:1 3500098:1 3500099:1 3500100:1 3500101:1 3500102:1 3500103:1 3500104:1 3500105:1 3500106:-1 3500107:-1 3500108:-1 3500109:-1 3500110:-1 3500111:-1 3500112:-1 3500113:-1 3500114:-1 3500115:-1 3500116:-1 3500117:-1 3500118:-1 3500119:-1 3500120:-1 3500121:-1 3500122:-1 3500123:-1 3500124:-1 3500125:-1 3500126:-1 3500127:-1 3600091:-1 3600092:-1 3600093:-1 3600094:-1 3600095:-1 3600096:-1 3600097:-1 3600098:1 3600099:1 3600100:1 3600101:1 3600102:1 3600103:1 3600104:1 3600105:1 3600106:1 3600107:1 3600108:1 3600109:-1 3600110:-1 3600111:-1 3600112:-1 3600113:-1 3600114:-1 3600115:-1 3600116:-1 3600117:-1 3600118:-1 3600119:-1 3600120:-1 3600121:-1 3600122:-1 3600123:-1 3600124:-1 3600125:-1 3600126:-1 3600127:-1 3700091:-1 3700092:-1 3700093:-1 3700094:-1 3700095:-1 3700096:-1 3700097:-1 3700098:1 3700099:1 3700100:1 3700101:1 3700102:1 3700103:1 3700104:1 3700105:1 3700106:1 3700107:1 3700108:1 3700109:1 3700110:1 3700111:1 3700112:1 3700113:-1 3700114:-1 3700115:-1 3700116:-1 3700117:-1 3700118:-1 3700119:-1 3700120:-1 3700121:-1 3700122:-1 3700123:-1 3700124:-1 3700125:-1 3700126:-1 3700127:-1 3800091:-1 3800092:-1 3800093:-1 3800094:-1 3800095:-1 3800096:-1 3800097:-1 3800098:-1 3800099:1 3800100:1 3800101:1 3800102:1 3800103:1 3800104:1 3800105:1 3800106:1 3800107:1 3800108:1 3800109:1 3800110:1 3800111:1 3800112:1 3800113:1 3800114:1 3800115:1 3800116:-1 3800117:-1 3800118:-1 3800119:-1 3800120:-1 3800121:-1 3800122:-1 3800123:-1 3800124:-1 3800125:-1 3800126:-1 3800127:-1 3900091:-1 3900092:-1 3900093:-1 3900094:-1 3900095:-1 3900096:-1 3900097:-1 3900098:-1 3900099:-1 3900100:1 3900101:1 3900102:1 3900103:1 3900104:1 3900105:1 3900106:1 3900107:1 3900108:1 3900109:1 3900110:1 3900111:1 3900112:1 3900113:1 3900114:1 3900115:1 3900116:1 3900117:1 3900118:-1 3900119:-1 3900120:-1 3900121:-1 3900122:-1 3900123:-1 3900124:-1 3900125:-1 3900126:-1 3900127:-1 4000092:-1 4000093:-1 4000094:-1 4000095:-1 4000096:-1 4000097:-1 4000098:-1 4000099:-1 4000100:-1 4000101:1 4000102:1 4000103:1 4000104:1 4000105:1 4000106:1 4000107:1 4000108:1 4000109:1 4000110:1 4000111:1 4000112:1 4000113:1 4000114:1 4000115:1 4000116:1 4000117:1 4000118:1 4000119:-1 4000120:-1 4000121:-1 4000122:-1 4000123:-1 4000124:-1 4000125:-1 4000126:-1 4000127:-1 4100092:-1 4100093:-1 4100094:-1 4100095:-1 4100096:-1 4100097:-1 4100098:-1 4100099:-1 4100100:-1 4100101:-1 4100102:-1 4100103:-1 4100104:1 4100105:1 4100106:1 4100107:1 4100108:1 4100109:1 4100110:1 4100111:1 4100112:1 4100113:1 4100114:1 4100115:1 4100116:1 4100117:1 4100118:1 4100119:1 4100120:-1 4100121:-1 4100122:-1 4100123:-1 4100124:-1 4100125:-1 4100126:-1 4100127:-1 4200092:-1 4200093:-1 4200094:-1 4200095:-1 4200096:-1 4200097:-1 4200098:-1 4200099:-1 4200100:-1 4200101:-1 4200102:-1 4200103:-1 4200104:-1 4200105:-1 4200106:-1 4200107:1 4200108:1 4200109:1 4200110:1 4200111:1 4200112:1 4200113:1 4200114:1 4200115:1 4200116:1 4200117:1 4200118:1 4200119:1 4200120:1 4200121:-1 4200122:-1 4200123:-1 4200124:-1 4200125:-1 4200126:-1 4200127:-1 4300092:-1 4300093:-1 4300094:-1 4300095:-1 4300096:-1 4300097:-1 4300098:-1 4300099:-1 4300100:-1 4300101:-1 4300102:-1 4300103:-1 4300104:-1 4300105:-1 4300106:-1 4300107:-1 4300108:-1 4300109:-1 4300110:-1 4300111:1 4300112:1 4300113:1 4300114:1 4300115:1 4300116:1 4300117:1 4300118:1 4300119:1 4300120:1 4300121:-1 4300122:-1 4300123:-1 4300124:-1 4300125:-1 4300126:-1 4300127:-1 4400093:-1 4400094:-1 4400095:-1 4400096:-1 4400097:-1 4400098:-1 4400099:-1 4400100:-1 4400101:-1 4400102:-1 4400103:-1 4400104:-1 4400105:-1 4400106:-1 4400107:-1 4400108:-1 4400109:-1 4400110:-1 4400111:-1 4400112:-1 4400113:1 4400114:1 4400115:1 4400116:1 4400117:1 4400118:1 4400119:1 4400120:1 4400121:1 4400122:-1 4400123:-1 4400124:-1 4400125:-1 4400126:-1 4400127:-1 4500093:-1 4500094:-1 4500095:-1 4500096:-1 4500097:1 4500098:1 4500099:1 4500100:1 4500101:1 4500102:-1 4500103:-1 4500104:-1 4500105:-1 4500106:-1 4500107:-1 4500108:-1 4500109:-1 4500110:-1 4500111:-1 4500112:-1 4500113:-1 4500114:-1 4500115:1 4500116:1 4500117:1 4500118:1 4500119:1 4500120:1 4500121:1 4500122:-1 4500123:-1 4500124:-1 4500125:-1 4500126:-1 4500127:-1 4600093:-1 4600094:-1 4600095:-1 4600096:1 4600097:1 4600098:1 4600099:1 4600100:1 4600101:1 4600102:1 4600103:-1 4600104:-1 4600105:-1 4600106:-1 4600107:-1 4600108:-1 4600109:-1 4600110:-1 4600111:-1 4600112:-1 4600113:-1 4600114:-1 4600115:1 4600116:1 4600117:1 4600118:1 4600119:1 4600120:1 4600121:1 4600122:-1 4600123:-1 4600124:-1 4600125:-1 4600126:-1 4600127:-1 4700094:-1 4700095:-1 4700096:1 4700097:1 4700098:1 4700099:1 4700100:1 4700101:1 4700102:1 4700103:-1 4700104:-1 4700105:-1 4700106:-1 4700107:-1 4700108:-1 4700109:-1 4700110:-1 4700111:-1 4700112:-1 4700113:-1 4700114:-1 4700115:1 4700116:1 4700117:1 4700118:1 4700119:1 4700120:1 4700121:1 4700122:-1 4700123:-1 4700124:-1 4700125:-1 4700126:-1 4700127:-1 4800094:-1 4800095:-1 4800096:1 4800097:1 4800098:1 4800099:1 4800100:1 4800101:1 4800102:1 4800103:1 4800104:-1 4800105:-1 4800106:-1 4800107:-1 4800108:-1 4800109:-1 4800110:-1 4800111:-1 4800112:-1 4800113:-1 4800114:-1 4800115:1 4800116:1 4800117:1 4800118:1 4800119:1 4800120:1 4800121:1 4800122:-1 4800123:-1 4800124:-1 4800125:-1 4800126:-1 4800127:-1 4900094:-1 4900095:-1 4900096:-1 4900097:1 4900098:1 4900099:1 4900100:1 4900101:1 4900102:1 4900103:1 4900104:-1 4900105:-1 4900106:-1 4900107:-1 4900108:-1 4900109:-1 4900110:-1 4900111:-1 4900112:-1 4900113:-1 4900114:1 4900115:1 4900116:1 4900117:1 4900118:1 4900119:1 4900120:1 4900121:-1 4900122:-1 4900123:-1 4900124:-1 4900125:-1 4900126:-1 4900127:-1 5000094:-1 5000095:-1 5000096:-1 5000097:1 5000098:1 5000099:1 5000100:1 5000101:1 5000102:1 5000103:1 5000104:1 5000105:1 5000106:-1 5000107:-1 5000108:-1 5000109:-1 5000110:-1 5000111:-1 5000112:-1 5000113:1 5000114:1 5000115:1 5000116:1 5000117:1 5000118:1 5000119:1 5000120:1 5000121:-1 5000122:-1 5000123:-1 5000124:-1 5000125:-1 5000126:-1 5000127:-1 5100094:-1 5100095:-1 5100096:-1 5100097:-1 5100098:1 5100099:1 5100100:1 5100101:1 5100102:1 5100103:1 5100104:1 5100105:1 5100106:1 5100107:1 5100108:1 5100109:1 5100110:1 5100111:1 5100112:1 5100113:1 5100114:1 5100115:1 5100116:1 5100117:1 5100118:1 5100119:1 5100120:-1 5100121:-1 5100122:-1 5100123:-1 5100124:-1 5100125:-1 5100126:-1 5100127:-1 5200094:-1 5200095:-1 5200096:-1 5200097:-1 5200098:-1 5200099:1 5200100:1 5200101:1 5200102:1 5200103:1 5200104:1 5200105:1 5200106:1 5200107:1 5200108:1 5200109:1 5200110:1 5200111:1 5200112:1 5200113:1 5200114:1 5200115:1 5200116:1 5200117:1 5200118:1 5200119:1 5200120:-1 5200121:-1 5200122:-1 5200123:-1 5200124:-1 5200125:-1 5200126:-1 5200127:-1 5300094:-1 5300095:-1 5300096:-1 5300097:-1 5300098:-1 5300099:-1 5300100:1 5300101:1 5300102:1 5300103:1 5300104:1 5300105:1 5300106:1 5300107:1 5300108:1 5300109:1 5300110:1 5300111:1 5300112:1 5300113:1 5300114:1 5300115:1 5300116:1 5300117:1 5300118:1 5300119:-1 5300120:-1 5300121:-1 5300122:-1 5300123:-1 5300124:-1 5300125:-1 5300126:-1 5300127:-1 5400094:-1 5400095:-1 5400096:-1 5400097:-1 5400098:-1 5400099:-1 5400100:-1 5400101:1 5400102:1 5400103:1 5400104:1 5400105:1 5400106:1 5400107:1 5400108:1 5400109:1 5400110:1 5400111:1 5400112:1 5400113:1 5400114:1 5400115:1 5400116:1 5400117:-1 5400118:-1 5400119:-1 5400120:-1 5400121:-1 5400122:-1 5400123:-1 5400124:-1 5400125:-1 5400126:-1 5400127:-1 5500093:-1 5500094:-1 5500095:-1 5500096:-1 5500097:-1 5500098:-1 5500099:-1 5500100:-1 5500101:-1 5500102:-1 5500103:-1 5500104:1 5500105:1 5500106:1 5500107:1 5500108:1 5500109:1 5500110:1 5500111:1 5500112:1 5500113:1 5500114:1 5500115:-1 5500116:-1 5500117:-1 5500118:-1 5500119:-1 5500120:-1 5500121:-1 5500122:-1 5500123:-1 5500124:-1 5500125:-1 5500126:-1 5500127:-1 5600093:-1 5600094:-1 5600095:-1 5600096:-1 5600097:-1 5600098:-1 5600099:-1 5600100:-1 5600101:-1 5600102:-1 5600103:-1 5600104:-1 5600105:-1 5600106:1 5600107:1 5600108:1 5600109:1 5600110:1 5600111:1 5600112:-1 5600113:-1 5600114:-1 5600115:-1 5600116:-1 5600117:-1 5600118:-1 5600119:-1 5600120:-1 5600121:-1 5600122:-1 5600123:-1 5600124:-1 5600125:-1 5600126:-1 5600127:-1 
-0 0 0 0 0 0 0 0 0 0 0 0 0 0 0 0 0 0 0 0 0 0 0 0 0 0 0 0 0 0 0 0 0 0.003294632086214095 0 0 0 0 0 0 0 0 0 0 0 0 0 0 0 2400105:-1 2400106:-1 2400107:-1 2400108:-1 2400109:-1 2400110:-1 2400111:-1 2400112:-1 2400113:-1 2500097:-1 2500098:-1 2500099:-1 2500100:-1 2500101:-1 2500102:-1 2500103:-1 2500104:-1 2500105:-1 2500106:-1 2500107:-1 2500108:-1 2500109:-1 2500110:-1 2500111:-1 2500112:-1 2500113:-1 2500114:-1 2500115:-1 2500116:-1 2500117:-1 2500118:-1 2500119:-1 2500120:-1 2500121:-1 2500122:-1 2500123:-1 2600095:-1 2600096:-1 2600097:-1 2600098:-1 2600099:1 2600100:1 2600101:1 2600102:1 2600103:1 2600104:-1 2600105:-1 2600106:-1 2600107:-1 2600108:-1 2600109:-1 2600110:-1 2600111:-1 2600112:-1 2600113:-1 2600114:-1 2600115:-1 2600116:-1 2600117:-1 2600118:-1 2600119:1 2600120:1 2600121:1 2600122:1 2600123:-1 2600124:-1 2600125:-1 2600126:-1 2700088:-1 2700089:-1 2700090:-1 2700091:-1 2700092:-1 2700093:-1 2700094:-1 2700095:-1 2700096:-1 2700097:-1 2700098:1 2700099:1 2700100:1 2700101:1 2700102:1 2700103:1 2700104:1 2700105:-1 2700106:-1 2700107:-1 2700108:-1 2700109:-1 2700110:-1 2700111:-1 2700112:-1 2700113:-1 2700114:-1 2700115:-1 2700116:-1 2700117:-1 2700118:1 2700119:1 2700120:1 2700121:1 2700122:1 2700123:1 2700124:-1 2700125:-1 2700126:-1 2700127:-1 2800088:-1 2800089:-1 2800090:-1 2800091:-1 2800092:-1 2800093:-1 2800094:-1 2800095:-1 2800096:-1 2800097:-1 2800098:1 2800099:1 2800100:1 2800101:1 2800102:1 2800103:1 2800104:1 2800105:1 2800106:-1 2800107:-1 2800108:-1 2800109:-1 2800110:-1 2800111:-1 2800112:-1 2800113:-1 2800114:-1 2800115:-1 2800116:-1 2800117:-1 2800118:1 2800119:1 2800120:1 2800121:1 2800122:1 2800123:1 2800124:-1 2800125:-1 2800126:-1 2800127:-1 2900089:-1 2900090:-1 2900091:-1 2900092:-1 2900093:-1 2900094:-1 2900095:-1 2900096:-1 2900097:-1 2900098:1 2900099:1 2900100:1 2900101:1 2900102:1 2900103:1 2900104:1 2900105:1 2900106:-1 2900107:-1 2900108:-1 2900109:-1 2900110:-1 2900111:-1 2900112:-1 2900113:-1 2900114:-1 2900115:-1 2900116:-1 2900117:-1 2900118:1 2900119:1 2900120:1 2900121:1 2900122:1 2900123:1 2900124:-1 2900125:-1 2900126:-1 2900127:-1 3000089:-1 3000090:-1 3000091:-1 3000092:-1 3000093:-1 3000094:-1 3000095:-1 3000096:-1 3000097:-1 3000098:1 3000099:1 3000100:1 3000101:1 3000102:1 3000103:1 3000104:1 3000105:1 3000106:1 3000107:-1 3000108:-1 3000109:-1 3000110:-1 3000111:-1 3000112:-1 3000113:-1 3000114:-1 3000115:-1 3000116:-1 3000117:-1 3000118:1 3000119:1 3000120:1 3000121:1 3000122:1 3000123:1 3000124:-1 3000125:-1 3000126:-1 3000127:-1 3100089:-1 3100090:-1 3100091:-1 3100092:-1 3100093:-1 3100094:-1 3100095:-1 3100096:-1 3100097:-1 3100098:1 3100099:1 3100100:1 3100101:1 3100102:1 3100103:1 3100104:1 3100105:1 3100106:1 3100107:1 3100108:-1 3100109:-1 3100110:-1 3100111:-1 3100112:-1 3100113:-1 3100114:-1 3100115:-1 3100116:-1 3100117:-1 3100118:1 3100119:1 3100120:1 3100121:1 3100122:1 3100123:1 3100124:-1 3100125:-1 3100126:-1 3100127:-1 3200090:-1 3200091:-1 3200092:-1 3200093:-1 3200094:-1 3200095:-1 3200096:-1 3200097:-1 3200098:1 3200099:1 3200100:1 3200101:1 3200102:1 3200103:1 3200104:1 3200105:1 3200106:1 3200107:1 3200108:-1 3200109:-1 3200110:-1 3200111:-1 3200112:-1 3200113:-1 3200114:-1 3200115:-1 3200116:-1 3200117:-1 3200118:1 3200119:1 3200120:1 3200121:1 3200122:1 3200123:1 3200124:-1 3200125:-1 3200126:-1 3200127:-1 3300090:-1 3300091:-1 3300092:-1 3300093:-1 3300094:-1 3300095:-1 3300096:-1 3300097:-1 3300098:1 3300099:1 3300100:1 3300101:1 3300102:1 3300103:1 3300104:1 3300105:1 3300106:1 3300107:1 3300108:1 3300109:-1 3300110:-1 3300111:-1 3300112:-1 3300113:-1 3300114:-1 3300115:-1 3300116:-1 3300117:-1 3300118:1 3300119:1 3300120:1 3300121:1 3300122:1 3300123:1 3300124:-1 3300125:-1 3300126:-1 3300127:-1 3400090:-1 3400091:-1 3400092:-1 3400093:-1 3400094:-1 3400095:-1 3400096:-1 3400097:-1 3400098:1 3400099:1 3400100:1 3400101:1 3400102:1 3400103:1 3400104:1 3400105:1 3400106:1 3400107:1 3400108:1 3400109:1 3400110:-1 3400111:-1 3400112:-1 3400113:-1 3400114:-1 3400115:-1 3400116:-1 3400117:-1 3400118:1 3400119:1 3400120:1 3400121:1 3400122:1 3400123:1 3400124:-1 3400125:-1 3400126:-1 3400127:-1 3500090:-1 3500091:-1 3500092:-1 3500093:-1 3500094:-1 3500095:-1 3500096:-1 3500097:-1 3500098:1 3500099:1 3500100:1 3500101:1 3500102:1 3500103:1 3500104:1 3500105:1 3500106:1 3500107:1 3500108:1 3500109:1 3500110:-1 3500111:-1 3500112:-1 3500113:-1 3500114:-1 3500115:-1 3500116:-1 3500117:-1 3500118:1 3500119:1 3500120:1 3500121:1 3500122:1 3500123:1 3500124:-1 3500125:-1 3500126:-1 3500127:-1 3600091:-1 3600092:-1 3600093:-1 3600094:-1 3600095:-1 3600096:-1 3600097:-1 3600098:1 3600099:1 3600100:1 3600101:1 3600102:1 3600103:1 3600104:1 3600105:1 3600106:1 3600107:1 3600108:1 3600109:1 3600110:1 3600111:-1 3600112:-1 3600113:-1 3600114:-1 3600115:-1 3600116:-1 3600117:-1 3600118:1 3600119:1 3600120:1 3600121:1 3600122:1 3600123:1 3600124:-1 3600125:-1 3600126:-1 3600127:-1 3700091:-1 3700092:-1 3700093:-1 3700094:-1 3700095:-1 3700096:-1 3700097:-1 3700098:1 3700099:1 3700100:1 3700101:1 3700102:1 3700103:1 3700104:1 3700105:1 3700106:1 3700107:1 3700108:1 3700109:1 3700110:1 3700111:1 3700112:-1 3700113:-1 3700114:-1 3700115:-1 3700116:-1 3700117:-1 3700118:1 3700119:1 3700120:1 3700121:1 3700122:1 3700123:1 3700124:-1 3700125:-1 3700126:-1 3700127:-1 3800091:-1 3800092:-1 3800093:-1 3800094:-1 3800095:-1 3800096:-1 3800097:-1 3800098:1 3800099:1 3800100:1 3800101:1 3800102:1 3800103:1 3800104:-1 3800105:1 3800106:1 3800107:1 3800108:1 3800109:1 3800110:1 3800111:1 3800112:-1 3800113:-1 3800114:-1 3800115:-1 3800116:-1 3800117:-1 3800118:1 3800119:1 3800120:1 3800121:1 3800122:1 3800123:1 3800124:-1 3800125:-1 3800126:-1 3800127:-1 3900091:-1 3900092:-1 3900093:-1 3900094:-1 3900095:-1 3900096:-1 3900097:-1 3900098:1 3900099:1 3900100:1 3900101:1 3900102:1 3900103:1 3900104:-1 3900105:-1 3900106:1 3900107:1 3900108:1 3900109:1 3900110:1 3900111:1 3900112:1 3900113:-1 3900114:-1 3900115:-1 3900116:-1 3900117:-1 3900118:1 3900119:1 3900120:1 3900121:1 3900122:1 3900123:1 3900124:-1 3900125:-1 3900126:-1 3900127:-1 4000092:-1 4000093:-1 4000094:-1 4000095:-1 4000096:-1 4000097:-1 4000098:1 4000099:1 4000100:1 4000101:1 4000102:1 4000103:1 4000104:-1 4000105:-1 4000106:-1 4000107:1 4000108:1 4000109:1 4000110:1 4000111:1 4000112:1 4000113:1 4000114:-1 4000115:-1 4000116:-1 4000117:-1 4000118:1 4000119:1 4000120:1 4000121:1 4000122:1 4000123:1 4000124:-1 4000125:-1 4000126:-1 4000127:-1 4100092:-1 4100093:-1 4100094:-1 4100095:-1 4100096:-1 4100097:-1 4100098:1 4100099:1 4100100:1 4100101:1 4100102:1 4100103:1 4100104:-1 4100105:-1 4100106:-1 4100107:1 4100108:1 4100109:1 4100110:1 4100111:1 4100112:1 4100113:1 4100114:-1 4100115:-1 4100116:-1 4100117:-1 4100118:1 4100119:1 4100120:1 4100121:1 4100122:1 4100123:1 4100124:-1 4100125:-1 4100126:-1 4100127:-1 4200092:-1 4200093:-1 4200094:-1 4200095:-1 4200096:-1 4200097:-1 4200098:1 4200099:1 4200100:1 4200101:1 4200102:1 4200103:1 4200104:-1 4200105:-1 4200106:-1 4200107:-1 4200108:1 4200109:1 4200110:1 4200111:1 4200112:1 4200113:1 4200114:1 4200115:-1 4200116:-1 4200117:-1 4200118:1 4200119:1 4200120:1 4200121:1 4200122:1 4200123:1 4200124:-1 4200125:-1 4200126:-1 4200127:-1 4300092:-1 4300093:-1 4300094:-1 4300095:-1 4300096:-1 4300097:-1 4300098:1 4300099:1 4300100:1 4300101:1 4300102:1 4300103:1 4300104:-1 4300105:-1 4300106:-1 4300107:-1 4300108:-1 4300109:1 4300110:1 4300111:1 4300112:1 4300113:1 4300114:1 4300115:1 4300116:-1 4300117:-1 4300118:1 4300119:1 4300120:1 4300121:1 4300122:1 4300123:1 4300124:-1 4300125:-1 4300126:-1 4300127:-1 4400093:-1 4400094:-1 4400095:-1 4400096:-1 4400097:-1 4400098:1 4400099:1 4400100:1 4400101:1 4400102:1 4400103:1 4400104:-1 4400105:-1 4400106:-1 4400107:-1 4400108:-1 4400109:1 4400110:1 4400111:1 4400112:1 4400113:1 4400114:1 4400115:1 4400116:-1 4400117:-1 4400118:1 4400119:1 4400120:1 4400121:1 4400122:1 4400123:1 4400124:-1 4400125:-1 4400126:-1 4400127:-1 4500093:-1 4500094:-1 4500095:-1 4500096:-1 4500097:-1 4500098:1 4500099:1 4500100:1 4500101:1 4500102:1 4500103:1 4500104:-1 4500105:-1 4500106:-1 4500107:-1 4500108:-1 4500109:-1 4500110:1 4500111:1 4500112:1 4500113:1 4500114:1 4500115:1 4500116:1 4500117:-1 4500118:1 4500119:1 4500120:1 4500121:1 4500122:1 4500123:1 4500124:-1 4500125:-1 4500126:-1 4500127:-1 4600093:-1 4600094:-1 4600095:-1 4600096:-1 4600097:-1 4600098:1 4600099:1 4600100:1 4600101:1 4600102:1 4600103:1 4600104:-1 4600105:-1 4600106:-1 4600107:-1 4600108:-1 4600109:-1 4600110:-1 4600111:1 4600112:1 4600113:1 4600114:1 4600115:1 4600116:1 4600117:1 4600118:1 4600119:1 4600120:1 4600121:1 4600122:1 4600123:1 4600124:-1 4600125:-1 4600126:-1 4600127:-1 4700094:-1 4700095:-1 4700096:-1 4700097:-1 4700098:1 4700099:1 4700100:1 4700101:1 4700102:1 4700103:1 4700104:-1 4700105:-1 4700106:-1 4700107:-1 4700108:-1 4700109:-1 4700110:-1 4700111:1 4700112:1 4700113:1 4700114:1 4700115:1 4700116:1 4700117:1 4700118:1 4700119:1 4700120:1 4700121:1 4700122:1 4700123:1 4700124:-1 4700125:-1 4700126:-1 4700127:-1 4800094:-1 4800095:-1 4800096:-1 4800097:-1 4800098:1 4800099:1 4800100:1 4800101:1 4800102:1 4800103:1 4800104:-1 4800105:-1 4800106:-1 4800107:-1 4800108:-1 4800109:-1 4800110:-1 4800111:-1 4800112:1 4800113:1 4800114:1 4800115:1 4800116:1 4800117:1 4800118:1 4800119:1 4800120:1 4800121:1 4800122:1 4800123:1 4800124:-1 4800125:-1 4800126:-1 4800127:-1 4900094:-1 4900095:-1 4900096:-1 4900097:-1 4900098:1 4900099:1 4900100:1 4900101:1 4900102:1 4900103:1 4900104:-1 4900105:-1 4900106:-1 4900107:-1 4900108:-1 4900109:-1 4900110:-1 4900111:-1 4900112:-1 4900113:1 4900114:1 4900115:1 4900116:1 4900117:1 4900118:1 4900119:1 4900120:1 4900121:1 4900122:1 4900123:1 4900124:-1 4900125:-1 4900126:-1 4900127:-1 5000094:-1 5000095:-1 5000096:-1 5000097:-1 5000098:1 5000099:1 5000100:1 5000101:1 5000102:1 5000103:1 5000104:-1 5000105:-1 5000106:-1 5000107:-1 5000108:-1 5000109:-1 5000110:-1 5000111:-1 5000112:-1 5000113:1 5000114:1 5000115:1 5000116:1 5000117:1 5000118:1 5000119:1 5000120:1 5000121:1 5000122:1 5000123:1 5000124:-1 5000125:-1 5000126:-1 5000127:-1 5100094:-1 5100095:-1 5100096:-1 5100097:-1 5100098:1 5100099:1 5100100:1 5100101:1 5100102:1 5100103:1 5100104:-1 5100105:-1 5100106:-1 5100107:-1 5100108:-1 5100109:-1 5100110:-1 5100111:-1 5100112:-1 5100113:-1 5100114:1 5100115:1 5100116:1 5100117:1 5100118:1 5100119:1 5100120:1 5100121:1 5100122:1 5100123:1 5100124:-1 5100125:-1 5100126:-1 5100127:-1 5200094:-1 5200095:-1 5200096:-1 5200097:-1 5200098:1 5200099:1 5200100:1 5200101:1 5200102:1 5200103:1 5200104:-1 5200105:-1 5200106:-1 5200107:-1 5200108:-1 5200109:-1 5200110:-1 5200111:-1 5200112:-1 5200113:-1 5200114:-1 5200115:1 5200116:1 5200117:1 5200118:1 5200119:1 5200120:1 5200121:1 5200122:1 5200123:1 5200124:-1 5200125:-1 5200126:-1 5200127:-1 5300094:-1 5300095:-1 5300096:-1 5300097:-1 5300098:1 5300099:1 5300100:1 5300101:1 5300102:1 5300103:1 5300104:-1 5300105:-1 5300106:-1 5300107:-1 5300108:-1 5300109:-1 5300110:-1 5300111:-1 5300112:-1 5300113:-1 5300114:-1 5300115:1 5300116:1 5300117:1 5300118:1 5300119:1 5300120:1 5300121:1 5300122:1 5300123:1 5300124:-1 5300125:-1 5300126:-1 5300127:-1 5400094:-1 5400095:-1 5400096:-1 5400097:-1 5400098:1 5400099:1 5400100:1 5400101:1 5400102:1 5400103:1 5400104:-1 5400105:-1 5400106:-1 5400107:-1 5400108:-1 5400109:-1 5400110:-1 5400111:-1 5400112:-1 5400113:-1 5400114:-1 5400115:-1 5400116:1 5400117:1 5400118:1 5400119:1 5400120:1 5400121:1 5400122:1 5400123:1 5400124:-1 5400125:-1 5400126:-1 5400127:-1 5500093:-1 5500094:-1 5500095:-1 5500096:-1 5500097:-1 5500098:1 5500099:1 5500100:1 5500101:1 5500102:1 5500103:1 5500104:-1 5500105:-1 5500106:-1 5500107:-1 5500108:-1 5500109:-1 5500110:-1 5500111:-1 5500112:-1 5500113:-1 5500114:-1 5500115:-1 5500116:-1 5500117:1 5500118:1 5500119:1 5500120:1 5500121:1 5500122:1 5500123:1 5500124:-1 5500125:-1 5500126:-1 5500127:-1 5600093:-1 5600094:-1 5600095:-1 5600096:-1 5600097:-1 5600098:1 5600099:1 5600100:1 5600101:1 5600102:1 5600103:1 5600104:-1 5600105:-1 5600106:-1 5600107:-1 5600108:-1 5600109:-1 5600110:-1 5600111:-1 5600112:-1 5600113:-1 5600114:-1 5600115:-1 5600116:-1 5600117:1 5600118:1 5600119:1 5600120:1 5600121:1 5600122:1 5600123:1 5600124:-1 5600125:-1 5600126:-1 5600127:-1 
-0.5 0.5 0.5 0.5 0.5 0.5 0.5 0.5 0.5 0.5 0.5 0.5 0.5 0.5 0.5 0.5 0.5 0.5 0.5 0.5 0.5 0.5 0.5 0.5 0.5 0.5 0.5 0.5 0.5 0.5 0.5 0.5 0.5 0.5 0.5 0.5 0.5 0.5 0.5 0.5 0.5 0.5 0.5 0.5 0.5 0.5 0.5 0.5 0 2400105:-1 2400106:-1 2400107:-1 2400108:-1 2400109:-1 2400110:-1 2400111:-1 2400112:-1 2400113:-1 2500097:-1 2500098:-1 2500099:-1 2500100:-1 2500101:-1 2500102:-1 2500103:-1 2500104:-1 2500105:-1 2500106:-1 2500107:-1 2500108:-1 2500109:-1 2500110:-1 2500111:-1 2500112:-1 2500113:-1 2500114:-1 2500115:-1 2500116:-1 2500117:-1 2500118:-1 2500119:-1 2500120:-1 2500121:-1 2500122:-1 2500123:-1 2600095:-1 2600096:-1 2600097:-1 2600098:-1 2600099:1 2600100:1 2600101:1 2600102:1 2600103:1 2600104:-1 2600105:-1 2600106:-1 2600107:-1 2600108:-1 2600109:-1 2600110:-1 2600111:-1 2600112:-1 2600113:-1 2600114:-1 2600115:-1 2600116:-1 2600117:-1 2600118:-1 2600119:1 2600120:1 2600121:1 2600122:1 2600123:-1 2600124:-1 2600125:-1 2600126:-1 2700088:-1 2700089:-1 2700090:-1 2700091:-1 2700092:-1 2700093:-1 2700094:-1 2700095:-1 2700096:-1 2700097:-1 2700098:1 2700099:1 2700100:1 2700101:1 2700102:1 2700103:1 2700104:1 2700105:-1 2700106:-1 2700107:-1 2700108:-1 2700109:-1 2700110:-1 2700111:-1 2700112:-1 2700113:-1 2700114:-1 2700115:-1 2700116:-1 2700117:-1 2700118:1 2700119:1 2700120:1 2700121:1 2700122:1 2700123:1 2700124:-1 2700125:-1 2700126:-1 2700127:-1 2800088:-1 2800089:-1 2800090:-1 2800091:-1 2800092:-1 2800093:-1 2800094:-1 2800095:-1 2800096:-1 2800097:-1 2800098:1 2800099:1 2800100:1 2800101:1 2800102:1 2800103:1 2800104:1 2800105:1 2800106:-1 2800107:-1 2800108:-1 2800109:-1 2800110:-1 2800111:-1 2800112:-1 2800113:-1 2800114:-1 2800115:-1 2800116:-1 2800117:-1 2800118:1 2800119:1 2800120:1 2800121:1 2800122:1 2800123:1 2800124:-1 2800125:-1 2800126:-1 2800127:-1 2900089:-1 2900090:-1 2900091:-1 2900092:-1 2900093:-1 2900094:-1 2900095:-1 2900096:-1 2900097:-1 2900098:1 2900099:1 2900100:1 2900101:1 2900102:1 2900103:1 2900104:1 2900105:1 2900106:-1 2900107:-1 2900108:-1 2900109:-1 2900110:-1 2900111:-1 2900112:-1 2900113:-1 2900114:-1 2900115:-1 2900116:-1 2900117:-1 2900118:1 2900119:1 2900120:1 2900121:1 2900122:1 2900123:1 2900124:-1 2900125:-1 2900126:-1 2900127:-1 3000089:-1 3000090:-1 3000091:-1 3000092:-1 3000093:-1 3000094:-1 3000095:-1 3000096:-1 3000097:-1 3000098:1 3000099:1 3000100:1 3000101:1 3000102:1 3000103:1 3000104:1 3000105:1 3000106:1 3000107:-1 3000108:-1 3000109:-1 3000110:-1 3000111:-1 3000112:-1 3000113:-1 3000114:-1 3000115:-1 3000116:-1 3000117:-1 3000118:1 3000119:1 3000120:1 3000121:1 3000122:1 3000123:1 3000124:-1 3000125:-1 3000126:-1 3000127:-1 3100089:-1 3100090:-1 3100091:-1 3100092:-1 3100093:-1 3100094:-1 3100095:-1 3100096:-1 3100097:-1 3100098:1 3100099:1 3100100:1 3100101:1 3100102:1 3100103:1 3100104:1 3100105:1 3100106:1 3100107:1 3100108:-1 3100109:-1 3100110:-1 3100111:-1 3100112:-1 3100113:-1 3100114:-1 3100115:-1 3100116:-1 3100117:-1 3100118:1 3100119:1 3100120:1 3100121:1 3100122:1 3100123:1 3100124:-1 3100125:-1 3100126:-1 3100127:-1 3200090:-1 3200091:-1 3200092:-1 3200093:-1 3200094:-1 3200095:-1 3200096:-1 3200097:-1 3200098:1 3200099:1 3200100:1 3200101:1 3200102:1 3200103:1 3200104:1 3200105:1 3200106:1 3200107:1 3200108:-1 3200109:-1 3200110:-1 3200111:-1 3200112:-1 3200113:-1 3200114:-1 3200115:-1 3200116:-1 3200117:-1 3200118:1 3200119:1 3200120:1 3200121:1 3200122:1 3200123:1 3200124:-1 3200125:-1 3200126:-1 3200127:-1 3300090:-1 3300091:-1 3300092:-1 3300093:-1 3300094:-1 3300095:-1 3300096:-1 3300097:-1 3300098:1 3300099:1 3300100:1 3300101:1 3300102:1 3300103:1 3300104:1 3300105:1 3300106:1 3300107:1 3300108:1 3300109:-1 3300110:-1 3300111:-1 3300112:-1 3300113:-1 3300114:-1 3300115:-1 3300116:-1 3300117:-1 3300118:1 3300119:1 3300120:1 3300121:1 3300122:1 3300123:1 3300124:-1 3300125:-1 3300126:-1 3300127:-1 3400090:-1 3400091:-1 3400092:-1 3400093:-1 3400094:-1 3400095:-1 3400096:-1 3400097:-1 3400098:1 3400099:1 3400100:1 3400101:1 3400102:1 3400103:1 3400104:1 3400105:1 3400106:1 3400107:1 3400108:1 3400109:1 3400110:-1 3400111:-1 3400112:-1 3400113:-1 3400114:-1 3400115:-1 3400116:-1 3400117:-1 3400118:1 3400119:1 3400120:1 3400121:1 3400122:1 3400123:1 3400124:-1 3400125:-1 3400126:-1 3400127:-1 3500090:-1 3500091:-1 3500092:-1 3500093:-1 3500094:-1 3500095:-1 3500096:-1 3500097:-1 3500098:1 3500099:1 3500100:1 3500101:1 3500102:1 3500103:1 3500104:1 3500105:1 3500106:1 3500107:1 3500108:1 3500109:1 3500110:-1 3500111:-1 3500112:-1 3500113:-1 3500114:-1 3500115:-1 3500116:-1 3500117:-1 3500118:1 3500119:1 3500120:1 3500121:1 3500122:1 3500123:1 3500124:-1 3500125:-1 3500126:-1 3500127:-1 3600091:-1 3600092:-1 3600093:-1 3600094:-1 3600095:-1 3600096:-1 3600097:-1 3600098:1 3600099:1 3600100:1 3600101:1 3600102:1 3600103:1 3600104:1 3600105:1 3600106:1 3600107:1 3600108:1 3600109:1 3600110:1 3600111:-1 3600112:-1 3600113:-1 3600114:-1 3600115:-1 3600116:-1 3600117:-1 3600118:1 3600119:1 3600120:1 3600121:1 3600122:1 3600123:1 3600124:-1 3600125:-1 3600126:-1 3600127:-1 3700091:-1 3700092:-1 3700093:-1 3700094:-1 3700095:-1 3700096:-1 3700097:-1 3700098:1 3700099:1 3700100:1 3700101:1 3700102:1 3700103:1 3700104:1 3700105:1 3700106:1 3700107:1 3700108:1 3700109:1 3700110:1 3700111:1 3700112:-1 3700113:-1 3700114:-1 3700115:-1 3700116:-1 3700117:-1 3700118:1 3700119:1 3700120:1 3700121:1 3700122:1 3700123:1 3700124:-1 3700125:-1 3700126:-1 3700127:-1 3800091:-1 3800092:-1 3800093:-1 3800094:-1 3800095:-1 3800096:-1 3800097:-1 3800098:1 3800099:1 3800100:1 3800101:1 3800102:1 3800103:1 3800104:-1 3800105:1 3800106:1 3800107:1 3800108:1 3800109:1 3800110:1 3800111:1 3800112:-1 3800113:-1 3800114:-1 3800115:-1 3800116:-1 3800117:-1 3800118:1 3800119:1 3800120:1 3800121:1 3800122:1 3800123:1 3800124:-1 3800125:-1 3800126:-1 3800127:-1 3900091:-1 3900092:-1 3900093:-1 3900094:-1 3900095:-1 3900096:-1 3900097:-1 3900098:1 3900099:1 3900100:1 3900101:1 3900102:1 3900103:1 3900104:-1 3900105:-1 3900106:1 3900107:1 3900108:1 3900109:1 3900110:1 3900111:1 3900112:1 3900113:-1 3900114:-1 3900115:-1 3900116:-1 3900117:-1 3900118:1 3900119:1 3900120:1 3900121:1 3900122:1 3900123:1 3900124:-1 3900125:-1 3900126:-1 3900127:-1 4000092:-1 4000093:-1 4000094:-1 4000095:-1 4000096:-1 4000097:-1 4000098:1 4000099:1 4000100:1 4000101:1 4000102:1 4000103:1 4000104:-1 4000105:-1 4000106:-1 4000107:1 4000108:1 4000109:1 4000110:1 4000111:1 4000112:1 4000113:1 4000114:-1 4000115:-1 4000116:-1 4000117:-1 4000118:1 4000119:1 4000120:1 4000121:1 4000122:1 4000123:1 4000124:-1 4000125:-1 4000126:-1 4000127:-1 4100092:-1 4100093:-1 4100094:-1 4100095:-1 4100096:-1 4100097:-1 4100098:1 4100099:1 4100100:1 4100101:1 4100102:1 4100103:1 4100104:-1 4100105:-1 4100106:-1 4100107:1 4100108:1 4100109:1 4100110:1 4100111:1 4100112:1 4100113:1 4100114:-1 4100115:-1 4100116:-1 4100117:-1 4100118:1 4100119:1 4100120:1 4100121:1 4100122:1 4100123:1 4100124:-1 4100125:-1 4100126:-1 4100127:-1 4200092:-1 4200093:-1 4200094:-1 4200095:-1 4200096:-1 4200097:-1 4200098:1 4200099:1 4200100:1 4200101:1 4200102:1 4200103:1 4200104:-1 4200105:-1 4200106:-1 4200107:-1 4200108:1 4200109:1 4200110:1 4200111:1 4200112:1 4200113:1 4200114:1 4200115:-1 4200116:-1 4200117:-1 4200118:1 4200119:1 4200120:1 4200121:1 4200122:1 4200123:1 4200124:-1 4200125:-1 4200126:-1 4200127:-1 4300092:-1 4300093:-1 4300094:-1 4300095:-1 4300096:-1 4300097:-1 4300098:1 4300099:1 4300100:1 4300101:1 4300102:1 4300103:1 4300104:-1 4300105:-1 4300106:-1 4300107:-1 4300108:-1 4300109:1 4300110:1 4300111:1 4300112:1 4300113:1 4300114:1 4300115:1 4300116:-1 4300117:-1 4300118:1 4300119:1 4300120:1 4300121:1 4300122:1 4300123:1 4300124:-1 4300125:-1 4300126:-1 4300127:-1 4400093:-1 4400094:-1 4400095:-1 4400096:-1 4400097:-1 4400098:1 4400099:1 4400100:1 4400101:1 4400102:1 4400103:1 4400104:-1 4400105:-1 4400106:-1 4400107:-1 4400108:-1 4400109:1 4400110:1 4400111:1 4400112:1 4400113:1 4400114:1 4400115:1 4400116:-1 4400117:-1 4400118:1 4400119:1 4400120:1 4400121:1 4400122:1 4400123:1 4400124:-1 4400125:-1 4400126:-1 4400127:-1 4500093:-1 4500094:-1 4500095:-1 4500096:-1 4500097:-1 4500098:1 4500099:1 4500100:1 4500101:1 4500102:1 4500103:1 4500104:-1 4500105:-1 4500106:-1 4500107:-1 4500108:-1 4500109:-1 4500110:1 4500111:1 4500112:1 4500113:1 4500114:1 4500115:1 4500116:1 4500117:-1 4500118:1 4500119:1 4500120:1 4500121:1 4500122:1 4500123:1 4500124:-1 4500125:-1 4500126:-1 4500127:-1 4600093:-1 4600094:-1 4600095:-1 4600096:-1 4600097:-1 4600098:1 4600099:1 4600100:1 4600101:1 4600102:1 4600103:1 4600104:-1 4600105:-1 4600106:-1 4600107:-1 4600108:-1 4600109:-1 4600110:-1 4600111:1 4600112:1 4600113:1 4600114:1 4600115:1 4600116:1 4600117:1 4600118:1 4600119:1 4600120:1 4600121:1 4600122:1 4600123:1 4600124:-1 4600125:-1 4600126:-1 4600127:-1 4700094:-1 4700095:-1 4700096:-1 4700097:-1 4700098:1 4700099:1 4700100:1 4700101:1 4700102:1 4700103:1 4700104:-1 4700105:-1 4700106:-1 4700107:-1 4700108:-1 4700109:-1 4700110:-1 4700111:1 4700112:1 4700113:1 4700114:1 4700115:1 4700116:1 4700117:1 4700118:1 4700119:1 4700120:1 4700121:1 4700122:1 4700123:1 4700124:-1 4700125:-1 4700126:-1 4700127:-1 4800094:-1 4800095:-1 4800096:-1 4800097:-1 4800098:1 4800099:1 4800100:1 4800101:1 4800102:1 4800103:1 4800104:-1 4800105:-1 4800106:-1 4800107:-1 4800108:-1 4800109:-1 4800110:-1 4800111:-1 4800112:1 4800113:1 4800114:1 4800115:1 4800116:1 4800117:1 4800118:1 4800119:1 4800120:1 4800121:1 4800122:1 4800123:1 4800124:-1 4800125:-1 4800126:-1 4800127:-1 4900094:-1 4900095:-1 4900096:-1 4900097:-1 4900098:1 4900099:1 4900100:1 4900101:1 4900102:1 4900103:1 4900104:-1 4900105:-1 4900106:-1 4900107:-1 4900108:-1 4900109:-1 4900110:-1 4900111:-1 4900112:-1 4900113:1 4900114:1 4900115:1 4900116:1 4900117:1 4900118:1 4900119:1 4900120:1 4900121:1 4900122:1 4900123:1 4900124:-1 4900125:-1 4900126:-1 4900127:-1 5000094:-1 5000095:-1 5000096:-1 5000097:-1 5000098:1 5000099:1 5000100:1 5000101:1 5000102:1 5000103:1 5000104:-1 5000105:-1 5000106:-1 5000107:-1 5000108:-1 5000109:-1 5000110:-1 5000111:-1 5000112:-1 5000113:1 5000114:1 5000115:1 5000116:1 5000117:1 5000118:1 5000119:1 5000120:1 5000121:1 5000122:1 5000123:1 5000124:-1 5000125:-1 5000126:-1 5000127:-1 5100094:-1 5100095:-1 5100096:-1 5100097:-1 5100098:1 5100099:1 5100100:1 5100101:1 5100102:1 5100103:1 5100104:-1 5100105:-1 5100106:-1 5100107:-1 5100108:-1 5100109:-1 5100110:-1 5100111:-1 5100112:-1 5100113:-1 5100114:1 5100115:1 5100116:1 5100117:1 5100118:1 5100119:1 5100120:1 5100121:1 5100122:1 5100123:1 5100124:-1 5100125:-1 5100126:-1 5100127:-1 5200094:-1 5200095:-1 5200096:-1 5200097:-1 5200098:1 5200099:1 5200100:1 5200101:1 5200102:1 5200103:1 5200104:-1 5200105:-1 5200106:-1 5200107:-1 5200108:-1 5200109:-1 5200110:-1 5200111:-1 5200112:-1 5200113:-1 5200114:-1 5200115:1 5200116:1 5200117:1 5200118:1 5200119:1 5200120:1 5200121:1 5200122:1 5200123:1 5200124:-1 5200125:-1 5200126:-1 5200127:-1 5300094:-1 5300095:-1 5300096:-1 5300097:-1 5300098:1 5300099:1 5300100:1 5300101:1 5300102:1 5300103:1 5300104:-1 5300105:-1 5300106:-1 5300107:-1 5300108:-1 5300109:-1 5300110:-1 5300111:-1 5300112:-1 5300113:-1 5300114:-1 5300115:1 5300116:1 5300117:1 5300118:1 5300119:1 5300120:1 5300121:1 5300122:1 5300123:1 5300124:-1 5300125:-1 5300126:-1 5300127:-1 5400094:-1 5400095:-1 5400096:-1 5400097:-1 5400098:1 5400099:1 5400100:1 5400101:1 5400102:1 5400103:1 5400104:-1 5400105:-1 5400106:-1 5400107:-1 5400108:-1 5400109:-1 5400110:-1 5400111:-1 5400112:-1 5400113:-1 5400114:-1 5400115:-1 5400116:1 5400117:1 5400118:1 5400119:1 5400120:1 5400121:1 5400122:1 5400123:1 5400124:-1 5400125:-1 5400126:-1 5400127:-1 5500093:-1 5500094:-1 5500095:-1 5500096:-1 5500097:-1 5500098:1 5500099:1 5500100:1 5500101:1 5500102:1 5500103:1 5500104:-1 5500105:-1 5500106:-1 5500107:-1 5500108:-1 5500109:-1 5500110:-1 5500111:-1 5500112:-1 5500113:-1 5500114:-1 5500115:-1 5500116:-1 5500117:1 5500118:1 5500119:1 5500120:1 5500121:1 5500122:1 5500123:1 5500124:-1 5500125:-1 5500126:-1 5500127:-1 5600093:-1 5600094:-1 5600095:-1 5600096:-1 5600097:-1 5600098:1 5600099:1 5600100:1 5600101:1 5600102:1 5600103:1 5600104:-1 5600105:-1 5600106:-1 5600107:-1 5600108:-1 5600109:-1 5600110:-1 5600111:-1 5600112:-1 5600113:-1 5600114:-1 5600115:-1 5600116:-1 5600117:1 5600118:1 5600119:1 5600120:1 5600121:1 5600122:1 5600123:1 5600124:-1 5600125:-1 5600126:-1 5600127:-1 
-0.5 0.5 0.5 0.5 0.5 0.5 0.5 0.5 0.5 0.5 0.5 0.5 0.5 0.5 0.5 0.5 0.5 0.5 0.5 0.5 0.5 0.5 0.5 0.5 0.5 0.5 0.5 0.5 0.5 0.5 0.5 0.5 0.5 0.5 0.5 0.5 0.5 0.5 0.5 0.5 0.5 0.5 0.5 0.5 0.5 0.5 0.5 0.5 0.5 2400105:-1 2400106:-1 2400107:-1 2400108:-1 2400109:-1 2400110:-1 2400111:-1 2400112:-1 2400113:-1 2500097:-1 2500098:-1 2500099:-1 2500100:-1 2500101:-1 2500102:-1 2500103:-1 2500104:-1 2500105:-1 2500106:-1 2500107:-1 2500108:-1 2500109:-1 2500110:-1 2500111:-1 2500112:-1 2500113:-1 2500114:-1 2500115:-1 2500116:-1 2500117:-1 2500118:-1 2500119:-1 2500120:-1 2500121:-1 2500122:-1 2500123:-1 2600095:-1 2600096:-1 2600097:-1 2600098:-1 2600099:1 2600100:1 2600101:1 2600102:1 2600103:1 2600104:-1 2600105:-1 2600106:-1 2600107:-1 2600108:-1 2600109:-1 2600110:-1 2600111:-1 2600112:-1 2600113:-1 2600114:-1 2600115:-1 2600116:-1 2600117:-1 2600118:-1 2600119:1 2600120:1 2600121:1 2600122:1 2600123:-1 2600124:-1 2600125:-1 2600126:-1 2700088:-1 2700089:-1 2700090:-1 2700091:-1 2700092:-1 2700093:-1 2700094:-1 2700095:-1 2700096:-1 2700097:-1 2700098:1 2700099:1 2700100:1 2700101:1 2700102:1 2700103:1 2700104:1 2700105:-1 2700106:-1 2700107:-1 2700108:-1 2700109:-1 2700110:-1 2700111:-1 2700112:-1 2700113:-1 2700114:-1 2700115:-1 2700116:-1 2700117:-1 2700118:1 2700119:1 2700120:1 2700121:1 2700122:1 2700123:1 2700124:-1 2700125:-1 2700126:-1 2700127:-1 2800088:-1 2800089:-1 2800090:-1 2800091:-1 2800092:-1 2800093:-1 2800094:-1 2800095:-1 2800096:-1 2800097:-1 2800098:1 2800099:1 2800100:1 2800101:1 2800102:1 2800103:1 2800104:1 2800105:1 2800106:-1 2800107:-1 2800108:-1 2800109:-1 2800110:-1 2800111:-1 2800112:-1 2800113:-1 2800114:-1 2800115:-1 2800116:-1 2800117:-1 2800118:1 2800119:1 2800120:1 2800121:1 2800122:1 2800123:1 2800124:-1 2800125:-1 2800126:-1 2800127:-1 2900089:-1 2900090:-1 2900091:-1 2900092:-1 2900093:-1 2900094:-1 2900095:-1 2900096:-1 2900097:-1 2900098:1 2900099:1 2900100:1 2900101:1 2900102:1 2900103:1 2900104:1 2900105:1 2900106:-1 2900107:-1 2900108:-1 2900109:-1 2900110:-1 2900111:-1 2900112:-1 2900113:-1 2900114:-1 2900115:-1 2900116:-1 2900117:-1 2900118:1 2900119:1 2900120:1 2900121:1 2900122:1 2900123:1 2900124:-1 2900125:-1 2900126:-1 2900127:-1 3000089:-1 3000090:-1 3000091:-1 3000092:-1 3000093:-1 3000094:-1 3000095:-1 3000096:-1 3000097:-1 3000098:1 3000099:1 3000100:1 3000101:1 3000102:1 3000103:1 3000104:1 3000105:1 3000106:1 3000107:-1 3000108:-1 3000109:-1 3000110:-1 3000111:-1 3000112:-1 3000113:-1 3000114:-1 3000115:-1 3000116:-1 3000117:-1 3000118:1 3000119:1 3000120:1 3000121:1 3000122:1 3000123:1 3000124:-1 3000125:-1 3000126:-1 3000127:-1 3100089:-1 3100090:-1 3100091:-1 3100092:-1 3100093:-1 3100094:-1 3100095:-1 3100096:-1 3100097:-1 3100098:1 3100099:1 3100100:1 3100101:1 3100102:1 3100103:1 3100104:1 3100105:1 3100106:1 3100107:1 3100108:-1 3100109:-1 3100110:-1 3100111:-1 3100112:-1 3100113:-1 3100114:-1 3100115:-1 3100116:-1 3100117:-1 3100118:1 3100119:1 3100120:1 3100121:1 3100122:1 3100123:1 3100124:-1 3100125:-1 3100126:-1 3100127:-1 3200090:-1 3200091:-1 3200092:-1 3200093:-1 3200094:-1 3200095:-1 3200096:-1 3200097:-1 3200098:1 3200099:1 3200100:1 3200101:1 3200102:1 3200103:1 3200104:1 3200105:1 3200106:1 3200107:1 3200108:-1 3200109:-1 3200110:-1 3200111:-1 3200112:-1 3200113:-1 3200114:-1 3200115:-1 3200116:-1 3200117:-1 3200118:1 3200119:1 3200120:1 3200121:1 3200122:1 3200123:1 3200124:-1 3200125:-1 3200126:-1 3200127:-1 3300090:-1 3300091:-1 3300092:-1 3300093:-1 3300094:-1 3300095:-1 3300096:-1 3300097:-1 3300098:1 3300099:1 3300100:1 3300101:1 3300102:1 3300103:1 3300104:1 3300105:1 3300106:1 3300107:1 3300108:1 3300109:-1 3300110:-1 3300111:-1 3300112:-1 3300113:-1 3300114:-1 3300115:-1 3300116:-1 3300117:-1 3300118:1 3300119:1 3300120:1 3300121:1 3300122:1 3300123:1 3300124:-1 3300125:-1 3300126:-1 3300127:-1 3400090:-1 3400091:-1 3400092:-1 3400093:-1 3400094:-1 3400095:-1 3400096:-1 3400097:-1 3400098:1 3400099:1 3400100:1 3400101:1 3400102:1 3400103:1 3400104:1 3400105:1 3400106:1 3400107:1 3400108:1 3400109:1 3400110:-1 3400111:-1 3400112:-1 3400113:-1 3400114:-1 3400115:-1 3400116:-1 3400117:-1 3400118:1 3400119:1 3400120:1 3400121:1 3400122:1 3400123:1 3400124:-1 3400125:-1 3400126:-1 3400127:-1 3500090:-1 3500091:-1 3500092:-1 3500093:-1 3500094:-1 3500095:-1 3500096:-1 3500097:-1 3500098:1 3500099:1 3500100:1 3500101:1 3500102:1 3500103:1 3500104:1 3500105:1 3500106:1 3500107:1 3500108:1 3500109:1 3500110:-1 3500111:-1 3500112:-1 3500113:-1 3500114:-1 3500115:-1 3500116:-1 3500117:-1 3500118:1 3500119:1 3500120:1 3500121:1 3500122:1 3500123:1 3500124:-1 3500125:-1 3500126:-1 3500127:-1 3600091:-1 3600092:-1 3600093:-1 3600094:-1 3600095:-1 3600096:-1 3600097:-1 3600098:1 3600099:1 3600100:1 3600101:1 3600102:1 3600103:1 3600104:1 3600105:1 3600106:1 3600107:1 3600108:1 3600109:1 3600110:1 3600111:-1 3600112:-1 3600113:-1 3600114:-1 3600115:-1 3600116:-1 3600117:-1 3600118:1 3600119:1 3600120:1 3600121:1 3600122:1 3600123:1 3600124:-1 3600125:-1 3600126:-1 3600127:-1 3700091:-1 3700092:-1 3700093:-1 3700094:-1 3700095:-1 3700096:-1 3700097:-1 3700098:1 3700099:1 3700100:1 3700101:1 3700102:1 3700103:1 3700104:1 3700105:1 3700106:1 3700107:1 3700108:1 3700109:1 3700110:1 3700111:1 3700112:-1 3700113:-1 3700114:-1 3700115:-1 3700116:-1 3700117:-1 3700118:1 3700119:1 3700120:1 3700121:1 3700122:1 3700123:1 3700124:-1 3700125:-1 3700126:-1 3700127:-1 3800091:-1 3800092:-1 3800093:-1 3800094:-1 3800095:-1 3800096:-1 3800097:-1 3800098:1 3800099:1 3800100:1 3800101:1 3800102:1 3800103:1 3800104:-1 3800105:1 3800106:1 3800107:1 3800108:1 3800109:1 3800110:1 3800111:1 3800112:-1 3800113:-1 3800114:-1 3800115:-1 3800116:-1 3800117:-1 3800118:1 3800119:1 3800120:1 3800121:1 3800122:1 3800123:1 3800124:-1 3800125:-1 3800126:-1 3800127:-1 3900091:-1 3900092:-1 3900093:-1 3900094:-1 3900095:-1 3900096:-1 3900097:-1 3900098:1 3900099:1 3900100:1 3900101:1 3900102:1 3900103:1 3900104:-1 3900105:-1 3900106:1 3900107:1 3900108:1 3900109:1 3900110:1 3900111:1 3900112:1 3900113:-1 3900114:-1 3900115:-1 3900116:-1 3900117:-1 3900118:1 3900119:1 3900120:1 3900121:1 3900122:1 3900123:1 3900124:-1 3900125:-1 3900126:-1 3900127:-1 4000092:-1 4000093:-1 4000094:-1 4000095:-1 4000096:-1 4000097:-1 4000098:1 4000099:1 4000100:1 4000101:1 4000102:1 4000103:1 4000104:-1 4000105:-1 4000106:-1 4000107:1 4000108:1 4000109:1 4000110:1 4000111:1 4000112:1 4000113:1 4000114:-1 4000115:-1 4000116:-1 4000117:-1 4000118:1 4000119:1 4000120:1 4000121:1 4000122:1 4000123:1 4000124:-1 4000125:-1 4000126:-1 4000127:-1 4100092:-1 4100093:-1 4100094:-1 4100095:-1 4100096:-1 4100097:-1 4100098:1 4100099:1 4100100:1 4100101:1 4100102:1 4100103:1 4100104:-1 4100105:-1 4100106:-1 4100107:1 4100108:1 4100109:1 4100110:1 4100111:1 4100112:1 4100113:1 4100114:-1 4100115:-1 4100116:-1 4100117:-1 4100118:1 4100119:1 4100120:1 4100121:1 4100122:1 4100123:1 4100124:-1 4100125:-1 4100126:-1 4100127:-1 4200092:-1 4200093:-1 4200094:-1 4200095:-1 4200096:-1 4200097:-1 4200098:1 4200099:1 4200100:1 4200101:1 4200102:1 4200103:1 4200104:-1 4200105:-1 4200106:-1 4200107:-1 4200108:1 4200109:1 4200110:1 4200111:1 4200112:1 4200113:1 4200114:1 4200115:-1 4200116:-1 4200117:-1 4200118:1 4200119:1 4200120:1 4200121:1 4200122:1 4200123:1 4200124:-1 4200125:-1 4200126:-1 4200127:-1 4300092:-1 4300093:-1 4300094:-1 4300095:-1 4300096:-1 4300097:-1 4300098:1 4300099:1 4300100:1 4300101:1 4300102:1 4300103:1 4300104:-1 4300105:-1 4300106:-1 4300107:-1 4300108:-1 4300109:1 4300110:1 4300111:1 4300112:1 4300113:1 4300114:1 4300115:1 4300116:-1 4300117:-1 4300118:1 4300119:1 4300120:1 4300121:1 4300122:1 4300123:1 4300124:-1 4300125:-1 4300126:-1 4300127:-1 4400093:-1 4400094:-1 4400095:-1 4400096:-1 4400097:-1 4400098:1 4400099:1 4400100:1 4400101:1 4400102:1 4400103:1 4400104:-1 4400105:-1 4400106:-1 4400107:-1 4400108:-1 4400109:1 4400110:1 4400111:1 4400112:1 4400113:1 4400114:1 4400115:1 4400116:-1 4400117:-1 4400118:1 4400119:1 4400120:1 4400121:1 4400122:1 4400123:1 4400124:-1 4400125:-1 4400126:-1 4400127:-1 4500093:-1 4500094:-1 4500095:-1 4500096:-1 4500097:-1 4500098:1 4500099:1 4500100:1 4500101:1 4500102:1 4500103:1 4500104:-1 4500105:-1 4500106:-1 4500107:-1 4500108:-1 4500109:-1 4500110:1 4500111:1 4500112:1 4500113:1 4500114:1 4500115:1 4500116:1 4500117:-1 4500118:1 4500119:1 4500120:1 4500121:1 4500122:1 4500123:1 4500124:-1 4500125:-1 4500126:-1 4500127:-1 4600093:-1 4600094:-1 4600095:-1 4600096:-1 4600097:-1 4600098:1 4600099:1 4600100:1 4600101:1 4600102:1 4600103:1 4600104:-1 4600105:-1 4600106:-1 4600107:-1 4600108:-1 4600109:-1 4600110:-1 4600111:1 4600112:1 4600113:1 4600114:1 4600115:1 4600116:1 4600117:1 4600118:1 4600119:1 4600120:1 4600121:1 4600122:1 4600123:1 4600124:-1 4600125:-1 4600126:-1 4600127:-1 4700094:-1 4700095:-1 4700096:-1 4700097:-1 4700098:1 4700099:1 4700100:1 4700101:1 4700102:1 4700103:1 4700104:-1 4700105:-1 4700106:-1 4700107:-1 4700108:-1 4700109:-1 4700110:-1 4700111:1 4700112:1 4700113:1 4700114:1 4700115:1 4700116:1 4700117:1 4700118:1 4700119:1 4700120:1 4700121:1 4700122:1 4700123:1 4700124:-1 4700125:-1 4700126:-1 4700127:-1 4800094:-1 4800095:-1 4800096:-1 4800097:-1 4800098:1 4800099:1 4800100:1 4800101:1 4800102:1 4800103:1 4800104:-1 4800105:-1 4800106:-1 4800107:-1 4800108:-1 4800109:-1 4800110:-1 4800111:-1 4800112:1 4800113:1 4800114:1 4800115:1 4800116:1 4800117:1 4800118:1 4800119:1 4800120:1 4800121:1 4800122:1 4800123:1 4800124:-1 4800125:-1 4800126:-1 4800127:-1 4900094:-1 4900095:-1 4900096:-1 4900097:-1 4900098:1 4900099:1 4900100:1 4900101:1 4900102:1 4900103:1 4900104:-1 4900105:-1 4900106:-1 4900107:-1 4900108:-1 4900109:-1 4900110:-1 4900111:-1 4900112:-1 4900113:1 4900114:1 4900115:1 4900116:1 4900117:1 4900118:1 4900119:1 4900120:1 4900121:1 4900122:1 4900123:1 4900124:-1 4900125:-1 4900126:-1 4900127:-1 5000094:-1 5000095:-1 5000096:-1 5000097:-1 5000098:1 5000099:1 5000100:1 5000101:1 5000102:1 5000103:1 5000104:-1 5000105:-1 5000106:-1 5000107:-1 5000108:-1 5000109:-1 5000110:-1 5000111:-1 5000112:-1 5000113:1 5000114:1 5000115:1 5000116:1 5000117:1 5000118:1 5000119:1 5000120:1 5000121:1 5000122:1 5000123:1 5000124:-1 5000125:-1 5000126:-1 5000127:-1 5100094:-1 5100095:-1 5100096:-1 5100097:-1 5100098:1 5100099:1 5100100:1 5100101:1 5100102:1 5100103:1 5100104:-1 5100105:-1 5100106:-1 5100107:-1 5100108:-1 5100109:-1 5100110:-1 5100111:-1 5100112:-1 5100113:-1 5100114:1 5100115:1 5100116:1 5100117:1 5100118:1 5100119:1 5100120:1 5100121:1 5100122:1 5100123:1 5100124:-1 5100125:-1 5100126:-1 5100127:-1 5200094:-1 5200095:-1 5200096:-1 5200097:-1 5200098:1 5200099:1 5200100:1 5200101:1 5200102:1 5200103:1 5200104:-1 5200105:-1 5200106:-1 5200107:-1 5200108:-1 5200109:-1 5200110:-1 5200111:-1 5200112:-1 5200113:-1 5200114:-1 5200115:1 5200116:1 5200117:1 5200118:1 5200119:1 5200120:1 5200121:1 5200122:1 5200123:1 5200124:-1 5200125:-1 5200126:-1 5200127:-1 5300094:-1 5300095:-1 5300096:-1 5300097:-1 5300098:1 5300099:1 5300100:1 5300101:1 5300102:1 5300103:1 5300104:-1 5300105:-1 5300106:-1 5300107:-1 5300108:-1 5300109:-1 5300110:-1 5300111:-1 5300112:-1 5300113:-1 5300114:-1 5300115:1 5300116:1 5300117:1 5300118:1 5300119:1 5300120:1 5300121:1 5300122:1 5300123:1 5300124:-1 5300125:-1 5300126:-1 5300127:-1 5400094:-1 5400095:-1 5400096:-1 5400097:-1 5400098:1 5400099:1 5400100:1 5400101:1 5400102:1 5400103:1 5400104:-1 5400105:-1 5400106:-1 5400107:-1 5400108:-1 5400109:-1 5400110:-1 5400111:-1 5400112:-1 5400113:-1 5400114:-1 5400115:-1 5400116:1 5400117:1 5400118:1 5400119:1 5400120:1 5400121:1 5400122:1 5400123:1 5400124:-1 5400125:-1 5400126:-1 5400127:-1 5500093:-1 5500094:-1 5500095:-1 5500096:-1 5500097:-1 5500098:1 5500099:1 5500100:1 5500101:1 5500102:1 5500103:1 5500104:-1 5500105:-1 5500106:-1 5500107:-1 5500108:-1 5500109:-1 5500110:-1 5500111:-1 5500112:-1 5500113:-1 5500114:-1 5500115:-1 5500116:-1 5500117:1 5500118:1 5500119:1 5500120:1 5500121:1 5500122:1 5500123:1 5500124:-1 5500125:-1 5500126:-1 5500127:-1 5600093:-1 5600094:-1 5600095:-1 5600096:-1 5600097:-1 5600098:1 5600099:1 5600100:1 5600101:1 5600102:1 5600103:1 5600104:-1 5600105:-1 5600106:-1 5600107:-1 5600108:-1 5600109:-1 5600110:-1 5600111:-1 5600112:-1 5600113:-1 5600114:-1 5600115:-1 5600116:-1 5600117:1 5600118:1 5600119:1 5600120:1 5600121:1 5600122:1 5600123:1 5600124:-1 5600125:-1 5600126:-1 5600127:-1 
-0 -0 0 0 0 0 0 0 0.005617332218622266 0 0 0 0 0 0 0 0 0 0 0 0 0.003853962372016311 0 0 0 0 0 0 0 0 0 0 0 0 0 0 0 0 0 0 0 0.001067235767584718 0 0.002906377328814647 0 0 0 0 0 2400105:-1 2400106:-1 2400107:-1 2400108:-1 2400109:-1 2400110:-1 2400111:-1 2400112:-1 2400113:-1 2500097:-1 2500098:-1 2500099:-1 2500100:-1 2500101:-1 2500102:-1 2500103:-1 2500104:-1 2500105:-1 2500106:-1 2500107:-1 2500108:-1 2500109:-1 2500110:-1 2500111:-1 2500112:-1 2500113:-1 2500114:-1 2500115:-1 2500116:-1 2500117:-1 2500118:-1 2500119:-1 2500120:-1 2500121:-1 2500122:-1 2500123:-1 2600095:-1 2600096:1 2600097:1 2600098:1 2600099:1 2600100:-1 2600101:-1 2600102:-1 2600103:-1 2600104:-1 2600105:-1 2600106:-1 2600107:-1 2600108:-1 2600109:-1 2600110:-1 2600111:-1 2600112:-1 2600113:-1 2600114:-1 2600115:-1 2600116:-1 2600117:1 2600118:1 2600119:1 2600120:1 2600121:-1 2600122:-1 2600123:-1 2600124:-1 2600125:-1 2600126:-1 2700088:-1 2700089:-1 2700090:-1 2700091:-1 2700092:-1 2700093:-1 2700094:1 2700095:1 2700096:1 2700097:1 2700098:1 2700099:1 2700100:1 2700101:1 2700102:-1 2700103:-1 2700104:-1 2700105:-1 2700106:-1 2700107:-1 2700108:-1 2700109:-1 2700110:-1 2700111:-1 2700112:-1 2700113:-1 2700114:-1 2700115:1 2700116:1 2700117:1 2700118:1 2700119:1 2700120:1 2700121:1 2700122:1 2700123:-1 2700124:-1 2700125:-1 2700126:-1 2700127:-1 2800088:-1 2800089:-1 2800090:-1 2800091:-1 2800092:-1 2800093:-1 2800094:-1 2800095:1 2800096:1 2800097:1 2800098:1 2800099:1 2800100:1 2800101:1 2800102:-1 2800103:-1 2800104:-1 2800105:-1 2800106:-1 2800107:-1 2800108:-1 2800109:-1 2800110:-1 2800111:-1 2800112:-1 2800113:-1 2800114:-1 2800115:1 2800116:1 2800117:1 2800118:1 2800119:1 2800120:1 2800121:1 2800122:-1 2800123:-1 2800124:-1 2800125:-1 2800126:-1 2800127:-1 2900089:-1 2900090:-1 2900091:-1 2900092:-1 2900093:-1 2900094:-1 2900095:1 2900096:1 2900097:1 2900098:1 2900099:1 2900100:1 2900101:1 2900102:1 2900103:-1 2900104:-1 2900105:-1 2900106:-1 2900107:-1 2900108:-1 2900109:-1 2900110:-1 2900111:-1 2900112:-1 2900113:-1 2900114:1 2900115:1 2900116:1 2900117:1 2900118:1 2900119:1 2900120:1 2900121:1 2900122:-1 2900123:-1 2900124:-1 2900125:-1 2900126:-1 2900127:-1 3000089:-1 3000090:-1 3000091:-1 3000092:-1 3000093:-1 3000094:-1 3000095:-1 3000096:1 3000097:1 3000098:1 3000099:1 3000100:1 3000101:1 3000102:1 3000103:1 3000104:-1 3000105:-1 3000106:-1 3000107:-1 3000108:-1 3000109:-1 3000110:-1 3000111:-1 3000112:-1 3000113:-1 3000114:1 3000115:1 3000116:1 3000117:1 3000118:1 3000119:1 3000120:1 3000121:-1 3000122:-1 3000123:-1 3000124:-1 3000125:-1 3000126:-1 3000127:-1 3100089:-1 3100090:-1 3100091:-1 3100092:-1 3100093:-1 3100094:-1 3100095:-1 3100096:-1 3100097:1 3100098:1 3100099:1 3100100:1 3100101:1 3100102:1 3100103:1 3100104:-1 3100105:-1 3100106:-1 3100107:-1 3100108:-1 3100109:-1 3100110:-1 3100111:-1 3100112:-1 3100113:1 3100114:1 3100115:1 3100116:1 3100117:1 3100118:1 3100119:1 3100120:1 3100121:-1 3100122:-1 3100123:-1 3100124:-1 3100125:-1 3100126:-1 3100127:-1 3200090:-1 3200091:-1 3200092:-1 3200093:-1 3200094:-1 3200095:-1 3200096:-1 3200097:1 3200098:1 3200099:1 3200100:1 3200101:1 3200102:1 3200103:1 3200104:1 3200105:-1 3200106:-1 3200107:-1 3200108:-1 3200109:-1 3200110:-1 3200111:-1 3200112:1 3200113:1 3200114:1 3200115:1 3200116:1 3200117:1 3200118:1 3200119:1 3200120:-1 3200121:-1 3200122:-1 3200123:-1 3200124:-1 3200125:-1 3200126:-1 3200127:-1 3300090:-1 3300091:-1 3300092:-1 3300093:-1 3300094:-1 3300095:-1 3300096:-1 3300097:-1 3300098:1 3300099:1 3300100:1 3300101:1 3300102:1 3300103:1 3300104:1 3300105:-1 3300106:-1 3300107:-1 3300108:-1 3300109:-1 3300110:-1 3300111:-1 3300112:1 3300113:1 3300114:1 3300115:1 3300116:1 3300117:1 3300118:1 3300119:-1 3300120:-1 3300121:-1 3300122:-1 3300123:-1 3300124:-1 3300125:-1 3300126:-1 3300127:-1 3400090:-1 3400091:-1 3400092:-1 3400093:-1 3400094:-1 3400095:-1 3400096:-1 3400097:-1 3400098:1 3400099:1 3400100:1 3400101:1 3400102:1 3400103:1 3400104:1 3400105:1 3400106:-1 3400107:-1 3400108:-1 3400109:-1 3400110:-1 3400111:1 3400112:1 3400113:1 3400114:1 3400115:1 3400116:1 3400117:1 3400118:1 3400119:-1 3400120:-1 3400121:-1 3400122:-1 3400123:-1 3400124:-1 3400125:-1 3400126:-1 3400127:-1 3500090:-1 3500091:-1 3500092:-1 3500093:-1 3500094:-1 3500095:-1 3500096:-1 3500097:-1 3500098:-1 3500099:1 3500100:1 3500101:1 3500102:1 3500103:1 3500104:1 3500105:1 3500106:1 3500107:-1 3500108:-1 3500109:-1 3500110:-1 3500111:1 3500112:1 3500113:1 3500114:1 3500115:1 3500116:1 3500117:1 3500118:-1 3500119:-1 3500120:-1 3500121:-1 3500122:-1 3500123:-1 3500124:-1 3500125:-1 3500126:-1 3500127:-1 3600091:-1 3600092:-1 3600093:-1 3600094:-1 3600095:-1 3600096:-1 3600097:-1 3600098:-1 3600099:-1 3600100:1 3600101:1 3600102:1 3600103:1 3600104:1 3600105:1 3600106:1 3600107:-1 3600108:-1 3600109:-1 3600110:1 3600111:1 3600112:1 3600113:1 3600114:1 3600115:1 3600116:1 3600117:-1 3600118:-1 3600119:-1 3600120:-1 3600121:-1 3600122:-1 3600123:-1 3600124:-1 3600125:-1 3600126:-1 3600127:-1 3700091:-1 3700092:-1 3700093:-1 3700094:-1 3700095:-1 3700096:-1 3700097:-1 3700098:-1 3700099:-1 3700100:1 3700101:1 3700102:1 3700103:1 3700104:1 3700105:1 3700106:1 3700107:1 3700108:-1 3700109:1 3700110:1 3700111:1 3700112:1 3700113:1 3700114:1 3700115:1 3700116:1 3700117:-1 3700118:-1 3700119:-1 3700120:-1 3700121:-1 3700122:-1 3700123:-1 3700124:-1 3700125:-1 3700126:-1 3700127:-1 3800091:-1 3800092:-1 3800093:-1 3800094:-1 3800095:-1 3800096:-1 3800097:-1 3800098:-1 3800099:-1 3800100:-1 3800101:1 3800102:1 3800103:1 3800104:1 3800105:1 3800106:1 3800107:1 3800108:1 3800109:1 3800110:1 3800111:1 3800112:1 3800113:1 3800114:1 3800115:1 3800116:-1 3800117:-1 3800118:-1 3800119:-1 3800120:-1 3800121:-1 3800122:-1 3800123:-1 3800124:-1 3800125:-1 3800126:-1 3800127:-1 3900091:-1 3900092:-1 3900093:-1 3900094:-1 3900095:-1 3900096:-1 3900097:-1 3900098:-1 3900099:-1 3900100:-1 3900101:1 3900102:1 3900103:1 3900104:1 3900105:1 3900106:1 3900107:1 3900108:1 3900109:1 3900110:1 3900111:1 3900112:1 3900113:1 3900114:1 3900115:1 3900116:-1 3900117:-1 3900118:-1 3900119:-1 3900120:-1 3900121:-1 3900122:-1 3900123:-1 3900124:-1 3900125:-1 3900126:-1 3900127:-1 4000092:-1 4000093:-1 4000094:-1 4000095:-1 4000096:-1 4000097:-1 4000098:-1 4000099:-1 4000100:-1 4000101:-1 4000102:1 4000103:1 4000104:1 4000105:1 4000106:1 4000107:1 4000108:1 4000109:1 4000110:1 4000111:1 4000112:1 4000113:1 4000114:1 4000115:-1 4000116:-1 4000117:-1 4000118:-1 4000119:-1 4000120:-1 4000121:-1 4000122:-1 4000123:-1 4000124:-1 4000125:-1 4000126:-1 4000127:-1 4100092:-1 4100093:-1 4100094:-1 4100095:-1 4100096:-1 4100097:-1 4100098:-1 4100099:-1 4100100:-1 4100101:-1 4100102:-1 4100103:1 4100104:1 4100105:1 4100106:1 4100107:1 4100108:1 4100109:1 4100110:1 4100111:1 4100112:1 4100113:1 4100114:-1 4100115:-1 4100116:-1 4100117:-1 4100118:-1 4100119:-1 4100120:-1 4100121:-1 4100122:-1 4100123:-1 4100124:-1 4100125:-1 4100126:-1 4100127:-1 4200092:-1 4200093:-1 4200094:-1 4200095:-1 4200096:-1 4200097:-1 4200098:-1 4200099:-1 4200100:-1 4200101:-1 4200102:-1 4200103:1 4200104:1 4200105:1 4200106:1 4200107:1 4200108:1 4200109:1 4200110:1 4200111:1 4200112:1 4200113:1 4200114:-1 4200115:-1 4200116:-1 4200117:-1 4200118:-1 4200119:-1 4200120:-1 4200121:-1 4200122:-1 4200123:-1 4200124:-1 4200125:-1 4200126:-1 4200127:-1 4300092:-1 4300093:-1 4300094:-1 4300095:-1 4300096:-1 4300097:-1 4300098:-1 4300099:-1 4300100:-1 4300101:-1 4300102:-1 4300103:-1 4300104:1 4300105:1 4300106:1 4300107:1 4300108:1 4300109:1 4300110:1 4300111:1 4300112:1 4300113:-1 4300114:-1 4300115:-1 4300116:-1 4300117:-1 4300118:-1 4300119:-1 4300120:-1 4300121:-1 4300122:-1 4300123:-1 4300124:-1 4300125:-1 4300126:-1 4300127:-1 4400093:-1 4400094:-1 4400095:-1 4400096:-1 4400097:-1 4400098:-1 4400099:-1 4400100:-1 4400101:-1 4400102:-1 4400103:-1 4400104:1 4400105:1 4400106:1 4400107:1 4400108:1 4400109:1 4400110:1 4400111:1 4400112:1 4400113:-1 4400114:-1 4400115:-1 4400116:-1 4400117:-1 4400118:-1 4400119:-1 4400120:-1 4400121:-1 4400122:-1 4400123:-1 4400124:-1 4400125:-1 4400126:-1 4400127:-1 4500093:-1 4500094:-1 4500095:-1 4500096:-1 4500097:-1 4500098:-1 4500099:-1 4500100:-1 4500101:-1 4500102:-1 4500103:-1 4500104:-1 4500105:1 4500106:1 4500107:1 4500108:1 4500109:1 4500110:1 4500111:1 4500112:-1 4500113:-1 4500114:-1 4500115:-1 4500116:-1 4500117:-1 4500118:-1 4500119:-1 4500120:-1 4500121:-1 4500122:-1 4500123:-1 4500124:-1 4500125:-1 4500126:-1 4500127:-1 4600093:-1 4600094:-1 4600095:-1 4600096:-1 4600097:-1 4600098:-1 4600099:-1 4600100:-1 4600101:-1 4600102:-1 4600103:-1 4600104:-1 4600105:1 4600106:1 4600107:1 4600108:1 4600109:1 4600110:1 4600111:1 4600112:-1 4600113:-1 4600114:-1 4600115:-1 4600116:-1 4600117:-1 4600118:-1 4600119:-1 4600120:-1 4600121:-1 4600122:-1 4600123:-1 4600124:-1 4600125:-1 4600126:-1 4600127:-1 4700094:-1 4700095:-1 4700096:-1 4700097:-1 4700098:-1 4700099:-1 4700100:-1 4700101:-1 4700102:-1 4700103:-1 4700104:-1 4700105:1 4700106:1 4700107:1 4700108:1 4700109:1 4700110:1 4700111:1 4700112:-1 4700113:-1 4700114:-1 4700115:-1 4700116:-1 4700117:-1 4700118:-1 4700119:-1 4700120:-1 4700121:-1 4700122:-1 4700123:-1 4700124:-1 4700125:-1 4700126:-1 4700127:-1 4800094:-1 4800095:-1 4800096:-1 4800097:-1 4800098:-1 4800099:-1 4800100:-1 4800101:-1 4800102:-1 4800103:-1 4800104:-1 4800105:1 4800106:1 4800107:1 4800108:1 4800109:1 4800110:1 4800111:1 4800112:-1 4800113:-1 4800114:-1 4800115:-1 4800116:-1 4800117:-1 4800118:-1 4800119:-1 4800120:-1 4800121:-1 4800122:-1 4800123:-1 4800124:-1 4800125:-1 4800126:-1 4800127:-1 4900094:-1 4900095:-1 4900096:-1 4900097:-1 4900098:-1 4900099:-1 4900100:-1 4900101:-1 4900102:-1 4900103:-1 4900104:-1 4900105:1 4900106:1 4900107:1 4900108:1 4900109:1 4900110:1 4900111:1 4900112:-1 4900113:-1 4900114:-1 4900115:-1 4900116:-1 4900117:-1 4900118:-1 4900119:-1 4900120:-1 4900121:-1 4900122:-1 4900123:-1 4900124:-1 4900125:-1 4900126:-1 4900127:-1 5000094:-1 5000095:-1 5000096:-1 5000097:-1 5000098:-1 5000099:-1 5000100:-1 5000101:-1 5000102:-1 5000103:-1 5000104:-1 5000105:1 5000106:1 5000107:1 5000108:1 5000109:1 5000110:1 5000111:1 5000112:-1 5000113:-1 5000114:-1 5000115:-1 5000116:-1 5000117:-1 5000118:-1 5000119:-1 5000120:-1 5000121:-1 5000122:-1 5000123:-1 5000124:-1 5000125:-1 5000126:-1 5000127:-1 5100094:-1 5100095:-1 5100096:-1 5100097:-1 5100098:-1 5100099:-1 5100100:-1 5100101:-1 5100102:-1 5100103:-1 5100104:-1 5100105:1 5100106:1 5100107:1 5100108:1 5100109:1 5100110:1 5100111:1 5100112:-1 5100113:-1 5100114:-1 5100115:-1 5100116:-1 5100117:-1 5100118:-1 5100119:-1 5100120:-1 5100121:-1 5100122:-1 5100123:-1 5100124:-1 5100125:-1 5100126:-1 5100127:-1 5200094:-1 5200095:-1 5200096:-1 5200097:-1 5200098:-1 5200099:-1 5200100:-1 5200101:-1 5200102:-1 5200103:-1 5200104:-1 5200105:1 5200106:1 5200107:1 5200108:1 5200109:1 5200110:1 5200111:1 5200112:-1 5200113:-1 5200114:-1 5200115:-1 5200116:-1 5200117:-1 5200118:-1 5200119:-1 5200120:-1 5200121:-1 5200122:-1 5200123:-1 5200124:-1 5200125:-1 5200126:-1 5200127:-1 5300094:-1 5300095:-1 5300096:-1 5300097:-1 5300098:-1 5300099:-1 5300100:-1 5300101:-1 5300102:-1 5300103:-1 5300104:-1 5300105:1 5300106:1 5300107:1 5300108:1 5300109:1 5300110:1 5300111:1 5300112:-1 5300113:-1 5300114:-1 5300115:-1 5300116:-1 5300117:-1 5300118:-1 5300119:-1 5300120:-1 5300121:-1 5300122:-1 5300123:-1 5300124:-1 5300125:-1 5300126:-1 5300127:-1 5400094:-1 5400095:-1 5400096:-1 5400097:-1 5400098:-1 5400099:-1 5400100:-1 5400101:-1 5400102:-1 5400103:-1 5400104:-1 5400105:1 5400106:1 5400107:1 5400108:1 5400109:1 5400110:1 5400111:1 5400112:-1 5400113:-1 5400114:-1 5400115:-1 5400116:-1 5400117:-1 5400118:-1 5400119:-1 5400120:-1 5400121:-1 5400122:-1 5400123:-1 5400124:-1 5400125:-1 5400126:-1 5400127:-1 5500093:-1 5500094:-1 5500095:-1 5500096:-1 5500097:-1 5500098:-1 5500099:-1 5500100:-1 5500101:-1 5500102:-1 5500103:-1 5500104:-1 5500105:1 5500106:1 5500107:1 5500108:1 5500109:1 5500110:1 5500111:1 5500112:-1 5500113:-1 5500114:-1 5500115:-1 5500116:-1 5500117:-1 5500118:-1 5500119:-1 5500120:-1 5500121:-1 5500122:-1 5500123:-1 5500124:-1 5500125:-1 5500126:-1 5500127:-1 5600093:-1 5600094:-1 5600095:-1 5600096:-1 5600097:-1 5600098:-1 5600099:-1 5600100:-1 5600101:-1 5600102:-1 5600103:-1 5600104:-1 5600105:1 5600106:1 5600107:1 5600108:1 5600109:1 5600110:1 5600111:1 5600112:-1 5600113:-1 5600114:-1 5600115:-1 5600116:-1 5600117:-1 5600118:-1 5600119:-1 5600120:-1 5600121:-1 5600122:-1 5600123:-1 5600124:-1 5600125:-1 5600126:-1 5600127:-1 
